FANN_FLO_2.1
num_layers=4
learning_rate=0.700000
connection_rate=1.000000
network_type=0
learning_momentum=0.000000
training_algorithm=2
train_error_function=1
train_stop_function=1
cascade_output_change_fraction=0.010000
quickprop_decay=-0.000100
quickprop_mu=1.750000
rprop_increase_factor=1.200000
rprop_decrease_factor=0.500000
rprop_delta_min=0.000000
rprop_delta_max=50.000000
rprop_delta_zero=0.100000
cascade_output_stagnation_epochs=12
cascade_candidate_change_fraction=0.010000
cascade_candidate_stagnation_epochs=12
cascade_max_out_epochs=150
cascade_min_out_epochs=50
cascade_max_cand_epochs=150
cascade_min_cand_epochs=50
cascade_num_candidate_groups=2
bit_fail_limit=1.00000001490116120000e-001
cascade_candidate_limit=1.00000000000000000000e+003
cascade_weight_multiplier=4.00000000000000020000e-001
cascade_activation_functions_count=10
cascade_activation_functions=3 5 7 8 10 11 14 15 16 17 
cascade_activation_steepnesses_count=4
cascade_activation_steepnesses=2.50000000000000000000e-001 5.00000000000000000000e-001 7.50000000000000000000e-001 1.00000000000000000000e+000 
layer_sizes=10 31 31 7 
scale_included=0
neurons (num_inputs, activation_function, activation_steepness)=(0, 0, 0.00000000000000000000e+000) (0, 0, 0.00000000000000000000e+000) (0, 0, 0.00000000000000000000e+000) (0, 0, 0.00000000000000000000e+000) (0, 0, 0.00000000000000000000e+000) (0, 0, 0.00000000000000000000e+000) (0, 0, 0.00000000000000000000e+000) (0, 0, 0.00000000000000000000e+000) (0, 0, 0.00000000000000000000e+000) (0, 0, 0.00000000000000000000e+000) (10, 5, 1.00000000000000000000e+000) (10, 5, 1.00000000000000000000e+000) (10, 5, 1.00000000000000000000e+000) (10, 5, 1.00000000000000000000e+000) (10, 5, 1.00000000000000000000e+000) (10, 5, 1.00000000000000000000e+000) (10, 5, 1.00000000000000000000e+000) (10, 5, 1.00000000000000000000e+000) (10, 5, 1.00000000000000000000e+000) (10, 5, 1.00000000000000000000e+000) (10, 5, 1.00000000000000000000e+000) (10, 5, 1.00000000000000000000e+000) (10, 5, 1.00000000000000000000e+000) (10, 5, 1.00000000000000000000e+000) (10, 5, 1.00000000000000000000e+000) (10, 5, 1.00000000000000000000e+000) (10, 5, 1.00000000000000000000e+000) (10, 5, 1.00000000000000000000e+000) (10, 5, 1.00000000000000000000e+000) (10, 5, 1.00000000000000000000e+000) (10, 5, 1.00000000000000000000e+000) (10, 5, 1.00000000000000000000e+000) (10, 5, 1.00000000000000000000e+000) (10, 5, 1.00000000000000000000e+000) (10, 5, 1.00000000000000000000e+000) (10, 5, 1.00000000000000000000e+000) (10, 5, 1.00000000000000000000e+000) (10, 5, 1.00000000000000000000e+000) (10, 5, 1.00000000000000000000e+000) (10, 5, 1.00000000000000000000e+000) (0, 5, 1.00000000000000000000e+000) (31, 5, 1.00000000000000000000e+000) (31, 5, 1.00000000000000000000e+000) (31, 5, 1.00000000000000000000e+000) (31, 5, 1.00000000000000000000e+000) (31, 5, 1.00000000000000000000e+000) (31, 5, 1.00000000000000000000e+000) (31, 5, 1.00000000000000000000e+000) (31, 5, 1.00000000000000000000e+000) (31, 5, 1.00000000000000000000e+000) (31, 5, 1.00000000000000000000e+000) (31, 5, 1.00000000000000000000e+000) (31, 5, 1.00000000000000000000e+000) (31, 5, 1.00000000000000000000e+000) (31, 5, 1.00000000000000000000e+000) (31, 5, 1.00000000000000000000e+000) (31, 5, 1.00000000000000000000e+000) (31, 5, 1.00000000000000000000e+000) (31, 5, 1.00000000000000000000e+000) (31, 5, 1.00000000000000000000e+000) (31, 5, 1.00000000000000000000e+000) (31, 5, 1.00000000000000000000e+000) (31, 5, 1.00000000000000000000e+000) (31, 5, 1.00000000000000000000e+000) (31, 5, 1.00000000000000000000e+000) (31, 5, 1.00000000000000000000e+000) (31, 5, 1.00000000000000000000e+000) (31, 5, 1.00000000000000000000e+000) (31, 5, 1.00000000000000000000e+000) (31, 5, 1.00000000000000000000e+000) (31, 5, 1.00000000000000000000e+000) (0, 5, 1.00000000000000000000e+000) (31, 0, 1.00000000000000000000e+000) (31, 0, 1.00000000000000000000e+000) (31, 0, 1.00000000000000000000e+000) (31, 0, 1.00000000000000000000e+000) (31, 0, 1.00000000000000000000e+000) (31, 0, 1.00000000000000000000e+000) (0, 0, 1.00000000000000000000e+000) 
connections (connected_to_neuron, weight)=(0, 4.10891602417869790000e+000) (1, -1.37843420849519640000e+001) (2, 5.82552985106203350000e-001) (3, 6.71484084344353550000e-002) (4, 2.04211598888816360000e-002) (5, -6.18516377002782740000e-002) (6, -9.68179277088057840000e-001) (7, 2.82443667586804280000e+000) (8, -2.73316134960702830000e-002) (9, 4.35223706656342300000e-001) (0, 1.03731370381951520000e-001) (1, -8.33228019381000020000e-002) (2, -6.98386729761925730000e-001) (3, 3.34718316145443590000e-003) (4, -6.32648319633117850000e-002) (5, -6.72947358200272210000e-002) (6, -1.30414560526882770000e-002) (7, 2.72073188069269060000e-001) (8, 4.26834563222222990000e-002) (9, -7.26504466874603130000e-001) (0, -5.65590112069759730000e-001) (1, 1.00404477942037640000e+000) (2, -3.17231040838016450000e-001) (3, -1.17210259246059740000e-001) (4, 7.43938210172349550000e-003) (5, 1.82826685519138670000e-002) (6, 4.39731067894644430000e-002) (7, -3.61167037830091910000e-001) (8, -2.78655021519104150000e-002) (9, 1.18676351619626730000e+000) (0, 2.81987961872253520000e+000) (1, 8.34476049351553170000e-001) (2, -4.78278342745971530000e-001) (3, 9.15015122606948650000e-003) (4, -4.70353675576121110000e-002) (5, 9.97637590919400570000e-003) (6, -4.96045104930926020000e-001) (7, -1.98357966630487800000e-001) (8, 3.55198781972918260000e-002) (9, -2.15920597356227260000e-001) (0, 3.74400383050152390000e-001) (1, -9.52822628627925550000e-001) (2, -9.09409720967846220000e-001) (3, -4.32425330735520040000e-002) (4, 2.72470955064284500000e-002) (5, -7.25401521073179570000e-002) (6, -7.58495643290358900000e-002) (7, 1.42616455244111980000e-001) (8, 1.70770590317342040000e-001) (9, 7.93239096242778440000e-001) (0, -1.04833018502897720000e+000) (1, -8.13258751918166100000e-001) (2, -3.13027008467257560000e-001) (3, -7.96122534670025420000e-003) (4, -6.06172649833254040000e-002) (5, -3.24152520718584140000e-002) (6, 1.76834317343753180000e-001) (7, 1.95513672436344790000e-001) (8, 1.26989747313436760000e-001) (9, 1.01156987706895920000e+000) (0, 1.28855203907960260000e+000) (1, -1.70496729501140480000e+000) (2, -8.00403486379659300000e-001) (3, 4.52690461495688920000e-002) (4, -3.13403637888032760000e-002) (5, 2.28741265356607880000e-002) (6, -2.91348394488346600000e-001) (7, 4.08997004879292410000e-001) (8, 1.78425033827024100000e-001) (9, 1.16019221381415600000e+000) (0, -8.06535812009141260000e-001) (1, -2.65465062513180360000e-001) (2, 5.93722096464950780000e-001) (3, 4.65154485600152160000e-002) (4, 1.05929149621070450000e-002) (5, 1.63013880816227360000e-002) (6, 2.60261487952861300000e-001) (7, 4.79935409965205730000e-001) (8, -5.90900533276566480000e-002) (9, -2.99482706345146680000e-001) (0, 9.23478972801628360000e-002) (1, -3.55398302935287030000e-004) (2, -1.72557058710567620000e-001) (3, -1.56631341330848160000e-002) (4, -2.04821686329851840000e-002) (5, -5.89927626065512790000e-002) (6, -5.79290525183208880000e-002) (7, -1.02977065379927970000e-001) (8, 1.92594510862367980000e-001) (9, -5.56674327109036190000e-001) (0, -2.97931782910487110000e-001) (1, 3.49827922809966940000e-001) (2, 8.41155617368302690000e-001) (3, 6.01101980199035680000e-002) (4, -1.07597057882359260000e-002) (5, 4.96572093334068930000e-002) (6, -5.40141062902965010000e-002) (7, -3.32890751302582570000e-002) (8, -7.48200091048446810000e-002) (9, -8.71623440761591150000e-001) (0, 2.02741621285420420000e-001) (1, 5.85583680793062330000e-001) (2, -2.30266177146378200000e-001) (3, -3.21008872508928620000e-001) (4, 2.06805770803983050000e-001) (5, 2.45699903780597750000e-001) (6, 1.22145003692668940000e-001) (7, -1.39326706935370360000e-001) (8, 3.37978445265997500000e-002) (9, -2.09986041429710860000e-001) (0, 1.45720106562402890000e-001) (1, -1.47014344374851840000e+000) (2, 1.91798784937338820000e+000) (3, 1.17083292257753810000e-001) (4, 4.13903051861155970000e-002) (5, 2.01707302985664750000e-002) (6, -1.51374954417284760000e-003) (7, 2.47138879439135710000e-001) (8, -2.12907848676606310000e-001) (9, 1.58565554313306210000e+000) (0, -5.10664295044282350000e-001) (1, -4.86959353961515460000e-001) (2, -2.82987660665197260000e-001) (3, -5.81813421506037900000e-002) (4, -1.91797252292848530000e-002) (5, -4.97775072362961900000e-002) (6, 5.18723385195136830000e-001) (7, 7.43594730313584670000e-002) (8, 6.36109073853811990000e-001) (9, 2.39628729700504820000e+000) (0, -9.22498772426914360000e-001) (1, 1.11690127007230310000e+000) (2, 1.44537764193249970000e+000) (3, 1.62293173794759690000e-001) (4, -1.43707811728140430000e-001) (5, -2.16819205067462220000e-002) (6, 2.08350287195674560000e-001) (7, -1.94174602169245510000e-001) (8, -1.30339655228924320000e-001) (9, 1.03385226080453860000e+000) (0, -1.54960937849317530000e+000) (1, -1.30846378137262320000e+001) (2, 5.09079568950942090000e-001) (3, 1.66050872720732780000e-002) (4, -3.21510244185849730000e-002) (5, 1.93475728064492580000e-002) (6, 1.30545647567267110000e-001) (7, 2.55343827560367930000e+000) (8, -5.14991241915979320000e-002) (9, -4.66564261555081240000e-001) (0, -5.26198289682977880000e-001) (1, 2.55830873539171220000e-001) (2, -7.36463352184450360000e-001) (3, -4.70527933549690640000e-002) (4, 1.26858067524408400000e-002) (5, -6.48612208187862580000e-002) (6, 2.13658126437548280000e-001) (7, -4.81449086043239660000e-001) (8, 2.90190873186172770000e-002) (9, 6.78593205952583290000e-002) (0, 4.52546821374388790000e-001) (1, -5.54825804719431690000e-002) (2, 1.10687675107017270000e+000) (3, 7.28757150563556360000e-002) (4, 1.71759761542157750000e-002) (5, 1.53972806809734380000e-002) (6, -3.92599825150244730000e-002) (7, 6.46376517474250570000e-002) (8, -2.38302915591384000000e-001) (9, -8.58073165819680960000e-001) (0, -2.66786154781721940000e+000) (1, -1.60028797686327520000e+001) (2, 2.61235193481093810000e-001) (3, 2.62563078700585560000e-002) (4, 2.95910396337989890000e-002) (5, -1.27667497471302210000e-002) (6, 5.21753324822943790000e-001) (7, 3.24720711223242950000e+000) (8, -2.20999706152500140000e-002) (9, 5.14846300004532020000e-001) (0, 1.87931211694078450000e-002) (1, 2.61166025385381690000e-001) (2, 1.21319824791705820000e+000) (3, 1.74331553760276230000e-001) (4, -2.05811512636524640000e-001) (5, 6.30878974476305200000e-002) (6, 5.26361250301124460000e-002) (7, 2.16601432670021660000e-001) (8, 1.02928224665045070000e-001) (9, -4.49198699567258660000e-001) (0, 9.11952583861971310000e-002) (1, -4.63414932954459880000e-003) (2, -3.68353153301588850000e-001) (3, -2.84167511782832080000e-002) (4, 1.88831221399253440000e-002) (5, 1.89310631050039900000e-002) (6, -2.43934285704452940000e-001) (7, -9.50199969065618630000e-002) (8, -1.80048653849969710000e-001) (9, -2.91609224060312370000e-001) (0, -2.77415663515322930000e-001) (1, -2.39147824841763830000e-001) (2, 5.60587316914743060000e-001) (3, 4.79785774266756750000e-002) (4, 1.58855734359961910000e-002) (5, 1.25687197392523930000e-001) (6, 1.74024465848475890000e-001) (7, -3.79889136909660820000e-002) (8, -2.02280641214644900000e-001) (9, -2.17886691594855490000e-001) (0, -5.48403460158968460000e-001) (1, -5.60698679222663030000e-001) (2, -5.34926910311948280000e-001) (3, -4.17590653617838580000e-002) (4, -4.25370741364916850000e-003) (5, 3.77552427049385530000e-002) (6, 1.51445090201661580000e-001) (7, 3.67948593098039010000e-001) (8, 1.87650660316294600000e-001) (9, -4.22246632569661880000e-001) (0, 4.11736804286860990000e-001) (1, -1.08913315203097260000e+000) (2, -5.54324428014628220000e-001) (3, -2.24532707099516540000e-002) (4, 3.05060147970404770000e-002) (5, 1.86252318173267400000e-001) (6, 3.42214252543072000000e-002) (7, 5.42469249534270000000e-001) (8, 2.72725070229414110000e-001) (9, 1.42340960116532140000e+000) (0, 8.45432527089399750000e-002) (1, 3.09700342537965900000e+000) (2, -9.81508052092392450000e-001) (3, -5.82922875543025620000e-003) (4, -1.17913362452767760000e-002) (5, -4.71880577593088160000e-003) (6, 2.64148387207950620000e-002) (7, -5.83654210271650100000e-001) (8, 1.38966188775955600000e-001) (9, 8.15406327351648640000e-001) (0, 1.46044143196653630000e-001) (1, -2.84853131656975730000e-001) (2, -1.58035086147418610000e+000) (3, -1.78861276791156060000e-002) (4, -3.11183773417738340000e-002) (5, -4.42018848817179040000e-002) (6, 2.44571664793718430000e-002) (7, 1.05385658173574290000e-001) (8, 4.39818689681436450000e-001) (9, 2.50729112909334310000e-001) (0, -1.65806976436862800000e+000) (1, -3.53508649863472170000e+000) (2, 6.51222796465766750000e-001) (3, 1.01363265709683170000e-001) (4, 9.42491886952274980000e-003) (5, 4.99597989648553340000e-002) (6, 5.41549679404874640000e-001) (7, 5.85267084188799690000e-001) (8, -6.20629615642426390000e-002) (9, -7.85899376499240990000e-002) (0, 3.29495966924810760000e-001) (1, 4.07278431429785700000e-001) (2, 1.37985137187063640000e+000) (3, 6.57953984434828660000e-002) (4, -2.01447525619602410000e-002) (5, 2.04384423256351090000e-001) (6, -5.93589778184126780000e-002) (7, 6.97494340817956940000e-002) (8, -4.83347222754550580000e-002) (9, -1.43671482515497270000e-001) (0, -9.76119588972809370000e-001) (1, 1.87333511972811120000e-001) (2, -5.30964682436910750000e-001) (3, 7.91875836737801350000e-002) (4, 1.01809658179171360000e-001) (5, -5.55144738920501990000e-002) (6, 2.04203702714502060000e-001) (7, 1.23228111143131200000e-001) (8, 1.71360560201001790000e-001) (9, 6.28487517708416710000e-001) (0, 1.05141935620340150000e+000) (1, 7.73424372676055350000e-001) (2, 1.67900019504948320000e-001) (3, 1.99755231181867850000e-002) (4, -2.04936166473757080000e-002) (5, -7.90020018067945360000e-002) (6, -1.10615130723219530000e-001) (7, -2.69821183270861180000e-002) (8, -4.25515581040418200000e-002) (9, -1.36189028952639760000e-002) (0, 2.16436640807322660000e+000) (1, -6.18044476962451130000e-001) (2, 6.94097413947861950000e-001) (3, 3.07480212348224290000e-002) (4, 7.01575895763919130000e-002) (5, 3.08188210730373360000e-002) (6, -3.80402283602199630000e-001) (7, -4.95710911868988480000e-002) (8, -8.44259768680579310000e-002) (9, -3.84218980872645830000e-001) (10, 3.47252803864059320000e-002) (11, 5.79430868860704830000e-001) (12, -3.08964976634667990000e-001) (13, 5.13582234371851910000e-001) (14, 4.96763989130020840000e-001) (15, 6.64186058752415760000e-001) (16, 5.17619989200915340000e-001) (17, 6.24541818038462320000e-001) (18, 6.92267587732399270000e-001) (19, 1.33281275566289170000e+000) (20, -2.19954666175733780000e-001) (21, 1.23020580452565790000e+000) (22, -3.51450392340209750000e-001) (23, -6.63481695073275370000e-001) (24, 9.43000480695771050000e-002) (25, 6.92564672772259300000e-001) (26, 1.04356750989240440000e+000) (27, 4.46041262163291220000e-002) (28, 1.55113645523827200000e-001) (29, 6.36323773948073850000e-002) (30, 2.03813787299958940000e+000) (31, 1.20102196628861390000e+000) (32, 2.93897651351687720000e-001) (33, -1.90959558329546780000e-001) (34, 4.22879883742969860000e-001) (35, -3.85204962705938130000e-001) (36, -3.26468561964032460000e-001) (37, -1.29803468320568930000e+000) (38, 3.22040816952893830000e-001) (39, -3.26409027184572210000e-001) (40, 7.57047707392432880000e-001) (10, -6.53276480892369340000e-001) (11, -1.92598794325534090000e-001) (12, -5.54037829542782910000e-001) (13, 4.63615014081615260000e-001) (14, 1.47109818999448590000e+000) (15, -1.57015143006335650000e-001) (16, 1.48137149461688680000e+000) (17, -4.31431400359865850000e-002) (18, 1.46418627749827750000e+000) (19, 1.30740427358340970000e+000) (20, -5.55586458583554820000e-001) (21, 1.52750049222409470000e+000) (22, 9.71433562867074500000e-002) (23, 1.28704003189573000000e+000) (24, 8.55203765251834840000e-001) (25, 4.95964583900769810000e-001) (26, 3.76986473196696540000e-001) (27, 1.67974541447890760000e-001) (28, -7.73978706855590000000e-001) (29, 1.23793371898928920000e+000) (30, 2.11641725126888810000e+000) (31, 1.51573356616230100000e+000) (32, 1.21909047442071030000e+000) (33, 5.11630177421713240000e-001) (34, 1.21611350153211050000e+000) (35, -9.49628475714864970000e-001) (36, -4.80755779988335940000e-002) (37, -4.09372021794796150000e-001) (38, 5.63348264404508470000e-001) (39, -1.39725465803538200000e+000) (40, 2.39467530982984710000e-001) (10, -1.73311833167544140000e-001) (11, 8.91511247281659540000e-001) (12, 1.59295374000706040000e+000) (13, 9.49006472220407240000e-002) (14, 3.81106528882452150000e-002) (15, -8.89546285511163100000e-001) (16, -5.77875312840196440000e-001) (17, 1.65918807537874610000e-001) (18, 1.54882947303620220000e+000) (19, -8.36467705711061550000e-001) (20, 3.95709212032579080000e-001) (21, 3.49436126468779750000e-001) (22, 1.16720244166202170000e+000) (23, 1.34391671035494880000e+000) (24, -1.50108728229633140000e-001) (25, -9.12529072658239540000e-002) (26, -4.95800081067347190000e-001) (27, -1.39938541262704970000e-001) (28, 7.63001961941968120000e-001) (29, 4.78266518734878690000e-001) (30, -7.53712291508219500000e-002) (31, 6.57141509161979780000e-001) (32, -2.00884803440408380000e-001) (33, -1.76088672252873750000e+000) (34, -1.44837286807941320000e+000) (35, -2.01926736777034740000e-001) (36, -4.48103516039763170000e-001) (37, 1.84904864247695560000e-001) (38, 4.83249626527799680000e-001) (39, 1.12634461862571980000e+000) (40, 3.70986936238559900000e-002) (10, 2.40008000111546830000e-001) (11, -2.82500850905658190000e-001) (12, 1.58973375078245080000e-001) (13, 1.79102226658148860000e-002) (14, 6.61759298760852150000e-001) (15, 5.41068150891353740000e-001) (16, 1.28260035639417240000e-001) (17, 2.92180527323425980000e-001) (18, -1.76119283687067500000e-001) (19, 6.59737327410603730000e-002) (20, 1.27268413572402370000e-001) (21, 7.24649699950714270000e-001) (22, -3.49657293375707920000e-002) (23, -6.45784573949334670000e-002) (24, 3.21425013422919960000e-001) (25, 3.78681193392173210000e-001) (26, 2.49229498422162630000e-001) (27, -2.58738145593050860000e-001) (28, -5.53088777890035980000e-002) (29, -2.38317402340342540000e-001) (30, 1.83030269716108530000e-001) (31, 1.89103148662877170000e-001) (32, -6.11590229429796130000e-001) (33, 2.05066463286732780000e-001) (34, 4.86118360417198190000e-001) (35, 3.27841947631209940000e-001) (36, 9.01903375759849690000e-001) (37, -3.86178974396043980000e-001) (38, 1.53858710648312650000e+000) (39, 3.43400675042782990000e-001) (40, -1.09806083496210270000e-001) (10, 6.14734509103602720000e-001) (11, 1.63451366878180740000e+000) (12, 1.41952832373960370000e+000) (13, 3.74136816454398720000e-001) (14, 1.31042971957108810000e+000) (15, 2.50667452399741860000e-001) (16, 6.72897278867454870000e-001) (17, 1.77617078638876840000e+000) (18, 1.36764102217921720000e+000) (19, 1.11802333719272420000e+000) (20, 3.99687096754548940000e-001) (21, -4.29729693804410890000e-001) (22, -1.71694254474327820000e-001) (23, 6.89312584001286480000e-001) (24, 3.44856021966981010000e-001) (25, 3.02658777396154560000e-002) (26, 4.49613792758537080000e-001) (27, -1.28420106793403100000e+000) (28, 9.81731789432816050000e-002) (29, 4.03684023078132060000e-001) (30, 4.98032895552164900000e-001) (31, 2.69052845831723180000e-001) (32, -1.77179829606451900000e-001) (33, 3.97688903211438570000e-001) (34, -4.09126266036352330000e-001) (35, 6.16588542797096020000e-002) (36, -2.16989288833229680000e-001) (37, 2.02364991626264120000e-001) (38, 5.47124847688421930000e-003) (39, -4.69506424538358610000e-001) (40, 1.77947322824193790000e+000) (10, -1.67182456923964990000e-001) (11, 1.68184964518918760000e+000) (12, 3.11318828624915060000e-001) (13, -6.01987663307256350000e-002) (14, 1.00277177993003310000e+000) (15, 1.18968049113500450000e+000) (16, 2.65802796394076670000e-001) (17, 1.42242262907725370000e+000) (18, 1.61783415841524820000e+000) (19, 2.09580963956385420000e-001) (20, 4.11044819175364170000e-001) (21, 9.52499955037920180000e-001) (22, -2.45388443526047610000e-001) (23, 1.62422843234566210000e-001) (24, 2.25839578226916690000e+000) (25, 6.09644284395846730000e-001) (26, 1.07628124603621630000e+000) (27, -5.43468155886954190000e-001) (28, -1.49158186920453680000e-001) (29, 1.16177284998525550000e+000) (30, 9.46677802590719870000e-001) (31, 3.31231452807985440000e-001) (32, 7.74185072686675160000e-002) (33, -1.36195573701956120000e-001) (34, 6.49879751155443270000e-001) (35, -9.00246585036844070000e-002) (36, 6.10865041215017060000e-001) (37, 8.48712716823916470000e-001) (38, 8.73873858561523550000e-001) (39, -7.29757219397854760000e-001) (40, 1.67459051028217610000e+000) (10, 1.17482080528385870000e+000) (11, 2.48771334367012350000e-001) (12, 1.33380142532438640000e+000) (13, 2.86663282534925180000e-001) (14, 1.08292546463829240000e+000) (15, -6.53299569583878910000e-001) (16, 4.79880799760993070000e-001) (17, 6.06479824226752170000e-001) (18, 1.20092198268511320000e+000) (19, 8.23024653642329460000e-001) (20, 5.15840329766558140000e-001) (21, 1.63320307560780730000e-001) (22, -7.96654005074700630000e-001) (23, 1.30484401782660140000e+000) (24, 3.18412582870688080000e-001) (25, 6.09253467828422160000e-001) (26, 1.18616840082451170000e+000) (27, -1.35903679540462270000e+000) (28, 7.02526621777809330000e-001) (29, 7.74075722798180710000e-001) (30, 2.08521832408031740000e-001) (31, -3.01826443288007170000e-001) (32, 9.11871877122872740000e-002) (33, 1.07419333660601700000e+000) (34, 1.41297439707357590000e-001) (35, -2.89118858402563740000e-001) (36, -4.95785982225997070000e-001) (37, 2.51625547276467300000e-001) (38, 2.38348516065852080000e-001) (39, 2.54026107975259150000e-001) (40, -1.29487082333443050000e-001) (10, -1.13781922843523530000e+000) (11, -4.57613278971629680000e-001) (12, 1.20604129098993850000e+000) (13, 3.78143275303548410000e-001) (14, 1.59957784945179150000e-001) (15, -3.82474361456860090000e-001) (16, -3.71587732899737340000e-001) (17, 7.23406592673579100000e-001) (18, 7.48872235465767310000e-001) (19, 1.59217537198068240000e+000) (20, -2.52233514988651430000e-001) (21, 1.24218337340237510000e+000) (22, 1.45705422706487230000e+000) (23, -5.71507529703787820000e-001) (24, -1.27043228799405550000e+000) (25, 9.36671253443404290000e-001) (26, 5.84193495469140340000e-001) (27, -4.29954743779404620000e-002) (28, 4.40051006432116980000e-001) (29, 9.80877707528449380000e-001) (30, -3.59869675564290230000e-001) (31, 4.85503218605190300000e-001) (32, -4.85466419655727680000e-001) (33, 6.57416228345525930000e-001) (34, 2.83653305663546520000e-001) (35, -1.34645948402007760000e+000) (36, 1.82189679310965020000e-001) (37, -2.00917315687667270000e-001) (38, -4.21958516076402220000e-001) (39, 1.42202921765656170000e+000) (40, 8.99484197476939750000e-001) (10, -1.94670684926026710000e-001) (11, 3.20465536096120610000e-001) (12, 5.88856477055079820000e-001) (13, -8.16486330360595700000e-002) (14, 5.05668597651147910000e-001) (15, 1.12535566635736360000e+000) (16, 5.57313585857117860000e-002) (17, -1.45048896236680410000e-001) (18, 1.24625777323951840000e+000) (19, 4.34313247757924630000e-001) (20, 3.23735023142979190000e-001) (21, 5.78012679856946270000e-001) (22, 9.79812621756500080000e-001) (23, -4.38672512434467980000e-001) (24, -2.52371458314094080000e-001) (25, 1.03684668819383790000e+000) (26, 5.24878207447584400000e-001) (27, 8.66338325629250340000e-002) (28, 2.14461926881820390000e-001) (29, 5.37441091613066630000e-001) (30, 7.43213383741221090000e-002) (31, 8.85294611926072950000e-001) (32, -2.74057062278642570000e-001) (33, 2.67244773015009820000e-001) (34, 1.36876433152145950000e+000) (35, 4.17216177351219570000e-001) (36, 5.74732790832618970000e-001) (37, 7.80124537636418650000e-001) (38, 1.11256709999632750000e+000) (39, 1.87639466168995660000e-001) (40, 6.92415148018132200000e-001) (10, 1.63358247280553430000e-001) (11, -7.08327204475726200000e-002) (12, -1.10873154852947170000e-001) (13, -3.66558845047637800000e-001) (14, 1.55687984825323440000e+000) (15, -9.71554166121538440000e-001) (16, -1.56902180334170500000e-001) (17, -8.14479031408475000000e-001) (18, 1.54020636860480730000e+000) (19, 1.28146654864652600000e+000) (20, 1.29841409544638740000e-002) (21, 2.20408819512195150000e-001) (22, -5.43523333412140940000e-002) (23, 1.50498171601015750000e+000) (24, 2.92406234705604950000e-001) (25, -1.65050211382714330000e-001) (26, 1.18528344159496420000e-001) (27, -1.19923169699895170000e-001) (28, 1.93687278774155120000e-001) (29, 1.26603893822745260000e+000) (30, 9.30041972946057280000e-001) (31, 9.59305158123691440000e-001) (32, -1.33073192941343950000e-001) (33, 1.03006754552707850000e+000) (34, 1.00934802193901740000e+000) (35, -3.45071262175956240000e-001) (36, 8.20302636075228710000e-002) (37, 1.24074430951600780000e+000) (38, 8.74502852058450240000e-001) (39, 3.73941845824073250000e-001) (40, -2.15631169542333110000e-001) (10, 4.51740550829018760000e-001) (11, 4.16362400157792970000e-001) (12, 7.76342377986686480000e-001) (13, 1.82381297191487670000e-002) (14, 9.02722838370907500000e-001) (15, 1.81158598144653570000e-001) (16, -1.23623378381561870000e-001) (17, -9.37540732370484850000e-001) (18, 1.53037550303082880000e+000) (19, 1.06857237747585090000e+000) (20, 7.58218066035201590000e-001) (21, 1.41611051576381630000e+000) (22, -5.85716319926108120000e-002) (23, 1.33739199738088230000e+000) (24, 9.82881900215162750000e-001) (25, -5.53912395214839260000e-001) (26, 1.08019447287814760000e+000) (27, -1.87985316206907670000e-001) (28, 3.38797629288337340000e-001) (29, 4.22770015757334530000e-001) (30, -6.47669765499334640000e-001) (31, -2.00042816543292320000e-002) (32, 1.75133641522940450000e-001) (33, 2.62872313019739180000e-001) (34, -3.58891954563876070000e-001) (35, -2.24368300303296240000e-001) (36, -7.28682625500608920000e-001) (37, -3.38650158960386250000e-001) (38, 1.71722297134496720000e+000) (39, -7.31748846799893050000e-001) (40, -2.75678648400347970000e-004) (10, 2.36412726230764450000e-001) (11, 1.57608339967531120000e-001) (12, 2.13724190938040790000e-001) (13, -7.55026056818545620000e-001) (14, 4.47471508858231950000e-001) (15, 6.39891763633071880000e-001) (16, 4.96684388581135010000e-001) (17, -1.52366461596730840000e+000) (18, 7.37022127702791630000e-001) (19, 9.42371256253542340000e-001) (20, 4.81717302916434440000e-001) (21, -3.69429475872568470000e-001) (22, 5.23291418030293330000e-001) (23, 1.59254806763900300000e-001) (24, 3.06327412060897250000e-001) (25, 4.53679527966051880000e-001) (26, -2.77519958865093450000e-001) (27, -5.36119192945189730000e-001) (28, 7.19281646556566790000e-001) (29, 8.63431968239501410000e-001) (30, 6.26359529793440450000e-001) (31, 1.63166987846760310000e+000) (32, 7.89210602174761580000e-001) (33, 1.61963939595832370000e+000) (34, 2.17985580455668520000e-001) (35, 1.74913206786002110000e-001) (36, 3.15576728377450160000e-001) (37, 2.43031622645177160000e-001) (38, 2.21210747099427590000e-001) (39, 5.10928429000217180000e-001) (40, 4.92307656100226700000e-001) (10, -2.26011507600062750000e-001) (11, 9.65337767117744770000e-001) (12, -1.92485830784147630000e-001) (13, -7.57515766072535010000e-001) (14, 6.78064913107150780000e-001) (15, -8.63676689782099770000e-001) (16, -8.51443588018119040000e-001) (17, -3.85115874792798960000e-001) (18, 6.46598277450935230000e-001) (19, 1.53184302341420420000e+000) (20, -1.06395512817595540000e-001) (21, 1.51142630602799870000e+000) (22, -4.97924199755508110000e-001) (23, 8.27025741635532220000e-001) (24, -4.06646230339808960000e-001) (25, 5.95313275270428430000e-001) (26, -5.24404266178492010000e-001) (27, 2.55358171212060780000e-001) (28, -5.49352124726464120000e-002) (29, 7.70912219024727730000e-001) (30, 1.19040674693399540000e+000) (31, 1.32673017602572130000e+000) (32, 9.43781624944977080000e-001) (33, 9.02401420738556560000e-001) (34, -6.80123413533699760000e-001) (35, 8.58942054056555990000e-001) (36, -2.83506128880213240000e-002) (37, -2.00983820337958970000e-001) (38, 1.16521230007367560000e+000) (39, 3.42306403190135000000e-001) (40, -4.81865156256116980000e-001) (10, -3.58474735559084490000e-001) (11, -4.27968292191131310000e-001) (12, -5.97187978359453360000e-001) (13, 1.19790469358686450000e+000) (14, -5.77187614364936040000e-001) (15, -4.49990600455089540000e-001) (16, -2.02767557850817460000e-001) (17, 7.50467616079262270000e-001) (18, 1.55652830479371600000e+000) (19, -3.48270701649700090000e-001) (20, 5.46883522584951210000e-001) (21, 8.17182101640278490000e-001) (22, 1.40759971089946360000e+000) (23, 1.82414283178140660000e+000) (24, 1.71749195405544790000e+000) (25, 2.09048580299987690000e-002) (26, 1.67502625264554640000e+000) (27, 8.14098163868987810000e-001) (28, -1.47159623134494020000e-001) (29, 9.51763087940486250000e-001) (30, -3.67613065931979180000e-001) (31, 1.63569669843684420000e+000) (32, 4.09531003580924650000e-001) (33, -3.10972808727345900000e-001) (34, -2.25406180369110230000e-001) (35, 7.12518200437904370000e-001) (36, -6.51579428265747440000e-001) (37, 1.24750469347635870000e+000) (38, -1.84123798813747690000e-001) (39, -2.87144795823830230000e-001) (40, 1.49475756597442170000e+000) (10, -8.12026403623638870000e-001) (11, -3.18538574147122330000e-001) (12, -1.05979834659707480000e-001) (13, -6.03922730433881450000e-001) (14, -5.83526993907398040000e-001) (15, 5.59608732310698630000e-001) (16, -1.06988356668529420000e-001) (17, -4.01135687053488230000e-001) (18, 1.08972708138289900000e+000) (19, 3.46701763149033000000e-001) (20, -7.96442517466601220000e-001) (21, 8.80281850335530080000e-001) (22, 1.13191870403762440000e+000) (23, 8.42545158343207760000e-001) (24, 9.11397940677185050000e-001) (25, 6.93095489443695030000e-001) (26, 6.09722986406666450000e-001) (27, 9.20032701990009530000e-002) (28, 9.39981557257168370000e-001) (29, 1.07263498573956010000e+000) (30, 1.65578974914160250000e+000) (31, 4.47265432876698290000e-001) (32, -6.50316943176259100000e-001) (33, -5.48225071941346840000e-001) (34, -1.75305427824657790000e+000) (35, 6.49024722918092100000e-001) (36, -3.12739936713652240000e-001) (37, 4.01116146287261780000e-001) (38, -1.61219259518211140000e-001) (39, -4.37391488530707470000e-001) (40, 8.40743722912619900000e-001) (10, -3.47573153110212070000e-003) (11, -3.73564287883862630000e-002) (12, 1.29836501181232660000e-001) (13, 7.43422514112145220000e-001) (14, 4.02132791607225480000e-001) (15, 1.99695834468974290000e-001) (16, -5.16490037377458580000e-001) (17, -2.15536599732353010000e-001) (18, -3.12889738091311430000e-001) (19, 1.20500748649578960000e+000) (20, 2.64724552734852850000e-001) (21, 1.36745665090247750000e+000) (22, -7.19344802486812430000e-001) (23, -5.21330787503152650000e-001) (24, -1.79845467395851940000e-001) (25, -1.19872354170663870000e-001) (26, 2.18806744193441320000e-001) (27, 8.27011101006324470000e-001) (28, 1.51337763285512600000e-001) (29, 9.43240884834965600000e-001) (30, -6.37723247997491580000e-001) (31, -5.84051041612032360000e-001) (32, 6.54259616944528830000e-001) (33, 4.75115269264023030000e-001) (34, -1.74771596930311690000e-001) (35, -4.04952284855759960000e-001) (36, 2.67676369501467840000e-001) (37, 2.18026054171276680000e-001) (38, 3.11479893621258220000e-001) (39, 1.63806192285143790000e-001) (40, -2.85118547554992830000e-001) (10, 1.65733039382016170000e-001) (11, 8.39342089045728820000e-001) (12, -2.40426493874525000000e-001) (13, 7.56109095228800540000e-001) (14, 1.22113866034602010000e+000) (15, 3.18871103588590110000e-001) (16, 6.26854611255406650000e-001) (17, 9.30848042161659730000e-001) (18, 5.07060015664011040000e-001) (19, 4.43267844557195150000e-001) (20, 5.32645886971543470000e-001) (21, 3.03802329248364310000e-001) (22, 1.45588348844351650000e-001) (23, 6.87017017501606490000e-001) (24, 6.83181453527849650000e-001) (25, -9.26303133361429390000e-002) (26, 1.06074315398236130000e+000) (27, 2.90622416300340860000e-001) (28, 4.25586500124862820000e-001) (29, 3.73926910681156690000e-001) (30, 7.24063445952031430000e-001) (31, 1.01280695726794260000e+000) (32, 7.85255002314899200000e-001) (33, 1.03877218469163890000e+000) (34, 3.06720657470950950000e-001) (35, 1.83381609447392620000e-001) (36, -7.03838861757031920000e-001) (37, 1.85470540360579810000e-001) (38, 4.69682021872671380000e-001) (39, 3.52427664612227410000e-001) (40, -1.62041966320078280000e-001) (10, -6.65678296037860300000e-002) (11, 1.64660074637225270000e+000) (12, -3.73109792623894210000e-001) (13, -8.97657628740488270000e-001) (14, 1.80298724208160220000e+000) (15, -7.08855141747142680000e-002) (16, -9.93260146293295510000e-002) (17, 7.33830683014465720000e-002) (18, 3.17353449218174820000e-001) (19, 1.15795527191307570000e+000) (20, -1.91971152925697660000e-001) (21, -5.02835595852324510000e-002) (22, -2.24481156692284000000e-002) (23, -7.36594808892135910000e-002) (24, -6.44286900075045350000e-002) (25, 5.24613114259939060000e-001) (26, 6.60135806638263290000e-002) (27, 2.58259930943664780000e-001) (28, -2.03641929846280200000e-003) (29, 7.02787975572123770000e-002) (30, -4.30016050464420220000e-002) (31, -1.37601723312274520000e-001) (32, -1.44754265362095510000e-001) (33, 1.34161885900307020000e+000) (34, 7.41780362398614670000e-001) (35, 1.97085914484232990000e-001) (36, 1.11212120396183990000e-001) (37, 8.33405521046189700000e-001) (38, -5.58878681074942540000e-001) (39, 1.73018922422430330000e+000) (40, -4.54400294104674170000e-002) (10, 2.16889780494757570000e-001) (11, -5.13295276758154670000e-001) (12, 1.36673181779089140000e+000) (13, 4.03290281588967570000e-001) (14, -6.65264606711468140000e-002) (15, 1.37445002252661650000e+000) (16, -6.72403601665619300000e-001) (17, -2.83159070911008060000e-001) (18, -5.39757233379529190000e-002) (19, 1.20477745158980690000e+000) (20, 1.41250644260381200000e-001) (21, 9.80084344912398870000e-002) (22, -8.07137904786747740000e-002) (23, -5.59269804488847220000e-001) (24, 7.17428728554396990000e-001) (25, 8.54672927194976560000e-001) (26, 3.59481727351074360000e-001) (27, 4.86351867367079690000e-001) (28, 3.65536151328865690000e-001) (29, -5.46154605616818650000e-002) (30, -4.65992273903642550000e-002) (31, -7.00326001395719210000e-001) (32, 4.47013432988448480000e-001) (33, 5.47495536841693830000e-001) (34, 9.05568483991883390000e-001) (35, -9.29876345352635640000e-001) (36, -7.83702625367175830000e-002) (37, -3.08472475813234840000e-001) (38, 3.14984379256282750000e-001) (39, 1.37987511691322930000e+000) (40, -8.04998528011049650000e-001) (10, -2.22656439418003980000e-001) (11, -3.61556591430929330000e-001) (12, -3.87821884486991950000e-001) (13, -6.50094237810922240000e-001) (14, 9.10075779616421190000e-002) (15, -3.98079425108754270000e-001) (16, -1.93741467013471060000e-001) (17, 6.06457707121597010000e-002) (18, 6.28359808317646260000e-001) (19, 9.45210893330366430000e-002) (20, 4.60626865224578050000e-002) (21, 3.20657122867842480000e-001) (22, 1.16635454689292170000e+000) (23, 7.59414024490949410000e-001) (24, 3.09378087347036920000e-001) (25, 6.20165266033621540000e-002) (26, 1.33464868345646640000e-001) (27, 5.79125635730064690000e-002) (28, -1.69385395555347230000e-001) (29, 4.58599677355070840000e-001) (30, -4.62480514887296970000e-001) (31, 5.79569038537461220000e-001) (32, -5.01775559320383760000e-001) (33, -1.17120547503827520000e+000) (34, -3.47296499907109040000e-001) (35, -2.79084919493437940000e-001) (36, 9.20073797015414700000e-001) (37, -5.95652873038651430000e-003) (38, 6.59892299818951590000e-001) (39, -3.20413796781499010000e-001) (40, 6.40550842455538170000e-001) (10, -1.14479096565492100000e-001) (11, -7.22375660780327330000e-001) (12, 9.29208056203592590000e-001) (13, -4.63900710950577170000e-001) (14, 1.34627231146964310000e+000) (15, -5.00048372329442660000e-001) (16, -4.37830769985666720000e-001) (17, -5.27741921011145700000e-001) (18, 3.58124774672483740000e-002) (19, -6.59307676518404160000e-001) (20, -5.74535993657497080000e-001) (21, 7.15083501912441410000e-001) (22, 1.83537582356080110000e+000) (23, -5.24459103190213830000e-001) (24, 1.46843498366129000000e+000) (25, -5.31962841708638130000e-002) (26, 3.51337496910216320000e-001) (27, 7.94318021985007560000e-001) (28, 4.31734055794799340000e-001) (29, -2.76585885118144640000e-001) (30, 5.14702974715464330000e-001) (31, -4.47275119115438450000e-002) (32, 2.04411483754758460000e-001) (33, -4.42327776577994990000e-001) (34, -9.71441735328631760000e-001) (35, 4.03442662473540330000e-001) (36, 4.20082693541141350000e-002) (37, 5.52340834691039560000e-001) (38, 6.35049242079604340000e-001) (39, -5.70191451556581460000e-001) (40, -5.40988899375312580000e-001) (10, 1.18734854035056310000e-001) (11, 9.32119741522479890000e-001) (12, 5.56233648020717020000e-002) (13, 1.15985251630355560000e-001) (14, 1.03278851757734100000e+000) (15, 1.38427136857506250000e+000) (16, 3.78546212251712370000e-001) (17, 2.32052717267811570000e-001) (18, 4.30570455541345600000e-001) (19, 9.89038765055814010000e-001) (20, 5.49210980783938040000e-001) (21, 4.54212895894827110000e-001) (22, -1.77397456469323010000e-001) (23, 8.38699956818137030000e-001) (24, 2.43658280003859330000e-001) (25, 8.04672285388738920000e-001) (26, 3.17900295564139180000e-001) (27, -4.16524044990033770000e-002) (28, 4.52082350237851090000e-001) (29, 9.96857907616680920000e-001) (30, 2.71607790182308850000e-001) (31, 3.53347377275104790000e-001) (32, -1.33934358915307450000e-002) (33, 1.31073054091207620000e+000) (34, 4.49864945565381510000e-002) (35, 3.15672281781126500000e-001) (36, -2.73626173573265910000e-001) (37, 3.36101840011485580000e-001) (38, 1.05499225645843890000e-001) (39, 2.02037916491536350000e-001) (40, -1.04134546611632850000e-001) (10, 3.14985964094280650000e-001) (11, -7.18844277102988900000e-002) (12, 6.12057744263101560000e-001) (13, 3.80946681304903830000e-001) (14, 1.20619980127905120000e-001) (15, -6.66473713205248840000e-001) (16, 1.18041286102010660000e+000) (17, 1.23735004785069200000e+000) (18, -2.81182678659438020000e-001) (19, 3.00361376831106110000e-002) (20, 4.61281737467768960000e-001) (21, -1.94991411392035210000e-001) (22, 1.16903609985288570000e+000) (23, -1.89298857075088670000e-001) (24, 5.78287489335183590000e-001) (25, 1.76366019246208140000e+000) (26, 8.54530331878197380000e-001) (27, -5.68239549950075310000e-001) (28, 6.01879958356032250000e-001) (29, 9.07428347190912590000e-001) (30, 1.15520294013705320000e+000) (31, -8.13855481071358850000e-002) (32, -8.23035372648956760000e-001) (33, -5.36481288802678650000e-001) (34, 1.42226743699702870000e+000) (35, -7.66961591916547750000e-002) (36, -2.05527962046711250000e-001) (37, -1.63759046970589270000e-001) (38, 9.70701634898520020000e-001) (39, 9.57708871384817250000e-002) (40, 8.57382660020730050000e-001) (10, 2.07638222742095340000e+000) (11, 1.15796305173824020000e+000) (12, 2.73929212054563440000e-001) (13, 5.38670108441157770000e+000) (14, -5.57985314486641020000e-001) (15, 5.00507688577260020000e-001) (16, 2.17205409640863800000e-002) (17, 1.91001152651391450000e-001) (18, 1.11656059386092440000e+000) (19, 4.23714343020236420000e-001) (20, 2.66180443965837340000e-001) (21, -4.55454259545877700000e-001) (22, -7.19480155785912760000e-003) (23, 6.55416531281218380000e-002) (24, -1.73217710299623720000e+000) (25, 6.75312841734352460000e-001) (26, 1.71224516701688700000e+000) (27, 5.71332857797343240000e+000) (28, -1.81778233682610480000e-001) (29, 4.69668474613290750000e-001) (30, -4.52306027818149660000e-001) (31, 2.26157407440120530000e-001) (32, 2.62770163499383290000e-002) (33, -2.78034825284402530000e+000) (34, 5.30879959599483530000e-001) (35, -8.30651542986630460000e-001) (36, 3.81365295929841920000e-001) (37, 2.86435753173543250000e-001) (38, -1.11553767031984560000e+000) (39, -4.64418361411793320000e-001) (40, 2.12891488922453240000e-001) (10, 4.43789762719395130000e-001) (11, 4.56031471441010530000e-001) (12, 5.96287732782803670000e-001) (13, 3.59662867500880560000e-001) (14, 1.13342274363070380000e+000) (15, 1.47901436916655830000e-001) (16, 1.26273563260200120000e-001) (17, -4.93446133127878220000e-001) (18, 5.72567829827213660000e-001) (19, 8.68831962116023090000e-001) (20, 2.13543212565801140000e-001) (21, 4.61056234972037460000e-001) (22, 7.98152993244924840000e-001) (23, -1.22065295197734460000e-001) (24, 8.61756753012332120000e-001) (25, 8.84821480205207900000e-001) (26, 1.02001188735185270000e+000) (27, 5.61219848308647130000e-001) (28, 5.58725499011378470000e-001) (29, 7.91128812378423700000e-001) (30, 3.73076771187811850000e-001) (31, 1.59504191384507980000e+000) (32, 1.42271307065627100000e-001) (33, 2.23479695526893570000e+000) (34, 3.47904586860310390000e-001) (35, -2.68589660916149500000e-001) (36, -2.08282518514045330000e-001) (37, 1.52421330780805390000e-001) (38, -6.24196786758051820000e-002) (39, -2.48515567923552920000e-001) (40, 2.54530748485981890000e-001) (10, -1.33619414007536910000e-001) (11, 2.68462280058041510000e-001) (12, 1.82062879348917460000e-001) (13, 9.70316978566525210000e-001) (14, -1.41542346720292260000e-001) (15, 1.10895757760212340000e-001) (16, -6.64957769527824370000e-001) (17, 8.65035544782051110000e-002) (18, -3.39952682041675560000e-001) (19, 1.64304854518690680000e+000) (20, -6.38617657966885410000e-003) (21, 6.42498885236717390000e-001) (22, -8.90045089020521710000e-001) (23, 9.51689441688870370000e-001) (24, 1.06718263067903610000e-001) (25, 5.28836215785199460000e-001) (26, 2.15082332750048570000e-002) (27, 3.63435710126918500000e-001) (28, 1.06432375948887660000e-001) (29, -4.21412694431711090000e-001) (30, 5.41651438210947740000e-001) (31, -2.66358924951902280000e-001) (32, 1.12927527917572030000e+000) (33, 1.73002921019540540000e-001) (34, -8.05315081862954970000e-001) (35, -5.05049467393381750000e-001) (36, -1.26500344426852120000e-001) (37, 3.17477443678837680000e-001) (38, -2.26020236687878880000e-001) (39, -1.14466584846583730000e-002) (40, -4.87404108788674960000e-001) (10, -1.00895883176735750000e+000) (11, 1.14664848376910130000e+000) (12, 9.23630246486382480000e-001) (13, 3.71524859313626500000e-001) (14, 7.36398099672043730000e-001) (15, 1.15473589210202940000e+000) (16, -4.30080415514961620000e-001) (17, 1.49392289606765730000e-001) (18, -3.63546586157366010000e-001) (19, 5.89798805412979350000e-001) (20, 2.43633774756996130000e-001) (21, -4.26643219404407250000e-001) (22, -5.54941052311397680000e-001) (23, -6.93431444535028030000e-001) (24, -6.54858374127250450000e-001) (25, 4.14058593198719070000e-001) (26, 1.44290826107035080000e+000) (27, 1.19251889969654610000e+000) (28, -1.70802748754584120000e-001) (29, -3.86076226992467240000e-001) (30, 1.83009502389647260000e+000) (31, -2.06629116318122090000e-001) (32, -8.33695881775866840000e-001) (33, 3.19634036154845590000e-001) (34, 8.53607860242825310000e-001) (35, -1.25152521989636200000e-001) (36, 8.25017531063573230000e-002) (37, 1.86433158693192840000e-002) (38, 1.27606532401612950000e+000) (39, 2.69624470451154120000e-002) (40, -4.44802424646287000000e-001) (10, -7.24921730712486250000e-002) (11, 1.61289894563385240000e-001) (12, 1.60508317564152400000e-001) (13, -3.87250294328196410000e-001) (14, 1.24479967832148900000e+000) (15, 1.15835734318313730000e+000) (16, 1.23059421175926740000e+000) (17, -2.93272193050533090000e-001) (18, -2.84910017402136060000e-001) (19, 1.58550652019301850000e+000) (20, 2.60451263617658170000e-002) (21, 3.29136837380466160000e-002) (22, -5.75711954024467070000e-001) (23, -6.23416593728471140000e-001) (24, -5.66005082555980030000e-001) (25, 6.70148832445811360000e-001) (26, 7.96420281664788290000e-001) (27, 2.10875068782729600000e-001) (28, -5.82961614159962500000e-002) (29, 8.09216896624488810000e-001) (30, 5.55588104550899800000e-001) (31, 1.01482999412439680000e+000) (32, 9.71663322988454590000e-001) (33, -3.41563212242179060000e-001) (34, 1.60508364264689060000e-001) (35, -5.91975275627998690000e-002) (36, 1.22161016032302620000e-001) (37, 1.25602506860386880000e-002) (38, 1.23521735279137750000e+000) (39, 2.72097434206189870000e-001) (40, -6.25275760369891190000e-001) (10, 1.10803872210925690000e-001) (11, 9.65929888630893240000e-001) (12, 9.92428096066949180000e-002) (13, -7.34579840711584580000e-002) (14, 2.71156991130773680000e-001) (15, -1.79091980324923540000e-001) (16, 6.83314234794190070000e-002) (17, -2.86345349742590020000e-001) (18, 5.35821642228780700000e-001) (19, 1.35565073325876370000e+000) (20, 3.41891940962992250000e-001) (21, 1.06476573433087100000e+000) (22, -6.77309287728938280000e-001) (23, 1.32182178586067670000e+000) (24, -5.82336985900408850000e-002) (25, 3.86884057953616860000e-001) (26, 8.02405016591709490000e-001) (27, -4.97894556722049410000e-001) (28, 1.31599403078614090000e-001) (29, 7.20988704217770730000e-001) (30, 1.55955171813144060000e-001) (31, -2.98035003001749290000e-001) (32, 1.05863771294472350000e+000) (33, 8.19132257465744610000e-002) (34, 5.42622303066368490000e-001) (35, 4.16414802975011380000e-001) (36, -8.93831788702420300000e-001) (37, 7.44263924257138280000e-001) (38, 2.24706544952576940000e-001) (39, 3.03825094416545700000e-001) (40, -6.18411155076807330000e-001) (10, -1.43209990006869320000e-001) (11, 1.48446583123370890000e+000) (12, 3.30584690821797840000e-002) (13, 2.44214801287821000000e-001) (14, 1.55098687388657890000e+000) (15, 1.28080895270319770000e-001) (16, -1.63264122515390380000e+000) (17, 6.46667240574021810000e-001) (18, 6.72144572646897640000e-001) (19, -7.77163125108348560000e-002) (20, 2.48988233316232430000e-001) (21, 1.55076052932834140000e-001) (22, 2.00382551349788240000e+000) (23, -4.44710002090918540000e-001) (24, -7.66470000345369770000e-002) (25, 6.49998387892408490000e-001) (26, 1.47084152098395850000e+000) (27, 2.77003894978569140000e-001) (28, 2.93690978999415490000e-001) (29, 9.71028224130578210000e-001) (30, 2.99060583294229190000e-001) (31, 3.76176957040607720000e-001) (32, 1.42251313784526520000e-001) (33, 3.66728901598725730000e-002) (34, 1.05706830454940430000e+000) (35, -2.42362944042159680000e-002) (36, 6.61273659477725070000e-002) (37, -5.29418759954288110000e-001) (38, -7.51341331050567770000e-001) (39, -3.77126704943089970000e-001) (40, 1.35392852998970260000e+000) (41, 9.97865624777962980000e-002) (42, 4.71125318019967390000e-002) (43, -2.34590781757061700000e-002) (44, 3.22393323195705790000e-001) (45, 7.53670767872891140000e-002) (46, 1.85861714111614950000e-001) (47, -1.22134662246033240000e+000) (48, 1.41697071406480070000e+000) (49, 1.40993230461075200000e-001) (50, -7.26694240370767960000e-002) (51, 3.32986260251627310000e-001) (52, -8.52483369355275940000e-002) (53, 1.71387599329216250000e-002) (54, -2.39907446388991970000e-001) (55, 1.43034127626253670000e-001) (56, 1.36960252650528580000e-001) (57, 9.57257173206980120000e-002) (58, 2.75556309051031710000e-002) (59, -1.17093120089792560000e-001) (60, 6.42642179105282980000e-001) (61, -3.76580660363247830000e-001) (62, -1.09863750768310870000e-001) (63, 7.58005663331789980000e-002) (64, 1.09032346444764690000e+000) (65, 4.10764789289699060000e-001) (66, 2.53448262202358940000e-001) (67, 6.25633646054954420000e-001) (68, -5.22252940436581440000e-001) (69, 9.88822849600743180000e-001) (70, 8.04985790784990830000e-002) (71, 1.03926387517605940000e-001) (41, 4.16581121245622800000e-001) (42, 3.80627880144453650000e-001) (43, 1.16149920655666250000e+000) (44, -1.69235318463058810000e-001) (45, -4.07778269665038310000e-002) (46, -9.27062215996460050000e-002) (47, 9.76086689160972630000e-002) (48, -2.31963997437533330000e-002) (49, 4.40009421876376430000e-001) (50, -7.65172949415934830000e-001) (51, 2.88331420550117460000e-001) (52, -1.80428606048584040000e-001) (53, 1.50828976146624300000e-001) (54, 9.43366997881429220000e-002) (55, 1.24683266747982430000e-001) (56, -4.47110386477889200000e-001) (57, 1.13515491671380070000e-001) (58, -2.13607898155934310000e-001) (59, -1.18552988736777480000e-001) (60, 9.13234953424917230000e-001) (61, 3.98668357434873790000e-002) (62, 1.86816812985374090000e-001) (63, -3.10724584711117970000e-001) (64, -8.40043408266725470000e-002) (65, 7.96106230277130790000e-001) (66, 6.88312821209551980000e-002) (67, 5.62484297759870080000e-001) (68, 1.03724133247961010000e+000) (69, 8.44125746125938380000e-001) (70, -7.23040331825186230000e-001) (71, -9.97796215953306250000e-001) (41, 1.61778955777230640000e-001) (42, 2.93716849532570990000e-001) (43, -3.77449383830637360000e-001) (44, 4.30610849358056820000e-001) (45, 5.11992748625282120000e-002) (46, 2.04897771088672980000e-002) (47, -2.05410880830414340000e-001) (48, 2.18835676110634670000e-001) (49, 4.48573484959559900000e-001) (50, -3.98432555435446150000e-001) (51, 5.17257355291760200000e-001) (52, 1.08210560026699900000e-001) (53, -1.29621511716287140000e-001) (54, -2.28492343507699400000e-002) (55, 3.12584467182062330000e-002) (56, 2.20429040889010410000e-001) (57, 3.37923389199726100000e-002) (58, -5.92825159407538990000e-002) (59, -2.02836576652085860000e-002) (60, 4.02300662185748610000e-001) (61, 4.22292825084527310000e-001) (62, 1.84948948038898190000e+000) (63, -6.47182737494789720000e-002) (64, 9.09629506676259000000e-002) (65, -2.78201270670868690000e-001) (66, -1.57761222490864660000e-001) (67, 1.17089067296983340000e+000) (68, 2.02628612136016850000e-001) (69, 3.88916077254577000000e-001) (70, -7.70403618591059990000e-001) (71, -1.57060448272436500000e+000) (41, -1.56549877589409410000e-001) (42, 3.14903225680189750000e-001) (43, 3.42044778075492270000e-001) (44, -1.39679596744242430000e-001) (45, 1.85970045481861560000e+000) (46, 1.17038591198787790000e+000) (47, -2.28555346562660330000e-001) (48, 8.59525974527741270000e-001) (49, 1.36566470631388560000e+000) (50, -1.65258945731087490000e-001) (51, 1.00615178762208580000e+000) (52, -4.77859023260940650000e-001) (53, 1.31032709993151800000e+000) (54, -1.83325483775088060000e-002) (55, 1.42094625881182520000e-001) (56, -5.40684469590799080000e-001) (57, -8.70714850339732730000e-001) (58, 1.44076651471277240000e+000) (59, 1.00294865840863200000e+000) (60, 1.04998100760170530000e+000) (61, 9.36055506690099820000e-002) (62, -6.01705273252194580000e-001) (63, 1.32263556006835080000e+000) (64, -8.02326573514453020000e-003) (65, 3.50969245771646400000e-001) (66, 6.81055814281154360000e-001) (67, 1.35365964879853860000e+000) (68, 1.43742502991417310000e+000) (69, -4.25015361301594400000e-001) (70, -8.41670630410082110000e-002) (71, -6.58304880712231170000e-002) (41, -1.65077063119370230000e-001) (42, 2.07196278811606600000e-001) (43, 1.54258998747077570000e-001) (44, 2.10464807821233310000e+000) (45, 2.31603260116688640000e-001) (46, -6.15324880573057450000e-001) (47, -1.45132468081011130000e-001) (48, -3.34374954086954100000e-003) (49, -1.58147745993306210000e+000) (50, 1.43651828848808520000e+000) (51, -2.81422359147604550000e-001) (52, -8.70382687614416620000e-001) (53, 1.23198278300082500000e+000) (54, -5.01463585541478960000e-001) (55, 1.59409266636823650000e-003) (56, 9.70136153420070870000e-002) (57, -3.12012838063347340000e-001) (58, 3.38890405657142120000e-001) (59, 1.17468866994448450000e-001) (60, 2.24810250468647380000e+000) (61, 1.75804801588022240000e-002) (62, 1.38709316061417210000e+000) (63, 1.35033998905091270000e-001) (64, 2.33354856014207810000e-002) (65, 3.49435392908761360000e-001) (66, -4.41738562823043580000e-001) (67, 1.74864209612395820000e-001) (68, 4.77918169398529380000e-001) (69, -4.28471940346551780000e-001) (70, 1.15372131001127820000e+000) (71, 5.42580702688023830000e-001) (41, 1.68819308877852500000e+000) (42, 1.91786277389438820000e-001) (43, 1.87388507485818770000e+000) (44, -2.83367570515459470000e-001) (45, 5.91612732182206160000e-002) (46, 2.89601456153083580000e-001) (47, -9.05676185403900130000e-002) (48, -4.64640667658603320000e-002) (49, -6.15678670205466180000e-001) (50, 1.38665786346674390000e+000) (51, 1.44747687295563980000e+000) (52, 1.52021623881909720000e+000) (53, 1.12745240642172260000e+000) (54, 6.14843905682766260000e-001) (55, 2.77105654029053630000e-001) (56, 3.85073524198576930000e-001) (57, 3.85913071029422790000e-001) (58, 3.34814762426928590000e-001) (59, -4.20885223821879650000e-001) (60, -3.41026042862566330000e-001) (61, 1.37395432874711280000e+000) (62, -2.63668697924894390000e-001) (63, -8.02987733518629860000e-004) (64, -4.73561525190871330000e-002) (65, -3.91785858352407150000e-001) (66, 1.28173135524529250000e-001) (67, 1.25731581818786450000e+000) (68, -2.74900549955806210000e-001) (69, 1.90458431305669370000e+000) (70, 1.30592328695710850000e+000) (71, 1.40981159173208210000e+000) 
