FANN_FLO_2.1
num_layers=4
learning_rate=0.700000
connection_rate=1.000000
network_type=0
learning_momentum=0.000000
training_algorithm=2
train_error_function=1
train_stop_function=1
cascade_output_change_fraction=0.010000
quickprop_decay=-0.000100
quickprop_mu=1.750000
rprop_increase_factor=1.200000
rprop_decrease_factor=0.500000
rprop_delta_min=0.000000
rprop_delta_max=50.000000
rprop_delta_zero=0.100000
cascade_output_stagnation_epochs=12
cascade_candidate_change_fraction=0.010000
cascade_candidate_stagnation_epochs=12
cascade_max_out_epochs=150
cascade_min_out_epochs=50
cascade_max_cand_epochs=150
cascade_min_cand_epochs=50
cascade_num_candidate_groups=2
bit_fail_limit=1.00000001490116120000e-001
cascade_candidate_limit=1.00000000000000000000e+003
cascade_weight_multiplier=4.00000000000000020000e-001
cascade_activation_functions_count=10
cascade_activation_functions=3 5 7 8 10 11 14 15 16 17 
cascade_activation_steepnesses_count=4
cascade_activation_steepnesses=2.50000000000000000000e-001 5.00000000000000000000e-001 7.50000000000000000000e-001 1.00000000000000000000e+000 
layer_sizes=10 41 41 7 
scale_included=0
neurons (num_inputs, activation_function, activation_steepness)=(0, 0, 0.00000000000000000000e+000) (0, 0, 0.00000000000000000000e+000) (0, 0, 0.00000000000000000000e+000) (0, 0, 0.00000000000000000000e+000) (0, 0, 0.00000000000000000000e+000) (0, 0, 0.00000000000000000000e+000) (0, 0, 0.00000000000000000000e+000) (0, 0, 0.00000000000000000000e+000) (0, 0, 0.00000000000000000000e+000) (0, 0, 0.00000000000000000000e+000) (10, 5, 1.00000000000000000000e+000) (10, 5, 1.00000000000000000000e+000) (10, 5, 1.00000000000000000000e+000) (10, 5, 1.00000000000000000000e+000) (10, 5, 1.00000000000000000000e+000) (10, 5, 1.00000000000000000000e+000) (10, 5, 1.00000000000000000000e+000) (10, 5, 1.00000000000000000000e+000) (10, 5, 1.00000000000000000000e+000) (10, 5, 1.00000000000000000000e+000) (10, 5, 1.00000000000000000000e+000) (10, 5, 1.00000000000000000000e+000) (10, 5, 1.00000000000000000000e+000) (10, 5, 1.00000000000000000000e+000) (10, 5, 1.00000000000000000000e+000) (10, 5, 1.00000000000000000000e+000) (10, 5, 1.00000000000000000000e+000) (10, 5, 1.00000000000000000000e+000) (10, 5, 1.00000000000000000000e+000) (10, 5, 1.00000000000000000000e+000) (10, 5, 1.00000000000000000000e+000) (10, 5, 1.00000000000000000000e+000) (10, 5, 1.00000000000000000000e+000) (10, 5, 1.00000000000000000000e+000) (10, 5, 1.00000000000000000000e+000) (10, 5, 1.00000000000000000000e+000) (10, 5, 1.00000000000000000000e+000) (10, 5, 1.00000000000000000000e+000) (10, 5, 1.00000000000000000000e+000) (10, 5, 1.00000000000000000000e+000) (10, 5, 1.00000000000000000000e+000) (10, 5, 1.00000000000000000000e+000) (10, 5, 1.00000000000000000000e+000) (10, 5, 1.00000000000000000000e+000) (10, 5, 1.00000000000000000000e+000) (10, 5, 1.00000000000000000000e+000) (10, 5, 1.00000000000000000000e+000) (10, 5, 1.00000000000000000000e+000) (10, 5, 1.00000000000000000000e+000) (10, 5, 1.00000000000000000000e+000) (0, 5, 1.00000000000000000000e+000) (41, 5, 1.00000000000000000000e+000) (41, 5, 1.00000000000000000000e+000) (41, 5, 1.00000000000000000000e+000) (41, 5, 1.00000000000000000000e+000) (41, 5, 1.00000000000000000000e+000) (41, 5, 1.00000000000000000000e+000) (41, 5, 1.00000000000000000000e+000) (41, 5, 1.00000000000000000000e+000) (41, 5, 1.00000000000000000000e+000) (41, 5, 1.00000000000000000000e+000) (41, 5, 1.00000000000000000000e+000) (41, 5, 1.00000000000000000000e+000) (41, 5, 1.00000000000000000000e+000) (41, 5, 1.00000000000000000000e+000) (41, 5, 1.00000000000000000000e+000) (41, 5, 1.00000000000000000000e+000) (41, 5, 1.00000000000000000000e+000) (41, 5, 1.00000000000000000000e+000) (41, 5, 1.00000000000000000000e+000) (41, 5, 1.00000000000000000000e+000) (41, 5, 1.00000000000000000000e+000) (41, 5, 1.00000000000000000000e+000) (41, 5, 1.00000000000000000000e+000) (41, 5, 1.00000000000000000000e+000) (41, 5, 1.00000000000000000000e+000) (41, 5, 1.00000000000000000000e+000) (41, 5, 1.00000000000000000000e+000) (41, 5, 1.00000000000000000000e+000) (41, 5, 1.00000000000000000000e+000) (41, 5, 1.00000000000000000000e+000) (41, 5, 1.00000000000000000000e+000) (41, 5, 1.00000000000000000000e+000) (41, 5, 1.00000000000000000000e+000) (41, 5, 1.00000000000000000000e+000) (41, 5, 1.00000000000000000000e+000) (41, 5, 1.00000000000000000000e+000) (41, 5, 1.00000000000000000000e+000) (41, 5, 1.00000000000000000000e+000) (41, 5, 1.00000000000000000000e+000) (41, 5, 1.00000000000000000000e+000) (0, 5, 1.00000000000000000000e+000) (41, 0, 1.00000000000000000000e+000) (41, 0, 1.00000000000000000000e+000) (41, 0, 1.00000000000000000000e+000) (41, 0, 1.00000000000000000000e+000) (41, 0, 1.00000000000000000000e+000) (41, 0, 1.00000000000000000000e+000) (0, 0, 1.00000000000000000000e+000) 
connections (connected_to_neuron, weight)=(0, -5.45908989620306870000e-001) (1, -1.53212699837951010000e+000) (2, 1.54546682182930390000e+000) (3, 7.01048464528532950000e-002) (4, 2.58769590796386730000e-001) (5, -3.21711339434465670000e-001) (6, 9.18300409196987080000e-003) (7, 2.50229748342491290000e-001) (8, -3.58673923397038520000e-001) (9, 1.99264723882662010000e-002) (0, -9.35537559348812550000e-001) (1, 2.82377661911295100000e-001) (2, 4.85868332911433350000e-002) (3, 2.34288945121528740000e-002) (4, 3.02529287890105640000e-002) (5, -1.81454706469785130000e-002) (6, 2.32771391714698680000e-001) (7, -1.24701065825339090000e-001) (8, -2.44659147506638000000e-003) (9, 1.27088378930040190000e-001) (0, 2.58672285757848670000e-001) (1, -2.22869468529396680000e-001) (2, -1.73857982645624270000e-001) (3, 7.47460027441567560000e-002) (4, -8.14679117604963090000e-002) (5, 5.49572754465527390000e-002) (6, 2.91995001805289210000e-002) (7, 3.07120000674376110000e-001) (8, -6.61838281711090850000e-002) (9, 6.02862498833294900000e-001) (0, 5.87559466492595720000e-001) (1, 8.89697454807332530000e-001) (2, -2.22714271384287900000e-001) (3, 1.78612940454886880000e-001) (4, -8.76634530485939780000e-002) (5, 7.20341061112957790000e-002) (6, -2.34868418992273710000e-002) (7, 2.64546948319495660000e-001) (8, -6.15622171074355980000e-002) (9, 9.06403400562746100000e-002) (0, -9.65919333712292330000e-001) (1, 3.56407043847025040000e-001) (2, 8.52561100331473480000e-001) (3, -7.41561356482085680000e-002) (4, -1.30419623853943040000e-002) (5, 4.60434807212345910000e-002) (6, 4.06381460371485930000e-001) (7, 3.80222212232342040000e-001) (8, -3.84586300521653770000e-002) (9, -1.13072980203038240000e-001) (0, -6.42751283824548050000e-002) (1, -1.76580999341691440000e-001) (2, -2.22819418559367270000e-001) (3, 7.02650784013810340000e-002) (4, -5.17004532923515250000e-002) (5, -2.62111242730870520000e-002) (6, 1.58612646674852360000e-001) (7, -5.84070871453167160000e-001) (8, -2.46933946966452680000e-001) (9, -4.14470515127728530000e-001) (0, 3.00452924733794150000e-001) (1, 5.38456633476277700000e-001) (2, -6.22823452388417830000e-002) (3, -2.61285220360592600000e-001) (4, 2.37798007999296480000e-001) (5, 7.36202494067656340000e-002) (6, -4.29644132400765630000e-002) (7, 1.38483480841796650000e-001) (8, 5.01506346880708720000e-001) (9, 7.37734257633636120000e-002) (0, 1.74565013729499450000e-001) (1, -7.18718459642111310000e-002) (2, 9.67709063260124850000e-001) (3, -1.03481554300418190000e-002) (4, 1.64870956995298540000e-002) (5, -1.81538537016679470000e-002) (6, -3.72043182912163640000e-002) (7, 4.57845349867885740000e-003) (8, -2.83318611763665630000e-001) (9, -3.58435167313266190000e-001) (0, 4.60765768988845530000e-001) (1, -1.39643893700898080000e-001) (2, -4.13843457148997260000e-002) (3, 4.71006112690689000000e-002) (4, -5.74204231428651070000e-002) (5, 2.68316970104914740000e-002) (6, -3.08499233722204950000e-001) (7, 3.63875762554535800000e-001) (8, 2.76457352656181430000e-001) (9, 3.95187235950591240000e-001) (0, -1.64977360332406990000e+001) (1, -1.46020005191044340000e+001) (2, -4.76603947134073970000e-002) (3, -1.01737392345242950000e-002) (4, -2.73314228177734170000e-004) (5, 1.32686374283349920000e-002) (6, 3.46174195497212000000e+000) (7, 3.08354293179653150000e+000) (8, -2.74946881389978990000e-004) (9, -2.58234683310722830000e-002) (0, 4.88284786143483810000e-001) (1, 4.87749923991088960000e+001) (2, -1.94956047001826980000e-001) (3, -1.42043340323793790000e-003) (4, 5.39182277770057420000e-003) (5, -2.28455470710436200000e-002) (6, -1.46734383857121450000e-001) (7, -9.95289001591752690000e+000) (8, 3.21033270012615960000e-002) (9, 6.86187261824187240000e-002) (0, 7.51923206622837630000e-001) (1, -1.70458029668684070000e-002) (2, -1.32606683100289390000e-001) (3, -3.05434275394791020000e-002) (4, 3.33115446804016850000e-002) (5, 1.81944818093779590000e-002) (6, 4.72777841575747150000e-001) (7, -2.34340091356624940000e-003) (8, 1.56190688807823160000e-001) (9, 8.28690369990726980000e-001) (0, 5.44116296635688280000e-001) (1, 1.89057351378436410000e-001) (2, 1.10103416058298250000e+000) (3, 1.02654439176897570000e-001) (4, -6.85913443579611590000e-002) (5, -1.09326395717293850000e-002) (6, -2.83745975826543650000e-001) (7, 7.37969416645609110000e-001) (8, 1.50222744747355970000e-001) (9, 1.13512865214260670000e+000) (0, 3.38147304502616040000e-001) (1, 5.73762374350647810000e-001) (2, -5.31915583212525300000e-001) (3, 2.71830931674171310000e-002) (4, 1.39438647795998070000e-001) (5, -1.07035111900491930000e-001) (6, -2.24331822634314420000e-001) (7, -1.17989770344163400000e-001) (8, 3.82946115646007130000e-002) (9, -5.11958803038078390000e-001) (0, -2.26716156572113940000e-001) (1, -1.17420238947921950000e-001) (2, 1.43981286382094120000e-001) (3, -1.71697603085062040000e-001) (4, 1.66627983213665200000e-002) (5, 1.94765228324992460000e-001) (6, -1.81122644420654620000e-001) (7, -2.25596819247059070000e-002) (8, -2.60916135632961340000e-001) (9, 2.37678236715417070000e-001) (0, 8.27707587574029510000e-001) (1, 1.79196161855033710000e+000) (2, 1.96268184950840550000e+000) (3, -3.81853106261760420000e-002) (4, 1.95152096698099880000e-001) (5, 5.30711094194751750000e-002) (6, -2.33807637323177830000e-001) (7, -7.10899889241167650000e-001) (8, -6.18356046094748920000e-001) (9, 5.60813272491136440000e-001) (0, 1.36715539802970420000e+000) (1, -7.30023827419992860000e-002) (2, 5.93492129434945780000e-001) (3, 1.69622158261423240000e-001) (4, 1.46599514020302550000e-001) (5, 2.38830562668931410000e-001) (6, -2.77386763362373390000e-001) (7, 9.99760730511849990000e-002) (8, -1.17712819342912550000e-002) (9, 5.60999575859780660000e-001) (0, 1.39505040027571490000e+000) (1, 2.52605974997463580000e+000) (2, 2.86783351589180610000e-001) (3, 4.65921937483127770000e-002) (4, -1.21665264413266770000e-002) (5, 5.93273840879015650000e-002) (6, -8.45775490660793520000e-002) (7, -4.16227365999842170000e-001) (8, -1.24762296563762680000e-001) (9, 6.44667586153438550000e-001) (0, 9.54058015207976530000e-003) (1, 2.34578835213019540000e+000) (2, 4.29553973976640910000e-001) (3, -1.00832928436577290000e-001) (4, -2.85321676026819900000e-001) (5, 1.66618634890858370000e-001) (6, 8.75598858795800930000e-002) (7, -2.63282459005515060000e-001) (8, -1.11925238680784540000e-002) (9, 1.01935202471512180000e+000) (0, 2.91296369933596700000e-001) (1, -9.84655887658735800000e-001) (2, -1.54923346233660470000e-001) (3, -3.68949866785868090000e-002) (4, 6.22634568886784940000e-003) (5, -6.45020489583861530000e-003) (6, -2.96648260402584570000e-001) (7, 3.67717337090031140000e-002) (8, 1.92732542242846580000e-001) (9, -5.58917231988912830000e-002) (0, -2.77302212489969610000e-001) (1, -1.45642056301891310000e+000) (2, 8.36953761738977950000e-001) (3, -3.74560151933713420000e-002) (4, -1.50234403754439470000e-001) (5, 2.82491537631121890000e-001) (6, 1.94023325534886900000e-002) (7, 3.58197023276816680000e-001) (8, -2.82812075390507620000e-001) (9, 4.85797267070168460000e-001) (0, 2.78164369998652740000e-002) (1, 1.08048303895102360000e-002) (2, -1.91204922579614880000e-001) (3, -9.66933945085693140000e-002) (4, 1.35873292584486580000e-001) (5, -2.41857727130552390000e-003) (6, 2.22850809747346970000e-001) (7, -3.45745001146006700000e-001) (8, -2.17813039795760670000e-001) (9, -4.70686541199226540000e-001) (0, 2.13436526283052210000e-001) (1, 8.49447038916567030000e-002) (2, -1.44761921775475700000e-001) (3, 1.32725041831450090000e-001) (4, -1.27565514721071110000e-001) (5, 1.42626295225957070000e-001) (6, -2.06519927272958650000e-001) (7, 4.53328234145171320000e-001) (8, 3.37990620638103870000e-001) (9, -2.09686171428694280000e-001) (0, 2.72295068287340180000e+000) (1, 2.09159771997237680000e-001) (2, -1.15563265339858940000e-001) (3, -4.69805109467494390000e-002) (4, 3.77474599959601170000e-002) (5, 4.86264796717639990000e-002) (6, -9.79905792173660920000e-002) (7, 1.01053146948194370000e-001) (8, 2.12102366209168700000e-002) (9, -1.03930979697615530000e-001) (0, 3.07360800282191140000e-003) (1, -6.92727019384771550000e-001) (2, -1.76822539666994680000e-001) (3, -5.83891351921946720000e-002) (4, -1.83196919543422850000e-002) (5, 1.06310372533987810000e-002) (6, -1.03665383843276020000e-001) (7, 1.05066710382123740000e+000) (8, -1.78550349759306090000e-002) (9, -1.15585737198541210000e-001) (0, 2.60523833184527140000e-002) (1, -4.89096633342934630000e-001) (2, 9.63709248307319070000e-003) (3, -4.59632262989500410000e-002) (4, 6.36211921850030620000e-002) (5, 3.93745394233796790000e-002) (6, -6.77871471968018590000e-002) (7, 2.67583432351133020000e-001) (8, -5.37487173561077280000e-002) (9, -7.79288219489514820000e-002) (0, -6.96157649901077540000e-001) (1, -4.41959565373812150000e-001) (2, -5.46664902946045260000e-002) (3, 9.71011208005218420000e-002) (4, -1.06338701279300760000e-001) (5, -4.30540151359682310000e-002) (6, 4.00717893169088900000e-001) (7, -3.69031472218980470000e-001) (8, -1.98906876521696450000e-002) (9, 4.85138253540062850000e-001) (0, -7.35282586405987430000e-001) (1, 4.28040926679847610000e-001) (2, 1.20797803192766840000e-001) (3, 4.04640737839508380000e-002) (4, 1.43233009780800930000e-002) (5, -3.93871226984819370000e-003) (6, 5.54962396274460870000e-001) (7, -3.32477337055002260000e-001) (8, 9.22349781717602540000e-003) (9, 4.85141967604904860000e-001) (0, 8.44618741197360250000e-001) (1, 1.67070159610936030000e+000) (2, 5.97765543172223750000e-001) (3, 1.65160227497291660000e-002) (4, -2.86290963598363150000e-001) (5, -4.53216457074672380000e-002) (6, -1.58870253087751910000e-001) (7, -5.73296492369207540000e-001) (8, -1.85101200771404770000e-001) (9, 5.18081764940186540000e-001) (0, -4.18237752590115530000e-001) (1, -2.61270208655281330000e-001) (2, 1.02496336103052210000e-002) (3, -8.71094830948091060000e-002) (4, 1.31567509434672300000e-001) (5, -3.42001256757569590000e-001) (6, 9.36156305850558150000e-002) (7, -3.61930065585280990000e-002) (8, 4.05223236016722040000e-002) (9, 6.55523013816657060000e-002) (0, -2.16266369863856750000e-001) (1, -1.63722653771549260000e-001) (2, 3.45719151242847080000e-001) (3, -2.96054030633874670000e-003) (4, 2.14034588022833480000e-001) (5, 1.64980779790978370000e-002) (6, 2.54252086798547110000e-001) (7, -2.71016796240201750000e-001) (8, -3.05848107204399370000e-001) (9, 3.16612896315235760000e-001) (0, -2.78696045494935800000e+001) (1, -6.36793109915938600000e+000) (2, 1.67187873541085130000e+000) (3, 2.16029714845078000000e+000) (4, -9.90130039024181770000e+001) (5, -4.37333931749521200000e+000) (6, -1.18836091823852340000e+002) (7, 5.01908568850412420000e+001) (8, 1.66164975805999260000e+002) (9, 3.25633788881900390000e+002) (0, 6.49235480919329700000e-001) (1, 5.58085799505191440000e-001) (2, 2.32150750306095390000e-001) (3, 2.39611949278701990000e-002) (4, 3.45397590007417570000e-002) (5, 4.00713058807428070000e-002) (6, -3.27186107956102920000e-001) (7, 7.23914646345068190000e-001) (8, 4.00225535123687360000e-001) (9, -1.12090072063020920000e-001) (0, 5.90782202280379710000e-003) (1, 2.16719907873265430000e+000) (2, 3.52984822634466180000e-001) (3, -7.78150091715414110000e-003) (4, 1.52708279098237590000e-002) (5, -3.62607096323425140000e-002) (6, 5.90758290332606540000e-002) (7, -3.11150096435376000000e-001) (8, 4.05191303657495300000e-003) (9, -5.28221524611328540000e-001) (0, 1.82370544649951990000e+000) (1, 1.01056517081778100000e-001) (2, -6.24999046603722300000e-001) (3, -1.97614394335351580000e-002) (4, 1.32681661045322510000e-002) (5, 1.85836770137802820000e-002) (6, -2.38786430198122010000e-001) (7, -5.88011505919078180000e-002) (8, 1.46599282476317040000e-001) (9, 2.86870998323777380000e-001) (0, 2.41574397563610540000e-001) (1, -4.37261045769962830000e-001) (2, 2.77759778123346730000e-001) (3, -3.69362470858982450000e-002) (4, 3.72177194201257430000e-002) (5, 5.82516644214014990000e-002) (6, -4.30262260301543730000e-002) (7, 6.34512215488790440000e-001) (8, 2.61229850323198510000e-001) (9, 5.73501029925070350000e-001) (0, -1.18344868522086890000e-001) (1, -2.77799220286226560000e-004) (2, 6.51197335658874470000e-002) (3, -4.78878650784040840000e-002) (4, -5.94968344945838030000e-002) (5, 4.91633392876503280000e-002) (6, 3.52084042888384190000e-001) (7, -3.03935604080977360000e-002) (8, -1.56367250621349650000e-001) (9, -6.40684731077297700000e-002) (0, -3.08636851205443710000e-001) (1, 8.09534902236594970000e-002) (2, 6.29266012681530930000e-001) (3, 7.87741549368774640000e-002) (4, -1.95671959599663270000e-001) (5, -1.55670778302430140000e-002) (6, -1.34652060144247080000e-001) (7, 4.24785966497120690000e-001) (8, 3.33204488755577840000e-001) (9, 7.55819007164685200000e-001) (0, -1.73048871397035780000e+000) (1, 1.85515223916088790000e+000) (2, -7.11387143586748260000e-001) (3, -1.97400005280297420000e-002) (4, 1.49551013478022230000e-002) (5, -2.60771923390165340000e-003) (6, 3.43044107724339130000e-001) (7, -4.20302817221305080000e-001) (8, 1.45117190837426020000e-001) (9, 1.23612048324964440000e+000) (0, -8.96231674273332390000e-001) (1, 6.29174748168800480000e-001) (2, -7.49248765616887470000e-001) (3, 1.59049666528877560000e-001) (4, -1.84528957470532630000e-002) (5, 3.23318727741730910000e-002) (6, 3.53187708089041600000e-001) (7, -1.74574778366395150000e-001) (8, 2.46791965332466780000e-001) (9, -1.32320604606754100000e-001) (10, 2.63527394842690670000e-001) (11, -2.97191971799276190000e+000) (12, -2.02602216079821930000e-001) (13, 4.47601039494695540000e-001) (14, -1.16157322371405050000e-001) (15, -3.18305022847105930000e-001) (16, 5.36551633512377670000e-001) (17, -2.31408281068954420000e-001) (18, -1.42555965044071700000e-001) (19, 2.19270850070590250000e-001) (20, -1.46541995511752840000e+000) (21, 8.67091492150846160000e-002) (22, 9.17432266040989040000e-001) (23, -2.65589249216900520000e-001) (24, -2.76701230365228260000e-001) (25, 1.22547437264446790000e+000) (26, 1.62091033182195250000e-001) (27, -9.47484675480181340000e-001) (28, 3.00728948938540850000e-001) (29, 1.07489132604429490000e+000) (30, 7.41750602877884300000e-001) (31, 6.40811504363369700000e-002) (32, -1.29300315153377950000e-001) (33, 5.35678782274821130000e-001) (34, 1.15841996507354890000e+000) (35, 5.20916901829652670000e-001) (36, 2.11048425301585100000e+000) (37, 5.92428652821080700000e-001) (38, 2.02030346598721930000e-001) (39, 2.84855692201369970000e-001) (40, 9.22949828401509190000e-001) (41, 3.57640935915819690000e-001) (42, -9.19054801136030330000e-001) (43, 1.73617454448666140000e+000) (44, 5.80777429660043420000e-001) (45, 3.32205935813843890000e-001) (46, 1.01142499088645340000e+000) (47, 4.55017707647670300000e-001) (48, 5.29699838769328930000e-002) (49, 6.15160470014869730000e-001) (50, -1.27706009051541610000e-001) (10, 9.88491420160818040000e-001) (11, -4.30516600994840740000e-001) (12, 1.93171083176811310000e-001) (13, 8.27731486370313350000e-002) (14, -2.80850298291543620000e-001) (15, -1.20484299870452770000e+000) (16, 8.38877577676176320000e-001) (17, 6.51378667855081810000e-001) (18, -1.06616084808565330000e+000) (19, 3.14327580492734440000e+000) (20, 2.62114167754328660000e-001) (21, 1.84611181143644420000e-001) (22, 7.72765760031294380000e-001) (23, 1.61104592752779610000e-001) (24, 2.59177994319691200000e+000) (25, 3.59368904668859290000e-001) (26, -1.39108814983037400000e-001) (27, 1.26151411807549760000e+000) (28, 1.73781293778606290000e+000) (29, 2.87498784796421130000e+000) (30, 4.04828786225049640000e-001) (31, -1.82663464659422180000e+000) (32, 7.06982964464227480000e-001) (33, -5.11366067817111140000e-001) (34, -4.26194321773744890000e-001) (35, -6.98964955864177170000e-001) (36, 3.85060481278160230000e-001) (37, 8.72613950789848490000e-001) (38, 9.45266275539140000000e-001) (39, -5.56584823190691250000e-001) (40, 8.04044263716691020000e-001) (41, 1.79824181183711220000e+000) (42, 4.00219500270434470000e+000) (43, -6.00694304133318040000e-001) (44, -1.72366550590016470000e+000) (45, 4.61115401817883960000e-001) (46, -3.19054865959225330000e-001) (47, 3.56774324685177170000e-001) (48, 1.15406769659930490000e+000) (49, -6.45921348550140160000e-001) (50, 4.37002957375405340000e-001) (10, 5.12917922530268240000e-001) (11, 3.68595019728887470000e-001) (12, 1.84560537755550120000e-001) (13, 5.98630854386925930000e-002) (14, -2.99571952744309140000e-001) (15, 7.55713419093938080000e-001) (16, -2.65569314383096720000e-001) (17, 5.76673169089384600000e-001) (18, 5.21157586336172040000e-001) (19, -5.48421895306141490000e-002) (20, 2.35094731303907460000e-002) (21, -5.47224669301940360000e-001) (22, 1.78023674457664980000e-001) (23, 6.47515347478655130000e-001) (24, 3.81365361614468930000e-001) (25, 2.17310822139291290000e-001) (26, -4.24891423631548360000e-001) (27, -1.38383642525036680000e-001) (28, -1.86177577849022950000e-001) (29, 2.07232360954206300000e-001) (30, 3.32531476761979210000e-002) (31, 8.87771078499357660000e-001) (32, 9.88137568709131500000e-002) (33, 3.66342119109368870000e-001) (34, 6.81644958798117370000e-001) (35, 1.21040195021428660000e+000) (36, 7.41368226539475820000e-002) (37, 5.49630335485503550000e-001) (38, 4.01048464821847470000e-001) (39, -7.94475672344241210000e-001) (40, -7.16700665056971500000e-001) (41, 1.20547556740211590000e-001) (42, 5.49867587134546980000e-001) (43, -4.09510809202765450000e-001) (44, 7.15994084305794500000e-002) (45, 1.38274782040412100000e-001) (46, 1.17772948215383980000e+000) (47, -7.45004469644396930000e-001) (48, 5.87347809620994750000e-001) (49, 5.42458919778030960000e-001) (50, -5.21661468168272190000e-001) (10, -9.30777414959434170000e-002) (11, -7.22014372204022870000e-001) (12, -2.24495767067774910000e-001) (13, -2.09697234729857680000e-001) (14, -2.07475736681528020000e-001) (15, 8.32678276936744680000e-001) (16, -9.74371586257669760000e-002) (17, 7.63623692136765620000e-001) (18, -1.27984877955834080000e-001) (19, -6.09613596426717210000e-002) (20, -4.79436259574015760000e-001) (21, 3.46922608506384120000e-001) (22, 5.52234206400421760000e-001) (23, 4.77740065237129700000e-001) (24, -6.64267391572417430000e-001) (25, -4.77496910348301840000e-002) (26, 1.13327950074039110000e+000) (27, -9.35488457987225660000e-002) (28, 6.28678194905987970000e-001) (29, 1.53547891275335120000e+000) (30, 4.52804877305005090000e-002) (31, 9.89781046307763090000e-001) (32, 9.03411431997340200000e-001) (33, 2.26834003480431010000e-001) (34, 4.69704601929973710000e-001) (35, -3.50132892445345680000e-001) (36, 5.94774623085151170000e-001) (37, 2.33877494941817480000e-001) (38, 2.23430614831476610000e-001) (39, 1.28114466159504950000e-001) (40, 6.10632442410839800000e-001) (41, 4.12286958447950380000e-001) (42, 6.90709267592757860000e-001) (43, 4.74471890870402870000e-001) (44, -8.62085190104892370000e-001) (45, -8.08553118275112530000e-002) (46, 1.23415819643473350000e+000) (47, 3.55403535496401520000e-001) (48, -3.01538382255904570000e-001) (49, 2.23430487566165850000e-001) (50, 2.09066790558987500000e-001) (10, 7.04361210632756390000e-002) (11, 3.43450166924357210000e+000) (12, -2.69827947495699270000e-001) (13, 5.63783160964183900000e-001) (14, 4.17838359229637140000e-001) (15, 1.37738460217467610000e-001) (16, -1.25077415108309780000e-001) (17, -9.82190573138535750000e-001) (18, 6.97563963437814460000e-002) (19, 2.44609619585954150000e-002) (20, 1.17460672580936650000e-001) (21, 1.52626311084038540000e-001) (22, -7.96914928078267800000e-002) (23, 1.10600186007166030000e+000) (24, 4.38933537999730390000e-001) (25, -6.84847444823499240000e-001) (26, -4.16522694246141970000e-001) (27, -5.06116378869187030000e-001) (28, 1.66682895693841950000e-001) (29, 1.08333792108470090000e+000) (30, 6.48145703548519530000e-001) (31, 5.46111316037626530000e-001) (32, -2.38166020628997500000e-001) (33, 1.67485425900643640000e-001) (34, 2.19060399316170050000e-001) (35, 4.06313229681563690000e-001) (36, 3.66992779093514410000e-001) (37, -2.74087504865881130000e-001) (38, 4.53342228665324640000e-002) (39, -1.63889105252858630000e-002) (40, -1.46141190714278340000e-001) (41, -1.98409155691970900000e-001) (42, -2.16179695522636190000e-001) (43, 8.07060361120988560000e-001) (44, 5.10010109798191170000e-001) (45, 4.44702597419159680000e-001) (46, 3.02676730951498720000e-001) (47, 4.25523121367125720000e-001) (48, -7.31133088571522150000e-001) (49, 1.16756540865209300000e-001) (50, 3.32807402388847980000e-001) (10, -3.71296318487340460000e-001) (11, -2.56177007497162370000e+000) (12, -6.34856949557998650000e-001) (13, 4.38739154769185400000e-001) (14, 4.45239608984505580000e-002) (15, 1.01878987264661310000e+000) (16, -8.29671899011905360000e-002) (17, -1.24779250213768140000e+000) (18, 3.22670419679235430000e-001) (19, -1.18995657226356900000e-001) (20, -4.07611999999856590000e-001) (21, -3.90076381154345790000e-001) (22, -5.21714982887098060000e-001) (23, 6.77328415936662150000e-001) (24, 7.72214022884011860000e-002) (25, -9.98286590464650540000e-002) (26, 4.10950962962882640000e-001) (27, -1.02062409389168800000e+000) (28, -1.05656655027053750000e-001) (29, 1.40114891546234820000e+000) (30, 2.34741611629922940000e-001) (31, 3.84950833048752830000e-001) (32, 2.64597462928545080000e-001) (33, -3.39213073807527020000e-001) (34, 1.93662402831781990000e-001) (35, 1.06616247918784280000e+000) (36, 5.97825168421949550000e-001) (37, -4.64594867803725940000e-001) (38, -9.53768307892610000000e-003) (39, 8.50706745385480860000e-001) (40, -5.59815074809479340000e-001) (41, -4.01766593037775180000e-001) (42, -9.41811910213224520000e-001) (43, 2.62179361379322530000e-002) (44, 7.41797724808850310000e-001) (45, 6.35522185769395000000e-003) (46, 1.37860208913835920000e+000) (47, 8.03841039160316460000e-001) (48, 2.19232294536003500000e+000) (49, 1.53371801031351240000e+000) (50, 1.74842460010973340000e-001) (10, 3.18286567609745000000e-001) (11, 9.92035727431155210000e-003) (12, -2.73637193307169350000e-001) (13, 3.96095134655574500000e-001) (14, 7.87501822095135080000e-001) (15, 5.24456616124434500000e-001) (16, -1.83152213545749200000e-001) (17, -7.84728014475959000000e-002) (18, 1.25904015393884740000e-001) (19, -9.19039480527847230000e-001) (20, -2.11266363166265590000e+000) (21, -3.64719270399461450000e-001) (22, -2.88914864489372480000e-001) (23, 7.04517396295104460000e-001) (24, 4.61994261277584030000e-001) (25, -2.31786053571668480000e-001) (26, -2.15150971353673090000e-001) (27, 5.60852830801689910000e-001) (28, 4.28194860756464900000e-001) (29, 1.23347773089352360000e+000) (30, -4.13560068271413490000e-002) (31, 4.90489953647402500000e-001) (32, -2.46331832370978530000e-001) (33, 6.64924385012661820000e-001) (34, 6.45355895844449130000e-002) (35, 6.84957608168396790000e-001) (36, 4.99375420369320200000e-001) (37, -1.93160692252203020000e-002) (38, -4.53085857297235770000e-001) (39, 3.39555128399669560000e-001) (40, -7.37920639538384830000e-001) (41, 1.97648975072337620000e-002) (42, 4.30306527607298010000e-002) (43, -6.26862387519040440000e-001) (44, -3.95500797289046520000e-001) (45, 3.58274184749327370000e-001) (46, 9.88180470684871070000e-003) (47, 3.98571791145325200000e-001) (48, -1.37554669784110330000e+000) (49, 8.11342383369356490000e-001) (50, 6.61152933150627510000e-001) (10, 1.06775167276828990000e-001) (11, 6.50102100334782220000e-001) (12, 1.32928822283606760000e+000) (13, 8.60956052283190940000e-001) (14, -4.05472974564999090000e-001) (15, 5.33735949573619470000e-001) (16, 3.63680924050348110000e+000) (17, -9.60519964345227350000e-001) (18, -2.26840755617822630000e-001) (19, 2.52028645767999160000e-001) (20, -7.77999837089921040000e-001) (21, 9.70694314940328100000e-001) (22, 4.78818137780961610000e-001) (23, -3.31522179195350100000e-001) (24, -1.10156881674315610000e+000) (25, -1.14293007289326260000e-001) (26, 1.44095099733868950000e-002) (27, -3.44763447711992910000e-002) (28, -2.08400720384100260000e-001) (29, 3.39504042308624410000e+000) (30, 4.99605476167807370000e-001) (31, -8.25426807602417380000e-002) (32, 3.07796190356558860000e-001) (33, 1.48544528250798710000e+000) (34, -3.24264752658984080000e-001) (35, 6.10699701697094090000e-001) (36, 6.77078389752101820000e+000) (37, 5.32354486424133980000e-002) (38, -3.96901465573161990000e-003) (39, 3.74468018239827620000e-001) (40, -8.42613671525346310000e-003) (41, 1.22898021659512450000e-001) (42, 1.90143503088254030000e+000) (43, 9.37451453369107070000e-001) (44, -1.48941098484738150000e+000) (45, 3.09020730692042330000e-001) (46, 3.49959619094076970000e-001) (47, 5.13778738431643790000e-001) (48, -2.48096874925004730000e-001) (49, -4.89215585507905560000e-001) (50, 7.75837166357988160000e-001) (10, 5.96412208495436640000e-001) (11, 3.00331774259218090000e-001) (12, -6.97467839792872970000e-001) (13, 7.74992467029614440000e-001) (14, 2.84581542337232710000e-001) (15, 6.41961006877331260000e-001) (16, 1.23957124591961010000e-001) (17, -8.24019892364285970000e-001) (18, 1.61041681266215620000e-001) (19, -4.47113093722784900000e-001) (20, 1.26545872587418270000e+000) (21, -1.92924541320717960000e-001) (22, -5.60856160183107360000e-001) (23, 8.46293719611406760000e-001) (24, 7.57471186522453040000e-001) (25, -5.00345265603209690000e-001) (26, -2.94445502277839890000e-001) (27, 3.90285124842519090000e-001) (28, -1.86456814975117570000e-003) (29, 4.91811188051988090000e-001) (30, 2.94317316486896520000e-001) (31, 7.66507267591892690000e-001) (32, 8.98415171854301530000e-002) (33, 4.33327289654224960000e-001) (34, -7.40660024142195390000e-002) (35, 8.49551429716305710000e-001) (36, 8.60703581620743790000e-001) (37, -1.70013255041929930000e-001) (38, 3.95866887546061470000e-001) (39, 3.52993296084660350000e-001) (40, -9.89884571201915110000e-002) (41, -4.10872914448155710000e-001) (42, 3.05962567969702450000e-001) (43, 3.30763991964590500000e-001) (44, -2.45142465225963590000e-001) (45, 4.87030370432937620000e-001) (46, 6.30800698748722350000e-001) (47, 9.47746765461674580000e-001) (48, 1.20828954501598020000e-001) (49, 2.98591101958036230000e-001) (50, 4.49451083990855930000e-001) (10, 8.47390775782181640000e-002) (11, -3.51989980038070190000e-001) (12, 4.22897201155703890000e-002) (13, 5.93683930579611000000e-001) (14, 1.78028328445563380000e-001) (15, 9.13923755275052910000e-003) (16, -6.52305488120642210000e-002) (17, -1.31022602162281410000e+000) (18, 8.04067875785165700000e-001) (19, 1.09575919555712570000e-001) (20, -2.12188526641278990000e-001) (21, -2.51450354370184370000e-001) (22, -4.36718961910454450000e-001) (23, 3.44986748697564960000e-001) (24, -8.52953700304856090000e-002) (25, 5.92193539361177000000e-002) (26, -1.51018838550777050000e-001) (27, 9.20042761236683160000e-001) (28, -4.28857766899507280000e-001) (29, 7.46821298474336870000e-001) (30, 7.61571916064965990000e-001) (31, 7.40820752649920420000e-001) (32, -2.73303696712672680000e-001) (33, -1.56801561029456580000e-001) (34, -2.40513358873202560000e-002) (35, 8.88665254229514150000e-001) (36, 7.83503283990357960000e-001) (37, -7.23936559737321960000e-001) (38, -8.65045790958973580000e-002) (39, 8.30554405685389190000e-001) (40, -1.30091226539219920000e-001) (41, -3.97815601277344390000e-001) (42, -1.88167754654455230000e-002) (43, 1.99324380200257870000e-002) (44, 9.11100492400240270000e-001) (45, -2.90307718005875290000e-001) (46, 5.49921676638076560000e-001) (47, 5.09094086652453480000e-001) (48, 1.16149571540589070000e+000) (49, 5.98783560278663860000e-001) (50, 5.50390904726085870000e-001) (10, -3.75102456737644930000e-002) (11, 1.82169183204636040000e+000) (12, 1.20971315194790250000e-001) (13, 8.17087257861570100000e-001) (14, -3.83710531278330380000e-001) (15, 2.79400694750154890000e-001) (16, 5.99056622371995710000e-002) (17, 2.31843943642743260000e+000) (18, 6.14529831363781140000e-001) (19, 7.23075440507710330000e-001) (20, -3.09162536123970990000e-001) (21, 3.31021989657392600000e-001) (22, -1.57757223137382520000e-001) (23, 6.79656642655057210000e-001) (24, 5.42566604841684400000e-002) (25, 1.04837869648576890000e-001) (26, 6.23605111997750130000e-003) (27, -4.26389470579704650000e-002) (28, 3.41623523516793650000e-001) (29, -4.27797385666104260000e-001) (30, 1.67241157785785410000e-001) (31, 3.33335135967292030000e-001) (32, 3.88360762442533860000e-002) (33, -3.49481671298388850000e-002) (34, -3.07363547356115030000e-002) (35, 9.03370586752312630000e-001) (36, 1.76817872553644580000e+000) (37, 3.69441881610858950000e-001) (38, 1.78451785666926400000e-001) (39, 2.82603956105894390000e-001) (40, 1.25166163645319740000e-001) (41, 4.30701670149393270000e-002) (42, 8.49715645164141330000e-001) (43, 2.91470749354581670000e-001) (44, -2.85259888098884810000e-001) (45, 6.49870692377056970000e-001) (46, 2.42563648116621370000e-001) (47, 1.10168088614989460000e-001) (48, -5.74287055159190650000e-001) (49, -1.99981907281628730000e-001) (50, -1.37169730084063660000e-001) (10, -1.16488899527876620000e-001) (11, 1.67289765660169090000e-001) (12, -3.47748100763347940000e-001) (13, 5.64730050684638770000e-001) (14, 1.01640895232686490000e+000) (15, 8.98877612270644330000e-001) (16, -3.34382005793546540000e-001) (17, 6.02183456896618790000e-001) (18, 3.23551098224146680000e-001) (19, 1.48646455868687440000e-001) (20, 7.81451153817543930000e-001) (21, -1.17601008731998370000e-001) (22, -1.06340811886622810000e-001) (23, 8.12993230009374180000e-001) (24, 9.97192181134133100000e-001) (25, -5.25245769786397700000e-001) (26, -6.17076515067335740000e-001) (27, 1.30332136988891210000e-001) (28, -4.41632113614975900000e-001) (29, 5.67372263695817610000e-001) (30, 7.96126844263221060000e-002) (31, 9.98984479575856680000e-001) (32, 1.37339922489661650000e-001) (33, 1.00168997324714250000e+000) (34, -1.73580998288439370000e-001) (35, 5.09068087588972040000e-001) (36, 5.01402745342460760000e-001) (37, -1.47170352383674040000e-001) (38, -1.88648042973981770000e-001) (39, 4.25489710590022160000e-001) (40, -2.17924681850061030000e-001) (41, -2.10464611896794520000e-001) (42, -4.15031774065660720000e-001) (43, 7.20407357489727730000e-001) (44, 7.63578173173154460000e-001) (45, -2.44476226983958950000e-002) (46, 8.32545499216897130000e-001) (47, 4.95809242548708560000e-001) (48, -5.18826994224637180000e-001) (49, 4.69580077104140960000e-001) (50, 4.17122359364584920000e-001) (10, 9.26718990926911350000e-002) (11, 9.79971771864807940000e-002) (12, -1.01276382616489450000e-001) (13, 6.89235709132674850000e-001) (14, 1.03886023080792820000e-001) (15, 1.02002304451937900000e+000) (16, 2.61197467766508100000e-001) (17, 4.98835419871885180000e-001) (18, 5.63456289034994890000e-001) (19, 3.82436300927574800000e-001) (20, -2.35199966611499830000e-002) (21, 3.52264832821273870000e-002) (22, -2.65488594909517070000e-002) (23, 1.02097850356485820000e+000) (24, 7.01090629384203080000e-001) (25, -1.41553753678606900000e-001) (26, -2.89469548551053220000e-001) (27, 3.53422321047237360000e-001) (28, 1.08429514810354010000e-001) (29, 2.82681486044583320000e-001) (30, 3.92178193209787750000e-001) (31, 7.06906082118622600000e-001) (32, 3.07295996114238690000e-001) (33, 2.19152009207484370000e-001) (34, -5.72451796744449900000e-001) (35, 3.29913462001558580000e-001) (36, 3.56174551483394330000e-001) (37, -8.17620711290689690000e-002) (38, -2.41604080625471840000e-001) (39, 4.70854255293543580000e-001) (40, -1.01148325070361240000e-001) (41, -8.17891414162447150000e-002) (42, 2.11787610042542370000e-001) (43, 6.59560123431298990000e-001) (44, -1.18807574503999880000e+000) (45, 3.16733115547202180000e-001) (46, 5.65304460028986040000e-001) (47, 3.96282922820920540000e-001) (48, -9.28984053340291100000e-001) (49, 3.26527319007390520000e-001) (50, 6.41327993455544250000e-001) (10, -3.92647749658267710000e-001) (11, -2.97835352532393130000e-001) (12, -3.73755379008673120000e-001) (13, -2.18651049795134670000e-001) (14, -1.23601518599319760000e+000) (15, 5.49738691342617550000e-001) (16, -1.78549811385479430000e-001) (17, -2.22376458388846010000e-001) (18, -7.08065772378822510000e-002) (19, 1.75009591968085740000e+000) (20, 7.34070285961724300000e-001) (21, 7.17566785453814030000e-001) (22, 7.48426766559672770000e-001) (23, 9.99568789235316810000e-002) (24, -9.34247118659334570000e-002) (25, 1.30114888705555540000e+000) (26, 2.39658880459173130000e-001) (27, -3.45442505877803620000e-001) (28, 3.41048321746998060000e-001) (29, -7.67774651440669700000e-001) (30, -1.16314527296185880000e-001) (31, 1.20879131826506690000e+000) (32, 8.73084254579898240000e-001) (33, -5.98803115167394040000e-001) (34, 6.74665420834395510000e-001) (35, -2.40427382290999220000e-001) (36, -2.64954640222810510000e-001) (37, 1.89838484310527270000e-001) (38, 7.54965729152492600000e-001) (39, 8.22689489368300890000e-001) (40, 6.51538701104228510000e-001) (41, 3.17740080058533710000e-001) (42, 3.73484630826985020000e-001) (43, 7.30280835372949410000e-001) (44, -4.29998009340267290000e-002) (45, 1.17967297322598760000e+000) (46, 7.73743357843086230000e-001) (47, 1.62876828748222760000e-001) (48, -6.36955334025502280000e-002) (49, 5.16626534040715010000e-001) (50, 2.10684329595728860000e-001) (10, 1.04767066501771100000e+000) (11, -2.83133739163237360000e+000) (12, -9.66245921595106800000e-001) (13, 8.22412769036108160000e-001) (14, 1.74320278001639430000e+000) (15, 5.28230750301858620000e-001) (16, -2.39884930770682490000e-001) (17, -4.17745579539098880000e+000) (18, -2.98461392491308350000e-002) (19, 7.38869609631362810000e-002) (20, -7.63427502484224860000e-001) (21, -6.59771262459678650000e-001) (22, -1.91057069102616080000e-001) (23, 1.07309079664440720000e+000) (24, 3.21990548530612710000e-001) (25, -8.41625651810070240000e-002) (26, -4.07546963588367450000e-002) (27, 4.88009847224438580000e-001) (28, -1.38297463784003290000e-001) (29, 4.39479980402835650000e-001) (30, 6.44237505788824770000e-001) (31, 7.46773469268188770000e-001) (32, -4.25991713056858290000e-001) (33, -9.27444335977960830000e-001) (34, -6.86933032854778470000e-001) (35, 1.56151347034529910000e+000) (36, 4.97714549056710530000e-001) (37, -2.17741655681175900000e-001) (38, -4.92108588536188500000e-001) (39, 1.17509938040327870000e-001) (40, -8.66272407838707850000e-001) (41, -8.81562732097363020000e-001) (42, 4.44514549745449740000e-001) (43, -8.25787065248946850000e-002) (44, 2.51783112958432560000e+000) (45, -4.18804262808025960000e-001) (46, 9.13845508892033530000e-001) (47, 4.12275415688722830000e-001) (48, 1.68384539381917640000e+000) (49, 5.85900495830894990000e-001) (50, 1.36259513194941450000e-001) (10, -4.34528595170073710000e-002) (11, 5.49716322209725440000e-001) (12, 9.36290683464692460000e-001) (13, -5.04316916887536220000e-001) (14, -8.23104238040825300000e-002) (15, 7.45783199113633000000e-001) (16, 3.68468494093513230000e-001) (17, 3.53986287503608670000e-001) (18, 3.11939379995729470000e-003) (19, 1.15694299606460180000e+000) (20, 1.77229306657084610000e+000) (21, -2.28178612995544120000e-001) (22, 4.29735780685422670000e-001) (23, 8.85436071288990820000e-002) (24, 7.10937401149625670000e-001) (25, 3.58823262856233850000e-002) (26, 3.52494700767129240000e-001) (27, -5.41680689473318160000e-001) (28, -6.11154642260318460000e-001) (29, 1.68880127288982020000e-001) (30, -2.01348387901875040000e-001) (31, 7.15548653663623750000e-001) (32, 5.48923699970559680000e-001) (33, -1.03861691669949780000e+000) (34, -5.04618271852256720000e-001) (35, 7.29080093377965980000e-001) (36, -1.61982139857455460000e-001) (37, 1.80759582650944410000e-001) (38, 6.00493418107325260000e-001) (39, 4.34263700258293140000e-001) (40, -1.41865902268193980000e-001) (41, 1.03805313655386630000e-001) (42, -2.14739308543133030000e-002) (43, 5.50083647919330620000e-001) (44, 3.63229365472984070000e-001) (45, 1.48480779328552910000e-001) (46, 8.11260974300042740000e-001) (47, 9.71917930191546490000e-001) (48, 8.84631127883273860000e-002) (49, 5.78343396924359320000e-001) (50, -2.12043510636880930000e-001) (10, 5.97152084123189760000e-001) (11, -5.63614700144835500000e-001) (12, 4.55647796584905900000e-001) (13, -3.62814816672565430000e-001) (14, -1.37404698838214460000e-001) (15, 5.77612010437315470000e-001) (16, 3.62428145014770830000e-001) (17, -3.06516031902260310000e+000) (18, 7.07699451315119350000e-001) (19, -9.40732656437835600000e-005) (20, 1.01848782238351740000e-001) (21, -1.64849858807870590000e-001) (22, -4.87572501925559730000e-002) (23, 2.13548237699138970000e-001) (24, 4.55350499040951980000e-001) (25, -9.51173520054703070000e-002) (26, 3.37979511007539090000e-001) (27, -4.28847190008391720000e-001) (28, 1.22909610186846040000e-001) (29, 2.71492018770536470000e-001) (30, -2.53210280640306040000e-001) (31, 4.30929503412969150000e-001) (32, 8.01313870571562670000e-001) (33, -2.61226980537856310000e-001) (34, 7.21499293418905310000e-002) (35, 8.36125808398746060000e-001) (36, -2.67130948831517170000e-001) (37, 3.50535277799090610000e-001) (38, 4.64951955600124090000e-001) (39, -6.65207678594627040000e-001) (40, 1.17551104101238190000e+000) (41, 3.92884532615486000000e-001) (42, -2.47569049667554860000e-001) (43, 1.36180105235603620000e-001) (44, 2.96480381719858630000e-001) (45, 5.10853358836862000000e-001) (46, 8.33545483613355560000e-001) (47, -1.53323792382476620000e-001) (48, 1.07548100376229750000e-001) (49, -4.47958098805251670000e-001) (50, -3.13365797557083440000e-001) (10, 1.69259968702785420000e-001) (11, 2.98350698949556680000e-001) (12, -2.05834348662121160000e-001) (13, 3.76239154920798400000e-001) (14, 1.09689636066113300000e-001) (15, 9.66672124756923430000e-001) (16, -7.16797356714045650000e-001) (17, -9.54539766286127360000e-001) (18, -1.25823331586442210000e-001) (19, 5.06195636042794450000e-002) (20, 5.11859435655905300000e-001) (21, -2.70251193938207180000e-001) (22, -1.51772645850860530000e-001) (23, 7.92279626568947460000e-001) (24, -4.33354249386582400000e-001) (25, -7.76929607611016150000e-001) (26, -1.36368923241265260000e-001) (27, 1.10700121095132250000e-001) (28, -2.75446641870441750000e-002) (29, 1.13714977355736590000e+000) (30, -5.60398976591206410000e-001) (31, 3.46311920866406940000e-001) (32, 1.77687188644696100000e-001) (33, 1.09176679791998840000e-001) (34, 5.87857263290845760000e-001) (35, 2.26382193586042060000e-001) (36, 5.17373638124249640000e-001) (37, -1.89887547200782710000e-001) (38, 3.64717023313516690000e-001) (39, -9.48118112349289890000e-002) (40, -3.95463542793201770000e-002) (41, 1.75815535829312470000e-003) (42, 2.55089094550729980000e-001) (43, -2.28778927129791560000e-001) (44, 9.04210575671604790000e-001) (45, 1.84582165419930470000e-001) (46, -2.49737309497095910000e-001) (47, 5.06735766094816520000e-001) (48, 1.14134614517941730000e-001) (49, -1.29246065362556390000e-001) (50, 9.02688297116181590000e-001) (10, -1.83303872674440570000e-002) (11, 6.52619041975906030000e-001) (12, 3.84901965729496860000e-001) (13, 2.06054755924002990000e-001) (14, -4.08099515568275170000e-001) (15, 1.20238990790190980000e+000) (16, 6.37066040749957100000e-001) (17, 9.59281356879928550000e-001) (18, 2.44485453762151190000e-001) (19, -2.79621159562749300000e-001) (20, 7.75632851823435670000e-002) (21, -2.71936358122033320000e-001) (22, -7.36079334801477140000e-001) (23, 3.28857413610070040000e-001) (24, 2.14176026668870590000e-001) (25, -8.59505444032831680000e-003) (26, 9.32088698316707820000e-001) (27, 2.27159715792127660000e-002) (28, -4.58108820187070830000e-001) (29, 8.17848453439577740000e-002) (30, 3.99521512633691070000e-001) (31, 7.66129338617182460000e-001) (32, 4.27274041940346350000e-001) (33, -1.66607320852317000000e-001) (34, -1.53881448528634970000e-001) (35, 9.07921353288542290000e-001) (36, -3.96800442270147050000e-001) (37, -4.52160303172843140000e-002) (38, 5.16162189313656980000e-001) (39, 3.89403046495292170000e-001) (40, -3.28310164357720150000e-001) (41, -9.23902708630742200000e-001) (42, -3.79766746541711940000e-001) (43, -1.96463310785265810000e-002) (44, 5.86290417350494030000e-001) (45, -4.50102365140054810000e-001) (46, 7.15713201906181260000e-001) (47, 4.56616548544309280000e-001) (48, 1.89234890819861380000e-002) (49, -1.58083739723380630000e-001) (50, -4.09691614119882750000e-001) (10, -4.31663313282281520000e-001) (11, 2.26985809675397000000e-001) (12, 1.26922213962738700000e-001) (13, 5.55041537267572880000e-001) (14, 3.50483655074821600000e-001) (15, 7.05772496082873290000e-001) (16, -9.77213137722820340000e-002) (17, -9.37022465345046800000e-002) (18, 3.54427838130322910000e-001) (19, 1.92162162887934440000e+000) (20, 1.07521962358708900000e+000) (21, 5.98085934656682360000e-001) (22, 2.06511301079711020000e-001) (23, 4.00617927432680100000e-001) (24, 7.53269690144873360000e-002) (25, -3.24139410284566110000e-001) (26, -1.00021760668603000000e-002) (27, 4.73109052709476620000e-001) (28, 1.44558106159626760000e-003) (29, 8.36891498164101240000e-001) (30, 1.05258621770381630000e+000) (31, 5.91422333175158350000e-001) (32, 2.92434821444779220000e-001) (33, -2.30923972799334660000e-001) (34, -1.42085426320519710000e-001) (35, 7.56867782773953830000e-001) (36, 4.98742201187936380000e-001) (37, -2.60228446445069410000e-002) (38, -1.78961029427381570000e-001) (39, 1.27047841195085790000e+000) (40, 4.90588921840137080000e-001) (41, 3.19186650037389610000e-001) (42, 2.65283384179808460000e-001) (43, -1.84381132764254330000e-001) (44, -8.76487908756720560000e-001) (45, -4.17003048937999500000e-001) (46, 2.10132554968999350000e-001) (47, 4.50621338810899440000e-001) (48, 3.39365115166385890000e-002) (49, 6.27262226587058940000e-002) (50, 1.00448989604017560000e+000) (10, 2.02982870999479980000e-001) (11, 3.57317039982589120000e-001) (12, 1.20728864150863120000e+000) (13, -8.42217808331938990000e-002) (14, 1.73126362066292200000e-001) (15, 4.74242761697477310000e-001) (16, -1.88895148341282880000e-001) (17, -2.37971733558366250000e+000) (18, 1.68713866643304590000e-001) (19, 1.28326707322946800000e+000) (20, 1.77522547133766140000e-001) (21, 2.55793559126040290000e-001) (22, 4.70748703855494390000e-001) (23, 7.76065409014630860000e-002) (24, 1.07394195578265480000e+000) (25, 6.47902400831647410000e-001) (26, 1.36338399852865390000e-001) (27, 2.81560593755329820000e-001) (28, 3.36313271018192690000e-001) (29, 1.62580558111281800000e+000) (30, -3.09003616198631200000e-001) (31, 2.91417406957769580000e-001) (32, 1.22451302841660880000e+000) (33, -7.60590157319990580000e-001) (34, 1.00685811417304660000e+000) (35, 2.30328972938633000000e-001) (36, -2.80304770573376940000e-001) (37, 8.31572566608270060000e-001) (38, 4.24708639647260470000e-001) (39, 3.79731305750855390000e+000) (40, 5.23620971401576150000e-001) (41, 7.29807688242974040000e-001) (42, -1.01771589141022670000e+000) (43, -3.46356448401436480000e-001) (44, 1.44078092396091010000e-001) (45, 5.67093996141665670000e-001) (46, 4.83577918409380190000e-001) (47, 1.93478528845909190000e-001) (48, 4.87713443120489920000e-001) (49, 1.08995305777049770000e+000) (50, 7.68714031649760240000e-002) (10, 6.44476515284159630000e-005) (11, 2.38988161928197880000e-001) (12, 1.62079965420964090000e-001) (13, -1.14144610072904200000e+000) (14, 5.96932989605941030000e-002) (15, 2.65654669266826290000e-001) (16, -9.46710933862079520000e-002) (17, 1.41532387405890190000e-001) (18, -4.05820420760521360000e-002) (19, -6.92402175102324880000e-002) (20, 2.58085294011867990000e+000) (21, -5.99956667318117810000e-001) (22, 3.70707668178000880000e-001) (23, 2.26862198333551530000e-001) (24, 7.20638543206664760000e-001) (25, 4.06480157334725310000e-001) (26, 3.41396151058730110000e-001) (27, 8.50421549358457040000e-001) (28, -1.23966023199520230000e-001) (29, -1.84910751653895260000e+000) (30, 9.32688287371266630000e-001) (31, -1.44575491367039790000e-001) (32, 1.95211125771609120000e-001) (33, 6.81570328246906890000e-001) (34, -3.64136758392696270000e-001) (35, 2.20220249124483210000e-001) (36, 6.56407663514563030000e-001) (37, 8.54635117719460990000e-001) (38, -1.11687357945354090000e-001) (39, 9.02547890920780470000e-001) (40, 2.46086911089313460000e-001) (41, 3.57004610094256380000e-001) (42, 3.76135376277356710000e-001) (43, 3.20070779818526880000e-001) (44, 1.54600531540899810000e+000) (45, 5.06206170406489630000e-001) (46, 5.29584776236837200000e-002) (47, 8.33497929445957690000e-001) (48, -2.86153240906468760000e-001) (49, 8.36982806876741090000e-001) (50, 9.18229832318481100000e-001) (10, 1.38323154569899770000e-001) (11, 9.14900987365784730000e-001) (12, -1.47404640408912660000e-002) (13, -3.58830851136707040000e-001) (14, 4.81242665443050670000e-001) (15, 1.80876172253875260000e-001) (16, 7.56122236414948500000e-002) (17, 1.35218699474703200000e+000) (18, -1.76675690181508940000e-001) (19, -9.55367014202603420000e-002) (20, 1.11963921186329590000e-002) (21, -4.17286920234314630000e-001) (22, 4.20438983745028800000e-001) (23, 1.04642168709696120000e-001) (24, -5.97677300951892980000e-001) (25, 2.43441767774811050000e-001) (26, 7.81512091566651520000e-002) (27, -1.58555114251306940000e-001) (28, 4.13520631067360920000e-001) (29, 4.59880045779986150000e-001) (30, 1.66033362175878750000e-001) (31, 1.01424146228276830000e-001) (32, 4.49240234053900120000e-001) (33, -5.42290599965201610000e-002) (34, -1.09331719733243130000e-001) (35, 9.48563763685816850000e-001) (36, -5.03325143420870200000e-001) (37, 3.20364961727400310000e-001) (38, 3.81070976432382300000e-001) (39, -1.45113081993649310000e-001) (40, -1.08564254024094420000e-001) (41, 2.28933293684001310000e-001) (42, -9.95658342966433820000e-002) (43, -7.28654050410993850000e-001) (44, -2.47666943520974490000e-001) (45, -2.06401223299543680000e-003) (46, 8.69653395558801610000e-001) (47, 6.85927298330159250000e-002) (48, 6.72615623936907660000e-001) (49, 1.33262782425630080000e-001) (50, -4.04924864888248690000e-001) (10, 1.81177036936751970000e-001) (11, 2.65538487207559680000e-001) (12, 2.21213427824930030000e-001) (13, 8.63812485697174950000e-001) (14, 1.37937152813103790000e+000) (15, 6.56927734430346020000e-001) (16, 1.41731133266623430000e-001) (17, -4.90129032046662250000e-001) (18, 6.56647149796156020000e-001) (19, -6.98894131744700720000e-001) (20, 1.28117003082397260000e+000) (21, -5.18405078075482970000e-001) (22, 7.66786720840059720000e-001) (23, 1.53060990908545670000e-002) (24, -5.59385869420662260000e-001) (25, 4.05702291305585720000e-001) (26, 1.86415488307384030000e-001) (27, -2.30805617430727940000e-001) (28, 1.86159546970285110000e-001) (29, 1.74257209200693390000e+000) (30, -8.23512249542171160000e-003) (31, 2.99839607129439190000e-001) (32, 3.45175928334530700000e-001) (33, 8.36962146383926740000e-001) (34, 1.85671969900277680000e+000) (35, 1.41799577838496340000e-001) (36, 5.80123620607601380000e-002) (37, -5.35215320752739160000e-002) (38, 4.64271625567568640000e-002) (39, 3.76504744728301420000e-001) (40, 2.66377164259145040000e-001) (41, 3.76948765788634110000e-003) (42, -1.15266900812761340000e+000) (43, 1.00930321019407910000e-001) (44, 4.42796584370412250000e-001) (45, 3.74653857572641970000e-001) (46, 1.13037430625946370000e-001) (47, -2.68738455037199060000e-001) (48, -9.81205617452231280000e-002) (49, -1.99295538278905060000e-001) (50, -4.94528242543345490000e-001) (10, -7.17995318675729440000e-002) (11, 6.82530625980294900000e-001) (12, 9.72560937158203910000e-002) (13, 1.39051927965668150000e-001) (14, 2.22676690840094120000e-001) (15, 3.74707301736024350000e-001) (16, 3.72438694409780060000e-001) (17, -2.69807756964472960000e-001) (18, 2.82084781246422560000e-001) (19, 1.29784800384791450000e-001) (20, -2.21793599299688060000e-001) (21, -5.73503600924628040000e-001) (22, 4.01962504034224580000e-002) (23, 1.51204723126364680000e+000) (24, -5.35356149032312430000e-001) (25, 4.89885079262883990000e-001) (26, 5.18410668443874510000e-001) (27, 1.48661138875540190000e-001) (28, 1.40316227880948500000e-001) (29, 9.08931790515326160000e-002) (30, 8.98793552377306210000e-002) (31, 1.71932298607884450000e-001) (32, 3.48015519457580970000e-001) (33, -3.60674167346502150000e-001) (34, 2.08365644198461430000e-001) (35, 9.72346738849371390000e-001) (36, 3.99781837101306990000e-001) (37, 7.61502685280172060000e-001) (38, 1.65875016763912950000e-001) (39, -7.09506426653069290000e-002) (40, -3.61012452538915730000e-001) (41, 8.45429270266560150000e-003) (42, 4.01464584901993720000e-001) (43, 3.68858869699867920000e-001) (44, -2.32730990907734360000e-001) (45, -3.95586909712095590000e-001) (46, 4.90710396540109280000e-001) (47, -6.74136983810546960000e-002) (48, 6.58609933874042210000e-001) (49, -9.17713904043598650000e-001) (50, -2.84248022313789930000e-001) (10, -1.96116480109766940000e-002) (11, -4.11894200174923240000e-002) (12, -1.69495459509496960000e-001) (13, 1.46782521922765500000e-001) (14, 8.15490341308553800000e-001) (15, 1.06214513960207890000e+000) (16, -1.15036389152545880000e-001) (17, 3.93868845261240550000e-001) (18, 1.41248928992070870000e-001) (19, 5.02448766199066310000e-001) (20, 1.03579130077999460000e+000) (21, -4.11304951107120330000e-002) (22, -1.00604585203567260000e-001) (23, 2.37066927212654540000e-001) (24, 1.11831038801040330000e+000) (25, -9.02987822919790050000e-002) (26, -8.64287552696924310000e-002) (27, -5.46032384673125540000e-001) (28, -1.08979772678222880000e-001) (29, 9.65328464749208080000e-001) (30, 9.44951237165569390000e-001) (31, 3.96129597048625440000e-001) (32, -2.46279142401856120000e-002) (33, 5.81477608700145750000e-001) (34, 1.46284806754662240000e-001) (35, 7.11206279275453100000e-001) (36, 5.68563267380090550000e-001) (37, -6.37244718465629220000e-002) (38, -1.53905478371005320000e-001) (39, 9.14493476954624350000e-001) (40, -5.91337980044551320000e-002) (41, -3.15900651016191360000e-001) (42, 5.63202608815516650000e-001) (43, 7.80312114917595890000e-001) (44, 3.05366869448365270000e-001) (45, 2.28500929060279700000e-002) (46, 5.95066110301106340000e-001) (47, 9.01287187474851480000e-001) (48, -1.78464734503508110000e-001) (49, 5.23597001929003490000e-001) (50, 4.98342290339316980000e-001) (10, 5.50576450952546040000e-001) (11, -2.33627122174300790000e+000) (12, -3.13050232689509540000e-001) (13, -5.13954669571856760000e-001) (14, -4.10149673575566360000e-001) (15, 9.88573971137372550000e-002) (16, 7.95089361842122090000e-001) (17, 9.72743750837994250000e-001) (18, -4.41372726995192740000e-002) (19, -1.54516957623187480000e-001) (20, -3.01728061045628050000e-001) (21, 2.03344996142118210000e-001) (22, 3.10021217756422830000e-001) (23, 2.37557131663684000000e-001) (24, 3.56442183728810260000e-001) (25, -8.32649622074725090000e-002) (26, -4.25529651279705160000e-001) (27, -4.11556730443330760000e-002) (28, 5.53466966058165920000e-001) (29, 1.15991056916640810000e-001) (30, -5.35710997701938310000e-001) (31, 3.55894380512936590000e-001) (32, 2.23558090139427510000e-001) (33, 9.71907709465042460000e-002) (34, 4.71350232352987620000e-001) (35, 1.05981876362970340000e+000) (36, 7.23249591059482940000e-001) (37, -9.13798776831392520000e-002) (38, 1.03911145217785620000e+000) (39, 3.03787721668356160000e-001) (40, -1.08555031020829780000e-001) (41, 3.72009732439795790000e-001) (42, -1.98172628445811460000e-001) (43, 3.47644992407162120000e-001) (44, -3.60920450291122350000e-001) (45, 1.36545291974625120000e-002) (46, 4.85724887413959420000e-001) (47, 2.86057793229678060000e-001) (48, -1.77829784640555380000e-002) (49, -1.89843054787400240000e-001) (50, 5.29319766792517130000e-001) (10, 1.30642227488725030000e+000) (11, 6.01019807925160960000e-001) (12, 8.65514591275659880000e-001) (13, -3.20193830136994150000e-001) (14, 7.25461463561919430000e-002) (15, 5.39705427223886810000e-001) (16, 1.88809699021071090000e-001) (17, -4.28373154703038610000e-001) (18, -2.03890711507680680000e+000) (19, 7.70054853046606700000e-001) (20, 5.99100951933386970000e-001) (21, 1.07370312019314880000e+000) (22, 1.02052896580697670000e+000) (23, -4.80570890208039890000e-001) (24, -3.12252912382364120000e+000) (25, 3.52660543712858100000e-001) (26, 3.16181651387939020000e-001) (27, 4.17655571144785850000e-001) (28, 1.14698113276932220000e+000) (29, 6.86132390293470620000e-001) (30, -2.97209520189083310000e-001) (31, -5.80553123493069640000e-001) (32, -1.69520510142057640000e-002) (33, -5.00379392209547520000e-001) (34, 3.05954978184342030000e+000) (35, -5.36508729109249960000e-001) (36, 3.57724731712931840000e-001) (37, 5.78063924952515800000e-001) (38, 1.02612365701396820000e+000) (39, -5.14693229205871280000e+000) (40, 9.89317118537701320000e-001) (41, 9.37958935463646390000e-001) (42, 8.37285454478176260000e-001) (43, -1.64243914178225100000e+000) (44, -8.34247090049798470000e-001) (45, -2.56715137234125030000e-001) (46, -9.82611546593997050000e-002) (47, 2.01755048002673300000e-001) (48, 1.07453612042125110000e+000) (49, -2.24764959661632980000e-001) (50, 5.70640235454840440000e-001) (10, -1.20564245642530810000e-001) (11, -4.59188228591704110000e-001) (12, -8.02795462038484280000e-003) (13, 6.71536677617252940000e-002) (14, -7.77666390355104700000e-003) (15, 6.02830059317481240000e-001) (16, -4.71676333345631640000e-001) (17, 3.64616721445553400000e-001) (18, 1.79165935428755340000e-002) (19, -1.12017593475115880000e+000) (20, -9.44594417640482350000e-001) (21, 4.40421219228128550000e-001) (22, -1.27891414995405990000e-001) (23, 2.54241525780866780000e-001) (24, -1.14452322049593640000e-001) (25, -2.68966313957624600000e-001) (26, 1.55862384420779490000e-001) (27, 4.50415418622592540000e-001) (28, -5.94671668605716080000e-001) (29, 2.19120838270552070000e+000) (30, 5.95737785265708860000e-001) (31, 9.09575024215231840000e-001) (32, 1.26363365823425240000e+000) (33, 1.57038243009809220000e+000) (34, 5.83960873217992280000e-001) (35, 5.93969362235410970000e-001) (36, 5.37014908866721870000e-001) (37, 8.09392648785771110000e-001) (38, 4.11510620651746820000e-001) (39, 9.91610015133463920000e-001) (40, 3.57552375447667940000e-001) (41, 5.86647227329500750000e-003) (42, -6.63707792679622210000e-001) (43, 1.32402454993362840000e-001) (44, -3.82482623884483840000e-001) (45, 2.78598962595934810000e-001) (46, 6.33891599628408910000e-001) (47, 4.83529831673423390000e-001) (48, -3.11668207234848840000e-001) (49, 7.09038240910077330000e-002) (50, 4.46687115154024210000e-001) (10, 5.82674117877543530000e-001) (11, -1.98262895670460960000e-001) (12, 1.40147481199628390000e-001) (13, -7.23112540664699880000e-001) (14, -1.25338437445392680000e+000) (15, 3.45912716732791960000e-002) (16, 3.96697533230334580000e-001) (17, -9.38842218918348510000e-001) (18, 5.47527123408378500000e-001) (19, 5.87940840480210110000e-001) (20, -2.74025296491063330000e-001) (21, 1.51231395097411150000e-001) (22, 4.35420664172840920000e-001) (23, 3.67732218763938300000e-001) (24, 1.37934115960873040000e-001) (25, 4.80937358814322590000e-001) (26, -5.07808942390474250000e-001) (27, 2.84668723172263160000e-001) (28, 9.16523664680352850000e-001) (29, -1.15003388333383390000e+000) (30, 4.36191901576563510000e-001) (31, 2.03931674781755360000e-001) (32, 4.20043937244634400000e-001) (33, -7.83090918628803420000e-001) (34, 7.70304323656002430000e-001) (35, 3.08325392267669310000e-001) (36, -1.26279882962449380000e-001) (37, 7.71265043842377230000e-002) (38, 2.20093167142014710000e-001) (39, -3.78986359950222840000e-001) (40, -1.45408080849821070000e-001) (41, 2.67215296658054770000e-001) (42, 4.13497481988791660000e-001) (43, 3.88521243668134670000e-001) (44, -8.26742455809817200000e-001) (45, 3.45843240569486010000e-001) (46, 2.07877275889207620000e-001) (47, 3.95119727098101890000e-002) (48, 6.72257380648919270000e-001) (49, 8.00278474720121040000e-001) (50, -1.03141992248662550000e-001) (10, -3.41378236376322700000e-001) (11, 1.71101091709012420000e+000) (12, -4.06178225384382310000e-001) (13, 1.20377145559348040000e-001) (14, 6.55276885127354710000e-001) (15, 3.06116214521760240000e-001) (16, 6.27577811731834660000e-002) (17, 1.23088121468093980000e+000) (18, 2.44122436343133350000e-001) (19, 2.21106657604810360000e+000) (20, 3.31332394425293630000e+000) (21, -3.80773535909974480000e-001) (22, -8.83419921841729490000e-002) (23, 8.57366258678575740000e-001) (24, 4.60125409761043710000e-001) (25, 3.92847040299063640000e-001) (26, -1.27438249128340180000e-001) (27, 8.47407821128176920000e-001) (28, -3.80980660659771260000e-002) (29, 4.42654657210310110000e-001) (30, -5.53562295552100240000e-002) (31, 7.26238670689800640000e-001) (32, 3.39766269201222940000e-001) (33, -5.53546358927663130000e-001) (34, -2.76661390400119440000e-001) (35, 3.94813464377800740000e-001) (36, 7.26679064559156010000e-002) (37, -2.84555604443252230000e-001) (38, 8.70772220717700720000e-002) (39, 4.75495909784974860000e-001) (40, -4.38608776591969010000e-001) (41, -1.01415905932859180000e-001) (42, 9.10912028194813960000e-002) (43, 5.78863472184279140000e-001) (44, 7.86135417150338190000e-001) (45, -8.47828270044008600000e-002) (46, 8.76202416157613520000e-001) (47, 4.31307463599857390000e-001) (48, -4.77613289392066820000e-001) (49, 1.11452430012372770000e+000) (50, 3.03065195234973050000e-001) (10, -1.01527396709891010000e-001) (11, 5.03465912233909460000e-001) (12, 8.70227794235252370000e-003) (13, 5.90696817672946570000e-001) (14, 2.50013426966142760000e-001) (15, 3.53764039922198900000e-001) (16, -1.77407931281116790000e-001) (17, -8.29468293999647720000e-001) (18, 5.84762980676203030000e-001) (19, 9.72947209555963700000e-001) (20, 1.51262100210598830000e+000) (21, -4.17892104901672450000e-001) (22, -2.20895684882573940000e-001) (23, 1.03596785403317630000e+000) (24, 6.07629665600782690000e-001) (25, 1.54564682697061890000e-001) (26, -3.81823018842095020000e-001) (27, 2.39547516392294740000e-001) (28, 9.54710216532512480000e-002) (29, 8.61813480557889200000e-001) (30, 8.02680032875672240000e-001) (31, 4.57945811384181890000e-001) (32, 5.59687592824358320000e-001) (33, 1.05023955292717820000e+000) (34, 9.49271911699191700000e-002) (35, 1.17088825297913510000e+000) (36, 2.01632051110670380000e-002) (37, 2.11700566449812690000e-001) (38, -4.40941322153862000000e-001) (39, 9.20237084978663300000e-001) (40, -3.65984797340933370000e-001) (41, -1.32370867199230750000e-001) (42, -7.05146363767941260000e-001) (43, 3.11653085705299530000e+000) (44, -9.75056577361376410000e-001) (45, 3.02069278700058290000e-001) (46, 7.66518066175039260000e-001) (47, 2.21607990368383910000e-001) (48, 2.41943288353113210000e-001) (49, 7.50360876074771310000e-001) (50, 4.67987272078689010000e-001) (10, 3.19361156896853070000e-001) (11, 1.30763471779837800000e-001) (12, -1.22252909994743810000e-001) (13, 7.19048141485697070000e-001) (14, 1.67610073214654070000e-001) (15, 4.12753159223218920000e-001) (16, 2.63590502044643790000e-001) (17, -1.34213896835345240000e+000) (18, 2.81258041865900920000e-001) (19, 4.05234179135837870000e-001) (20, 1.37343339325122550000e-001) (21, -1.70092374493596790000e-001) (22, 7.44917446864973020000e-002) (23, 9.19546206522572910000e-001) (24, 5.16394502356427810000e-001) (25, -7.52889088627968880000e-001) (26, -3.96646795411124410000e-001) (27, 6.17787413350214030000e-001) (28, 4.45638992310173620000e-001) (29, 9.67652842716119290000e-001) (30, 4.70014629848082450000e-001) (31, 7.19335719100332450000e-001) (32, -1.08369423044835570000e-001) (33, -1.67202590368266930000e-001) (34, -4.44348414118603820000e-001) (35, 6.91521839446439190000e-001) (36, 6.75317435628294270000e-002) (37, 1.05988689677572950000e-001) (38, 1.79447595142521560000e-002) (39, 2.89935574728008410000e-001) (40, -1.61102589343386500000e-001) (41, -8.48153174361027940000e-002) (42, 3.30601019706355750000e-001) (43, 7.66799935271077930000e-001) (44, 1.24939631096190600000e+000) (45, -3.72258790209594350000e-001) (46, 6.33743639101457370000e-001) (47, 5.53312612465541090000e-001) (48, 3.94695477135636570000e-001) (49, 9.17084561693441550000e-001) (50, 3.95905035270922470000e-001) (10, 3.25613846222686800000e-001) (11, 4.36593740012797830000e-001) (12, 2.42495658353923870000e-001) (13, 2.81557329881381100000e-001) (14, 5.52510688853676160000e-001) (15, 5.05643627973349390000e-001) (16, -1.54172607687771520000e-001) (17, 7.04963710383229910000e-001) (18, -2.59037007190736970000e-001) (19, -6.04700501738908850000e-002) (20, -3.55153531899879420000e-001) (21, 2.35417296466561620000e-001) (22, -1.15434937077552680000e-002) (23, 3.97268133004278550000e-001) (24, 5.93651573609477460000e-002) (25, -1.90185596449613470000e-001) (26, 2.99359375198645250000e-001) (27, -3.69022922174821850000e-001) (28, 2.00101531363480330000e-002) (29, 1.07107678559814530000e+000) (30, -1.68253145391872750000e-001) (31, 7.47405787403820470000e-001) (32, -6.26408184368113850000e-001) (33, 1.07269663827266600000e-001) (34, -3.87948688123442410000e-001) (35, 2.32223301026742630000e-001) (36, -1.15917162088912510000e-001) (37, -3.23451647192765810000e-001) (38, 2.90899723759830700000e-001) (39, -5.62254046754357080000e-001) (40, -4.00079306618285750000e-002) (41, -5.42530411755951180000e-001) (42, 1.98057978573940700000e-001) (43, 1.46681190678215250000e-001) (44, 1.77578389842030620000e-001) (45, 9.50003077671681680000e-001) (46, 3.01616842289169630000e-001) (47, 1.05008780818126410000e+000) (48, -2.71436338575122390000e-001) (49, -1.43111102945031880000e-001) (50, 3.74500559693929420000e-001) (10, -5.87762823289716740000e-001) (11, 7.66222919994146570000e-002) (12, -4.75572407556693890000e-001) (13, 1.90180179260032000000e-001) (14, 6.09910641158040280000e-001) (15, 1.08237374163987400000e+000) (16, 2.82730246865602550000e-001) (17, 4.20698892548144960000e+000) (18, 5.83132760084873800000e-001) (19, 2.55653659045770310000e-001) (20, -1.12619150886441600000e-001) (21, 5.49136498647236570000e-001) (22, 5.57354633679065130000e-001) (23, 6.76549034089795720000e-001) (24, 6.00337405722756180000e-001) (25, 3.93788970871159910000e-002) (26, 1.31671787309751240000e-001) (27, 5.01700869897042100000e-001) (28, -8.63966474373171890000e-002) (29, 1.21401371934894000000e+000) (30, 8.10118040390774010000e-002) (31, 9.18563908787862090000e-001) (32, 9.71761052939214000000e-001) (33, -4.84602366690632500000e-001) (34, -4.52329791774253530000e-001) (35, 2.55526122630602760000e-001) (36, 5.63582008714266890000e-001) (37, -3.46422784103148080000e-002) (38, -2.67350579228087580000e-001) (39, 9.48990097245807300000e-001) (40, -2.00683417723218770000e-002) (41, 9.26756129175764500000e-002) (42, 5.78234858792497250000e-001) (43, -1.57101640716629330000e-001) (44, -1.52327048338242570000e-001) (45, -1.49980281973554530000e-002) (46, 1.65004104997375250000e-001) (47, 8.86117926537405180000e-001) (48, -1.64693749899814970000e-001) (49, 6.64284878731091880000e-001) (50, 7.10151719827693760000e-001) (10, 7.51866130434807100000e-001) (11, 2.33111494531027040000e+000) (12, -7.26921519357147880000e-001) (13, -2.36101379383568750000e-002) (14, -9.42474451669511050000e-001) (15, 1.96180422082216340000e-001) (16, -8.75772800586137180000e-002) (17, -1.46902848068579230000e+000) (18, 4.12619538235732440000e-001) (19, 6.19304702999471160000e-001) (20, -3.61034277800613420000e-001) (21, 1.27461688457663650000e-001) (22, 9.75020298335049000000e-001) (23, 6.70129538912547450000e-001) (24, -8.76049934544146480000e-001) (25, 5.25259814466344730000e-001) (26, 1.65571191048345450000e-001) (27, 1.30534430077454440000e-001) (28, 1.13931141222612050000e+000) (29, -1.07136597179680400000e+000) (30, -3.78318055677559910000e-002) (31, -1.37952625928023070000e-001) (32, 1.97868926420998210000e-001) (33, -4.75767814226241590000e-001) (34, 4.68886255924195360000e-001) (35, 2.89733287505363200000e-001) (36, 3.12523899416295770000e-001) (37, -5.74748169953142930000e-001) (38, 7.76215896427850050000e-001) (39, -1.33003823828946740000e-001) (40, 1.77356047345913720000e-002) (41, 3.02238196020439280000e-001) (42, 4.78797356703688990000e-002) (43, -8.34282885335671190000e-001) (44, -4.07977512615897150000e-001) (45, 1.77839205659534730000e-001) (46, 2.86069778033030360000e-003) (47, 2.66166236201076660000e-001) (48, 1.61750331843880070000e-002) (49, 7.16990590356573750000e-001) (50, -6.12992769723984860000e-001) (10, 2.04680466364013320000e-001) (11, -2.38636957481428770000e-001) (12, -7.73260846330715570000e-002) (13, 4.84344229284171760000e-001) (14, 7.94045437148538480000e-001) (15, 7.35010080249109630000e-001) (16, 3.37516996502550750000e-002) (17, -3.19446824499868360000e+000) (18, 3.94043177560790710000e-001) (19, 1.99316053557031660000e-001) (20, 2.30187423314199500000e-001) (21, 3.61240057072700960000e-001) (22, -9.60407072977167850000e-002) (23, 8.81710037179850410000e-001) (24, 2.28534387597631510000e-001) (25, -1.30702817423653160000e-002) (26, -1.31250493266862080000e-001) (27, 4.09878301433309170000e-001) (28, 2.45797049875433080000e-001) (29, 1.93402982756848820000e+000) (30, 4.57453265809216190000e-001) (31, 7.43402340085196340000e-001) (32, 3.89225428967092280000e-001) (33, 5.24757777769451980000e-001) (34, -3.67726389496825290000e-001) (35, 9.95131416407943200000e-002) (36, 2.58364546926536710000e-001) (37, 4.88494721102929190000e-001) (38, 1.99415427396427980000e-001) (39, 5.13697771491446020000e-001) (40, 5.33691477025412390000e-002) (41, -1.04785463216840330000e-001) (42, -1.14523544805908230000e-001) (43, 7.05955312491765910000e-001) (44, -1.80320671544407420000e-001) (45, 6.85521087318246350000e-001) (46, -2.63920362479246330000e-001) (47, 6.66982748117552200000e-001) (48, -9.05767363235754630000e-002) (49, 4.80797451709383260000e-001) (50, 3.85094368281308720000e-001) (10, 1.13483543898343790000e-001) (11, 1.26910945105992080000e+000) (12, 1.51717117156898920000e-001) (13, 2.43469723991995150000e-001) (14, 3.14069618036711240000e-001) (15, -3.04186679352309530000e-001) (16, 2.83216282960560420000e-002) (17, -1.63815005683364690000e+000) (18, 3.94210452416688840000e-001) (19, 6.54239231612879500000e-002) (20, 1.02163373616310290000e+000) (21, -2.80489508101009530000e-001) (22, 5.07343816193902450000e-001) (23, 4.75169189440178270000e-001) (24, 5.25983778188203520000e-001) (25, 4.24745782435719530000e-001) (26, 2.20407880969520630000e-001) (27, -1.68502525351934770000e-001) (28, 6.45258391089165500000e-001) (29, -1.13905264175633560000e-001) (30, 4.43256092262507450000e-001) (31, -6.68858072552405560000e-002) (32, 3.98094601381260900000e-001) (33, 1.25105499726096860000e+000) (34, 6.63996261321628030000e-001) (35, 2.11049828489403050000e-002) (36, 4.44634140404437270000e-001) (37, 4.94294229487999670000e-001) (38, 1.41554071380792730000e-001) (39, 7.54243822038834110000e-001) (40, 1.67449273653493270000e-001) (41, 4.68412473031497630000e-001) (42, -5.55339445340944930000e-001) (43, 2.18062000493006640000e-001) (44, -5.55019590378619480000e-001) (45, -1.20167876542907850000e-001) (46, 1.94454773643180510000e-001) (47, -2.62404059276960530000e-001) (48, -1.74963233286702050000e-001) (49, 3.08690370795882410000e-001) (50, -1.37152869686545750000e-001) (10, 2.31810721373871430000e-001) (11, 2.97704901425334480000e+000) (12, -1.81822708041872730000e-001) (13, 3.65539566215746680000e-001) (14, -1.02310533719660410000e-001) (15, 9.49780217539186620000e-001) (16, -6.98232816908030550000e-002) (17, -2.83503284644700430000e-001) (18, -6.65734633448979980000e-002) (19, 2.56124901896796040000e-001) (20, 1.28547334156833440000e+000) (21, -1.08370949809319130000e-001) (22, -1.24662060370061640000e-001) (23, 5.43626137694732780000e-001) (24, 2.90764991316990020000e-001) (25, -6.18736212792158070000e-001) (26, -7.92584138759357270000e-002) (27, 1.14116437403388060000e+000) (28, 2.25965398193517550000e-001) (29, 1.32054432236102290000e+000) (30, 4.25893802222349020000e-001) (31, 7.80844465265505990000e-001) (32, 5.19438004334210610000e-001) (33, 1.49184870996216940000e-001) (34, 1.20911038072583740000e+000) (35, 8.48045095868070750000e-001) (36, 1.02261207775392200000e+000) (37, -2.23259007484489070000e-001) (38, -1.06396965684822630000e-001) (39, 2.78945745841185030000e-001) (40, 1.15129969089410820000e-001) (41, 1.82425691843729480000e-002) (42, -2.39927910608162610000e-002) (43, 1.64055715727253680000e+000) (44, -9.61004112472636510000e-001) (45, 3.14878594291589040000e-001) (46, 1.82175002184052910000e-001) (47, 7.20233206895784070000e-001) (48, 1.55153013525312970000e-001) (49, 5.26419119378856220000e-001) (50, 6.99480756137979890000e-001) (10, 5.57168196940723950000e-001) (11, -7.48959707004270060000e-001) (12, -9.56108628034918650000e-003) (13, -1.42270855411989580000e-001) (14, 1.17536001768838330000e-001) (15, 1.30355291368237670000e-001) (16, 1.63499712637207920000e-001) (17, -2.57110377487098910000e+000) (18, 2.95825108483045270000e-001) (19, -1.64501688778851720000e+000) (20, 2.66315131518353580000e+000) (21, 3.13445582800447600000e-001) (22, 3.74305563513403880000e-001) (23, 8.20470497543151490000e-001) (24, 7.86444588299125890000e-001) (25, 1.19128594087930640000e-001) (26, 1.86270417463071300000e-001) (27, 1.08370694593420410000e+000) (28, 5.77447232206601320000e-001) (29, 4.95895040905810380000e-001) (30, 3.44231097757083880000e-001) (31, 2.52576892247435850000e-001) (32, 4.32637168562376000000e-001) (33, 1.31963377291597510000e+000) (34, 4.07082075999740500000e-001) (35, -1.34646278555947600000e-001) (36, 5.83377801091531920000e-001) (37, 5.16527250318074120000e-001) (38, 3.97831101793163670000e-001) (39, 5.00259173453260540000e-001) (40, 1.60453003572734930000e-001) (41, 6.45985938024928320000e-001) (42, 1.32540922586080550000e-001) (43, -6.53403070468711820000e-001) (44, -3.31690329897273410000e+000) (45, -8.05227606216417310000e-001) (46, 6.63215802225993050000e-002) (47, -1.90519266022412060000e-001) (48, -1.30376849600966830000e+000) (49, 5.24524542318817180000e-001) (50, 7.46277979896424050000e-002) (51, 2.35418999507350370000e-002) (52, 3.35679924710577890000e-001) (53, 2.96468412616628820000e-001) (54, -1.09420460731713590000e-003) (55, 2.34701901413408740000e-001) (56, 5.27354955457199000000e-002) (57, 1.00262589364479430000e+000) (58, 7.95613200385241190000e-002) (59, -6.37476925878100790000e-001) (60, 1.76694329382036050000e-001) (61, -3.96390436887725030000e-002) (62, 7.02459542949555450000e-002) (63, 2.51663350834739950000e-001) (64, 4.64955972384740510000e-001) (65, 2.10567865551746360000e-001) (66, -1.51135797329499610000e-001) (67, 5.72038044814745450000e-002) (68, 1.02219676463261950000e-001) (69, 3.47085119694135800000e-001) (70, 2.92697755325836030000e-001) (71, 3.90315078330251510000e-003) (72, 3.42194191895672410000e-001) (73, 2.19635432764836240000e-001) (74, 2.86133767039725880000e-002) (75, -4.17542847883491110000e-003) (76, -1.18364074774571020000e-001) (77, 1.00003839407912510000e-001) (78, 1.75458617696112260000e-001) (79, -6.13847098469648620000e-002) (80, 2.31081351974433270000e-001) (81, 9.09721652484908770000e-001) (82, 1.00708318531874520000e-001) (83, -1.27231062545278740000e-001) (84, 3.97623302772384670000e-002) (85, 8.01380568082829400000e-002) (86, -1.22908010320067280000e-002) (87, -2.85721100678344550000e-003) (88, -4.68399603638589120000e-001) (89, -2.41778948672748180000e-001) (90, 1.04123403227125630000e+000) (91, -1.55924041516923050000e-001) (51, -1.04297211597900440000e-001) (52, -2.11058164136387230000e-001) (53, 6.90508825125825900000e-001) (54, 1.64199895004182860000e-001) (55, -3.82327840594433030000e-001) (56, -1.11781495179080340000e-001) (57, 3.76498820395962390000e-001) (58, -1.33574061964440050000e-001) (59, -3.74139460355180360000e-002) (60, 1.17801852418729780000e+000) (61, 2.52775714739810860000e-001) (62, 1.53688277334880610000e-001) (63, -1.59389752978751910000e-001) (64, -9.92899737769813860000e-002) (65, -9.50900859151802110000e-001) (66, 2.82613612349923380000e-001) (67, 3.66786465838809640000e-001) (68, -7.75468862804124940000e-002) (69, 8.32279592515950960000e-001) (70, -3.66557949599078530000e-002) (71, 8.20998985573010920000e-003) (72, -7.03404650737228100000e-002) (73, 1.97007619207046540000e-001) (74, 5.81248306627289430000e-002) (75, -1.53448366772692830000e-001) (76, 5.80423400177875330000e-002) (77, 3.22420651157952040000e-001) (78, -3.65108261138897450000e-003) (79, -3.38527956423400130000e-002) (80, 2.43209971293750470000e-001) (81, -1.79626867867055650000e-001) (82, 3.49106235073500940000e-002) (83, -5.71199680118089640000e-001) (84, 7.04564274414582470000e-002) (85, 3.22075539364907680000e-001) (86, 8.94660576701873240000e-002) (87, 1.82768998540552620000e-001) (88, 1.06665749446895820000e-001) (89, 3.79080638239955140000e-001) (90, -4.71822423290897620000e-002) (91, -8.57605136597224480000e-001) (51, 5.33388233351709680000e-002) (52, -3.37441803932966520000e-001) (53, 9.00396406257351840000e-001) (54, -2.05056753468368350000e-002) (55, -7.27553068048376050000e-001) (56, -2.91341866789629650000e-002) (57, -9.36955331683846790000e-002) (58, -1.51176628293299610000e-001) (59, 1.28464532258806250000e-001) (60, 1.23681717280969860000e+000) (61, 1.31190172550923540000e-002) (62, 2.31351315860768540000e-001) (63, -3.71229289230174730000e-001) (64, -1.57533293895783160000e-001) (65, 1.78111963951441350000e-001) (66, -1.19320741438262420000e-002) (67, 3.90413208710218170000e-001) (68, 6.86173082192583490000e-002) (69, 5.07928476626952510000e-001) (70, 1.47737720513895300000e-001) (71, -1.24117671753631310000e-002) (72, 8.37791567461374300000e-003) (73, 9.89165251550358950000e-001) (74, -2.10318430902246490000e-002) (75, 4.32170720061220430000e-002) (76, 4.69553632593059660000e-002) (77, 1.85880570183609790000e-001) (78, -1.00564119510545070000e-001) (79, 3.42854925192798070000e-002) (80, 1.40994784368173280000e-001) (81, 4.53214698051682620000e-002) (82, 4.14306351690287840000e-002) (83, 6.44861372959573830000e-002) (84, -5.96972824078746550000e-002) (85, 2.34753155027433600000e-001) (86, 2.83805314485286790000e-001) (87, 9.66370677081912900000e-002) (88, -1.99625176834101610000e-002) (89, -7.26710141632895130000e-002) (90, 1.55298886287279820000e-002) (91, -4.11199204949766080000e-001) (51, 7.93001191974379350000e-001) (52, 2.45853705952327470000e-001) (53, 4.75252003754740300000e-001) (54, -3.16546950733345990000e-001) (55, 5.05496904747241850000e-001) (56, 6.76211846606684510000e-002) (57, 1.14529885002246410000e-001) (58, 6.59058050333108600000e-001) (59, -2.83687400437866110000e-001) (60, 1.41825341920260120000e-002) (61, -1.16928335584813040000e-001) (62, 5.75994299453619240000e-001) (63, 1.69882914499526000000e-001) (64, -5.38641165786425400000e-001) (65, -6.66795755717628220000e-002) (66, 8.60674737141168820000e-001) (67, -7.47014703558855490000e-002) (68, 1.79004938593328280000e-001) (69, 8.11600478171601300000e-001) (70, 6.27046048870512960000e-001) (71, -8.48438423662505050000e-002) (72, 4.52913035631911880000e-001) (73, -8.94410672291264530000e-002) (74, 5.91016934542577980000e-001) (75, 4.56208279911608120000e-001) (76, -3.79110610728652320000e-001) (77, -1.25985049103029270000e-001) (78, 3.98253737032541810000e-002) (79, 5.81592090595254850000e-001) (80, -7.66913968819193940000e-002) (81, 3.53582893166889470000e-002) (82, 4.84633313526853020000e-001) (83, 5.96585898956857600000e-002) (84, 6.92080146560973940000e-001) (85, 8.54844096494538630000e-002) (86, 2.88941875133394140000e-001) (87, 7.34827424133286530000e-002) (88, 9.21577220011635330000e-001) (89, -4.93408307582097250000e-001) (90, -1.52320360296785830000e-001) (91, -2.00895536415307140000e-001) (51, 5.21095439340099750000e-002) (52, 2.36114138934619130000e-001) (53, 4.57839329628352070000e-002) (54, 7.24646423788972930000e-001) (55, 7.73099762577051930000e-001) (56, -6.24093852618285650000e-001) (57, 4.34132046728290120000e-002) (58, 3.35148223178457420000e-002) (59, 1.50697243753366180000e-001) (60, 6.10959952010652010000e-001) (61, -7.99849632412572900000e-001) (62, 2.58426769883468910000e-001) (63, 3.65906384249196030000e-001) (64, 5.29242558711118110000e-002) (65, 6.41896858587805760000e-001) (66, -1.89681195887699790000e-002) (67, 1.05260721854028040000e-001) (68, 2.06038955056353060000e-001) (69, 5.47330647211542900000e-001) (70, 1.21576389609708650000e-001) (71, -5.52958346716594040000e-002) (72, -6.29038472931320050000e-003) (73, -1.89258339407172040000e-001) (74, 3.37347229637051170000e-002) (75, -8.47111937655949170000e-001) (76, -3.76946293385751140000e-001) (77, 2.16856354313335300000e-001) (78, 2.88256636838841450000e-001) (79, -1.43128792118692500000e-001) (80, 4.97418325921031190000e-001) (81, 6.44493019410087710000e-002) (82, 2.44099931539941060000e-001) (83, 5.53798763412327370000e-001) (84, 1.38849463112168200000e-001) (85, 1.22121213682679100000e+000) (86, 2.48204814006197900000e-001) (87, -1.13147862251580890000e+000) (88, 4.47888744318342970000e-001) (89, 1.77185325141722670000e-001) (90, 6.76406078060056290000e-002) (91, -1.68742738214362450000e-001) (51, 2.69033690214537990000e-001) (52, 3.86417757293960050000e-001) (53, 4.63934043278008860000e-001) (54, -3.04815446917656330000e-001) (55, 5.31928809070352000000e-001) (56, 2.12931108387894310000e-001) (57, -7.96346890049483840000e-002) (58, -4.14991161388739840000e-002) (59, 3.66456404864027310000e-001) (60, -5.29024983377794580000e-001) (61, 4.04055350592761150000e-001) (62, 1.65292880289748590000e-001) (63, 8.40488569385964500000e-001) (64, -3.23739610158081280000e-001) (65, -1.46902389039481080000e-001) (66, -1.57381273499353020000e-001) (67, 1.10396340820208970000e+000) (68, 5.77228333712086260000e-001) (69, 5.15300566840914190000e-001) (70, 2.69442464055225590000e-001) (71, -3.99846930304899820000e-001) (72, -6.87930050428341020000e-002) (73, 8.47958578263555700000e-002) (74, -4.58940495884327810000e-002) (75, 2.43656330844164770000e-001) (76, -6.39831032855071700000e-001) (77, 1.13399948513217240000e+000) (78, 1.68337473770393260000e-001) (79, 2.92004946830516850000e-002) (80, -1.26093164981075700000e-002) (81, 1.64983881259143760000e-001) (82, 5.03378333201945290000e-002) (83, 2.55100174508554490000e-001) (84, 7.06689195861999410000e-001) (85, 3.51779817270336110000e-002) (86, 7.54496613119555740000e-001) (87, -7.14666263567623470000e-002) (88, 9.63932542634551860000e-002) (89, 1.31122629607827000000e-001) (90, 5.45778148141013930000e-002) (91, -9.76146922505182760000e-002) 
