FANN_FLO_2.1
num_layers=6
learning_rate=0.700000
connection_rate=1.000000
network_type=1
learning_momentum=0.000000
training_algorithm=2
train_error_function=1
train_stop_function=1
cascade_output_change_fraction=0.010000
quickprop_decay=-0.000100
quickprop_mu=1.750000
rprop_increase_factor=1.200000
rprop_decrease_factor=0.500000
rprop_delta_min=0.000000
rprop_delta_max=50.000000
rprop_delta_zero=0.100000
cascade_output_stagnation_epochs=12
cascade_candidate_change_fraction=0.010000
cascade_candidate_stagnation_epochs=12
cascade_max_out_epochs=150
cascade_min_out_epochs=50
cascade_max_cand_epochs=150
cascade_min_cand_epochs=50
cascade_num_candidate_groups=2
bit_fail_limit=1.00000001490116120000e-001
cascade_candidate_limit=1.00000000000000000000e+003
cascade_weight_multiplier=4.00000000000000020000e-001
cascade_activation_functions_count=10
cascade_activation_functions=3 5 7 8 10 11 14 15 16 17 
cascade_activation_steepnesses_count=4
cascade_activation_steepnesses=2.50000000000000000000e-001 5.00000000000000000000e-001 7.50000000000000000000e-001 1.00000000000000000000e+000 
layer_sizes=10 20 20 20 20 6 
scale_included=0
neurons (num_inputs, activation_function, activation_steepness)=(0, 0, 0.00000000000000000000e+000) (0, 0, 0.00000000000000000000e+000) (0, 0, 0.00000000000000000000e+000) (0, 0, 0.00000000000000000000e+000) (0, 0, 0.00000000000000000000e+000) (0, 0, 0.00000000000000000000e+000) (0, 0, 0.00000000000000000000e+000) (0, 0, 0.00000000000000000000e+000) (0, 0, 0.00000000000000000000e+000) (0, 0, 0.00000000000000000000e+000) (10, 5, 5.00000000000000000000e-001) (10, 5, 5.00000000000000000000e-001) (10, 5, 5.00000000000000000000e-001) (10, 5, 5.00000000000000000000e-001) (10, 5, 5.00000000000000000000e-001) (10, 5, 5.00000000000000000000e-001) (10, 5, 5.00000000000000000000e-001) (10, 5, 5.00000000000000000000e-001) (10, 5, 5.00000000000000000000e-001) (10, 5, 5.00000000000000000000e-001) (10, 5, 5.00000000000000000000e-001) (10, 5, 5.00000000000000000000e-001) (10, 5, 5.00000000000000000000e-001) (10, 5, 5.00000000000000000000e-001) (10, 5, 5.00000000000000000000e-001) (10, 5, 5.00000000000000000000e-001) (10, 5, 5.00000000000000000000e-001) (10, 5, 5.00000000000000000000e-001) (10, 5, 5.00000000000000000000e-001) (10, 5, 5.00000000000000000000e-001) (30, 5, 5.00000000000000000000e-001) (30, 5, 5.00000000000000000000e-001) (30, 5, 5.00000000000000000000e-001) (30, 5, 5.00000000000000000000e-001) (30, 5, 5.00000000000000000000e-001) (30, 5, 5.00000000000000000000e-001) (30, 5, 5.00000000000000000000e-001) (30, 5, 5.00000000000000000000e-001) (30, 5, 5.00000000000000000000e-001) (30, 5, 5.00000000000000000000e-001) (30, 5, 5.00000000000000000000e-001) (30, 5, 5.00000000000000000000e-001) (30, 5, 5.00000000000000000000e-001) (30, 5, 5.00000000000000000000e-001) (30, 5, 5.00000000000000000000e-001) (30, 5, 5.00000000000000000000e-001) (30, 5, 5.00000000000000000000e-001) (30, 5, 5.00000000000000000000e-001) (30, 5, 5.00000000000000000000e-001) (30, 5, 5.00000000000000000000e-001) (50, 5, 5.00000000000000000000e-001) (50, 5, 5.00000000000000000000e-001) (50, 5, 5.00000000000000000000e-001) (50, 5, 5.00000000000000000000e-001) (50, 5, 5.00000000000000000000e-001) (50, 5, 5.00000000000000000000e-001) (50, 5, 5.00000000000000000000e-001) (50, 5, 5.00000000000000000000e-001) (50, 5, 5.00000000000000000000e-001) (50, 5, 5.00000000000000000000e-001) (50, 5, 5.00000000000000000000e-001) (50, 5, 5.00000000000000000000e-001) (50, 5, 5.00000000000000000000e-001) (50, 5, 5.00000000000000000000e-001) (50, 5, 5.00000000000000000000e-001) (50, 5, 5.00000000000000000000e-001) (50, 5, 5.00000000000000000000e-001) (50, 5, 5.00000000000000000000e-001) (50, 5, 5.00000000000000000000e-001) (50, 5, 5.00000000000000000000e-001) (70, 5, 5.00000000000000000000e-001) (70, 5, 5.00000000000000000000e-001) (70, 5, 5.00000000000000000000e-001) (70, 5, 5.00000000000000000000e-001) (70, 5, 5.00000000000000000000e-001) (70, 5, 5.00000000000000000000e-001) (70, 5, 5.00000000000000000000e-001) (70, 5, 5.00000000000000000000e-001) (70, 5, 5.00000000000000000000e-001) (70, 5, 5.00000000000000000000e-001) (70, 5, 5.00000000000000000000e-001) (70, 5, 5.00000000000000000000e-001) (70, 5, 5.00000000000000000000e-001) (70, 5, 5.00000000000000000000e-001) (70, 5, 5.00000000000000000000e-001) (70, 5, 5.00000000000000000000e-001) (70, 5, 5.00000000000000000000e-001) (70, 5, 5.00000000000000000000e-001) (70, 5, 5.00000000000000000000e-001) (70, 5, 5.00000000000000000000e-001) (90, 5, 5.00000000000000000000e-001) (90, 5, 5.00000000000000000000e-001) (90, 5, 5.00000000000000000000e-001) (90, 5, 5.00000000000000000000e-001) (90, 5, 5.00000000000000000000e-001) (90, 5, 5.00000000000000000000e-001) 
connections (connected_to_neuron, weight)=(0, 1.04161973296301300000e+000) (1, -1.64172752348131760000e+000) (2, 4.40461177532930070000e-001) (3, 2.21993522181303530000e-001) (4, 3.42396377893711970000e-002) (5, -3.64664917468184930000e-002) (6, 2.97661783019105770000e-002) (7, 1.81010426729810670000e+000) (8, 3.22941816287942330000e-001) (9, 3.73926175320682900000e-004) (0, -1.95649308542377900000e+000) (1, 2.89808381821126470000e+000) (2, 3.04166463786368080000e-001) (3, -2.90321049359280330000e-001) (4, 5.60036057721416960000e-001) (5, 1.88176106394130970000e-002) (6, 4.61787054259917010000e-001) (7, 4.50746741700034870000e-001) (8, 1.39056346061219720000e-001) (9, 2.50726491167402370000e-001) (0, 2.53276762935663150000e+000) (1, 1.54357918736605200000e+000) (2, 9.01055127003564720000e-001) (3, 1.02704775786478390000e+000) (4, 7.66389268800541920000e-001) (5, -6.04241968196347460000e-001) (6, 9.43446705772955530000e-001) (7, 5.29577699015520210000e-001) (8, -1.76051183268986340000e-004) (9, 7.44689579410129030000e-001) (0, -3.07407098969936810000e+000) (1, -2.33307053919561610000e-001) (2, -1.30774099779268430000e-001) (3, 1.59822847269643490000e+000) (4, -1.69295056460341240000e-001) (5, 6.37075229336639400000e-001) (6, 8.38368103579008140000e-003) (7, 5.79974517878830560000e-002) (8, -2.76649395676833650000e-003) (9, -1.18481243276929580000e-001) (0, -1.42834693214729080000e+000) (1, -5.27060977004048300000e-001) (2, -1.86189939260313800000e-002) (3, 2.88505573974295550000e-001) (4, -2.32965039411040690000e-001) (5, 1.24650200564572770000e-001) (6, -2.36978333081303450000e-001) (7, -1.59866284959605730000e-001) (8, 1.29365914693372660000e-002) (9, -4.99324247637482140000e-002) (0, -1.76141129900196860000e+000) (1, -2.38048649402677360000e+000) (2, 1.55991330396977960000e-001) (3, -2.60884570882772230000e-001) (4, -1.72718024628896360000e+000) (5, 1.26089965985812300000e+000) (6, -1.68583321922377850000e-001) (7, 2.13594598973097130000e-001) (8, -2.37959364501867700000e-002) (9, -1.16411005441272930000e-001) (0, 3.64785240426976580000e-001) (1, -7.09108256411288610000e-001) (2, 8.00426306124274790000e-001) (3, -1.29790561844596390000e-001) (4, -3.37104916531249940000e-002) (5, 1.62710566534215030000e-001) (6, 2.87658601941796710000e-001) (7, -2.06256873654242890000e-001) (8, 1.53101496943691320000e-001) (9, 5.97621555363816240000e-002) (0, 1.75659095556457930000e+000) (1, 1.39309378604222210000e+000) (2, -1.77238110759566570000e+000) (3, 5.19565344620298800000e-001) (4, 6.24319926444156790000e-001) (5, 2.55106292957206660000e-001) (6, -2.38925937127995000000e-002) (7, 2.81861799266465540000e-001) (8, 1.76457857210000730000e-001) (9, -7.55451618996758470000e-002) (0, 5.63266231845913210000e-002) (1, -4.74259663036260380000e-001) (2, 9.08959164800217100000e-002) (3, 7.06298485648050310000e-002) (4, -2.03917949379676670000e-002) (5, -3.50523642975147990000e-001) (6, -5.24888568253986140000e-003) (7, 5.21437957077621290000e-004) (8, -5.13641132475311290000e-001) (9, 2.39439983626841990000e-001) (0, 8.42683548332797350000e-001) (1, -7.50964873415569940000e-001) (2, -3.79594988699782790000e+000) (3, 1.91999776788654130000e-001) (4, -4.76076411265350270000e-001) (5, -2.08803104639426030000e-001) (6, -3.78404784501866490000e-002) (7, -5.01146626933775650000e-001) (8, -1.16449072783404870000e-001) (9, 4.27037789082637230000e-001) (0, -5.49376664484207410000e-001) (1, 3.12190207567617910000e+000) (2, 1.59257982543144410000e-001) (3, 1.36384176369319630000e-001) (4, -4.11097313335276160000e-001) (5, 7.35388257968108920000e-001) (6, 8.78345402454443060000e-002) (7, 1.03138732123226260000e+000) (8, 2.47374828345305890000e-001) (9, 8.37174597676682450000e-001) (0, 1.17128955401899090000e+000) (1, -9.43541894534275550000e+000) (2, 2.01253868624606990000e+000) (3, 3.46776186212676630000e-002) (4, -4.76717611630268140000e-002) (5, 6.95669244484661140000e-003) (6, -1.57954173150682160000e-001) (7, 1.77747362835677420000e-002) (8, 2.59366174914580920000e-001) (9, 3.66115406631850770000e-001) (0, 1.05622200212656090000e+000) (1, 8.88727463849075800000e-002) (2, 1.40412019039087340000e-001) (3, -8.84132698874190440000e-004) (4, 2.82966029505682390000e-001) (5, -1.03283367736893030000e-001) (6, -2.04487760023777080000e-001) (7, -3.37897342128648300000e-001) (8, -2.92226366246009750000e-002) (9, -1.16395133596733790000e-001) (0, -1.64309445591022480000e-001) (1, -1.19035756478663200000e+000) (2, -7.96515152382045180000e-002) (3, -2.34647615894330920000e-001) (4, -5.01683295614219000000e-002) (5, -3.10434878900309080000e-002) (6, -6.45730731825131940000e-002) (7, -1.54756140826638130000e-001) (8, 3.07367195278941240000e-001) (9, 6.00101779171788640000e-001) (0, -3.86157747678674390000e-001) (1, 4.25539782459280700000e-001) (2, -1.02845708706578300000e+000) (3, -1.06268318320750660000e-001) (4, -9.67360922039495720000e-003) (5, 1.10635804477894130000e-001) (6, 6.25773830280706880000e-001) (7, -8.82182055012570850000e-002) (8, -3.69605344466619630000e-001) (9, 2.90471773089661380000e-002) (0, -9.17610354372284110000e-002) (1, -1.59322166589190450000e+000) (2, 3.29159246681671120000e-001) (3, 7.25405847389213880000e-002) (4, 3.54565897222672120000e-001) (5, -3.04830361523794390000e-001) (6, 1.43962309795770870000e-002) (7, 6.89728346327318360000e-002) (8, -1.50924415825287960000e-001) (9, 3.64280891878720760000e-001) (0, -2.53100598612407910000e-001) (1, 8.10550175766223350000e-001) (2, -8.75267654003368390000e-002) (3, 2.84014697220527690000e-001) (4, -1.74037259528679880000e-001) (5, -6.49714214459209520000e-001) (6, 3.45698187715288710000e-001) (7, 4.69807642745499410000e-001) (8, 2.94569264417755270000e-001) (9, 2.17539414139432540000e-001) (0, -4.14765843292634970000e+000) (1, -3.15828076863275340000e+000) (2, 5.12960892436119220000e+000) (3, 8.57127144559543420000e-001) (4, 6.19233054079869840000e-001) (5, 6.43108795395998520000e-002) (6, -1.58327027285735400000e+000) (7, 9.93704691680257210000e-001) (8, -5.15813978888583770000e-003) (9, -9.11618593977702310000e-002) (0, -7.15453386095553310000e-001) (1, -1.00452777594283340000e-002) (2, -3.53235524994501910000e-002) (3, 4.21485834036569170000e-002) (4, -5.68631864457060270000e-001) (5, 1.50965236374639680000e-001) (6, 2.58899434350744400000e-002) (7, -2.94695288795584880000e-001) (8, -1.93135420153929230000e-001) (9, 1.35653634610369330000e-001) (0, -2.75185663375560410000e+000) (1, -5.08136421991279620000e-001) (2, 8.34787475712186690000e-003) (3, 3.48465839901758110000e-001) (4, 6.31981580190644430000e-001) (5, -4.11016087177790090000e-001) (6, 1.58638325100362110000e+000) (7, 6.45732600856925190000e-001) (8, 2.02891967351290570000e-002) (9, 8.25906519078271030000e-003) (0, -9.49760305592439740000e-001) (1, -9.22569423080094740000e-002) (2, -9.71123836060012070000e-001) (3, -3.91211237650635040000e-001) (4, -9.07624952269990990000e-002) (5, 2.38589266804538900000e-001) (6, 1.50527000814598690000e-001) (7, -4.61008245617806550000e-002) (8, -2.00946667714128670000e-001) (9, -3.90051432093550600000e-002) (10, 1.73645778025549560000e-001) (11, 4.15659781396955860000e-001) (12, -7.39039143796095810000e-001) (13, -4.73098300700032500000e-001) (14, -5.86990985453392460000e-001) (15, 3.13033296648482340000e-001) (16, 3.44615086966421350000e-002) (17, -4.34303542086476760000e-001) (18, 3.97934294204959740000e-001) (19, -1.23420441418300110000e+000) (20, -1.55770179552753710000e-001) (21, 8.56983190333142850000e-001) (22, 5.51657017882435040000e-001) (23, 4.84941356828919310000e-001) (24, 1.22087304071362050000e-001) (25, -5.69941709376361240000e-001) (26, 1.63898179616879970000e-001) (27, -9.29838320528704740000e-002) (28, 1.11386390629002570000e+000) (29, 6.58610316624138190000e-002) (0, 1.39399028046999950000e+000) (1, -1.66632123723125010000e+000) (2, 3.08949409889878490000e+000) (3, 4.92542871454847380000e-001) (4, 7.73883799407858310000e-002) (5, 7.50102763221687560000e-001) (6, 9.33507694920769900000e-002) (7, 3.79726121859293220000e-001) (8, 2.36164844369896760000e-001) (9, 2.05138820078881680000e-001) (10, -4.06979489222839830000e-002) (11, 3.67662115659035440000e+000) (12, -5.98496219268217610000e-001) (13, 5.21658025057071590000e-001) (14, -1.69621071153122110000e-001) (15, -8.25282703721155310000e-001) (16, 8.58229155614708580000e-001) (17, 9.56731924197738120000e-001) (18, 1.61322481075884120000e+000) (19, -4.56617510994754620000e-001) (20, -3.86824734719418080000e-001) (21, 1.15436057313607670000e+000) (22, 5.84404540399882880000e-001) (23, 1.68354484541393080000e+000) (24, 1.33362585416908260000e-001) (25, 1.64791162252382040000e+000) (26, -1.74740545136852040000e+000) (27, -2.37187776424787060000e-002) (28, -5.54918079554709700000e-002) (29, -7.69635690515737960000e-002) (0, -6.12232560860833000000e-001) (1, -1.48553037621701740000e-001) (2, -1.55432189599407880000e+000) (3, -9.69212085142876770000e-002) (4, 1.19241740981594050000e-001) (5, 3.46301676650361550000e-001) (6, 1.79906217971189030000e-001) (7, 7.14396628984196730000e-002) (8, 6.17020716670649730000e-001) (9, -1.28988605513747630000e-001) (10, -3.99321329685892900000e-001) (11, -6.86566180682751770000e-001) (12, 3.48933290332843040000e-001) (13, 8.72306846291946440000e-001) (14, 5.51029473519957900000e-001) (15, 6.54538461307350940000e-001) (16, 2.52425793746139050000e-001) (17, -4.22032516588274680000e-001) (18, -1.12189183845848640000e-001) (19, 8.74381835374015810000e-001) (20, 2.51720907718116170000e-001) (21, 1.91591574383602080000e-001) (22, -8.23219556364507420000e-002) (23, 4.84565096602253280000e-002) (24, 2.27537954281201580000e+000) (25, 3.33374846382757330000e-001) (26, -5.69251715109625680000e-002) (27, -4.30697242735249400000e-001) (28, 7.71425975053663840000e-001) (29, -4.31526051762345030000e-002) (0, 6.22372906434702920000e-002) (1, 2.22159023981856850000e+000) (2, -1.64808106754468130000e+000) (3, -8.72136964700869490000e-002) (4, 3.82174141548967950000e-001) (5, 2.75493494889767110000e-002) (6, 1.15257308195172460000e-001) (7, -8.76224618195116430000e-001) (8, 7.23738852632186820000e-002) (9, 2.37845500401042190000e-001) (10, -8.50261824302770310000e-001) (11, -1.08828068662706380000e-001) (12, -1.13904801462274910000e+000) (13, 2.94233559001926890000e-002) (14, 2.66178039530383040000e+000) (15, -4.42266875744475650000e-001) (16, 1.19462204550051350000e-001) (17, 5.59213877753230610000e-001) (18, 8.91660738046971550000e-001) (19, 2.41044636850210080000e-001) (20, -5.96769367219124990000e-001) (21, -2.25384844938760260000e-004) (22, 1.45703976288790100000e+000) (23, 9.19891194701233150000e-001) (24, -1.08220491982629550000e+000) (25, -4.48057607681232180000e-002) (26, 3.80527386494055870000e-001) (27, 1.28398937900752010000e+000) (28, 1.81428142851893080000e+000) (29, -1.31754683791055770000e+000) (0, -4.07167247825767480000e+000) (1, -1.98766392995193740000e+000) (2, 1.65101601866776050000e+000) (3, 5.57217548251370040000e-001) (4, 6.86290536253616360000e-001) (5, -8.39107726935458430000e-001) (6, -9.25913946281062270000e-002) (7, 9.20859127801615110000e-002) (8, -2.64257434736953230000e-001) (9, 2.82476049278044650000e-001) (10, 8.81559663825878690000e-001) (11, -7.82733224001542990000e-001) (12, 6.17078104778692850000e-001) (13, 1.41565839139607050000e+000) (14, 1.52208000941180850000e+000) (15, 2.24956108792055690000e-001) (16, 3.37722371570619520000e-001) (17, 3.79497290701677870000e-001) (18, -1.18251196541408070000e-001) (19, 1.09832156753595410000e+000) (20, 1.48985994267874070000e+000) (21, 7.90415157382989060000e-001) (22, 2.06725475009730930000e+000) (23, 7.11474596068593310000e-001) (24, 2.15298621965471570000e-002) (25, 3.62031421966525100000e-001) (26, -2.77383359808185130000e-001) (27, 1.26100542601351480000e-001) (28, 5.81912829729586250000e-001) (29, 4.36679342114782320000e-001) (0, 6.74792334282972210000e+000) (1, -4.28424457949234230000e+000) (2, -3.59973514955555960000e-001) (3, -9.69734562618281420000e-002) (4, -2.50582988955843410000e-001) (5, 2.21105348017178430000e-001) (6, -5.77644078186668740000e-002) (7, -2.38164206657742040000e-001) (8, 9.34520340315088930000e-003) (9, 4.51598677014024840000e-001) (10, -1.22853759081300280000e-001) (11, 7.03074631605648310000e-001) (12, -8.50254523854770290000e-001) (13, -1.01576722255971250000e+000) (14, -6.83820658806606030000e-001) (15, 8.58577181616817400000e-001) (16, 5.42333837665096020000e-001) (17, 1.07566343400971940000e-002) (18, 3.90675054864182800000e-001) (19, 5.17668181763302980000e-001) (20, 1.97646932603666230000e-001) (21, -6.41706565200560190000e-002) (22, -3.94357742335386900000e-001) (23, 6.02487842876586630000e-001) (24, 3.92849196231754070000e-001) (25, -1.04098330207537270000e-001) (26, -7.24153700409267270000e-002) (27, -4.23947448392804490000e-002) (28, 2.06327325214149320000e-001) (29, -3.46410152190444020000e-001) (0, -1.08501529396444330000e+000) (1, 6.65790090371241150000e-001) (2, -3.84521748044748870000e-001) (3, 3.88766743369985460000e-001) (4, 5.64275561808069700000e-001) (5, -7.37636408471325280000e-001) (6, 1.45142319915217120000e-001) (7, -2.84841110631119280000e-002) (8, -9.06579774334304450000e-002) (9, -7.95708879262089440000e-001) (10, -2.26323649838862720000e-001) (11, -3.16723438962614460000e-001) (12, 3.01076827843737570000e-001) (13, 9.15063574957801110000e-001) (14, 1.41034198851634600000e+000) (15, 5.22419408978720520000e-001) (16, -2.47670953441427750000e-001) (17, 1.64405551763110610000e-001) (18, -9.79518976167410020000e-002) (19, 7.56758793715840430000e-001) (20, -6.62202218262164520000e-002) (21, 5.76841961173479190000e-001) (22, 5.66904504018842720000e-002) (23, 1.15947001575582810000e-001) (24, 3.00839422068270250000e-001) (25, -1.21847495723576730000e-001) (26, 8.64962620952073600000e-002) (27, -2.35581675102841950000e-001) (28, 7.48286323748776350000e-001) (29, 2.24995636160444660000e-001) (0, 1.48307120691245500000e+000) (1, -3.61588992700235420000e-001) (2, 4.77619926676299040000e-001) (3, 1.57146086420195730000e-001) (4, 5.09447707047730460000e-001) (5, -8.41404905495477420000e-001) (6, 2.53749629203686600000e-001) (7, -1.90828060409131060000e-001) (8, 1.70991491062789910000e-001) (9, 4.46636576607782440000e-001) (10, 6.21655896537052330000e-001) (11, 8.26182056164960320000e-001) (12, 3.75618383712328920000e-002) (13, -1.03572273080883450000e-001) (14, -1.77924937320573460000e+000) (15, -6.10576632585650870000e-001) (16, 1.38769739538426950000e+000) (17, -2.06867043156598010000e-001) (18, 1.20770654314588890000e+000) (19, -7.43775889170305020000e-001) (20, -1.71719868096690990000e-001) (21, -4.75654881739437100000e-002) (22, 5.09907001978308070000e-001) (23, 1.88116901625790530000e-002) (24, 9.83728496117080690000e-001) (25, 3.73566189354024520000e-001) (26, -4.30912468401696670000e-001) (27, 4.91130361561632590000e-001) (28, -7.59374315646811460000e-001) (29, 9.57078337165545580000e-002) (0, -6.89679516347976840000e+000) (1, -7.77769561707210430000e-002) (2, -6.04280331347876940000e-002) (3, -1.07384713304057660000e-001) (4, 6.37789604547670250000e-002) (5, 5.36586134973065070000e-001) (6, 2.03463873931767620000e-001) (7, 3.01777356339129330000e-001) (8, -5.94853968878733610000e-002) (9, 2.22257764753643480000e-001) (10, 2.91260509864736010000e-001) (11, -1.94055691941896730000e-001) (12, -6.11181561717434540000e-001) (13, -9.58060696157965600000e-002) (14, 5.61471677812969920000e-001) (15, 5.00961888309077060000e-001) (16, -7.46354761662426540000e-001) (17, 3.95524820713171300000e-001) (18, 2.84796849113959250000e-001) (19, -4.02389769173922050000e-001) (20, -4.56435373637046060000e-002) (21, -1.79160959081940600000e-001) (22, 6.70027309519056760000e-001) (23, 1.86840977762170240000e-001) (24, 3.13711119122551500000e-004) (25, 1.80370891055624150000e-001) (26, -5.87332031337030460000e-002) (27, 3.15664343142198990000e-001) (28, -1.28095876761354970000e+000) (29, -1.62031586173806640000e-001) (0, -1.61907372583465010000e+000) (1, -2.42715865768741910000e+000) (2, -1.21778244076565830000e+000) (3, 5.48995907518770370000e-001) (4, 3.98833295979314830000e-001) (5, -1.21421080378587330000e-001) (6, 3.21261591057831200000e-001) (7, -3.16790064890057950000e-001) (8, 8.25411949505074900000e-002) (9, -5.19413087661911580000e-002) (10, 9.86483409000958600000e-002) (11, -3.97638648294378170000e-001) (12, 2.02251195259677250000e-001) (13, 7.47244425101707080000e-001) (14, 3.32154540321642040000e-001) (15, 1.00909527125839490000e-002) (16, 3.46870472542083680000e-002) (17, 3.46816454369094310000e-001) (18, 1.23537381908260000000e-002) (19, 3.15537236098284050000e-001) (20, -3.02178154320189370000e-002) (21, -1.36328941973008210000e-001) (22, 5.11621691820198340000e-001) (23, 3.06204545486187920000e-001) (24, 2.95944665780896290000e-001) (25, 1.53237932857623330000e+000) (26, 3.12278436739665040000e-001) (27, 2.18554754100286770000e-001) (28, -3.77094946576119920000e-001) (29, -1.12281138544640750000e-001) (0, 1.36002532291299380000e-001) (1, -5.95846355122716260000e+000) (2, -3.94830877868258320000e+000) (3, 4.90627933445490550000e-001) (4, -5.02206675902572840000e-001) (5, 2.69173828651713130000e-001) (6, 1.49272830528377010000e+000) (7, 4.45332797802617470000e-001) (8, 9.46189278009785670000e-002) (9, 7.87749152946172540000e-001) (10, 2.40452163508236140000e-001) (11, 2.22801901832215380000e+000) (12, 7.48733195596138600000e-001) (13, -6.18706911112216550000e-002) (14, -1.00985002914142320000e+000) (15, 2.18789711828363320000e-001) (16, 8.66018877605155610000e-001) (17, 1.35519771408050380000e-001) (18, 8.13297285247993750000e-002) (19, 9.13720791851109630000e-002) (20, 3.71606577054526150000e-001) (21, -2.71782474658198160000e-001) (22, -3.28186446983664440000e+000) (23, 3.12172005924725880000e-001) (24, 1.25386909651006070000e+000) (25, 7.52537433448725700000e-001) (26, 1.78732228275045010000e-001) (27, -7.64477746275068040000e-001) (28, -1.89220760791281420000e-001) (29, -1.83420812669233320000e-001) (0, 3.61319326657869280000e+000) (1, 1.52430937504810430000e+000) (2, 1.48113151391866830000e+000) (3, 6.20988315303810270000e-001) (4, -8.77734453605742180000e-003) (5, 2.45887052653871480000e-001) (6, -1.95527780586857990000e-002) (7, 2.36915614905557710000e-001) (8, 2.85173414959194570000e-001) (9, -5.44070871335395220000e-001) (10, -1.74094164320900250000e-001) (11, -6.61759897038955100000e-001) (12, -4.49881320156599930000e-001) (13, 1.57960643191271730000e-001) (14, 2.61624300540846070000e-001) (15, 5.53064532237911080000e-001) (16, 5.42838844689314090000e-001) (17, -2.82358670044217220000e-001) (18, 1.28604316846692550000e-001) (19, 1.40229485083979980000e-001) (20, 2.06703371436912640000e-001) (21, 6.18813567940764280000e-002) (22, 2.43452510518652130000e-001) (23, 1.54204923052141010000e-001) (24, 4.37506454832828770000e-002) (25, 2.25302454931794290000e-002) (26, 1.13430932115716750000e-001) (27, -4.68490347029633490000e-001) (28, 2.44673002402301280000e-001) (29, -2.45913241279649840000e-002) (0, 8.60799266085445150000e+000) (1, 5.15348932199536590000e+000) (2, -4.62775436049834400000e-001) (3, 1.79942203990589690000e-001) (4, -2.22724916461161960000e-001) (5, 8.07190415235549240000e-001) (6, -2.56163520156200860000e-001) (7, 1.07966226784411310000e-001) (8, 2.94315654518487010000e-001) (9, 3.07677976586748610000e-001) (10, 2.58380693640847810000e-001) (11, -3.00043755231576450000e-001) (12, 2.34010304473255130000e-001) (13, 2.90902039753051680000e-001) (14, 3.36992346580662350000e-001) (15, 6.98222774294018360000e-001) (16, -1.10864789911500590000e+000) (17, -3.91444188930444470000e-001) (18, -2.09939100954394030000e-001) (19, -1.23184738713416240000e-002) (20, 8.04568684707723690000e-001) (21, 6.82843118579887550000e-001) (22, -1.39022867409156920000e-001) (23, -3.76470994120291920000e-002) (24, 3.52898677532493210000e-001) (25, -4.55728910518850490000e-002) (26, 5.81409787082655120000e-002) (27, 5.20384369666324840000e-001) (28, 2.88317335941562810000e+000) (29, -4.38707213296699250000e-002) (0, -1.62420858417606720000e+000) (1, 1.47860276799461450000e+000) (2, 2.56376689214721010000e+000) (3, 1.03192147507087470000e-001) (4, -3.09309278551422520000e+000) (5, 3.85652498011960110000e-001) (6, 3.21287204164942000000e-001) (7, 9.93269585697342920000e-001) (8, 3.64648101440119780000e-001) (9, 6.83764236341415920000e-002) (10, 2.89242946838157820000e-001) (11, 4.55289185085178630000e-001) (12, -4.73987880366304070000e-001) (13, 1.76788209560834440000e-001) (14, 1.79322281874176540000e-001) (15, -1.80223964430528480000e+000) (16, 1.29360347374777150000e+000) (17, 8.52840498230455160000e-001) (18, 1.34909861435154090000e+000) (19, -4.69701754381211810000e-002) (20, 2.59741101457401420000e-001) (21, -1.03272747479973840000e-001) (22, 6.46010697973858350000e-001) (23, 3.74375560085311700000e-001) (24, 1.04046008503324590000e+000) (25, -1.61981700759042720000e-001) (26, -4.60802410702916470000e-003) (27, 4.24115347765309740000e-001) (28, 2.92938836137266860000e+000) (29, -8.28495331591548090000e-001) (0, -7.80706653452998500000e-001) (1, 1.13561576666027970000e+000) (2, -2.45333091464462740000e+000) (3, 3.41914452137039300000e-001) (4, 2.15922920289672190000e-001) (5, 2.72689418387186080000e-001) (6, 6.85846089147607810000e-001) (7, 1.71284224746570790000e-001) (8, 8.96058142558672220000e-002) (9, 3.30647184248540780000e-001) (10, -7.36215715030951320000e-002) (11, 4.46379888059802220000e-001) (12, -3.10005581373334450000e-001) (13, -2.45677249372168250000e-001) (14, 8.02863189151055480000e-001) (15, -5.26130033646848740000e-001) (16, 1.57693929172793720000e+000) (17, 9.71898620035489320000e-001) (18, 5.40504414817914670000e-001) (19, 4.58535866244745180000e-001) (20, -1.97123096462692470000e-001) (21, 1.93631597158380410000e-001) (22, 3.63362716046682020000e-001) (23, 4.14181993718043930000e-001) (24, 2.64756123310521950000e-001) (25, 1.25489968582840370000e-001) (26, 1.68629647157202660000e-001) (27, -4.39369980748197610000e-001) (28, 5.90624540258165460000e-001) (29, -4.09906512014208360000e-001) (0, 2.61945360786557440000e+000) (1, -7.51016476363433870000e-003) (2, -1.51772466598159880000e+000) (3, 3.74324938311145110000e-001) (4, -2.99011124411167890000e-001) (5, -9.36281865659653600000e-002) (6, -4.04299568111201120000e-003) (7, 1.17609947387328880000e-001) (8, -2.78474532097014620000e-001) (9, 2.06313450586378750000e-002) (10, 1.48654616584479090000e-001) (11, -7.87139086181809390000e-001) (12, -1.78352390341159130000e-001) (13, 2.71464479039557230000e-001) (14, 4.10916002001298690000e-001) (15, 1.77202306507789900000e-001) (16, -8.54527213370245150000e-002) (17, -1.06804512387759250000e+000) (18, -4.40046526441430050000e-001) (19, -7.52388302910325660000e-002) (20, 3.09250107226681950000e-001) (21, -4.46739204425028510000e-001) (22, 8.60173851868408000000e-001) (23, 6.37990692021238260000e-001) (24, -9.01022160838695680000e-001) (25, -1.95125274201862490000e-001) (26, 9.89078844824786280000e-002) (27, -3.13084284223665470000e-001) (28, -3.02596194510064280000e-002) (29, -3.22814628125703770000e-001) (0, 2.51260247855116030000e-001) (1, -1.03515741699080040000e+000) (2, 1.25660366286121270000e+000) (3, 6.03696595812785380000e-002) (4, 2.43716281331222080000e-001) (5, -2.75970300546675760000e-001) (6, 5.73777171105564060000e-002) (7, 6.40930778569846930000e-001) (8, 1.76948168610798480000e-001) (9, 4.34989769925216980000e-001) (10, 3.25626817539722170000e-001) (11, 2.04266821917193230000e-001) (12, 4.88000642809066840000e-002) (13, 5.28370579578560600000e-001) (14, 1.46269549573432990000e-001) (15, 1.77649734433637550000e-001) (16, 6.47265254481225520000e-001) (17, 5.60818091362829560000e-001) (18, 2.41072879764365930000e+000) (19, 1.17128457461619330000e-001) (20, -8.59851798268826410000e-002) (21, 1.60783064122787370000e-001) (22, 2.82712638945109120000e-001) (23, 4.96983080253131810000e-001) (24, 1.09000426004094700000e+000) (25, 4.72857274812355070000e-001) (26, 1.10851779366246460000e+000) (27, 5.24461890093805280000e-001) (28, 5.35613888081991840000e-001) (29, -1.43430938762457550000e-001) (0, -1.53548485626709090000e-001) (1, 1.75417510709136650000e+000) (2, -3.10550742087120350000e+000) (3, -2.63210094762818760000e-001) (4, 4.12340018054433320000e-001) (5, -5.85756436676384000000e-001) (6, -5.78313635050072050000e-001) (7, 3.28094285251053940000e-001) (8, -1.67838666200456000000e-002) (9, 2.96483330022930200000e-001) (10, -1.38355311332818280000e-001) (11, 6.94846891611172330000e-002) (12, 2.43589000377972460000e-001) (13, -3.60208206692252620000e-001) (14, 1.58414334914091740000e-001) (15, -1.77333863225268670000e-001) (16, 2.18127714139062290000e-001) (17, 5.99571284153184840000e-001) (18, 1.93778941324794090000e-001) (19, -4.39275589356755560000e-002) (20, 1.17799034348495590000e-001) (21, 4.33234719014366220000e-001) (22, 2.11863856669638030000e-001) (23, 2.87900804499083870000e-002) (24, 8.66397402253045600000e-002) (25, -4.01943375221905760000e-001) (26, 4.88345467983610890000e-001) (27, 1.64007412224397210000e-001) (28, 7.22133697970347210000e-001) (29, -1.48062977113646180000e-002) (0, -3.46701726522539720000e-001) (1, 4.21947442344013620000e+000) (2, 2.19999668019274490000e+000) (3, 5.97950860688077420000e-002) (4, 6.10659191698652220000e-002) (5, 4.13137484757786220000e-002) (6, 3.67074942898274750000e-001) (7, 3.92720990885896850000e-001) (8, 1.00775935723173890000e-001) (9, 3.55429351095247590000e-001) (10, -1.36468687637928720000e-001) (11, 2.07814352526129400000e-001) (12, 8.72853534181007860000e-001) (13, 8.16353220779389430000e-001) (14, 1.64661880800680140000e+000) (15, -3.01191436374375340000e-001) (16, -3.58832197449870660000e-001) (17, 1.94970703971371280000e-001) (18, 3.38784642859980220000e-001) (19, 8.60338616729180020000e-002) (20, 3.07197287990839450000e-001) (21, -1.67221173584977230000e-001) (22, -1.54034200479377880000e-001) (23, -1.55973170348884080000e-001) (24, 8.12074503106536950000e-001) (25, -6.62991293066111100000e-002) (26, 5.37630716751317020000e-001) (27, -7.48123080908244950000e-002) (28, 1.27713757251642270000e+000) (29, 5.52567955527477510000e-001) (0, -2.48097261776824980000e+000) (1, -2.98146182093732160000e+000) (2, 4.49386841684701550000e+000) (3, 5.23371738674360270000e-001) (4, -2.88576744139008410000e-001) (5, 3.14582513892305570000e-001) (6, -3.17089052208258390000e-002) (7, 1.78589201263817940000e-001) (8, 4.18925370963166010000e-001) (9, 3.80623214309238840000e-001) (10, -1.02960089319308910000e+000) (11, 8.74466111555587400000e-001) (12, -1.50614750584809890000e+000) (13, -8.80339089159844160000e-001) (14, 1.36446007913386660000e+000) (15, 8.54090402877173530000e-001) (16, 9.96297110061089230000e-001) (17, 8.70675554148792190000e-002) (18, 9.24081994650566840000e-002) (19, -3.54710060718198660000e-001) (20, 3.84514684883030980000e-001) (21, -5.86403913459352280000e-001) (22, -2.11155691090219700000e+000) (23, 5.82136415617245610000e-001) (24, 1.31018389101665460000e+000) (25, 4.77279184858822650000e-001) (26, -1.34431236388160930000e-001) (27, -4.94096714970741590000e-001) (28, 1.18635657051334080000e+000) (29, -9.45823941401702190000e-004) (0, 2.56224806608839200000e+000) (1, 5.66281611946929160000e+000) (2, 5.17898690491221280000e-001) (3, 1.41866670537705820000e-001) (4, 4.11455005075629820000e-001) (5, 2.10885158183983430000e-001) (6, -6.97718924958447800000e-003) (7, 2.47111803019266190000e-001) (8, 3.23595805504862550000e-001) (9, -1.03197422880217850000e-001) (10, 3.06798566039914010000e-001) (11, -1.00788458068290610000e-001) (12, -5.83653027280996550000e-001) (13, -1.32738483972269840000e-001) (14, 1.45587406708844980000e+000) (15, -2.58086323403881710000e-001) (16, 1.18170873331093530000e+000) (17, 1.29166601007654250000e+000) (18, 7.14731985818568560000e-001) (19, 2.23276595666421220000e-001) (20, -1.14522083441642340000e+000) (21, 2.00353935664894750000e-002) (22, 7.85207263443018170000e-001) (23, 4.03220368849476430000e-001) (24, 6.87873716906297950000e-001) (25, 6.00647348188921990000e-002) (26, -1.32148074931127400000e-001) (27, 4.39993190622378180000e-001) (28, 1.44733009300900720000e-001) (29, -4.25244137011746460000e-001) (30, 6.41159281645912850000e-001) (31, -6.93065828285399870000e-001) (32, 5.74962502815714930000e-001) (33, 3.02823407792631670000e-001) (34, -3.16195826457427940000e-001) (35, 7.29648120252283510000e-002) (36, 3.46575865578405700000e-002) (37, -1.16649278587343350000e-001) (38, 3.84580675972496730000e-001) (39, 1.84131674744231230000e-001) (40, -8.72397052049504350000e-001) (41, 4.84271781153547850000e-001) (42, 2.47280753447887910000e-001) (43, 3.45765839003051470000e-001) (44, -1.29246823260210610000e-001) (45, -1.17195546918145020000e-001) (46, 2.64931918798399610000e-001) (47, -9.02894469335840940000e-001) (48, -3.25246419513823710000e-001) (49, 1.56792041480568880000e-001) (0, 2.44575954500310510000e+000) (1, 2.93662538533429450000e+000) (2, -5.39607150772445450000e+000) (3, 1.77757125343196680000e-001) (4, 1.85357770301346450000e-001) (5, -1.72308574456022100000e-001) (6, 5.73665815459016740000e-001) (7, 2.05443071949254760000e-001) (8, 4.97921525166610760000e-001) (9, -5.47708911305198960000e-002) (10, 2.66713326885128280000e-001) (11, 1.35066710975217160000e-001) (12, 2.24036847928984180000e-001) (13, -3.35571945934375620000e-002) (14, 2.46199791570071570000e-001) (15, 3.33297333533697620000e-001) (16, 1.87185180756268870000e+000) (17, 9.10206114130023130000e-004) (18, -4.62117608245670160000e-002) (19, 4.82749446088853120000e-001) (20, 3.91897433545006340000e-001) (21, 7.21123486493058130000e-001) (22, 3.74968532342791060000e+000) (23, 3.90038673050618120000e-001) (24, 3.27276337629124650000e+000) (25, 1.72625532058707180000e-001) (26, -2.86957859119330920000e-001) (27, -8.24498500202801440000e-002) (28, 6.29585901381996330000e-001) (29, 4.28352189076680050000e-001) (30, 6.59349866390732120000e-001) (31, 3.17857343860173220000e-001) (32, -4.04127172861571270000e-002) (33, 4.54467988334411320000e-001) (34, 1.82497488868644700000e+000) (35, 7.79454402289573860000e-001) (36, -4.08104415971543290000e-001) (37, -5.26286029421349500000e-001) (38, 1.95490736080376270000e-002) (39, -4.06901317754321810000e-002) (40, 2.46714460389164420000e-001) (41, 2.04147854381666630000e-001) (42, -1.79999024227910390000e-001) (43, 5.41331393688342710000e-001) (44, 7.18369184937118990000e-001) (45, -1.42453687451072200000e-001) (46, 4.28676657301149400000e-001) (47, -2.06085582298065950000e-001) (48, 4.04831695815367270000e-001) (49, 3.14326526842580170000e-001) (0, -2.95632423450012460000e+000) (1, -1.83300303744064320000e+000) (2, 6.14242816735334430000e+000) (3, 6.60600049638535470000e-001) (4, 5.17912009167770800000e-001) (5, -5.54033108358650940000e-001) (6, 2.13996093126796930000e+000) (7, -1.77024570905746890000e-001) (8, -1.00171064399207260000e-002) (9, -2.16674763896853890000e-001) (10, -7.41407052820121650000e-001) (11, 1.66016538750276710000e+000) (12, 6.41435612899742050000e-001) (13, 4.04183489921424280000e-001) (14, -2.96327331241210250000e+000) (15, 9.21781754383638850000e-001) (16, 9.17693140282974330000e-001) (17, -1.47854686928320290000e-001) (18, 1.20685284518675760000e-001) (19, 2.19565798606869140000e-001) (20, 1.63420109695056270000e-001) (21, 7.82681852560132840000e-002) (22, 6.80747123821649590000e-001) (23, 2.20611783146844530000e-002) (24, 8.40792897148921580000e-001) (25, 6.08816267931354900000e-001) (26, 1.20866177970003700000e+000) (27, -7.86016981280430290000e-001) (28, -7.82161406430919860000e-002) (29, 2.33818988125649610000e-001) (30, 7.08980842991953740000e-001) (31, 3.65954790518943420000e-001) (32, 5.66354528501493370000e-001) (33, 2.38754417831847980000e-001) (34, -3.39873040323651230000e-001) (35, -1.35609920777490230000e-001) (36, -1.38672283724884960000e-001) (37, 1.14716793791722790000e-002) (38, 7.68614311839283750000e-001) (39, 4.29371747388779480000e-001) (40, 4.68202066365219720000e-001) (41, 2.06011642825037870000e-001) (42, 9.69918144665942070000e-003) (43, -1.18434287036767350000e-001) (44, 8.01678196722140250000e-001) (45, 2.92561319811226410000e-001) (46, 7.26821979550567040000e-001) (47, 5.16670979706040370000e-001) (48, 2.99484595079600960000e-001) (49, 6.04522461617802320000e-001) (0, 1.03764977744263440000e+001) (1, 1.15659283123441870000e+000) (2, 3.21347098918736420000e-001) (3, 6.44615385749215950000e-001) (4, 7.11541547501264860000e-001) (5, 4.22527868660146300000e-001) (6, -5.41977174368397030000e-002) (7, 1.00150981885985120000e+000) (8, 1.21846275779142530000e-001) (9, -1.82082486173679340000e-001) (10, -2.36713448535659420000e-003) (11, 1.50647889396075350000e-001) (12, -6.70881482282965400000e-001) (13, 3.84138651836413770000e-001) (14, 5.43470341453701320000e-001) (15, 5.20149870550893460000e-001) (16, 1.77433554493932440000e-001) (17, 7.04462572899935520000e-001) (18, -9.86935129664013310000e-002) (19, 4.67196845120944780000e-001) (20, -3.26907803096502300000e-001) (21, 2.57185625051466920000e-001) (22, 1.66407735908467270000e+000) (23, 1.96946846225641540000e-001) (24, 3.95614878583821990000e-001) (25, 4.36823682485405650000e-001) (26, 1.18009867170385860000e-002) (27, -1.95892172049023930000e-001) (28, -4.57781453258185640000e-001) (29, 2.42289632653235500000e-001) (30, 1.23041147249934380000e+000) (31, -4.04463205435618530000e-001) (32, 1.50049019219592680000e-001) (33, 1.09070907730369810000e-001) (34, 1.93621158815426490000e-001) (35, 7.90216710499504070000e-002) (36, 1.60600807389058580000e+000) (37, 8.64750746340409300000e-002) (38, 8.99520612093418830000e-001) (39, 3.82033454088523180000e-001) (40, -2.64292026606468390000e-001) (41, 2.07320904153777400000e+000) (42, 4.24591060552749590000e-001) (43, 2.99766753819792230000e-001) (44, -3.60973574685239380000e-002) (45, -5.57873207113569800000e-001) (46, 9.36764409337173980000e-001) (47, -9.77288366020749640000e-001) (48, 3.66600150739255730000e-001) (49, 2.56440295476581370000e-001) (0, 1.84218917751262490000e+000) (1, -9.05691175844603120000e-001) (2, -1.91846666543524340000e+000) (3, 5.30307636796319320000e-003) (4, -7.25268316574760600000e-002) (5, 1.04194226472483030000e-001) (6, 1.12938849412105840000e-001) (7, 3.84626823476463490000e-001) (8, 3.86801039415941910000e-001) (9, 1.91332705833585300000e-001) (10, 3.65964972808160700000e-001) (11, 7.03617840167225390000e-001) (12, 4.03223292076046850000e-001) (13, 5.73927900534694000000e-001) (14, -6.26258516570285530000e-001) (15, 1.61448832750141280000e+000) (16, -7.15088710853206580000e-001) (17, -9.40836629869753610000e-002) (18, 1.32138798013172330000e-001) (19, 9.76563629973438010000e-002) (20, 4.94600400188157820000e-001) (21, -7.08679583459077110000e-001) (22, 1.08482849731355580000e-001) (23, 3.01110915425402750000e-001) (24, 7.05851563970742110000e-001) (25, 1.17252658514636860000e+000) (26, -9.54101993866371540000e-002) (27, -5.19211254608280770000e-001) (28, 5.09089992236302580000e-001) (29, -1.56316129096305160000e-001) (30, 6.84457540581766220000e-001) (31, 2.35355734344818100000e-001) (32, 9.49779550425339570000e-001) (33, 1.15659280250538620000e-001) (34, 6.13768669145958960000e-001) (35, 1.71535537862367950000e+000) (36, -6.46213380177360740000e-001) (37, -1.07161599109383370000e-001) (38, 3.01083489099353060000e-001) (39, 4.59439876534594560000e-001) (40, -2.62108698729053240000e-001) (41, -3.06987623201935460000e-001) (42, 2.48673048610238950000e-001) (43, 6.57758407700204330000e-001) (44, 6.99925222642034610000e-001) (45, 6.32251606434754860000e-001) (46, -3.99582357363317930000e-001) (47, 6.01523317900147350000e-001) (48, -3.43679207813772040000e-001) (49, -6.72826719568374920000e-001) (0, -1.26569188866463130000e+000) (1, -2.12397599858060330000e+000) (2, 1.18077197336653920000e+000) (3, 1.63226941149507710000e+000) (4, 7.97817326780650320000e-001) (5, -2.36094757053565170000e-001) (6, 1.20409423118727960000e-001) (7, -8.60968756540591570000e-001) (8, 4.72640656572899440000e-001) (9, 2.69986989383781070000e-001) (10, 3.27440076899079890000e-001) (11, -8.72110583667126350000e-001) (12, 1.66678506955756630000e+000) (13, 1.47003421463891670000e+000) (14, 2.34189683156230630000e+000) (15, 5.65029345444269530000e-001) (16, 3.13596472234462030000e-002) (17, 5.59154050496279750000e-001) (18, 3.03480302891871610000e-001) (19, 5.02249853027095680000e-001) (20, 1.29111197154122250000e+000) (21, -2.45694733681099700000e-001) (22, -4.16338271689919850000e-002) (23, -4.89636374009380580000e-002) (24, 2.12806343355511050000e-001) (25, 8.01653636384638980000e+000) (26, 7.68052173909694270000e-001) (27, 1.25199468086306600000e+000) (28, 6.23754787550992560000e-001) (29, 5.96985257096060100000e-001) (30, -3.98960447483963200000e-001) (31, 1.98851488275967380000e-001) (32, 3.47907634202357320000e-001) (33, -3.32698941990504150000e-001) (34, -1.40754673228413570000e+000) (35, 1.15811481995610930000e+000) (36, -4.66560834413311420000e-001) (37, -2.89585336774343890000e-001) (38, 1.30939599644469820000e+000) (39, 3.14692188556100040000e-001) (40, 3.33254446676714670000e-001) (41, -2.07688674656300730000e-001) (42, -3.93557264198662470000e-002) (43, 4.95268564189248470000e-001) (44, -1.04472504691669730000e-001) (45, 6.14635429016859520000e-001) (46, -7.16002996995012690000e-001) (47, 1.38249421280925040000e-001) (48, -6.79903926987867060000e-001) (49, -3.61666215315725510000e-001) (0, 2.51903830918246820000e+000) (1, 5.58559519283948360000e+000) (2, 3.28771327401114450000e+000) (3, 4.92388624813683950000e-001) (4, 3.10230061639849290000e-001) (5, 5.44685991038355690000e-001) (6, 1.42855682582391850000e+000) (7, -5.43638359896682700000e-002) (8, 5.45297258001903870000e-001) (9, 3.34026442656730090000e-001) (10, -1.80990304310859670000e+000) (11, -2.46048129123569960000e-001) (12, 9.68424715813887140000e-002) (13, 4.12260458839811990000e-001) (14, -1.03660002570006450000e+000) (15, -1.89362644858413340000e-001) (16, 2.69722307451562320000e+000) (17, 5.73685426543850800000e-001) (18, 7.83919921481025960000e-001) (19, 3.82327537645847040000e-001) (20, -6.29379346019837030000e-001) (21, -2.45074294627715820000e-001) (22, 4.45862989367123930000e-001) (23, 3.99761467259260090000e-001) (24, 6.96706747930828430000e-001) (25, 3.27779872474569520000e-001) (26, 6.54659656807521360000e-002) (27, 2.48752762385663250000e-002) (28, 1.89435245314903440000e-001) (29, 2.70950726149796040000e-001) (30, 7.55531631009085710000e-001) (31, -2.38865247626587130000e-002) (32, -1.57807297238352490000e-001) (33, 2.10157052324511960000e-001) (34, 2.03575682190817510000e-001) (35, -2.04641981461777980000e-001) (36, 6.01999046156844520000e-001) (37, 9.82362395898214950000e-001) (38, -5.69692983271467970000e-002) (39, -1.16896291822520480000e-001) (40, -4.01784215670873340000e-002) (41, 1.09931906109776990000e+000) (42, 5.17547024266864050000e-001) (43, 1.36588406197101750000e-001) (44, -8.05926662110873270000e-001) (45, 1.12038824425587480000e+000) (46, 2.25583107240450190000e-001) (47, 3.18035800982495180000e-001) (48, 2.12543887700487790000e-001) (49, 1.03964516441517230000e+000) (0, 7.72965660812699460000e-002) (1, -7.47839403806601630000e-001) (2, -2.85644507940280290000e-001) (3, 1.81888981620665250000e-001) (4, 1.50200557560320160000e-001) (5, 7.64066029321615940000e-001) (6, -3.53843504310020150000e-001) (7, 5.93263734851142370000e-001) (8, 9.82960993922575300000e-002) (9, -5.04526238898092280000e-002) (10, -3.41164826717322680000e-001) (11, 1.44752970720370220000e-001) (12, 6.72320119218494770000e-001) (13, -1.10549855003892400000e-001) (14, 3.53573697709211430000e+000) (15, 1.08712230380854020000e+000) (16, -4.25194143577717950000e-001) (17, -7.94441158327845180000e-002) (18, 7.18299227492301820000e-002) (19, 2.64170965595215900000e-002) (20, 3.62394975901225880000e-001) (21, 2.37207871810743650000e-001) (22, 3.04174879466815370000e-001) (23, -8.88972492599795490000e-002) (24, 1.84870590493429600000e-001) (25, -3.73873428156312690000e-001) (26, -9.00773640062237370000e-002) (27, -1.13638022071279140000e-001) (28, 4.35024142734945500000e-001) (29, -2.89807261893615890000e-001) (30, 7.60844444712120650000e-001) (31, 4.74066732097009110000e-001) (32, 7.11871553914850460000e-001) (33, 1.40604063163659230000e+000) (34, 3.58808100528390130000e-001) (35, 5.46492830737495110000e-001) (36, -1.83561930325603140000e-001) (37, 1.09240615170398570000e-001) (38, 4.48099695865627310000e-001) (39, -1.36888973303482470000e-002) (40, 8.86127585424270060000e-002) (41, 7.03454244770337080000e-002) (42, -5.51462294406917410000e-001) (43, -2.30794374594552630000e-002) (44, 1.70348003649073540000e-001) (45, 3.73945674965875390000e-001) (46, 2.14703602949808500000e-001) (47, 1.86976906396693020000e+000) (48, 3.16105664618467060000e-002) (49, -5.38069336065193690000e-001) (0, 4.97171909772499450000e+000) (1, 2.06462547827528460000e+000) (2, -1.90706709429449840000e-002) (3, 4.35994730310326370000e-001) (4, 1.05125998067488070000e-001) (5, 6.60576332665448620000e-003) (6, 1.54145067972240700000e+000) (7, 9.96281718171139420000e-001) (8, 4.89964305401315300000e-001) (9, 1.36655752348858570000e-001) (10, 6.51827881869512450000e-003) (11, 9.51414782022866110000e-001) (12, 2.01742232583060950000e-001) (13, -4.47123728447957500000e-001) (14, -7.63452980053831780000e-001) (15, 1.27355497736402870000e+000) (16, 1.04293915414963160000e-001) (17, 3.71549376972204260000e-002) (18, 1.43600123017113510000e-003) (19, 6.73100970564438850000e-001) (20, 2.28283171517310700000e-001) (21, -4.31843690205867270000e-001) (22, 2.69170161148598710000e-001) (23, 1.10916639293735380000e-001) (24, 3.55388547836354230000e+000) (25, -4.49403171001754860000e-001) (26, 6.32433230752297150000e-002) (27, 4.34768821314186070000e-003) (28, 1.01543872441763690000e-001) (29, -5.96011297085402350000e-001) (30, -3.91262645377554230000e-001) (31, 3.44787909806577700000e-001) (32, -9.41995802471105180000e-002) (33, -4.72859726962055250000e-001) (34, 6.76478188251788290000e-001) (35, 1.64051329868264570000e-001) (36, 4.64183096423200490000e-001) (37, 3.20459613841141740000e-001) (38, -3.85048770139084120000e-001) (39, 2.91603408483860680000e-001) (40, 1.45327881686393410000e-001) (41, 2.05888809920715980000e-001) (42, -1.02665838075807510000e+000) (43, 5.04294533077666360000e-001) (44, 5.91026592895966600000e-001) (45, 1.82355152725190570000e-002) (46, -1.27301316613227240000e-001) (47, 2.95089740179727000000e-001) (48, -1.11742738128442600000e+000) (49, 5.29777493644600690000e-001) (0, -8.55655693573887490000e-001) (1, 3.46834983785909490000e+000) (2, 4.17935719747253120000e+000) (3, 2.36579132961543730000e-001) (4, -7.76426384498172690000e-001) (5, 4.98667382161603390000e-001) (6, 3.59016026056612480000e-001) (7, -1.01012936170815190000e-001) (8, 1.74959301028949050000e-001) (9, 8.73424572003485280000e-002) (10, -1.29218319361452280000e-001) (11, 3.17995417751004930000e-001) (12, -7.29181499892468500000e-001) (13, -6.57956573132381320000e-001) (14, 2.36678256511688310000e-001) (15, 3.41829411055810550000e-001) (16, 1.62135239838042010000e-001) (17, 2.36043716717781430000e-001) (18, 2.13965473987733300000e-001) (19, -5.39936019188373080000e-001) (20, -4.68767470790390440000e-001) (21, -2.01270840537116080000e-001) (22, 1.11477707689654220000e+000) (23, -1.18040206914963460000e-001) (24, 3.17122041383801350000e-002) (25, 1.77669889659770790000e-001) (26, 6.69944846642998720000e-002) (27, -7.60657235243434730000e-002) (28, 1.10378203562266600000e+000) (29, -1.02566005352787940000e-001) (30, 7.70539230298127430000e-001) (31, -4.08969008390559550000e-001) (32, 6.50334156440844080000e-002) (33, 1.05841177860955880000e-001) (34, 3.06060498395288370000e-001) (35, -4.23898743974500840000e-001) (36, 3.27324713309412930000e-001) (37, -2.15970944822209220000e-001) (38, -7.85607124977422800000e-001) (39, 8.35519265982355990000e-002) (40, 2.78418784299167220000e-001) (41, 2.09441564083716250000e-001) (42, 5.72367087201449200000e-003) (43, -8.52006843455001690000e-002) (44, -4.19286335155984740000e-001) (45, 6.48117427518465070000e-002) (46, -1.64910634826084120000e-001) (47, 7.78592220932804670000e-001) (48, 3.86780607377046280000e-001) (49, 1.19003875055261080000e-001) (0, -4.37168188773893540000e+000) (1, 1.64027646669879990000e+000) (2, 7.40251825873718180000e-001) (3, 6.27980186187588880000e-001) (4, 2.15758176105428910000e-001) (5, -5.96353708658841410000e-001) (6, 1.71057144384912870000e-001) (7, 5.65484606987858850000e-001) (8, -1.45021577623485440000e-001) (9, 2.29990841721485790000e-001) (10, 4.44822801045463180000e-001) (11, 4.59025861238600980000e-002) (12, 5.18915437547197640000e-002) (13, -1.93978832721058590000e-001) (14, 5.43326880751616390000e-001) (15, 4.48785918228929770000e-001) (16, -2.62050822476868370000e+000) (17, 2.29803662123916810000e-001) (18, 9.88605787625458370000e-002) (19, -4.85847251047581860000e-001) (20, -1.04254649236978490000e+000) (21, 3.49860924961438280000e-001) (22, 3.23278171644144300000e-001) (23, 1.19000496460513320000e-001) (24, -1.49916290970311140000e+000) (25, -7.66323495328875700000e-002) (26, 3.34112612047885840000e-001) (27, -2.29217309810516110000e-001) (28, 5.93488948390643920000e-001) (29, 1.98677670279760020000e-001) (30, -6.82449456531231570000e-001) (31, 9.40828243967011370000e-001) (32, -1.79665248917627720000e+000) (33, 5.92316462884340140000e-001) (34, 1.52094659604131900000e-001) (35, -4.03821033797479860000e-001) (36, 3.57136918955324680000e-001) (37, 5.44862667929957790000e-002) (38, 7.65248087080186660000e-001) (39, 6.15252797281336190000e-001) (40, 4.31253598266686520000e-001) (41, 2.96853859542874020000e-001) (42, -4.43507684674866340000e-001) (43, -1.56214577028041760000e+000) (44, -5.80981539388317480000e-002) (45, 8.69922362936534240000e-001) (46, -4.31100478529723580000e-002) (47, -5.43344042527483920000e-001) (48, 3.42746006097468300000e-001) (49, 5.66153760918457040000e-001) (0, -1.67047812578819110000e+000) (1, 4.85908955693925910000e+000) (2, 2.29902358917246550000e+000) (3, 6.84491505182582280000e-001) (4, 8.19797915136032170000e-001) (5, -2.25493860515379160000e+000) (6, -2.84013240315492850000e-001) (7, -5.08699853386044070000e-001) (8, 2.81819174940500130000e-001) (9, 3.25739143253516660000e-001) (10, 1.12534682851710270000e-001) (11, 2.24649311092480350000e-001) (12, 4.72050930330042920000e-001) (13, 3.02296811454864420000e-001) (14, 2.83045412772794990000e-001) (15, 7.77025144338502450000e-001) (16, -2.12141061976015920000e+000) (17, -5.91987162243976180000e-001) (18, 1.87507975047859650000e-001) (19, -4.06438011854137120000e-002) (20, 3.49896773496007120000e-001) (21, 1.68040544845567490000e-001) (22, 9.13177480701657380000e-001) (23, -4.12384986802513510000e-001) (24, -4.71661337729263260000e-002) (25, 7.12366075250059680000e-001) (26, 2.93963402974763090000e-001) (27, -3.26169343393897800000e-002) (28, -4.08453578789307260000e-002) (29, -2.04595005777213260000e-001) (30, 2.00294386302677070000e-001) (31, 5.85037695395661640000e-001) (32, 1.29467704400271690000e-001) (33, 3.57892208771799670000e-001) (34, -4.49333856238746440000e-001) (35, 6.23149186712035790000e-001) (36, 3.10170646051157680000e-001) (37, 5.37219109152595670000e-002) (38, 1.86841892318806460000e+000) (39, 6.29792864178821080000e-001) (40, 1.92141019455393860000e-001) (41, 3.73439448798493830000e-001) (42, -7.75852983962740240000e-002) (43, -2.34436250428099280000e-002) (44, 1.88802193215405350000e+000) (45, 4.97027704175696080000e-001) (46, 9.60973314167709040000e-001) (47, 3.07027445355038620000e-001) (48, 1.48989984627247410000e-001) (49, 6.26393741792207970000e-001) (0, 2.16709011897686270000e-001) (1, -1.85051701069867280000e+000) (2, 6.77462093953720480000e-001) (3, 1.26306633679932390000e-001) (4, 5.91841534201177910000e-002) (5, 7.83504337704526540000e-001) (6, 1.13299529597790520000e-001) (7, -1.25014804492061790000e-001) (8, 2.55212031508456730000e-001) (9, 1.03179268245711110000e-001) (10, -2.67503005221010840000e-001) (11, 2.66381248521725400000e-001) (12, -2.90712286773229470000e-001) (13, 4.77203992611872850000e-001) (14, -5.03633178917760880000e-002) (15, 1.06566047334440240000e+000) (16, 3.66429151566322500000e-001) (17, 2.04607949836056040000e-003) (18, 3.08306236844356900000e-002) (19, 4.22636735968702270000e-001) (20, -2.21739713984429180000e-001) (21, -3.34134515306007850000e-001) (22, 6.06086801195837910000e-001) (23, 1.78877534991230410000e-002) (24, -5.23272438391594100000e-001) (25, -1.94448258959914600000e-002) (26, -6.25815479167047270000e-001) (27, 5.20433174625720470000e-001) (28, 4.21590447215174190000e-001) (29, -2.18529196837369740000e-001) (30, 1.77188868596657360000e-001) (31, 3.90399917022795080000e-002) (32, -4.33919895934565040000e-001) (33, 5.11007468634323000000e-001) (34, -7.73054256218143390000e-001) (35, -9.02246581228678540000e-002) (36, 6.03389840944904670000e-001) (37, 5.15856111460775810000e-001) (38, -4.42861416272244120000e-001) (39, -4.30066699508357520000e-001) (40, 3.24145206259342440000e-002) (41, 4.78915053465072130000e-001) (42, 4.30649962829752930000e-001) (43, -2.83169979659623150000e-001) (44, -6.59969280247279970000e-001) (45, 9.14652498887012720000e-001) (46, 6.05546907047872300000e-002) (47, 7.36298099942895630000e-001) (48, 4.44575457464827240000e-001) (49, 5.91287288508318020000e-001) (0, 3.96946146443027900000e+000) (1, 7.72101361695963880000e-001) (2, 2.65875086279183790000e+000) (3, -3.46129554063075160000e-001) (4, 4.79458754613157730000e-001) (5, 7.12151006154906670000e-001) (6, -3.62393707099768920000e-001) (7, 4.30307033613810450000e-001) (8, -1.20637320582700510000e-001) (9, 4.37181050288501740000e-001) (10, 3.59309984890181460000e-001) (11, -8.92862206665601260000e-002) (12, 2.45903236331905600000e-002) (13, 1.71608857411329110000e-001) (14, 5.98188900681674850000e-001) (15, -7.19107548141104720000e-003) (16, 6.33722485028286650000e-001) (17, 7.94826121319646810000e-001) (18, 4.39919932531611440000e-001) (19, -9.80426557620779800000e-003) (20, 1.99103492442739870000e-001) (21, 3.11483126007317700000e-001) (22, 5.03037165110982510000e-001) (23, 1.39169535912606970000e-001) (24, -7.46981074151734310000e-001) (25, -3.14008707472713200000e-001) (26, 8.19984094817916560000e-001) (27, 5.21372648615852640000e-001) (28, 3.13252674426710180000e-001) (29, 5.67019770600726280000e-001) (30, 2.57597166511471190000e-001) (31, -1.60546305450401910000e-001) (32, 6.57703093286136630000e-001) (33, 7.81094409675504920000e-001) (34, 4.41953973593346930000e-001) (35, -1.07807291548679510000e-002) (36, 8.35620574575552280000e-001) (37, 4.32461113311944310000e-001) (38, -1.93432790489137390000e-001) (39, 1.04999917567246990000e-002) (40, 1.70433532531271440000e-001) (41, 2.61245511680745390000e-001) (42, 6.94919579879485380000e-001) (43, 2.70299779030611590000e-001) (44, 4.66467901362079770000e-001) (45, 8.39845986872068460000e-001) (46, -2.60296037763729950000e-001) (47, 3.14575219395252350000e-001) (48, 4.08865332914704060000e-001) (49, -2.22008415618147940000e-001) (0, 3.23176686892831540000e+000) (1, -1.39707749461184010000e+000) (2, -8.83855536728212150000e-001) (3, 8.05390268407445670000e-003) (4, -1.05532911100844580000e-002) (5, 3.86221618002641430000e-001) (6, 7.41144747021812020000e-002) (7, -1.40894403315112730000e-002) (8, 2.10142494934482730000e-001) (9, 1.32285728272007160000e-001) (10, 1.67515514075887520000e-001) (11, -1.01019817632661930000e-001) (12, -2.30530384552105590000e-001) (13, 2.39549949037196730000e-001) (14, -2.07582448616730810000e-001) (15, -8.42529740379760470000e-001) (16, 1.30380232641263610000e-001) (17, 3.67961020622779580000e-001) (18, 1.18316023901644130000e+000) (19, 1.49275489858291950000e-001) (20, 5.38142644215966400000e-002) (21, -2.92338102397090400000e-001) (22, 6.00972242495876770000e-001) (23, -4.71325623749168710000e-002) (24, -6.66427375284864840000e-001) (25, 3.73522365918950990000e-001) (26, 2.96873744895324640000e-001) (27, 3.92343886735125940000e-001) (28, 1.31588229765133710000e-001) (29, 7.32068081597089940000e-002) (30, 3.24224797354956800000e-001) (31, 2.16607691744171940000e-001) (32, 3.11310310581223440000e-001) (33, 1.43386094589929930000e-001) (34, 1.33793893981592000000e-001) (35, 3.95172477953973420000e-001) (36, 1.23758591962424740000e+000) (37, 1.09296826355800290000e-001) (38, -2.91352812705363560000e-001) (39, 1.22360217850423880000e-001) (40, 2.19559784342683450000e-001) (41, 4.39044071393808160000e-004) (42, -1.04341636275629480000e-001) (43, -1.40142555151846760000e-001) (44, -6.49970564040395220000e-001) (45, 1.57794296684042130000e-001) (46, 1.43236784157244280000e-001) (47, -8.37230356197655070000e-001) (48, 1.95549024329478880000e-002) (49, -6.04724732376695440000e-001) (0, -4.08961138061807720000e+000) (1, 4.52609010062301640000e-001) (2, 1.19971513424544440000e+000) (3, 3.59055999236921750000e-002) (4, 1.73675101808843490000e-001) (5, -1.19952600639828910000e+000) (6, 2.48428257368050520000e-001) (7, -5.45451199783151370000e-001) (8, -1.66393621280754760000e-003) (9, 1.03216905762195370000e-001) (10, 5.19349351642604430000e-001) (11, -2.60019945452263870000e-001) (12, -2.99357867180930940000e-002) (13, 1.38813759549171800000e-001) (14, 2.57911568864852720000e-001) (15, -8.21828732429508020000e-002) (16, 1.67280867507041710000e-001) (17, 2.16840808444601850000e-001) (18, 7.14955216182666550000e-001) (19, 1.64627010242952840000e-001) (20, -3.05433558584509550000e-001) (21, 7.91234429279702330000e-001) (22, 1.90550709561128670000e+000) (23, 1.55317470045683410000e-001) (24, 5.28248029393050230000e-003) (25, 1.02231838640318050000e-001) (26, 6.79589977081356710000e-001) (27, 1.74417442321894930000e-001) (28, 1.64368452603036510000e-001) (29, -2.00428880657248480000e-001) (30, -3.89944541477151990000e-002) (31, 2.89443705656318770000e-001) (32, 2.00031132023393990000e-004) (33, 1.68719031876720880000e-001) (34, -2.30765812976531760000e-001) (35, -3.59929423327066010000e-001) (36, 4.93245337635826230000e-001) (37, 5.86936809053257850000e-001) (38, -1.93572375955366300000e-001) (39, -2.30649578026754930000e-001) (40, 1.47277025722136330000e-001) (41, 7.38532403871505480000e-002) (42, 2.05839847688612210000e-002) (43, 5.17805760259104300000e-001) (44, 1.23082592310676860000e-001) (45, -3.52125048188081210000e-001) (46, -3.07878357349026020000e-001) (47, 1.39508862362298310000e+000) (48, 4.52549148704879500000e-001) (49, -2.12261708865694150000e-001) (0, -1.84194763877053160000e+000) (1, 1.60824915991946170000e+000) (2, -1.12752169825219380000e+000) (3, 2.95868580974731840000e-001) (4, 3.06933439867309140000e-001) (5, 7.79823953784293370000e-001) (6, -3.41229532143809330000e+000) (7, -2.29552103930935360000e-001) (8, -1.69881849123086490000e-001) (9, 3.61236649378736950000e-001) (10, 3.31898517759803340000e-001) (11, 4.75416409688091120000e-001) (12, 7.17496023605520420000e-002) (13, 1.22020746706829050000e-001) (14, 2.72664920562764030000e-001) (15, 4.68707822160008500000e-001) (16, 3.54477600935275860000e-001) (17, 1.06140044408018920000e+000) (18, 3.92335539271783550000e-001) (19, 5.33868041055148730000e-001) (20, -1.53672897442269200000e-001) (21, -1.75035621540775120000e-001) (22, 3.93248870678353620000e-001) (23, 4.95781560955020960000e-001) (24, -1.90888050342736770000e+000) (25, 2.04101251096770990000e-001) (26, 2.05346176943872250000e-001) (27, 1.62484247998154820000e-002) (28, 5.42440464975740390000e-001) (29, -5.05469774284928230000e-001) (30, 2.86827779884402890000e-001) (31, -8.65428911067630670000e-002) (32, 1.21327227580935610000e-001) (33, -3.21170495122087450000e-001) (34, -1.22919293369201720000e-001) (35, -2.09935732911032930000e-001) (36, 6.13401661524841320000e-001) (37, 8.93087686924444290000e-001) (38, 1.83645820893787420000e-001) (39, -2.61505517033690960000e-001) (40, -4.46753516472117920000e-001) (41, 3.96473731332518190000e-002) (42, 2.95725516043155940000e-001) (43, 3.04321635014634830000e-001) (44, -7.64830996809511940000e-001) (45, 1.21490975661964540000e+000) (46, 4.25481545193629800000e-001) (47, -1.23199027174752490000e-001) (48, 6.73809396979003490000e-002) (49, -1.01707992174904140000e+000) (0, 2.10175450109749430000e+000) (1, 9.18751277070877140000e+000) (2, 2.27778729253698620000e+000) (3, 5.28165092898801540000e-001) (4, 1.53254349824412880000e-001) (5, 5.81987469524030020000e-001) (6, -1.05651656467038700000e-001) (7, 4.55687312629824930000e-001) (8, 1.04136118058030940000e-001) (9, 4.69478783555408340000e-001) (10, -1.31968802892263650000e-001) (11, 7.33750708780382620000e-001) (12, 4.05104574809653560000e-001) (13, 2.91821167788405000000e-001) (14, 2.46929187007442430000e-001) (15, -3.83192347221750050000e-001) (16, -3.74668172886331250000e-001) (17, 2.39677619201169780000e-001) (18, 1.49172235924151300000e-001) (19, 1.45433538155683300000e+000) (20, 9.73806506182383210000e-002) (21, 6.07512931110464230000e-001) (22, 6.46800348673260640000e-001) (23, 6.95647146114638290000e-001) (24, -1.51681184152727470000e-001) (25, 4.78700851498987890000e-001) (26, 3.22063292327871510000e-001) (27, 5.51694155264016110000e-001) (28, 1.10972227877716360000e-001) (29, 1.79596628172429690000e-001) (30, 1.34621796560817710000e-001) (31, 9.99469883086134820000e-001) (32, 1.13387724984348990000e-001) (33, 5.81001434129380210000e-001) (34, -7.28823104526041380000e-001) (35, -4.51897946834416750000e-001) (36, 1.36442721092894040000e+000) (37, 1.09980557390906770000e+000) (38, -2.78221252417156390000e-001) (39, 4.67508222374961650000e-001) (40, 8.43964899114451160000e-001) (41, 5.39622971433769820000e-003) (42, 2.83839609380763140000e-001) (43, -3.53605528475213870000e-001) (44, 3.05844673150577120000e-001) (45, 2.89918275575109870000e+000) (46, 9.65834870708136890000e-001) (47, 4.06048284353917040000e-001) (48, 4.74537724416859370000e-001) (49, 7.72665394584467340000e-002) (0, -7.21766241433531700000e+000) (1, 1.01691950408709800000e+000) (2, 2.33786875320381200000e+000) (3, -2.62844455232244310000e-001) (4, 8.23826426830170930000e-001) (5, 1.88415493917750560000e-001) (6, -1.29340140326034830000e-001) (7, 7.51912945400386560000e-001) (8, 5.59670247546322840000e-002) (9, -5.93985501753573670000e-001) (10, 1.84261829701589840000e-002) (11, 4.07513444087708320000e-002) (12, -1.38188794545403310000e-001) (13, -8.75035554410894810000e-002) (14, 1.46029748917181280000e+000) (15, 5.38598495295874340000e-001) (16, -1.14780163151115680000e-001) (17, 3.17930805916620870000e-001) (18, -3.30666242770534470000e-001) (19, 2.71837093758120320000e-001) (20, 8.69862369406495390000e-002) (21, -2.48369176597914910000e-001) (22, 2.09639498407702990000e-001) (23, 2.87334792497855650000e-001) (24, 2.33003326463662540000e-001) (25, -5.51595375684471920000e-001) (26, -1.84768746195047620000e+000) (27, -3.18467473119821600000e-001) (28, 6.51555310039818260000e-001) (29, 2.50190890427910370000e-001) (30, 1.43572341139819810000e-001) (31, -1.01496244021858950000e+000) (32, -5.39566110863718970000e-001) (33, -8.24658695791671840000e-001) (34, -1.76305186648477120000e+000) (35, -1.02856755814629300000e-001) (36, 1.14026461523574030000e-001) (37, 5.32553813874870220000e-001) (38, 3.61427564285583310000e-001) (39, 1.51590451679163930000e-001) (40, 1.33182264623082240000e-002) (41, 6.75494365521724150000e-001) (42, 2.48656157005496180000e-001) (43, 5.72906236689829430000e-001) (44, 5.36488761972883750000e-001) (45, 1.03195918132422640000e-001) (46, -8.39382551230233640000e-001) (47, -9.26021603433234920000e-001) (48, -1.35207966064834150000e-001) (49, 1.74803497220130250000e-001) (0, 3.36552530737286610000e+000) (1, 3.43983737425417720000e+000) (2, -9.77882693188631140000e-002) (3, 5.21751694309937060000e-001) (4, 7.80143383739106630000e-001) (5, -1.38619612701874140000e-004) (6, 2.62064949544049190000e-001) (7, -1.23620567850380040000e-001) (8, 2.91104908418559290000e-001) (9, 2.72150606942591130000e-001) (10, 1.76428265916095260000e-001) (11, 2.98327140512199840000e+000) (12, 1.21876260274466200000e-001) (13, 2.39228114712835940000e+000) (14, -3.24951577691133900000e+000) (15, 4.38795359417992300000e-001) (16, 6.20586963425203470000e-001) (17, 4.97802550766484000000e-001) (18, 2.68978190358201860000e-001) (19, 5.48590067963440560000e-001) (20, 4.04619276700788070000e-001) (21, 2.59901717391246070000e-001) (22, 4.17834091776222220000e-001) (23, 8.02844303806381910000e-002) (24, 1.01386614425600570000e+000) (25, 1.05461049772541600000e+000) (26, -6.07933983464423940000e-002) (27, -1.29902397143202490000e-002) (28, 4.73659793300363620000e-002) (29, -1.14927179505085840000e+000) (30, 5.43024454627075270000e-001) (31, 1.18044392669082270000e+000) (32, 1.71057067492693060000e-001) (33, 6.00829895032718890000e-001) (34, 6.36701208308180560000e-001) (35, 9.50463789353504510000e-001) (36, 2.19146447422840590000e-001) (37, -9.75278216618192030000e-001) (38, -8.39404834723213700000e-001) (39, 5.55272356657746660000e-001) (40, -5.46642814819039870000e-001) (41, 1.29767564937663090000e-001) (42, 5.04616152365676810000e-001) (43, 1.48086639964900080000e+000) (44, 6.35110689134082560000e-002) (45, 1.14831678412043910000e+000) (46, 1.33794156323295740000e+000) (47, -1.60411765080304720000e-001) (48, -4.91868958039562880000e-001) (49, -2.41581018319677020000e-001) (0, 4.80615397308477130000e-001) (1, -5.64760721354774110000e+000) (2, 1.18652513660070660000e+000) (3, -2.47542301483154680000e-001) (4, 9.65671315241680820000e-001) (5, -2.70941556349351130000e-001) (6, -6.02633996102800000000e-001) (7, 5.83764242066848290000e-001) (8, -1.50140381835186240000e-001) (9, -1.37952915634954960000e-001) (10, -9.10263068807706910000e-001) (11, -4.92250128362921570000e-003) (12, 1.91572902734850340000e-001) (13, -3.25132295201894910000e-001) (14, -3.00069006031253360000e-001) (15, 1.34454712363669570000e-001) (16, -2.42781133196444040000e-001) (17, -3.55875424293122360000e-001) (18, -3.44262278636991160000e-002) (19, -9.17672998967964530000e-002) (20, 4.28937344744282130000e-001) (21, 4.01564206989100720000e-001) (22, 4.09931332616295880000e-001) (23, -5.76032440447976430000e-002) (24, 2.16932086660559460000e-001) (25, -5.99582026120131160000e-002) (26, 2.83475019201299920000e-001) (27, -1.62665097557496780000e-001) (28, 4.65942634243395830000e-001) (29, 1.68065010050921530000e-001) (30, 4.49723502427385110000e-002) (31, 3.09682921148930420000e-001) (32, 1.23522804517122360000e-001) (33, -6.91851319365054620000e-001) (34, -1.87715068532238850000e-001) (35, 2.66977198050297110000e-002) (36, -2.69462974129497430000e-001) (37, 6.29258689589045960000e-001) (38, 5.98849168985945200000e-001) (39, -2.32142049436803690000e-001) (40, -2.85000287195705910000e-001) (41, 7.33679327421524090000e-001) (42, -9.28489902643664660000e-002) (43, -4.30443469247699160000e-001) (44, 3.20447076488729550000e-001) (45, 1.78585930390678770000e-001) (46, 3.31183785380497540000e-002) (47, 8.42764645368962890000e-001) (48, -3.45072285347152170000e-001) (49, -6.28350602440679970000e-001) (50, 1.90045958478966580000e-001) (51, -5.56196798856437250000e-001) (52, -3.15937779923853250000e-001) (53, -6.40835889692778600000e-001) (54, 6.68284056303983130000e-001) (55, 1.55985614379248410000e-001) (56, 4.30193157568597860000e-002) (57, 2.61020611738617010000e-001) (58, 1.35990081768901550000e+000) (59, 1.48894178285017360000e-001) (60, -1.46766676265261440000e-001) (61, 3.61264313038046070000e-001) (62, 2.51851023424230770000e-002) (63, 8.73511796134407770000e-001) (64, -3.31138100882851950000e-001) (65, 4.83055486997795710000e-002) (66, 3.62049990758484990000e-001) (67, -2.66663888523531400000e-001) (68, -2.12903553897041020000e-001) (69, -5.12745879841586040000e-001) (0, -1.83590076994980490000e+000) (1, 3.40990806936653400000e+000) (2, -5.99818140474928270000e+000) (3, -1.09597494712363120000e-001) (4, 8.63620957799235980000e-001) (5, 5.01550857424974290000e-001) (6, 2.21940766632552270000e-001) (7, 2.02901217185831180000e-001) (8, -2.24436954983092320000e-001) (9, -3.48990977651969350000e-001) (10, 1.91753180823673870000e-001) (11, -2.22861052497732890000e-001) (12, 5.16260859883156950000e-001) (13, -2.78624945805603320000e-001) (14, 1.67119610715830810000e+000) (15, 4.84293673240197360000e-002) (16, -1.04253823481900580000e+000) (17, -5.68210270848310990000e-001) (18, 8.33114135119588510000e-002) (19, -8.27056837534591580000e-002) (20, -3.88426694850737660000e-001) (21, 1.96750027504302450000e-001) (22, 1.20210365506313390000e+000) (23, 1.10795242217675350000e-001) (24, -1.63361822653053570000e+000) (25, -2.23516582354148170000e-001) (26, 1.65660644818137300000e-001) (27, -1.94427959202664370000e-001) (28, -5.86664462416940810000e-001) (29, 4.06637908673347870000e-001) (30, -2.03933545781954020000e-001) (31, -1.21553983531263340000e+000) (32, 2.06651299237259060000e-002) (33, -9.51816088050524760000e-001) (34, -9.99196712336560130000e-002) (35, -1.97186273679809870000e-001) (36, 4.43248180584131240000e-001) (37, 4.33262141282517220000e-001) (38, -1.39149508559559290000e-001) (39, 7.26796014384456230000e-002) (40, -3.32394793235411210000e-001) (41, 2.41775151708895910000e-001) (42, -2.27120866615956580000e+000) (43, -4.65862140604018650000e-002) (44, -1.05140550281903580000e-001) (45, 4.19940263728502180000e-001) (46, -2.38344634340889220000e+000) (47, 2.69781262085865230000e-001) (48, -3.73925890403555010000e-001) (49, -4.95176340719767130000e-001) (50, -1.07143455448700640000e-001) (51, -3.23626626355867810000e-001) (52, 8.09388291675974920000e-001) (53, -1.23298995566718830000e-001) (54, -2.97949568316503880000e-001) (55, -5.31143138511264160000e-001) (56, 1.14217728903114600000e-001) (57, 9.75746658993702360000e-002) (58, 3.67919395562347320000e-001) (59, -4.07151018126038600000e-001) (60, 5.35484703270051600000e-002) (61, 1.80772144822723030000e-002) (62, -6.35033785573902440000e-001) (63, 2.41726924989087600000e-001) (64, 1.67219638380408210000e+000) (65, 5.31695182763284760000e-001) (66, 1.26393423296856170000e+000) (67, -1.00573559688055970000e-001) (68, 1.55327082775479990000e-001) (69, -2.61155721894932020000e-001) (0, 1.42300265357019180000e+000) (1, 4.34743257543712320000e+000) (2, 2.45216606574366170000e+000) (3, 9.33909081566321880000e-003) (4, -2.51916012564066480000e-001) (5, 3.62439403231713750000e-001) (6, -4.09582559585764390000e-001) (7, 8.78628294031034820000e-001) (8, -2.78325965624769690000e-002) (9, -9.79076341411337370000e-002) (10, 4.17934671134172000000e-002) (11, -1.03237280773154000000e-001) (12, 2.50293369063334160000e-001) (13, 3.33935666436972370000e-001) (14, -8.54457346476304670000e-001) (15, 6.06369717584457680000e-001) (16, -5.18451192541468990000e-001) (17, 3.77807833131218350000e-001) (18, 4.12898253223757280000e-001) (19, -5.90165856332208190000e-001) (20, 1.01135567690909710000e-001) (21, 1.59416659186119250000e-001) (22, 5.07230388554181720000e-002) (23, -2.98810746318117380000e-001) (24, 6.82450167260147730000e-001) (25, -1.01445305275020290000e-002) (26, 6.02642086299643000000e-001) (27, -6.08750513606712170000e-001) (28, 4.51669738471450640000e-001) (29, 3.45176739254617340000e-001) (30, 5.59723573932512370000e-001) (31, 3.31367599324681290000e-001) (32, 3.01407485110798620000e-001) (33, 2.46762956927987250000e-001) (34, 1.70889197534111970000e-001) (35, -3.82737327998993790000e-001) (36, 9.13118638535709430000e-002) (37, 6.21953441191463900000e-001) (38, 1.38574532330367120000e-001) (39, -1.08556230028758690000e-001) (40, -6.60081876691218790000e-002) (41, 1.15052363681828230000e+000) (42, 2.97669191284754610000e-001) (43, 5.41947942994126960000e-001) (44, -2.28673810113158130000e-001) (45, -5.00474626482554030000e-001) (46, -6.17953588128474120000e-001) (47, -1.60962555324220660000e+000) (48, 1.48146201902218080000e-001) (49, -3.43925256689326180000e-003) (50, 3.48211380854670630000e-001) (51, 1.21149881961068610000e-001) (52, -1.22104570268291380000e+000) (53, 2.71976537993575240000e-001) (54, 4.37200342149165140000e-001) (55, -5.39964262852257400000e-001) (56, -4.56194159539858090000e-001) (57, -2.94135675308890230000e-001) (58, -2.47004582725574600000e-001) (59, 7.42199173535204040000e-001) (60, 9.17500368284699050000e-001) (61, -6.49650521255630000000e-002) (62, 3.20067859217495140000e-001) (63, -2.74288868031476620000e-001) (64, 6.76119817854753280000e-001) (65, -6.21475741878796880000e-002) (66, -2.65466587207422670000e-001) (67, 1.16364076401198240000e-001) (68, 2.80253848904420840000e-001) (69, -8.16517716977691380000e-001) (0, -3.09742275498787020000e-001) (1, 2.43900283314132030000e+000) (2, -2.76018331562848440000e-001) (3, 7.50441323933366930000e-001) (4, 1.03811032994054590000e+000) (5, -6.57500870552934270000e-001) (6, 2.48837586646872780000e-001) (7, -6.57202971654439310000e-001) (8, -2.41915974338604370000e-001) (9, 4.15733308831265190000e-001) (10, 1.24834344303831330000e+000) (11, 6.46159954433016440000e-001) (12, -5.31684796616037000000e-002) (13, 1.14175667136033980000e+000) (14, 3.13746514274102990000e-001) (15, 7.48408948530428830000e-001) (16, -1.30280977245460230000e-001) (17, 1.05946604676416340000e+000) (18, -2.67899538860891070000e-001) (19, 9.04093108075988190000e-001) (20, 2.04240073931975550000e-002) (21, 4.78986896902939220000e-001) (22, 1.25450853334486840000e+000) (23, -4.33046465223208390000e-001) (24, -1.59880292460231530000e-001) (25, 1.30427527670986640000e-001) (26, -2.70828077567190350000e-002) (27, 2.79635137007013260000e-001) (28, 6.61661540287110330000e-001) (29, -3.31251991448382850000e-001) (30, -8.81087742639659500000e-001) (31, -4.39594932374779760000e-001) (32, 4.36955148139011980000e-001) (33, -2.18164318162107870000e-002) (34, -1.06694620629981210000e-001) (35, -5.83893100645662690000e-001) (36, 6.16744317264674820000e-001) (37, 8.38136499366143100000e-001) (38, -4.37170614028379590000e-001) (39, 2.98141989053060720000e-001) (40, 5.07026146579489520000e-001) (41, -1.01039884509422160000e+000) (42, 6.45534620208453870000e-001) (43, 1.54191953762366140000e-001) (44, -1.16063090451007030000e-004) (45, 3.66975792531301970000e-001) (46, 2.27549253651266660000e-001) (47, -5.03729049298102250000e-001) (48, -5.15554178817808740000e-001) (49, 1.02971196379419120000e+000) (50, 8.17544390085997220000e-001) (51, -4.64187523765982670000e-002) (52, 1.03972325834023970000e-001) (53, -5.16007521623501500000e-001) (54, 1.98607250309733700000e-001) (55, -3.25058008913415690000e-001) (56, 4.62759682014209260000e-003) (57, 8.02813091646590320000e-002) (58, 4.24421231360882110000e-001) (59, 1.28675072763673490000e+000) (60, 1.82001997200578110000e-001) (61, 1.43452206922819570000e-001) (62, -5.57115989312294560000e-001) (63, -3.97519681518619330000e-001) (64, -3.84833500350061030000e-001) (65, 1.86526923875483360000e-001) (66, 7.78341515673734550000e-001) (67, 1.56794109321170360000e-001) (68, 6.87296103762204180000e-001) (69, 1.02781771710846210000e+000) (0, -1.14195286625507750000e+000) (1, -3.23233548067597940000e+000) (2, -4.53173241037735600000e+000) (3, 1.54984138390997690000e-003) (4, 1.55602274202899560000e+000) (5, -1.35301333505457030000e-001) (6, 2.77612599066316580000e-001) (7, 4.06541083749876240000e-001) (8, 9.33180731086331180000e-002) (9, -4.76789948383007640000e-002) (10, -1.94828871079196320000e-002) (11, -8.51018442638101110000e-001) (12, 8.33763949443506180000e-001) (13, 4.84587284235390710000e-001) (14, 1.91355488998240810000e-001) (15, 3.35428642746679500000e-001) (16, -2.65829578147568630000e-001) (17, -6.59053238596630790000e-001) (18, 9.08173887150276360000e-001) (19, 3.02314847151253780000e-001) (20, 5.92192265604714830000e-001) (21, -1.08705405602934170000e-001) (22, -1.41147422892412860000e-001) (23, -7.36429701481592920000e-002) (24, -1.10426726453510460000e+000) (25, 4.31447372472295480000e-001) (26, 1.38411390251962030000e-001) (27, 3.34941445698996200000e-001) (28, 3.54362981473579470000e-001) (29, 1.84080494064708560000e-001) (30, -4.86578800365944590000e-001) (31, 1.81449604849686530000e-001) (32, 4.77602330604569690000e-001) (33, -1.96482733690907710000e-001) (34, -9.30829990441081720000e-001) (35, 1.67755381620622370000e-001) (36, -2.39692409074666270000e-001) (37, -2.34697325541425720000e-001) (38, 1.98132910228425610000e-001) (39, -3.41123062972419460000e-001) (40, 2.90170155233361870000e-001) (41, 7.23192240349117330000e-001) (42, 8.27575421203251980000e-002) (43, -1.14814999363126250000e+000) (44, 9.93002639400344720000e-001) (45, 2.02102901183785650000e-001) (46, -8.03915327596419760000e-002) (47, -1.95569747084290420000e-001) (48, -3.23263088436996640000e-001) (49, -9.33066345371859340000e-002) (50, -1.87787003113893210000e-001) (51, 1.23168346697792200000e-001) (52, 3.16177104790468400000e-001) (53, -6.00692397055381020000e-001) (54, -9.11820047884293720000e-001) (55, -8.96784971671453550000e-001) (56, -8.86168391459100980000e-001) (57, 5.97568112666439390000e-001) (58, 3.09391901520778780000e-001) (59, 2.00431400007084900000e+000) (60, 7.47630405161760710000e-001) (61, -1.11808543677009280000e-001) (62, 5.30532746140691570000e-001) (63, 2.93318346792152240000e-001) (64, 2.23681333798350340000e-001) (65, 4.77245526174812310000e-001) (66, 1.35927942255377630000e+000) (67, 2.46461896121225800000e+000) (68, -9.53938662889101810000e-002) (69, 4.45973194911062910000e-001) (0, 6.52314308898048980000e-001) (1, -1.75815020632599020000e+000) (2, 7.40813945968957440000e-001) (3, 6.56664263989720440000e-001) (4, 4.56047330696716450000e-002) (5, 4.32681853738708930000e-001) (6, 5.07861733276335100000e-001) (7, 2.37278162458542720000e-001) (8, 1.45935042708257160000e-001) (9, 6.83748501098228710000e-001) (10, 6.61425190783790810000e-001) (11, -3.60011787892542400000e-001) (12, -2.39097335442351730000e-001) (13, 6.12696879663085500000e-001) (14, 2.34805502183361850000e+000) (15, 5.76955436467594280000e-001) (16, 2.61551621426416860000e+000) (17, 7.85044420743873820000e-001) (18, 6.63429369662740460000e-001) (19, 6.76330168509325810000e-001) (20, -1.51605712529856770000e-001) (21, -3.79844960040112640000e-001) (22, -3.02458700197788590000e-001) (23, 3.04825101968307700000e-001) (24, -1.26729408752175530000e-001) (25, 2.15486706376175670000e-001) (26, 1.43366791189433020000e-001) (27, 5.38095783039126640000e-001) (28, 7.86340436074199120000e-001) (29, -4.70020761827723620000e-001) (30, 4.04090760795562720000e-001) (31, 8.52296516783309640000e-001) (32, -1.83544361269941810000e-001) (33, 3.79881795231497120000e-001) (34, 1.85864703099532850000e-001) (35, 1.26563681330736980000e-001) (36, 2.92061332315193380000e-001) (37, 9.41825010631171630000e-001) (38, -8.90099047172091210000e-001) (39, -2.86141869999536220000e-001) (40, 1.15513146850984270000e-001) (41, 8.82043507255393930000e-001) (42, -1.90973082384501990000e-003) (43, 3.87307128417276160000e-001) (44, 1.51418830958731820000e-001) (45, 1.68507061756557030000e+000) (46, 5.97790332242546070000e-001) (47, -9.07884025314458500000e-002) (48, 2.18525524365233680000e-001) (49, 5.80719622329919360000e-002) (50, 8.24820630445791570000e-001) (51, 3.90650105689039350000e-001) (52, 7.75847899835719200000e-002) (53, -6.51294344945616440000e-001) (54, 8.21578546157605950000e-001) (55, 3.97957401059862490000e-001) (56, -4.60963772330229670000e-001) (57, 2.34397052604930710000e-001) (58, 4.36775282482490590000e-001) (59, 1.67966438244546330000e+000) (60, -1.37174004131625390000e-001) (61, 7.76122468143995300000e-002) (62, 2.24457292202357940000e-001) (63, 6.22120422518896920000e-002) (64, 1.10031967476083460000e+000) (65, 4.56756125240700360000e-001) (66, 1.39763345895572130000e-001) (67, -4.21638516856190750000e-001) (68, 4.29952777257898710000e-001) (69, -1.87427568983729170000e-002) (0, 1.82266957296625430000e+000) (1, 8.19578186615630420000e+000) (2, 7.48959274886231370000e-001) (3, 7.99576808428785650000e-001) (4, 1.69476790138504090000e-001) (5, -8.27738925586966160000e-001) (6, 4.16717008007920600000e+000) (7, 1.00940201095437470000e+000) (8, 4.18432107485036450000e-001) (9, 7.47690833308498480000e-002) (10, 1.50740927206931500000e-001) (11, 2.81230685701879670000e-002) (12, -1.94186141314558470000e-001) (13, -1.96712019416307620000e-001) (14, 3.04933779970985810000e-001) (15, -3.17582383814004720000e-001) (16, 1.42448886700672540000e-001) (17, 1.24500391916035500000e-001) (18, 1.65648636559488470000e-001) (19, 2.67158043110357570000e-001) (20, -1.61099822323205690000e-001) (21, 3.66609219795013430000e-001) (22, 7.55539176745403250000e-002) (23, 1.16228947956076580000e-001) (24, 2.59016227485141040000e+000) (25, 1.06249371133325910000e-001) (26, 6.38778252981529130000e-001) (27, -1.98759459316277760000e+000) (28, 5.53081893937600770000e-001) (29, 1.68904287885224320000e-001) (30, 6.91364035717244700000e-001) (31, 3.01786463222271210000e-001) (32, -3.84577747146484460000e-001) (33, -2.28437986788747570000e-002) (34, 4.00719908601586680000e-001) (35, 6.28126465218570740000e-001) (36, 5.53734145198713670000e-001) (37, 1.32175522435684400000e+000) (38, -7.97731310479773550000e-002) (39, 5.71202641702728280000e-002) (40, -1.92355018390647310000e-001) (41, 2.29189652783692970000e-001) (42, -3.06502701243613780000e-001) (43, -5.74845351010570440000e-001) (44, 1.09254361742167140000e-002) (45, 2.47416341770191090000e-001) (46, 2.59208260331112440000e-001) (47, 8.55557596834336740000e-001) (48, 5.11978035667940560000e-002) (49, 3.75090545957759200000e-001) (50, 5.01847909013433900000e-001) (51, 5.16682705425562940000e-001) (52, 3.59460027990166240000e-001) (53, -3.15425450695098200000e-001) (54, 5.85925719425485100000e-001) (55, 8.17717590917973470000e-001) (56, 7.02155674406074630000e-001) (57, 9.52979183393591780000e-001) (58, 5.33414463955358740000e-001) (59, 2.51789511043594540000e-001) (60, 1.11419325885303460000e+000) (61, -2.34871171953568990000e+000) (62, 1.80823852868239850000e+000) (63, -3.08659690578392210000e-001) (64, -9.40597573804641260000e-002) (65, -4.77979821242545540000e-002) (66, 5.89075152774172700000e-002) (67, -2.77682327731137410000e+000) (68, -1.15504232573322230000e+000) (69, -5.63763462699876860000e-002) (0, -1.12011417308339080000e+000) (1, -5.08526046100893580000e+000) (2, -6.71276611226982030000e+000) (3, -2.20597485439568750000e-001) (4, 2.01551336334056530000e-001) (5, 8.18669828235337960000e-001) (6, -2.03255087080335970000e+000) (7, 3.19930305037520460000e-001) (8, -2.76980461345810390000e-001) (9, -8.79569966713427270000e-002) (10, 1.91747025434889260000e-002) (11, -2.41903100987263230000e-001) (12, -4.37495126369215890000e-001) (13, 2.88004777594139950000e-001) (14, 6.12401557843864190000e-001) (15, 2.17208312304533900000e+000) (16, -9.75853200449522840000e-001) (17, 1.95054516305321930000e+000) (18, 2.61298156252824490000e-001) (19, 3.88325812516217280000e-001) (20, 3.06893007859197490000e-001) (21, -8.49303878414804810000e-001) (22, -1.47321885801146000000e-001) (23, -1.84918299647220220000e-002) (24, -2.14493968029934620000e-001) (25, -1.81086522784269650000e-001) (26, 1.10865757314103850000e-002) (27, 4.72109748036419530000e-001) (28, 2.12396480800901650000e+000) (29, 3.65153415866260160000e-001) (30, -1.26152720726720790000e+000) (31, -2.96129836162850100000e-001) (32, -4.09012019243929600000e-001) (33, 1.68081824519386190000e-001) (34, -2.95738291523374830000e-001) (35, 1.48720567338508690000e+000) (36, -6.86780233980708640000e-001) (37, 3.55174327714658980000e+000) (38, -1.12743723860981280000e+000) (39, 1.10472238136059200000e+000) (40, -1.53953292192837900000e-001) (41, 2.09521338480898180000e+000) (42, -3.60666652592057160000e-001) (43, 1.22824717435275030000e+000) (44, 9.74548061066091150000e-002) (45, 3.56992620309857460000e-001) (46, -6.52398898446653330000e-001) (47, 3.38114524179365160000e-001) (48, -2.29490493558478400000e-002) (49, 2.47747932250814100000e-001) (50, 4.82846209620809150000e-001) (51, -4.01678524312512550000e-001) (52, -6.35509830076343710000e-002) (53, 9.09489321409658660000e-001) (54, 3.77724357297116840000e-001) (55, 8.12223132532337130000e-001) (56, 1.81636281036996280000e-001) (57, -6.03174010621133850000e-001) (58, -8.52386598236729240000e-001) (59, 2.85841918480087500000e-001) (60, 1.91292373746520550000e+000) (61, 1.08926023455650500000e+000) (62, 6.56300437728634110000e-001) (63, -9.98960276973819420000e-002) (64, -3.25062950316980670000e+000) (65, 1.84158565869323780000e-001) (66, 1.93581982526209310000e-001) (67, 3.38434166627651130000e-001) (68, 4.89578037869961070000e-001) (69, -3.38392077088978000000e-001) (0, 3.57009276936742690000e+000) (1, 7.11833199219918900000e+000) (2, -1.28999163346526410000e+000) (3, 2.81981471158409160000e-001) (4, 4.13667295330989620000e-001) (5, -2.80356694406346420000e-001) (6, 2.10606910918106820000e-001) (7, 1.84078336125073930000e-001) (8, 3.76704121199936460000e-001) (9, 1.48242725820275200000e-001) (10, -1.14820768285826880000e-001) (11, 2.17842938966423110000e+000) (12, 4.44088834012988710000e-001) (13, 1.17365368021321090000e+000) (14, 4.87968244558219020000e-001) (15, -3.00132448352891490000e-001) (16, 5.38478201024034380000e-002) (17, 1.43119318542204420000e-001) (18, 2.92155765437939810000e-001) (19, -1.36567668870942070000e+000) (20, -3.41613724851536130000e-001) (21, -2.04852712962007190000e-001) (22, 3.93622453355472630000e-001) (23, 7.53209792513252260000e-001) (24, 6.95981032700814790000e-001) (25, 6.01462428546706640000e+000) (26, 1.18775263888230590000e+000) (27, 2.62562487686824890000e-001) (28, -6.07660441687328690000e-001) (29, -2.31478765840393040000e-001) (30, -3.97706298110824600000e-002) (31, 4.22576247510462520000e-001) (32, -6.57563447424103780000e-002) (33, 1.36570247622131910000e-001) (34, 4.52693319148739120000e-001) (35, -1.16664125125963800000e-002) (36, 1.75511700501727540000e-001) (37, -2.01425883113139830000e-001) (38, 1.54671250235988270000e+000) (39, 1.06921281112175470000e+000) (40, 1.58294334666125550000e+000) (41, -2.56714243796862860000e-001) (42, -2.38603585263909210000e-001) (43, -9.69755572089411740000e-002) (44, 8.88191257350411270000e-001) (45, 1.76457245515384710000e+000) (46, 2.14175349550532410000e-001) (47, 1.84271504912049610000e-001) (48, 3.01646570051533610000e-001) (49, 3.18918894494035100000e-001) (50, 4.59476092654228170000e-001) (51, -5.98663273970379690000e-002) (52, 3.41970590823433340000e-001) (53, -9.12418444444364900000e-002) (54, -4.97514728291353460000e-001) (55, -1.84630961349001010000e+000) (56, 3.49366132923464860000e-001) (57, 3.78869572607975820000e-001) (58, -1.26769871927272340000e+000) (59, -1.99203627727016300000e-001) (60, 6.05627524055744600000e-002) (61, -2.21368226376164320000e-001) (62, 4.99703071070412290000e-001) (63, 1.65924141499653870000e-001) (64, -4.74634844350834580000e-001) (65, 2.36867351475294840000e-001) (66, 6.14888104275381210000e-001) (67, 5.97594304809932480000e-001) (68, -8.70940147730152160000e-001) (69, 4.07388049084896510000e-001) (0, -4.64775275119453470000e+000) (1, 7.74508326471267660000e-001) (2, -4.73938036772183670000e+000) (3, 3.62463205137655180000e-001) (4, -3.06519579983867250000e-001) (5, 9.18247331884681630000e-002) (6, 8.36225259055604740000e-001) (7, -3.85575145580627850000e-002) (8, 1.96860400695388100000e-001) (9, 4.62050370987043380000e-001) (10, 9.16879960974672390000e-001) (11, 8.43740477390740460000e-002) (12, 4.19321148523467470000e-001) (13, 6.91358779956786300000e-001) (14, -2.14068952634401650000e-001) (15, -8.30227846472969100000e-001) (16, 8.11070922477186370000e-001) (17, -1.95330456881770560000e-001) (18, 4.09509890244230680000e-001) (19, -3.35856880787221090000e-001) (20, -1.81936493159515170000e+000) (21, -1.05958628415205760000e+000) (22, -2.23383870394435170000e+000) (23, 8.13768631737231910000e-001) (24, 1.94434845484596350000e+000) (25, 3.25632520253016140000e-001) (26, 2.30693318158129700000e+000) (27, 2.72372484614976100000e-001) (28, 9.59630945688427990000e-001) (29, -7.11873982741725310000e-002) (30, -1.00347511731500080000e-001) (31, 1.08947672555891040000e+000) (32, -1.63149767739548700000e-001) (33, 7.95864812369420640000e-001) (34, 6.96719992861823180000e-001) (35, 3.89086392511312330000e-001) (36, 3.49287527169960590000e-001) (37, -3.18773484373989470000e+000) (38, 8.05079137677120610000e-002) (39, -1.30715528191936730000e+000) (40, -4.87253792608439550000e-003) (41, -4.11491509962767510000e-001) (42, 6.34013531789819620000e-002) (43, 2.13690392666993990000e-001) (44, -6.78613095353593270000e-001) (45, -5.99778187047635190000e-001) (46, 4.71824737181212370000e-001) (47, -1.70255290085483880000e+000) (48, 9.07265263637929920000e-001) (49, 1.93065852960989380000e-001) (50, 6.57948395633842220000e-001) (51, -2.07397470990643370000e-001) (52, -1.34618559020497840000e+000) (53, -5.81891803042653090000e-001) (54, 1.72324373021201490000e-001) (55, -1.27357549428178650000e+000) (56, 1.11743369659466610000e+000) (57, -3.27554919457502980000e-001) (58, 2.10955471295016680000e-001) (59, -3.02122222544333630000e-001) (60, 5.02878717795347760000e-001) (61, 2.41594376209631760000e-001) (62, -5.10196363076562270000e-002) (63, -5.38475495265288370000e-001) (64, 4.84210430334910510000e-001) (65, -8.68588139754431610000e-001) (66, 2.77788468539218180000e-001) (67, 2.58034602733436190000e+000) (68, 3.45901526234142050000e-001) (69, 5.56839839996493000000e-001) (0, 7.72773197560669980000e+000) (1, 1.30326751283079800000e+001) (2, -2.63749957935783710000e-001) (3, 6.78469396887452670000e-001) (4, -1.14876912306822800000e+000) (5, 9.29471433616750000000e-001) (6, -5.76619555601428860000e-001) (7, -3.81832638617791880000e-001) (8, 3.31509898357417400000e-001) (9, 6.45606797750641340000e-001) (10, -6.34042470244247870000e-001) (11, 6.25042098590447240000e-001) (12, 1.15594706532182800000e-001) (13, 2.60453629949277590000e+000) (14, 5.77865757918505580000e-001) (15, 3.94680965421884130000e-001) (16, 4.87783584243044630000e-001) (17, 5.75459486578414170000e-001) (18, -6.45009794611737660000e-002) (19, 3.66801295818505460000e-001) (20, 6.71095638732910450000e-001) (21, -2.08202209285316630000e-001) (22, 8.22505801479914920000e+000) (23, 4.96068286844878190000e-001) (24, -1.03727580565052170000e-001) (25, 7.02859976566317160000e-001) (26, 1.46458452004938340000e-001) (27, 8.55085892412731470000e-001) (28, -9.32430018587809490000e-001) (29, -4.97120168026712660000e-001) (30, 7.37337862545866640000e-001) (31, 7.74342753989977100000e-001) (32, 2.97418841569220690000e-002) (33, 9.15464910847972440000e-001) (34, 1.87296658314758060000e-001) (35, 3.01566277743003530000e+000) (36, 2.99467058043096810000e-001) (37, -1.28941046432084480000e+000) (38, 2.17050021398344060000e-001) (39, 1.38322061722130620000e+000) (40, 9.98265264570997460000e-002) (41, -6.41300406162543250000e-001) (42, -2.01717880642362070000e-001) (43, 1.63967397006655750000e+000) (44, 1.25938618378739850000e-001) (45, 9.47926737725693360000e-001) (46, 8.30683836199025080000e-001) (47, 1.08593461251836640000e+000) (48, 1.22325666710163560000e+000) (49, 1.15411243597059120000e+000) (50, 4.26960042988980330000e-001) (51, 4.88960157724329660000e-001) (52, 4.41391337048273380000e-001) (53, -6.23335775987530760000e-001) (54, 8.62888850759748080000e-001) (55, 1.86284404503709530000e-001) (56, -5.88311560415770930000e-001) (57, -8.92252679850392800000e-001) (58, 2.83584232173928200000e-001) (59, 1.40940971326032890000e+000) (60, 2.55613066196593740000e-001) (61, -1.52853274843860630000e-001) (62, -1.13193179733924330000e+000) (63, -2.32989503010070210000e-001) (64, 7.05417634581753990000e-001) (65, -2.41518497744643870000e-001) (66, 2.50544841636808960000e-001) (67, 5.18108311348237300000e-002) (68, 2.72905827617928030000e-001) (69, 3.11579266936763580000e-001) (0, 3.45507007070342010000e+000) (1, 2.82450758650677040000e+000) (2, 3.50485954314124020000e+000) (3, 3.04954057750601470000e-001) (4, 1.33588673400793250000e-001) (5, -1.01462264065800210000e+000) (6, 3.60051594994921580000e-002) (7, -1.34873293826420330000e-001) (8, -7.57238353286218550000e-002) (9, 4.03306525777184730000e-001) (10, 3.21560650495855530000e-001) (11, 5.02770748114455430000e-001) (12, 4.39530213901553060000e-001) (13, -4.86030923254778090000e-001) (14, -2.64515768922692140000e-002) (15, 3.37979533106287900000e-003) (16, 3.93226489556142590000e-001) (17, -2.83586295683185440000e-001) (18, 4.52345576692893050000e-001) (19, 3.79844436564200990000e-002) (20, 2.23904532825528940000e-001) (21, -1.02449905355677630000e-001) (22, 5.83575479055030490000e-001) (23, 1.83268606915430760000e-001) (24, -1.11744785542309600000e+000) (25, 4.50075641386057990000e-001) (26, -2.48983657253838030000e-001) (27, 4.14584092145882150000e-001) (28, -8.00052653702375660000e-001) (29, -2.69340358792001190000e-001) (30, 1.03110738346320100000e+000) (31, 3.62338722967320110000e-001) (32, -3.36506363889058250000e-001) (33, 4.74565504133888930000e-001) (34, 1.01534578992849090000e-001) (35, 4.72087922996169140000e-001) (36, 3.86813967144916840000e-001) (37, 1.36970488040669830000e-001) (38, -2.09302892265533780000e-001) (39, 2.63678691622920960000e-001) (40, 2.04796616466558580000e-001) (41, 5.22085515272077250000e-001) (42, 2.17071906730615600000e-001) (43, -1.26341724677632320000e+000) (44, -2.66869933222925630000e-001) (45, -1.83275618306068810000e-001) (46, 2.30791142815515100000e-001) (47, 1.88843464071160260000e-001) (48, 2.67831940729763520000e-001) (49, -1.53891390928975410000e-001) (50, 4.15383847204034930000e-001) (51, 7.94380824397178280000e-001) (52, 7.52717340297871100000e-002) (53, 3.85765751001894470000e-001) (54, 2.17303000784466770000e-001) (55, 2.39245639477295350000e-001) (56, -4.40702287001984610000e-001) (57, 5.66473004449063460000e-001) (58, 1.53967087617238100000e-001) (59, 4.92417022797339450000e-001) (60, 2.21090959767596550000e-001) (61, 9.00898593260291980000e-001) (62, -1.37108326186215160000e+000) (63, -2.46246650562037400000e-001) (64, 2.95689506166255330000e-001) (65, -4.03225834597859340000e-002) (66, -2.13075028572572540000e-001) (67, -7.78899341953797840000e-001) (68, 1.08699983027343410000e-001) (69, -6.97828906536303920000e-001) (0, 4.25064104617924170000e+000) (1, 6.76631189202674220000e+000) (2, 3.48441947683627180000e-001) (3, 2.16316582170941960000e-001) (4, -1.07298453704910130000e-001) (5, -6.04460439424897650000e-002) (6, 1.07567684135809820000e+000) (7, 9.78454656784945590000e-001) (8, 3.28692650847368760000e-001) (9, 1.95537715893590510000e-001) (10, 6.80527952637385750000e-001) (11, -2.36619210003277930000e-001) (12, -6.48327764138734500000e-001) (13, 2.01205945827595260000e+000) (14, -2.17574750039257800000e-001) (15, -3.14623949690530590000e-001) (16, -9.84762077445119010000e-001) (17, -7.37705151764288300000e-001) (18, 1.36294282276798630000e+000) (19, -1.22829982939076100000e+000) (20, -5.96357756697590390000e-001) (21, 7.28370803469788770000e-001) (22, 1.68555749665722150000e-001) (23, 2.19007565158659850000e-001) (24, -6.91764098860789380000e-001) (25, 1.85212200127355560000e-001) (26, 5.08342757369590670000e-001) (27, 2.32054602219297330000e-001) (28, 2.98693591460818480000e-001) (29, 1.50773757885685590000e-001) (30, 7.15627900743119220000e-001) (31, 1.81327558934392420000e-001) (32, 4.26220515582730050000e-001) (33, 1.94884074899644920000e+000) (34, 2.43825306458118760000e-001) (35, 3.53158067832048120000e-001) (36, 2.30320602589665830000e-001) (37, -5.34636023576041880000e-002) (38, 1.01727889622756430000e+000) (39, 3.94572611853221900000e-001) (40, -4.92486207356282180000e-001) (41, -8.09788744168832010000e-002) (42, -2.39218166207481530000e-002) (43, 5.58064459499488800000e-001) (44, -2.73212856697617950000e-002) (45, 1.05744791580679980000e+000) (46, -3.46024590765272190000e-003) (47, -9.29185442140245540000e-002) (48, -9.43594993707445180000e-003) (49, 2.94106007165089670000e-001) (50, 6.60571362430421030000e-002) (51, -8.26389192978622680000e-002) (52, -5.73462416421773650000e-001) (53, -1.12890342457948440000e+000) (54, -2.46867404710231580000e-001) (55, -1.09175297900451160000e-001) (56, 5.84902548113617330000e-002) (57, -6.34875740295293030000e-001) (58, 4.64060291137005480000e-001) (59, -6.34659128738576660000e-002) (60, -1.72880819666592610000e+000) (61, 2.40730421693699970000e-002) (62, -1.17826295699898090000e+000) (63, -3.68909263264174500000e-001) (64, 3.22702511337725540000e+000) (65, 8.70510988349965880000e-001) (66, -2.84612129451818410000e-001) (67, -2.79340923082416150000e-001) (68, -1.35565398151874720000e+000) (69, -4.58277821838749540000e-001) (0, 2.31416697474824320000e+000) (1, -1.92095429603679670000e+000) (2, -2.51296114176368660000e-001) (3, 1.63280201297924550000e+000) (4, 2.30608990654340350000e-001) (5, 5.78080028390508320000e-001) (6, 8.57008164045755390000e-002) (7, 3.99886198741413790000e-001) (8, -2.33182185801551510000e-001) (9, 9.82661083879799450000e-002) (10, 2.12787643403479280000e-001) (11, 3.20062784210114860000e-001) (12, -7.27629305562445870000e-001) (13, -6.30285072973158830000e-001) (14, -1.72311719116479060000e-002) (15, 1.29252219857615590000e-001) (16, 9.70025498179166170000e-001) (17, -1.09515554279283920000e+000) (18, 5.25040851303299250000e-001) (19, 1.08498248942551890000e+000) (20, -4.61152647768375220000e-001) (21, 5.03662076416960260000e-001) (22, 2.57532142927288490000e-001) (23, 4.26833111580832870000e-001) (24, -9.98057977249039660000e-001) (25, 3.27506558489984780000e-001) (26, -1.65085708091639970000e-001) (27, 1.34797145187990270000e-001) (28, 1.37215058277363080000e-001) (29, -1.31983811281989490000e-001) (30, 2.24002141186163990000e-001) (31, 1.68306614999439330000e-001) (32, 1.60176354403719220000e-001) (33, 6.14146897835488590000e-001) (34, -4.43637806617574240000e-001) (35, -4.92055986352029460000e-001) (36, 8.13897021662332460000e-001) (37, 4.74964752479159090000e-001) (38, 4.16876816606506110000e-001) (39, -2.63667716023324620000e-001) (40, 3.48577894507363710000e-001) (41, 2.63359643827403120000e-001) (42, 7.21280271167521140000e-001) (43, 2.81905833093213470000e-003) (44, 2.24608046769624770000e-002) (45, 7.96058962001467530000e-001) (46, 2.48818055132059290000e-001) (47, -5.77706765672244330000e-001) (48, 6.65193016235723580000e-001) (49, 1.56414131451345690000e-001) (50, 4.98511838127910280000e-001) (51, 5.90231170502645400000e-001) (52, -7.87541596130241440000e-001) (53, -4.97778070151015590000e-002) (54, 9.92785537554362880000e-002) (55, 1.91776196640167350000e-001) (56, -7.05692870971207250000e-001) (57, 3.33786338243616980000e-001) (58, 5.95109918203616690000e-001) (59, 4.32146741483261430000e-001) (60, -6.57609810305886670000e-002) (61, -2.03306538356020150000e-002) (62, -9.23045392637615310000e-001) (63, -1.94081594475770630000e-002) (64, 7.22373559817023610000e-002) (65, -2.26670572782684880000e-001) (66, -2.58117105468748200000e+000) (67, -4.75439762691274580000e-001) (68, 2.13581209111972590000e-001) (69, 5.19264757890075650000e-001) (0, 9.43562734005681850000e+000) (1, -2.10209715207383210000e+001) (2, 1.38426808816533330000e+001) (3, -2.41054297559066960000e-001) (4, 2.84947138744099940000e-001) (5, -1.26197829011141880000e-001) (6, 4.80565571947574110000e-002) (7, -9.36351969368808600000e-001) (8, 9.71337332547806410000e-001) (9, -1.04284912327646260000e-001) (10, -5.24411789849501760000e-001) (11, 4.50357034176382610000e-002) 