FANN_FLO_2.1
num_layers=4
learning_rate=0.700000
connection_rate=1.000000
network_type=1
learning_momentum=0.000000
training_algorithm=2
train_error_function=1
train_stop_function=1
cascade_output_change_fraction=0.010000
quickprop_decay=-0.000100
quickprop_mu=1.750000
rprop_increase_factor=1.200000
rprop_decrease_factor=0.500000
rprop_delta_min=0.000000
rprop_delta_max=50.000000
rprop_delta_zero=0.100000
cascade_output_stagnation_epochs=12
cascade_candidate_change_fraction=0.010000
cascade_candidate_stagnation_epochs=12
cascade_max_out_epochs=150
cascade_min_out_epochs=50
cascade_max_cand_epochs=150
cascade_min_cand_epochs=50
cascade_num_candidate_groups=2
bit_fail_limit=1.00000001490116120000e-001
cascade_candidate_limit=1.00000000000000000000e+003
cascade_weight_multiplier=4.00000000000000020000e-001
cascade_activation_functions_count=10
cascade_activation_functions=3 5 7 8 10 11 14 15 16 17 
cascade_activation_steepnesses_count=4
cascade_activation_steepnesses=2.50000000000000000000e-001 5.00000000000000000000e-001 7.50000000000000000000e-001 1.00000000000000000000e+000 
layer_sizes=16 20 20 6 
scale_included=0
neurons (num_inputs, activation_function, activation_steepness)=(0, 0, 0.00000000000000000000e+000) (0, 0, 0.00000000000000000000e+000) (0, 0, 0.00000000000000000000e+000) (0, 0, 0.00000000000000000000e+000) (0, 0, 0.00000000000000000000e+000) (0, 0, 0.00000000000000000000e+000) (0, 0, 0.00000000000000000000e+000) (0, 0, 0.00000000000000000000e+000) (0, 0, 0.00000000000000000000e+000) (0, 0, 0.00000000000000000000e+000) (0, 0, 0.00000000000000000000e+000) (0, 0, 0.00000000000000000000e+000) (0, 0, 0.00000000000000000000e+000) (0, 0, 0.00000000000000000000e+000) (0, 0, 0.00000000000000000000e+000) (0, 0, 0.00000000000000000000e+000) (16, 5, 1.00000000000000000000e+000) (16, 5, 1.00000000000000000000e+000) (16, 5, 1.00000000000000000000e+000) (16, 5, 1.00000000000000000000e+000) (16, 5, 1.00000000000000000000e+000) (16, 5, 1.00000000000000000000e+000) (16, 5, 1.00000000000000000000e+000) (16, 5, 1.00000000000000000000e+000) (16, 5, 1.00000000000000000000e+000) (16, 5, 1.00000000000000000000e+000) (16, 5, 1.00000000000000000000e+000) (16, 5, 1.00000000000000000000e+000) (16, 5, 1.00000000000000000000e+000) (16, 5, 1.00000000000000000000e+000) (16, 5, 1.00000000000000000000e+000) (16, 5, 1.00000000000000000000e+000) (16, 5, 1.00000000000000000000e+000) (16, 5, 1.00000000000000000000e+000) (16, 5, 1.00000000000000000000e+000) (16, 5, 1.00000000000000000000e+000) (36, 5, 1.00000000000000000000e+000) (36, 5, 1.00000000000000000000e+000) (36, 5, 1.00000000000000000000e+000) (36, 5, 1.00000000000000000000e+000) (36, 5, 1.00000000000000000000e+000) (36, 5, 1.00000000000000000000e+000) (36, 5, 1.00000000000000000000e+000) (36, 5, 1.00000000000000000000e+000) (36, 5, 1.00000000000000000000e+000) (36, 5, 1.00000000000000000000e+000) (36, 5, 1.00000000000000000000e+000) (36, 5, 1.00000000000000000000e+000) (36, 5, 1.00000000000000000000e+000) (36, 5, 1.00000000000000000000e+000) (36, 5, 1.00000000000000000000e+000) (36, 5, 1.00000000000000000000e+000) (36, 5, 1.00000000000000000000e+000) (36, 5, 1.00000000000000000000e+000) (36, 5, 1.00000000000000000000e+000) (36, 5, 1.00000000000000000000e+000) (56, 0, 1.00000000000000000000e+000) (56, 0, 1.00000000000000000000e+000) (56, 0, 1.00000000000000000000e+000) (56, 0, 1.00000000000000000000e+000) (56, 0, 1.00000000000000000000e+000) (56, 0, 1.00000000000000000000e+000) 
connections (connected_to_neuron, weight)=(0, 3.69911912449488840000e-001) (1, -6.20770502017449540000e-001) (2, -1.72917257915212760000e-001) (3, -6.00473838679179560000e-002) (4, -4.34439379293431320000e-002) (5, -3.02790675096821260000e-002) (6, -4.72832971360686860000e-001) (7, -2.38358928281003330000e-001) (8, 8.00507725196832050000e-002) (9, 9.09966551231859020000e-003) (10, -4.46675471995376730000e-002) (11, 9.33371315560705720000e-003) (12, 3.27341823192594610000e-003) (13, -9.33866902312536220000e-002) (14, -7.62873186276448980000e-003) (15, 2.79859221477534730000e-001) (0, 6.73934356143061850000e-001) (1, 4.33020468251658070000e-001) (2, 5.85088885209930190000e-001) (3, 2.87841272411942140000e-002) (4, 3.37661625612606510000e-002) (5, 4.88559717385296940000e-002) (6, -1.77501242625242310000e-001) (7, -4.38105293683020590000e-001) (8, -2.70599854133216690000e-001) (9, -1.93403301456648160000e-002) (10, -6.39348229038094460000e-002) (11, -9.83031054982206990000e-003) (12, -2.89911723860920220000e-004) (13, -1.19975247852809270000e-001) (14, -2.02249321142864010000e-002) (15, -2.55556746720106920000e-001) (0, 5.44154986870517000000e-002) (1, 2.29575804396674740000e-001) (2, 3.70758138827306130000e-001) (3, 1.42538736878249470000e-001) (4, -8.31365245166876540000e-002) (5, 8.54664416084934160000e-003) (6, -2.37175539071698500000e-001) (7, 2.77213718907655390000e-001) (8, 4.57206568983458060000e-002) (9, -4.65591356891383450000e-002) (10, 5.53502267099114510000e-002) (11, -1.46020784810087230000e-003) (12, -4.60988991561427020000e-002) (13, 1.08428596705131180000e-001) (14, 1.95501007585701550000e-002) (15, 1.10657273131856260000e-001) (0, -1.79234933924628530000e-001) (1, 4.30959277656138010000e-001) (2, 6.91020832722994300000e-001) (3, 2.76054483961822440000e-002) (4, -6.45134177658681360000e-002) (5, -4.98607114270587450000e-002) (6, 1.33742295139735040000e-001) (7, 3.86958348564249220000e-002) (8, -1.90486611261739320000e-001) (9, -4.69099036997928510000e-002) (10, 6.42587961098204100000e-002) (11, -2.72130182580849480000e-002) (12, 2.82331690067923610000e-002) (13, 8.87033884056352560000e-002) (14, 3.31038428146614460000e-003) (15, 3.30603176808370920000e-001) (0, -1.26725655124067190000e-001) (1, -8.90799070110053490000e-002) (2, 4.29645367588827600000e-001) (3, 2.98923927685260380000e-002) (4, -1.08462514394134040000e-002) (5, -2.01363068410078530000e-003) (6, 3.31417792525728690000e-002) (7, 4.92178465736096190000e-001) (8, -9.23497122690452170000e-002) (9, 1.91235829862785100000e-002) (10, -3.80892073600540840000e-002) (11, 3.78059363723883340000e-003) (12, -3.88402239500592470000e-002) (13, -6.93449236881495120000e-002) (14, -4.29417151118240140000e-002) (15, 1.97038337155484860000e-001) (0, -5.23088735157651640000e-001) (1, 1.16150688897260120000e+002) (2, -1.03472939724863710000e-001) (3, 1.14870104961619700000e-003) (4, -8.86385094031667820000e-003) (5, 3.65609200574469950000e-002) (6, 4.80198257326622250000e-002) (7, -2.37921543586420900000e+001) (8, 9.31556753649264400000e-003) (9, -3.26360612733148610000e-003) (10, 6.94800607800130820000e-003) (11, -7.89208626021737840000e-003) (12, 1.25707143207817500000e-002) (13, 6.57296774100689460000e-003) (14, 1.10279712934239650000e-002) (15, 9.15923705584403560000e-002) (0, 1.96130607377312250000e+000) (1, 1.37910877118391410000e+000) (2, -9.17691206623741040000e-001) (3, -1.01386350377513600000e-001) (4, -3.51415773413630420000e-002) (5, 3.64594363366339130000e-002) (6, -3.90137893379008780000e-001) (7, -3.66684078737489150000e-001) (8, 2.24033300978019380000e-001) (9, 1.35501589522860400000e-002) (10, -5.52295940266839610000e-003) (11, -4.80930373054913420000e-003) (12, -2.34243557556300590000e-002) (13, -1.02486465563349350000e-002) (14, 6.48053458939438450000e-003) (15, 8.49239574154386560000e-001) (0, 1.18899123006911450000e-001) (1, -2.80404966537233740000e-001) (2, 2.52612463652991950000e-001) (3, -1.55333650868495870000e-002) (4, -8.84400971359022430000e-002) (5, 3.21505181878477090000e-003) (6, -8.64193530135421720000e-002) (7, 2.45164130521302340000e-001) (8, -8.10465846639793490000e-002) (9, 1.49814448898807230000e-002) (10, -7.45135778430758430000e-002) (11, -5.72525481720238990000e-003) (12, -6.91166254896187350000e-002) (13, -1.65391699184262970000e-001) (14, -4.25586395518930540000e-002) (15, -4.32724723348163250000e-001) (0, 1.86474514339386220000e+000) (1, 4.39405907811566410000e-001) (2, 1.52423795923115770000e+000) (3, 5.38738120420757180000e-002) (4, 3.57520315277681520000e-002) (5, 7.45497019198906040000e-002) (6, -4.74077252160667480000e-001) (7, -1.03728521622581950000e-001) (8, -3.96426052531432150000e-001) (9, 2.18381652770071370000e-003) (10, 4.59526408885831040000e-003) (11, -7.61488908325481400000e-004) (12, -6.69102635010557570000e-004) (13, -1.43980149234924160000e-003) (14, -9.09553682578923840000e-004) (15, 3.40154606510363330000e-001) (0, -7.29342927963644030000e-002) (1, -4.10005865941056520000e-002) (2, 4.97137756948209160000e-001) (3, 5.65247053071963120000e-002) (4, 2.96974311045134910000e-002) (5, 4.20139892415785370000e-002) (6, 2.89496420325271450000e-001) (7, 5.04162503943289430000e-001) (8, -9.56147973760152760000e-002) (9, 9.18154546174005170000e-003) (10, 1.22379430771869390000e-002) (11, -1.14354014920896090000e-004) (12, -1.52448982141114280000e-002) (13, 6.36625505644009130000e-002) (14, -1.28151209171886400000e-002) (15, 3.60451501208599150000e-001) (0, 6.74083313255469520000e-002) (1, 1.26954090590171550000e+000) (2, 1.64915760771042200000e+000) (3, -1.09471161698210510000e-002) (4, -1.71697084740649680000e-001) (5, -1.49347040664845030000e-001) (6, -1.46591775391517100000e-001) (7, -4.66039417970836810000e-001) (8, -4.99601574296668900000e-001) (9, 2.87682267951776560000e-003) (10, -2.02704372753266800000e-002) (11, 7.73394437807947870000e-003) (12, -1.63637308946902970000e-002) (13, -2.11129120901824250000e-002) (14, -2.04496404815585630000e-003) (15, 2.42256285655818580000e-001) (0, -3.08570471296350510000e-001) (1, 2.19501483034928030000e-001) (2, 2.23852268428753940000e-001) (3, -1.35139465670241520000e-002) (4, -2.72056063128747920000e-002) (5, 4.55566388122183930000e-002) (6, 6.40796860200838700000e-001) (7, 3.35103098524174690000e-001) (8, 5.63296681420034150000e-002) (9, 1.30645752283741370000e-002) (10, 2.60614958137448120000e-002) (11, -6.67669879755784790000e-004) (12, 4.58219980763241090000e-003) (13, 4.36144551251923810000e-002) (14, -1.78008540957167930000e-004) (15, 2.29267973550035140000e-001) (0, -6.37231209845284810000e-001) (1, 1.52369878574920080000e+000) (2, -5.84820998125572200000e-001) (3, 3.29762732952813480000e-002) (4, 4.73460566076303310000e-003) (5, -3.40570308752872060000e-002) (6, 2.37798508232240330000e-001) (7, -4.71957484943666960000e-001) (8, 1.74536456317641310000e-001) (9, -6.63681414652566620000e-003) (10, -2.62661514749445850000e-002) (11, 1.63983703016542040000e-002) (12, 1.27034873003117520000e-002) (13, -7.23450874340394460000e-002) (14, -5.18048915252576020000e-003) (15, 3.46149933810783910000e-001) (0, -5.25490746034089300000e-001) (1, -3.47664444313082080000e-001) (2, -7.89142514729298080000e-001) (3, -5.95813679177726320000e-002) (4, -1.60308247940540160000e-002) (5, -7.01505263800709520000e-002) (6, 2.57006080422940820000e-001) (7, 3.76774945905152050000e-002) (8, 3.97810347785361730000e-001) (9, 5.15504229773504610000e-003) (10, -1.82602451582011650000e-002) (11, -9.84897510520803440000e-003) (12, -2.15798810420799280000e-002) (13, -5.90124834961977890000e-003) (14, -8.05270784370443710000e-003) (15, 9.40167303880014570000e-002) (0, -6.04314667537394490000e-001) (1, -4.18157157313714220000e-001) (2, -4.45204172493244840000e-002) (3, -4.56771625431623630000e-002) (4, 3.43523143473313180000e-002) (5, 1.35020005596309090000e-002) (6, 7.10087228285711580000e-001) (7, 2.31652319197670510000e-001) (8, -5.56890273918395700000e-002) (9, -1.69588755185011570000e-002) (10, -1.44980621564590340000e-002) (11, -2.09963382806129880000e-002) (12, -2.08634687453780050000e-002) (13, 2.34183908554412290000e-002) (14, -1.08286075436736550000e-002) (15, 1.49344290546393200000e-001) (0, 1.89745581060007130000e-001) (1, -2.80568192129130200000e-001) (2, -2.35846807034175540000e-001) (3, -9.33709451186223730000e-002) (4, 9.30525876018034600000e-002) (5, 2.46743540061413710000e-002) (6, 7.73299291621064170000e-002) (7, -3.15032968179225940000e-001) (8, -3.97367951979476770000e-002) (9, 4.54587262357533870000e-002) (10, -9.70666950606870890000e-002) (11, 1.84105771261445120000e-002) (12, 3.94159066101859090000e-002) (13, -1.04102264372281890000e-001) (14, -1.11313395054388500000e-003) (15, -1.28834215788228600000e-001) (0, -2.59054890360779670000e-001) (1, 2.05270467382119490000e-001) (2, -1.84740256017323380000e-001) (3, -2.19831253064554120000e-002) (4, 3.29516781961880500000e-002) (5, 4.07826314531285410000e-002) (6, 1.67646127411268030000e-001) (7, 3.65485506160878730000e-003) (8, -1.66428155555386790000e-002) (9, -6.31825208934827870000e-003) (10, 3.93232637517724770000e-003) (11, -2.58722376060347560000e-002) (12, 1.90758429335562040000e-002) (13, -6.70144413775017880000e-002) (14, -1.33559356365624010000e-002) (15, -5.95726611571490870000e-001) (0, -7.23456315518759660000e-001) (1, 7.23639116631787590000e-001) (2, 3.92151712336253460000e-001) (3, 6.37745126945837150000e-002) (4, -5.63218082785691370000e-003) (5, 2.16267039518652540000e-002) (6, 8.40676209924581700000e-001) (7, -7.67057580923004470000e-003) (8, -1.29444562852136010000e-001) (9, -2.64708161923728810000e-003) (10, 1.87016808536237390000e-002) (11, 6.53405784881867700000e-003) (12, 1.99675183830684000000e-002) (13, 4.98794121156564960000e-002) (14, 1.79583524348048140000e-003) (15, 9.08238248690840580000e-001) (0, 4.07263133239343630000e+001) (1, -5.71292229595580730000e+000) (2, 4.16716368371317860000e-002) (3, -7.15624070581320420000e-003) (4, 1.61482092655352090000e-002) (5, -1.54581293442423140000e-002) (6, -8.29557806109939120000e+000) (7, 1.23201833686444570000e+000) (8, -3.93726446324917240000e-002) (9, 4.19717012977636590000e-003) (10, -6.81565639537370060000e-003) (11, -1.22864142478900930000e-002) (12, -1.14264276077686510000e-002) (13, -1.95849792258185780000e-002) (14, 7.40430260658492700000e-003) (15, -4.37987247702305020000e-001) (0, -1.86585620864163690000e-001) (1, 6.07598828262777220000e-001) (2, -3.70140686740291160000e-001) (3, -3.55718120532865990000e-002) (4, 1.89246340728831150000e-002) (5, -5.49648139121550710000e-003) (6, 4.23140741794193140000e-001) (7, -3.86102883382098920000e-001) (8, 2.88252219028697110000e-002) (9, -5.19090293637120960000e-003) (10, 3.99990425511321730000e-003) (11, -1.56477164600552950000e-002) (12, -2.05063530662939680000e-002) (13, 2.19699945816266010000e-002) (14, -1.39085373894772960000e-002) (15, -7.93367724193083380000e-002) (0, -8.83276367717212990000e-002) (1, 1.91343461090231200000e-001) (2, -1.35953404126640590000e-001) (3, -9.34082551373050380000e-002) (4, 1.38631098881084620000e-002) (5, 4.98142883917410270000e-002) (6, 1.31188881140810400000e-001) (7, -4.55244457649783410000e-002) (8, -2.11615316668358450000e-001) (9, 4.57363054967982050000e-002) (10, -3.96803002898881010000e-002) (11, 1.51174446202590830000e-002) (12, -1.37446299253373740000e-002) (13, -2.55604232687232230000e-002) (14, -8.32989275450441120000e-004) (15, 3.22616778890322880000e-002) (16, -4.07005710508006820000e-001) (17, -1.35099383532780950000e-001) (18, 1.20666683822495280000e-001) (19, 1.01912848837450910000e-001) (20, -2.57459817555620750000e-001) (21, 4.40014973991787960000e-001) (22, -3.93374041211385140000e-001) (23, 1.21204317962611750000e-001) (24, 3.42541090763898990000e-001) (25, -3.72801949164094720000e-002) (26, 5.19561836714003340000e-002) (27, -5.22950963875977500000e-001) (28, 1.63570332379238610000e-002) (29, 1.11810704969880860000e+000) (30, -1.50292853120077120000e-001) (31, -3.65643346639213380000e-001) (32, 8.85666851936403820000e-001) (33, 9.24182167362915360000e-001) (34, -2.48967677839558370000e-001) (35, -9.62405135364318600000e-001) (0, 2.57608629710588310000e+000) (1, 9.71557434879385730000e-001) (2, -5.20517799543542270000e-001) (3, 1.61611941053654320000e-003) (4, 9.56992841664884440000e-002) (5, -1.19502109208503640000e-002) (6, -7.61412692449794810000e-001) (7, -1.74389948408246590000e-001) (8, -1.49330132553792020000e-002) (9, -3.53012129576128210000e-002) (10, 1.17858095583094960000e-001) (11, -1.16306266299649310000e-002) (12, 3.01071453785992130000e-002) (13, 2.46378164740062690000e-001) (14, 3.92027350611480130000e-002) (15, 8.17602445938040750000e-003) (16, 1.07997961451459990000e+000) (17, 3.95415334296364160000e-001) (18, 3.30208719658398380000e-001) (19, -4.46849122642691900000e-002) (20, 4.16371393361154580000e-001) (21, 1.39276994041618510000e+000) (22, 2.40880906103728610000e-001) (23, 4.51420725606839550000e-001) (24, -9.45779948647489790000e-002) (25, 1.25952101299687510000e-001) (26, 9.01475946741254750000e-002) (27, 6.07287315299236630000e-001) (28, -3.52174099716545780000e-005) (29, 4.77031043050368480000e-001) (30, -5.03580140056142040000e-001) (31, 4.14634145592314320000e-001) (32, 8.79055737800777730000e-001) (33, 1.08885134687701620000e+000) (34, 7.75809890500411600000e-001) (35, -2.65446136500321620000e-001) (0, -2.45947217032016500000e-001) (1, 4.43719931820387550000e-001) (2, 3.01205845082654580000e-001) (3, -4.92310677944373730000e-002) (4, 1.95545524045239340000e-001) (5, -4.48993627118456020000e-002) (6, -1.29016015051054200000e-001) (7, 5.06065210709592870000e-001) (8, 3.92436470058167950000e-001) (9, 6.81087304902766870000e-002) (10, 3.64794166178802610000e-001) (11, 8.76588769955561060000e-002) (12, 1.78282922629178220000e-001) (13, 7.11419203188174530000e-001) (14, 1.86054263634023440000e-001) (15, 2.70397312132444720000e-001) (16, 5.29175841077330730000e-001) (17, 3.38164351901110920000e+000) (18, 5.92464704301578830000e-001) (19, 9.26837227619384810000e-001) (20, 4.26213970895131860000e-001) (21, 4.31806043399381330000e-001) (22, -3.74902647664863420000e-001) (23, 2.28576403727647340000e+000) (24, -6.72734393704064510000e-001) (25, 1.96444464848173270000e-001) (26, 1.99152981444168290000e-001) (27, -1.08522940819986040000e-001) (28, 1.16784353481146840000e-001) (29, 9.19163739127979000000e-001) (30, 1.17072282342821450000e-001) (31, 2.46157008021191200000e-001) (32, 7.91549683008256680000e-001) (33, 5.01516010280189440000e-001) (34, -1.39005543695970790000e-002) (35, 9.33970317917330870000e-001) (0, 8.46444269791755470000e-001) (1, -2.41550259293931260000e-001) (2, 2.72842771887793490000e-001) (3, -2.80443794950707810000e-002) (4, 6.32711186487417420000e-002) (5, -2.34062830852459530000e-002) (6, -4.73391034666440890000e-001) (7, -1.85261373829229080000e-001) (8, -1.57148480002340160000e-001) (9, -3.02029304087220130000e-003) (10, -4.15340242876572410000e-002) (11, -1.86142007992290830000e-002) (12, -1.80335117879173970000e-002) (13, -3.23500861828879970000e-002) (14, -2.95573381503280610000e-002) (15, 4.25013315242975810000e-001) (16, 9.80833630138217340000e-001) (17, -6.47012532726471750000e-001) (18, 5.52980209176045510000e-001) (19, 1.90396491600470980000e-001) (20, 2.97172863952355760000e-001) (21, -1.87493961039085830000e-001) (22, 6.23321800886007750000e-001) (23, -1.17865319786911390000e-001) (24, -5.15491943785466030000e-001) (25, 3.60405822145451960000e-002) (26, 3.03685960241942170000e-001) (27, 5.64310522417218460000e-001) (28, 2.90032794996074980000e-001) (29, -1.24939140422263000000e+000) (30, 2.48471113729057720000e-001) (31, 1.69129946761965690000e-001) (32, 3.29771195199554330000e-001) (33, 2.78852218821493360000e-001) (34, 5.41473061496036690000e-001) (35, 2.23224273510087350000e-002) (0, -4.11457447316529030000e-002) (1, -2.17654816266863320000e+000) (2, -4.32371409609877850000e-001) (3, 5.33782111137967170000e-002) (4, 1.63719282970742150000e-001) (5, -1.63761524755129190000e-002) (6, -3.98306218965011340000e-001) (7, -4.98041253669982030000e-001) (8, 5.91737528028920550000e-002) (9, -2.68719208771514490000e-002) (10, 1.08712054487165190000e-001) (11, 5.73078849016086870000e-002) (12, 1.48437833295146120000e-001) (13, 2.32467565032279720000e-001) (14, 7.58624765175395650000e-002) (15, -4.68534124738677620000e-001) (16, 1.37067041246765110000e-001) (17, -1.97459600803497280000e-001) (18, 7.50066815610242240000e-001) (19, 3.56859725179103580000e-001) (20, 5.50746496124945530000e-001) (21, -1.81314985068154640000e+000) (22, 5.78971590056714390000e-001) (23, 1.66382751045213340000e+000) (24, 3.29979308427154060000e-001) (25, 3.76866567247508940000e-001) (26, 4.28965995417889750000e-002) (27, 2.33225938835973870000e-001) (28, -5.17346074536107040000e-001) (29, 6.66477604867592670000e-001) (30, 2.28668674481268870000e-001) (31, 5.48050703377464090000e-001) (32, 1.26115693167383180000e+000) (33, 2.01747722084702210000e-001) (34, 8.66161344957576570000e-001) (35, -2.12110244534529440000e-002) (0, -3.60251176944540840000e-001) (1, -1.08539966614953290000e+000) (2, 4.95858830337436440000e-001) (3, 2.18054316307253940000e-001) (4, -1.90374379228603480000e-002) (5, 5.44684722495794170000e-002) (6, -3.38023288442477750000e-001) (7, 6.12612367111054710000e-001) (8, 5.27451714935567830000e-003) (9, -4.08927951548915000000e-003) (10, 7.51615403393022100000e-002) (11, 1.75778838362033760000e-002) (12, -5.34423399776814550000e-002) (13, 4.53241756075260240000e-002) (14, -1.67685216874390780000e-004) (15, 7.54526174933960350000e-001) (16, 1.74243830691689960000e+000) (17, -4.39893127464281720000e-001) (18, 4.06407803129158310000e-001) (19, 7.60276242423726600000e-001) (20, 6.50921985343339670000e-001) (21, -1.05129160605385840000e+000) (22, 2.16372596801571860000e-001) (23, -7.59068329986763320000e-001) (24, 1.19431349167749360000e-001) (25, -2.79546718225323790000e-001) (26, 5.39666211744100000000e-002) (27, 3.80610352245598920000e-001) (28, 2.02812902223136390000e-001) (29, -4.75372774336689670000e-001) (30, 1.82618027108127820000e+000) (31, 1.17445475131408750000e+000) (32, 5.48395320072652240000e-001) (33, -2.14554521911835410000e-001) (34, 5.00135270900702200000e-001) (35, -7.07835699775126170000e-002) (0, -2.18685297502445270000e-002) (1, -1.04130260496318040000e-001) (2, 1.68611172379848150000e+000) (3, -1.30715309616775900000e-002) (4, 2.45407638776855400000e-001) (5, 1.43923493457615960000e-001) (6, 2.78049176988814930000e-002) (7, -1.61596204577412030000e-001) (8, -3.72624912590775350000e-001) (9, 3.77534283565192780000e-002) (10, -1.64395292163952680000e-002) (11, 5.59636379716789350000e-002) (12, 1.00340302840778830000e-001) (13, 2.76672765744509840000e-002) (14, 4.42441078448879280000e-002) (15, 1.36279604818256180000e-001) (16, 5.37573539173657690000e-001) (17, 6.31890564487615490000e-002) (18, 7.09427530826570620000e-001) (19, 1.13059876850789440000e+000) (20, 5.11198072552031880000e-002) (21, -1.31727027756759100000e-001) (22, -3.04646572983997050000e-001) (23, 9.70742271595223420000e-001) (24, 2.03629351919703020000e-001) (25, -1.43832065158205600000e-001) (26, 2.15280237773616850000e-001) (27, 6.45035144207319000000e-001) (28, -6.23419001486520740000e-001) (29, 1.41167369539542300000e+000) (30, -6.42585871095867620000e-001) (31, -8.08230352057221770000e-002) (32, -9.22827738360205120000e-003) (33, -4.09984810741373110000e-002) (34, 2.01345109818376060000e-002) (35, 9.65587285986232340000e-001) (0, -1.06968810329989040000e+000) (1, -2.46354501564166990000e-001) (2, -6.34990546039632340000e-001) (3, 2.28737894144369730000e-002) (4, 1.04574443676176300000e-001) (5, -3.38164809866375940000e-002) (6, -9.78197738299357720000e-002) (7, 1.15001810728562510000e-001) (8, 3.12459061680108560000e-001) (9, -3.81510470473136670000e-002) (10, 1.63214841685236950000e-001) (11, -9.47867546930746270000e-004) (12, 5.75307554298819660000e-002) (13, 2.71731095079589700000e-001) (14, 5.15215593191113570000e-002) (15, 2.15573340464118370000e-002) (16, -1.98199744374333490000e-001) (17, 1.79732827202286500000e-001) (18, 4.37707162301192780000e-001) (19, -3.52709934112930830000e-001) (20, 3.61825329777764830000e-001) (21, 2.21165519748097670000e-001) (22, 6.90870885636361010000e-001) (23, 7.46839075320878010000e-001) (24, 7.32209467560581920000e-001) (25, -2.47298972819481180000e-001) (26, 7.62724761263319450000e-001) (27, -3.99803537650724460000e-002) (28, 9.75762511780735030000e-001) (29, 2.27912651829045440000e-001) (30, 1.69346672849941150000e-001) (31, 9.19939621555936000000e-001) (32, 6.05174460358171020000e-001) (33, 5.26833303029891950000e-001) (34, -2.17799384411532650000e-001) (35, 7.94896942151109730000e-001) (0, 3.31242429593353320000e-001) (1, -1.40182284409067210000e-001) (2, -3.38853335642911920000e-001) (3, -1.55822429875066640000e-001) (4, -1.09985520125776610000e-001) (5, -2.05149244189808820000e-001) (6, -2.24074515053304450000e-001) (7, -3.52671682061765630000e-001) (8, 1.08439815958418840000e-001) (9, 2.26817223026217450000e-003) (10, 2.80253865252853560000e-002) (11, 3.47199558884456400000e-002) (12, 4.45104696685481510000e-002) (13, 8.58413049714111810000e-002) (14, 6.09546754216733700000e-002) (15, -4.47854584806343160000e-001) (16, -4.84397000750292130000e-001) (17, -4.22592299346442100000e-001) (18, -4.32471099381756930000e-001) (19, 1.59054388915652600000e-001) (20, 7.77612620629297370000e-001) (21, 2.17619529749679690000e-001) (22, -8.90827684865864720000e-002) (23, 4.59209709733792380000e-001) (24, 3.60874569825737010000e-001) (25, -1.92565884873613450000e-001) (26, -2.89423929106616300000e-001) (27, -5.48273390088644290000e-001) (28, 3.26583519268974330000e-001) (29, 3.86012820824970460000e-001) (30, 2.48856514925761050000e-001) (31, -2.20398273279047530000e-002) (32, 6.47962827232132720000e-001) (33, 4.25727776208570040000e-002) (34, -2.44008823621604340000e-001) (35, 1.05572150531643220000e-001) (0, -2.69890151880647300000e-001) (1, -9.70777085935729950000e-002) (2, 2.15213883249260250000e-001) (3, 3.23666333418121340000e-001) (4, -8.42395561471276890000e-003) (5, -2.75813821427587120000e-003) (6, -6.40116942585558180000e-001) (7, 2.85713287810265450000e-001) (8, 7.38606743769651270000e-002) (9, -1.95363446948881620000e-002) (10, 1.80475842749934750000e-001) (11, 4.21983351854724050000e-002) (12, 5.88023758806198930000e-002) (13, 2.14745099287410150000e-001) (14, 6.70388277495852090000e-002) (15, 3.79569479142899850000e-001) (16, 1.11007214508891620000e+000) (17, 3.68221610519767260000e-001) (18, 8.97356965756117900000e-001) (19, 4.51914186705557160000e-001) (20, 5.95980075206007600000e-001) (21, -6.19437042574354950000e-001) (22, 6.20726067723413210000e-001) (23, 3.84367336435254170000e-001) (24, 4.31002208353686360000e-001) (25, -1.35261089039973280000e-001) (26, 3.07399587281294520000e-001) (27, 7.29015015297312940000e-001) (28, -1.09788637426213990000e-001) (29, -1.17391138438005540000e-001) (30, 1.65327057098458940000e+000) (31, 1.57253553743127730000e+000) (32, 7.82188529445522750000e-001) (33, -4.71559080032961320000e-001) (34, 3.37840171075579950000e-001) (35, 6.83616074683644380000e-001) (0, -1.73648912155997690000e+000) (1, 1.89705213051011980000e-001) (2, 1.04217882317666750000e+000) (3, -2.17694230737657400000e-002) (4, 1.04663309593436990000e-001) (5, 1.97678497056291210000e-004) (6, 4.39156925830837930000e-001) (7, 7.10580924766668900000e-001) (8, 9.30136996210225720000e-002) (9, 5.48856039148762700000e-002) (10, 7.52605905144238390000e-002) (11, 5.11495620262546260000e-002) (12, -5.41783744729801200000e-003) (13, 2.11555261752399640000e-001) (14, 7.53187142830843010000e-002) (15, 5.72106558106837530000e-001) (16, 1.17016741367065480000e+000) (17, 1.36292073894978280000e+000) (18, 9.19354865344247930000e-002) (19, 7.55473390070781070000e-001) (20, 1.24226684656927110000e-001) (21, 1.24496841443747080000e-001) (22, -8.43063542279059660000e-001) (23, 3.04120766746806710000e-001) (24, 2.44146726423253020000e-001) (25, 1.18612154309821900000e-001) (26, 4.50875561508042590000e-001) (27, 4.48162929679279010000e-001) (28, -9.71788689614628170000e-001) (29, -1.12667487287483260000e+000) (30, -2.21660105624570950000e-001) (31, 1.20445950544981130000e-001) (32, 9.12857814720539840000e-001) (33, 4.44335954796232640000e-002) (34, -5.98239562805496850000e-002) (35, 1.69929297783396140000e+000) (0, 2.96608945379851670000e+000) (1, 1.48390990610571020000e+000) (2, -3.42832108098752360000e-001) (3, -1.88702304545706220000e-001) (4, 9.05659268630732150000e-002) (5, 4.57054511007627120000e-002) (6, -1.81996595464383490000e-001) (7, -8.45806221252026620000e-002) (8, 1.61310715400655420000e-001) (9, 1.00038794385286820000e-002) (10, 1.86125446065027680000e-001) (11, -1.83301076363924060000e-002) (12, 8.38776909064508360000e-002) (13, 4.34609129886762090000e-001) (14, 9.68246462869765120000e-002) (15, -1.97948714091203710000e-001) (16, 2.11707063596086570000e-001) (17, 1.04788273648141070000e+000) (18, 4.36278170541508860000e-001) (19, -1.13572893533897300000e-001) (20, 1.10673961127065780000e+000) (21, 2.75115623939582350000e+000) (22, -6.80762377405972670000e-001) (23, 7.51894577547773560000e-001) (24, -5.30827461416476520000e-001) (25, 6.91862329915404860000e-001) (26, 3.21372433503712580000e-001) (27, -6.69150903757246730000e-001) (28, 1.75395288672550590000e+000) (29, 4.29473719869651550000e-001) (30, -7.00410374614013900000e-001) (31, -5.86215182983832320000e-002) (32, 9.06179302959148840000e-001) (33, 4.69737979250416100000e-001) (34, 1.71366671430284570000e+000) (35, 3.37277683282636410000e-001) (0, -6.15376839154333060000e-001) (1, -6.70388644136548640000e-001) (2, -1.50316859683295000000e-001) (3, 1.28957293903611690000e-001) (4, 2.45703807577151320000e-001) (5, -7.14699015851464610000e-002) (6, -5.00357056082850330000e-002) (7, -9.37366335113810900000e-002) (8, -1.38614534490716920000e-001) (9, -1.48047721283266620000e-003) (10, 1.58444619723866980000e-001) (11, 4.89203602675695740000e-002) (12, 1.83575905126894150000e-001) (13, 2.94556466593554330000e-001) (14, 1.16506977826194500000e-001) (15, -2.67288249738409810000e-001) (16, 1.35243704219653370000e-002) (17, 4.03166263529567530000e-001) (18, 5.75457839637745220000e-001) (19, 1.00320523604492640000e+000) (20, 5.77332462004769510000e-001) (21, 6.21048946111289400000e-002) (22, -2.49856058524751160000e-002) (23, 1.88115159618497670000e+000) (24, 4.79930114084213160000e-001) (25, 2.94128977479535540000e-001) (26, 1.00683619202605530000e+000) (27, -2.42050269591526340000e-001) (28, -9.32613924755893160000e-002) (29, 1.10812034349553670000e+000) (30, 1.97030981583758060000e-001) (31, 2.50047442467782880000e-001) (32, 7.26162322745098290000e-001) (33, 3.25678026528390450000e-001) (34, -9.07977360063238480000e-002) (35, 8.70805612341090770000e-001) (0, 1.30779563368920070000e+000) (1, 4.04040737361708540000e-001) (2, 5.23121566831943330000e-001) (3, -4.42261265459588710000e-001) (4, -3.24140606291781870000e-001) (5, 1.65136235431089180000e-001) (6, -5.28994176689899720000e-002) (7, 4.46277727373477980000e-001) (8, -2.64064799078512630000e-002) (9, -1.32600928567011050000e-002) (10, 1.74921877795779570000e-002) (11, -1.43608079193588790000e-002) (12, -2.37589553695812770000e-002) (13, -1.29077055779861260000e-001) (14, -6.50684780131761680000e-002) (15, 1.11018827823654950000e+000) (16, 6.47312662436714260000e-001) (17, 6.03294470211674590000e-001) (18, 1.76852037318722760000e-001) (19, 3.28858951121053620000e-001) (20, 5.86194635709308960000e-001) (21, -9.59008833941305950000e-002) (22, 1.30327172828726860000e+000) (23, -1.57858928683983880000e+000) (24, -6.69298558501985160000e-001) (25, 5.14106346348497060000e-001) (26, 6.11808797030634950000e-001) (27, -1.89841649307990880000e-001) (28, -3.89840329547466450000e-002) (29, 6.75630236419657910000e-001) (30, 7.69419292762717590000e-001) (31, 6.18875385710433210000e-001) (32, -4.96019097244216830000e-001) (33, 3.79220336712528080000e-001) (34, 9.42246111226316740000e-001) (35, 1.93416533399919850000e-001) (0, 1.03461555806491260000e+000) (1, 9.40801989894316850000e-001) (2, 4.34435863909771510000e-001) (3, 3.73898308015374880000e-001) (4, 1.22018815281099400000e-001) (5, -3.47193497571934420000e-003) (6, -1.89270776621884350000e-001) (7, 7.10808391522444900000e-001) (8, -1.70588379025614610000e-001) (9, -7.92842557603856690000e-003) (10, 8.73441481143401030000e-002) (11, 3.55823992783333850000e-002) (12, 1.02496622479432120000e-002) (13, 1.88396492933217140000e-001) (14, 1.97343037067315530000e-002) (15, 3.41586359159205100000e-001) (16, 4.74030168462314440000e-001) (17, 2.90318117430176050000e-001) (18, 3.75434346658097480000e-002) (19, 4.86033553694091680000e-001) (20, 1.58938178879355600000e-001) (21, 4.56880713626028720000e-001) (22, 5.46596779910722420000e-001) (23, 2.36746051158997240000e-001) (24, 7.65785904723804280000e-002) (25, -8.19943385166114420000e-001) (26, 2.44081393616618990000e-001) (27, 5.14447940964209090000e-001) (28, 7.76592326932000890000e-002) (29, 6.91032607815185610000e-001) (30, 6.07666939628921710000e-001) (31, 5.31195150014990620000e-001) (32, 4.57920940535033630000e-001) (33, -3.95612400772847040000e-001) (34, 1.64444372379523220000e-001) (35, 2.15262988801849380000e-001) (0, 4.01572221953400030000e-001) (1, 9.78796324992280420000e-002) (2, -1.28519441968132250000e+000) (3, 7.30570874855165640000e-002) (4, 6.28992836500227030000e-002) (5, -3.70745318630543440000e-002) (6, -4.39035488064578710000e-001) (7, -4.38791660183922990000e-003) (8, 2.17879633015109040000e-001) (9, -2.55111940424519390000e-002) (10, 2.53235624606585440000e-001) (11, 2.99113381823394550000e-002) (12, 1.15273537903976290000e-001) (13, 5.02855469365265820000e-001) (14, 1.21442786366744810000e-001) (15, 9.73578079641479880000e-002) (16, -5.55358295174030390000e-002) (17, 1.87856464560516370000e+000) (18, 5.17932677319336120000e-001) (19, -4.43639263187749350000e-002) (20, 5.71247063843729250000e-001) (21, 6.61143554121589210000e-001) (22, 9.04999863679039200000e-002) (23, 1.59700446513789960000e+000) (24, -1.02282848284343490000e+000) (25, -1.11678947772848780000e-002) (26, -1.30561927584905760000e-001) (27, 8.94086479752599140000e-001) (28, 4.97021352450798540000e-001) (29, 8.15876945475360490000e-001) (30, -4.72236399035176890000e-001) (31, 6.24031486406882110000e-001) (32, 7.14610265536293250000e-001) (33, -4.46924529250642190000e-001) (34, -2.62245496510449820000e-002) (35, 6.04213119832126780000e-001) (0, 1.15676419516613490000e+000) (1, -8.47325712248782610000e-002) (2, -1.04583921718782790000e+000) (3, 5.48965724598158080000e-002) (4, 2.83194920033164390000e-002) (5, 2.16587601280297460000e-002) (6, 5.23446277939200290000e-001) (7, -2.44443304898793540000e-001) (8, 8.28104350318679960000e-002) (9, -1.97917425675363350000e-002) (10, 1.14831633213712730000e-002) (11, -1.23347937078539420000e-002) (12, 1.22374013341800940000e-003) (13, 4.78942144544809430000e-002) (14, -1.08853554229115450000e-002) (15, -3.56498564050299130000e-002) (16, 8.31034337679492970000e-001) (17, -1.16191305711761820000e+000) (18, 9.04813785406186290000e-001) (19, 1.59211127223437440000e-001) (20, 8.97025953515839140000e-001) (21, -1.48820118559485040000e-001) (22, 1.70858233765883110000e-001) (23, -9.78397933718697240000e-002) (24, -1.36288331854587660000e-001) (25, -5.69445014966676770000e-001) (26, 2.87921980602388940000e-001) (27, -4.90435063735975400000e-001) (28, -5.55035254239490850000e-001) (29, 4.82285521798283160000e-001) (30, -3.30875119561014340000e-001) (31, 8.29780641607820390000e-001) (32, 1.32456115521826790000e+000) (33, 4.61042020256948350000e-001) (34, 5.33036263029824030000e-002) (35, -2.46555838801270160000e-001) (0, -1.33395320261303210000e+000) (1, -1.09162880092466240000e+000) (2, 1.09260836924243380000e+000) (3, 1.60940443448315210000e-001) (4, -5.74834791338819300000e-002) (5, -2.69186869146773920000e-001) (6, 1.91421348358270680000e-001) (7, 5.77165150040287120000e-001) (8, 1.15036837556268790000e-002) (9, 4.10731682782099900000e-002) (10, 2.27167901524996940000e-001) (11, 3.98967116653636060000e-002) (12, 5.38820385704866930000e-002) (13, 3.87097969827440880000e-001) (14, 1.29698489000919100000e-001) (15, 5.75202217344858770000e-001) (16, 7.61848784863286670000e-001) (17, 9.60696197273968600000e-001) (18, 1.85689143525137380000e-001) (19, 7.80086276975684110000e-001) (20, 6.08363585395840460000e-001) (21, -9.29000020205191930000e-002) (22, 3.58670630566680140000e-001) (23, 1.03881592511405100000e+000) (24, -2.83668720615139380000e-002) (25, 2.38808201016081080000e-001) (26, 5.30349020170289060000e-001) (27, 1.84138786701204980000e-001) (28, 5.75385679565388550000e-001) (29, 3.63788753895652460000e-002) (30, 4.53472482246600970000e-001) (31, 9.04329010810942080000e-001) (32, 5.36887289189951990000e-001) (33, -3.99017731819969690000e-001) (34, -1.01665300518929220000e-001) (35, 3.10320473407530330000e-001) (0, -8.27888161070178040000e-001) (1, 4.52418191119401620000e-001) (2, -3.38310860452472660000e-001) (3, 5.43687256115886200000e-001) (4, -3.04321119307779050000e-001) (5, 3.31394072104319260000e-001) (6, -6.36416137943679130000e-001) (7, 3.93616627729344750000e-001) (8, 2.29224810124176930000e-002) (9, -2.97241022975070520000e-002) (10, 1.17641255941844460000e-001) (11, -8.04386112699374650000e-003) (12, -2.24639587180588200000e-002) (13, 3.45911290385281720000e-002) (14, 2.56350454440477030000e-003) (15, 4.40149799697517440000e-001) (16, 3.18385341714085500000e-001) (17, -2.54951678612715450000e-001) (18, 7.63346758225065590000e-001) (19, 5.78557351307356530000e-001) (20, 3.33356283472166840000e-001) (21, 1.32132510442531240000e-001) (22, 8.83485948761840390000e-001) (23, -5.78897860309500970000e-001) (24, 5.38337734269021050000e-002) (25, -2.15704441010216740000e-001) (26, 1.03892476044682840000e+000) (27, 6.01320293423892820000e-001) (28, 5.66903784701038300000e-001) (29, 1.35990873667056760000e+000) (30, 5.29353668999713260000e-001) (31, 1.82300693892649380000e+000) (32, 7.74529725232628420000e-001) (33, -4.33127436335932590000e-001) (34, -1.65529455662445920000e-001) (35, 1.07432831807343440000e+000) (0, -2.55013178788349790000e+000) (1, -1.38629075728719120000e+000) (2, 1.52991735193342030000e-001) (3, -2.60080697827892060000e-001) (4, 1.21849344721803300000e-001) (5, 1.26088602236060720000e-001) (6, 1.58564791270438320000e-001) (7, -1.65829830823426450000e-001) (8, -7.80422426845551410000e-003) (9, 5.38319772044322030000e-002) (10, 2.23078068252509860000e-001) (11, 1.37443872992549090000e-001) (12, 3.12013768088557020000e-001) (13, 4.97676602822958560000e-001) (14, 1.93257271159215510000e-001) (15, 4.66763272200474980000e-001) (16, -5.39377004983206400000e-001) (17, 1.45159751316500100000e+000) (18, 6.93154893247744930000e-001) (19, 8.98903217478153720000e-001) (20, 8.16580852367990270000e-001) (21, -3.06082982925802050000e-001) (22, 7.31161213482027120000e-001) (23, 3.19706251187696870000e+000) (24, 2.21954911301672190000e-001) (25, -6.77363537813664870000e-001) (26, 1.95313799789990890000e-001) (27, -1.50937318148916890000e-001) (28, -1.05034207951393440000e+000) (29, 1.17917636621727320000e+000) (30, 9.14832049585820100000e-001) (31, -4.10598310661242030000e-001) (32, 9.11048562626676220000e-001) (33, -2.10205987460981260000e-001) (34, -1.53960036411569830000e-001) (35, 1.16060211342279020000e+000) (0, -3.96444005223089260000e-001) (1, 3.13640376709994010000e-001) (2, 1.56391816664992330000e-001) (3, 1.07685036758056620000e-001) (4, 6.45944405703547250000e-002) (5, -3.13577232597165700000e-003) (6, 2.09580481255025320000e-001) (7, 6.04275646992926340000e-002) (8, -1.66336430162657700000e-001) (9, -5.03878375808936680000e-001) (10, 5.68283697961865650000e-002) (11, 1.51456650351594610000e-003) (12, 5.68302272071838850000e-002) (13, 1.24619673921841770000e-001) (14, 3.20972017739434150000e-002) (15, 6.58213761206535850000e-001) (16, 3.80604449198876980000e-001) (17, 3.56287465261109550000e-001) (18, 6.82946755069541390000e-001) (19, 3.18966089951717990000e-001) (20, 1.92144230839829950000e-001) (21, 6.42037519843716490000e-001) (22, -6.77684221027306380000e-002) (23, 4.31127631802524840000e-001) (24, -2.75056472615312210000e-002) (25, -2.09166851705047810000e-001) (26, 1.85432740063168120000e-001) (27, 5.08984954223624660000e-001) (28, 2.78307031782101750000e-001) (29, 3.14637256732084650000e-001) (30, -3.83465397058820600000e-001) (31, 3.16376692740081230000e-001) (32, 2.56761328199063280000e-001) (33, -6.63596440669745990000e-001) (34, -5.33736561174652300000e-002) (35, 7.26107320759284970000e-001) (36, 4.38676456864045940000e-001) (37, 4.29638624150108890000e-001) (38, 1.65111601086749630000e-001) (39, -3.07651021011456970000e-001) (40, 9.49645562008317620000e-001) (41, 6.99027996927315990000e-001) (42, -1.04723803585569930000e-001) (43, 2.63472441132332870000e-001) (44, 1.50750190081766290000e-001) (45, -4.86845085845610930000e-001) (46, 2.06547044976942820000e-001) (47, -6.55855415343917000000e-001) (48, -3.56520964632153100000e-001) (49, -4.82896994355108270000e-002) (50, 2.74930996512882610000e-001) (51, -1.01393863169696840000e-001) (52, 1.59581154249693880000e-001) (53, -2.73192978273218600000e-002) (54, -1.03519792720968020000e-001) (55, 1.61300740085495720000e-001) (0, 2.96088030975995770000e-002) (1, -6.84169389367901730000e-001) (2, 2.05936473986714640000e-001) (3, 6.39979116211556590000e-002) (4, 9.40730584460362920000e-002) (5, 2.99861421990163520000e-003) (6, 3.76850492877919620000e-002) (7, 3.68431656629122920000e-001) (8, -1.56047682946852760000e-002) (9, -1.43007955468460040000e-002) (10, -2.95091777886791030000e-001) (11, 1.19380966276599770000e-002) (12, 7.99818136564100780000e-002) (13, 3.59323778024979280000e-001) (14, 7.35106947718959930000e-002) (15, 2.39206181968753010000e-001) (16, 6.18913445387990420000e-001) (17, 9.13453765995826620000e-001) (18, 4.26993621107336680000e-001) (19, 4.01644055682710610000e-001) (20, 8.22385695787109410000e-001) (21, -4.41848463795289710000e-002) (22, -7.66641396433162020000e-003) (23, 7.88481240791116030000e-001) (24, 1.79232163822706350000e-001) (25, -3.91907762386361160000e-001) (26, 1.29080250653662190000e-001) (27, 2.41987663569674140000e-003) (28, 2.45796946310793320000e-001) (29, 8.53156181642285680000e-001) (30, 2.22659611377667880000e-002) (31, 6.71665730664395390000e-001) (32, 3.05926416917312150000e-001) (33, -2.63776274082728300000e-001) (34, 7.73998921756078870000e-002) (35, 2.48516044193487020000e-001) (36, 5.14947118539312630000e-001) (37, 1.89121391791990220000e-001) (38, -7.58482927732948120000e-001) (39, -2.30762296928019200000e-002) (40, 9.99399348645474420000e-002) (41, 1.54362750258411200000e-002) (42, 6.11466029394008510000e-001) (43, 2.63322109546258340000e-001) (44, 3.05795001030056360000e-001) (45, 3.07170141632177370000e-001) (46, 5.01653524292494320000e-001) (47, -3.37786549503202510000e-002) (48, 5.66153714645895990000e-003) (49, -4.84170132345347410000e-002) (50, 2.14623091585207930000e-001) (51, 1.14897078109298610000e+000) (52, -2.91144742852250620000e-001) (53, -3.19928143709924740000e-002) (54, 9.66859884473519480000e-002) (55, 8.75414700111370320000e-002) (0, -6.38666490117978820000e-001) (1, -1.31444882865991360000e+000) (2, -8.35564706226802790000e-001) (3, 6.01692598038725680000e-002) (4, 8.40538372111926670000e-002) (5, 6.22490402086479030000e-002) (6, 3.48114159928277160000e-001) (7, 1.66727226515504150000e-001) (8, -5.00646438426242120000e-002) (9, -1.93958559092469940000e-002) (10, 8.75336701451771560000e-002) (11, -4.94921896764206560000e-001) (12, 8.86534639665617910000e-002) (13, 2.23245930062534010000e-001) (14, 4.90607524002943730000e-002) (15, -1.08932308362089040000e-001) (16, 1.11623014708059930000e+000) (17, -4.85242078386072920000e-001) (18, 6.61484874834986300000e-001) (19, -1.72927922542659980000e-001) (20, 9.85145952284630420000e-001) (21, -1.70421616835177780000e-003) (22, 5.57964619259991190000e-001) (23, 5.59177648920628930000e-001) (24, 8.35310233371747150000e-001) (25, -2.96680311283528290000e-001) (26, -1.53622350497657490000e-001) (27, -2.85307922546836790000e-001) (28, 6.88861657649689760000e-002) (29, 4.06270038037548020000e-001) (30, 1.74325866966741850000e-001) (31, 7.66562202126882250000e-002) (32, 1.12436502264597070000e+000) (33, 1.05801573590708060000e-001) (34, 5.09515012459195660000e-002) (35, 2.58775980599605160000e-001) (36, 1.21398516328687850000e-001) (37, -3.07154989197457460000e-002) (38, -7.20778301569202640000e-002) (39, 1.99863862864033090000e-002) (40, 1.75760108022373910000e-001) (41, 6.87346416348744990000e-002) (42, 5.19914086053732240000e-001) (43, 4.96541595782327650000e-001) (44, 6.08269780713527440000e-001) (45, 2.94448156083121190000e-001) (46, 4.40806846301948320000e-003) (47, -3.49094849629043300000e-002) (48, 8.36773825332750710000e-002) (49, 1.11425034032557030000e-002) (50, 1.58659771009601210000e-001) (51, 4.27508805648552810000e-001) (52, -4.52230779709191900000e-001) (53, 1.30092463018269850000e-001) (54, 4.54933500077242470000e-002) (55, -1.51000851336010240000e-001) (0, -1.74514379512011260000e-001) (1, 3.29333826739981630000e-001) (2, 2.61205400257511160000e-001) (3, 6.43351078587189320000e-002) (4, 6.16212165955041180000e-002) (5, -1.44423838310390740000e-002) (6, -1.75836721272304900000e-001) (7, 3.21004123785231190000e-001) (8, -3.74797866913993420000e-002) (9, 2.45416011257617760000e-002) (10, 8.39464716263180890000e-002) (11, 1.21962449236470640000e-002) (12, -4.73561078067715410000e-001) (13, 2.23016052582792450000e-001) (14, 7.06415646492936780000e-002) (15, 4.03490091275157060000e-001) (16, 1.27580363229389950000e+000) (17, 7.44895950892427720000e-002) (18, 2.55425259146316530000e-001) (19, 4.35621587672721190000e-001) (20, 1.69569866991654240000e-001) (21, 1.02482421862906610000e+000) (22, -6.75389543917442440000e-001) (23, 4.63619763995043950000e-001) (24, 7.79717831965825310000e-002) (25, 4.87599511481684790000e-001) (26, 6.67885270206740320000e-002) (27, 5.01901154969461080000e-001) (28, 9.77281228739861230000e-001) (29, -1.33491889651757210000e-001) (30, 2.53983388312967910000e-001) (31, 2.59079387112850500000e-002) (32, 1.27090067172735010000e+000) (33, -4.43125723337646270000e-001) (34, -4.53971104446068030000e-001) (35, 1.28640505443922200000e+000) (36, -8.74957510912084850000e-001) (37, 3.40146347799851810000e-001) (38, -1.54934123203089940000e-001) (39, 4.90319931540958490000e-001) (40, 5.93399696679093090000e-001) (41, 6.12300789660372380000e-001) (42, 1.12173790890859980000e-001) (43, -1.19152826277863570000e-001) (44, 4.66445152963268550000e-001) (45, 1.81016108068017020000e-001) (46, 5.22156594477150920000e-002) (47, -4.47180270703336160000e-001) (48, -3.57674331999569440000e-001) (49, -3.74273223842744030000e-001) (50, 4.99755460992245270000e-001) (51, 5.72837180084316940000e-001) (52, 2.26451574448310550000e-004) (53, 2.37253121760767540000e-001) (54, -1.09940421925957790000e-002) (55, 2.70037297562680970000e-001) (0, 2.20018395836460630000e-001) (1, 1.74011952047634230000e-001) (2, -3.66471197774912490000e-001) (3, 1.55662642822053080000e-001) (4, 2.29583470855987470000e-002) (5, -4.51693065525923720000e-003) (6, -1.07086032666848070000e-001) (7, 1.46696536017908690000e-001) (8, -3.81640022379164170000e-001) (9, -1.35200481376576820000e-002) (10, 1.62532471289244530000e-001) (11, -1.66107045612441770000e-002) (12, 9.17076770639087960000e-003) (13, -2.29615519009790960000e-001) (14, 4.28676787767168980000e-002) (15, -2.25827725920506140000e-002) (16, 7.04535105525811890000e-001) (17, 8.85664353771855480000e-001) (18, 3.07316788620994600000e-001) (19, 1.24543029352754230000e-001) (20, 6.23212315958876050000e-001) (21, 1.54583097148292190000e-001) (22, 1.35835534497572770000e-002) (23, -1.58564065625785840000e-001) (24, 3.06505587170474710000e-001) (25, -1.34312295411239370000e-001) (26, 2.90510256201418400000e-001) (27, 3.21788393530427210000e-002) (28, 8.78766601244813430000e-001) (29, 1.31951935086900040000e+000) (30, -1.90445669325820630000e-001) (31, 4.16353691093636180000e-001) (32, 7.83557041892713470000e-001) (33, 1.50131975488855040000e-001) (34, -8.76553567881138420000e-002) (35, 2.57569240989966810000e-001) (36, 2.82249208072691880000e-001) (37, -4.05773643838184120000e-002) (38, -8.83562017923357760000e-002) (39, -6.29751270389733890000e-001) (40, 7.13770771176752690000e-002) (41, 2.46990948220983970000e-001) (42, 1.16616398601649700000e+000) (43, -6.11758366020533570000e-001) (44, 3.01529650170722200000e-001) (45, 1.61610352697163730000e-001) (46, -6.91734264257685030000e-001) (47, 9.73011720618383210000e-003) (48, -6.06676368648530360000e-001) (49, 8.78355098222092650000e-002) (50, 4.49799630564201140000e-001) (51, -1.48476118672933060000e-001) (52, -6.48018481709786820000e-001) (53, 9.95689773935253400000e-002) (54, -2.11343580905556850000e-001) (55, 3.82653431798486930000e-001) (0, 5.17170436911392750000e-001) (1, 4.98426536327649940000e-001) (2, -3.17959493596283450000e-001) (3, 1.38388681684881220000e-001) (4, 4.57192088809633860000e-001) (5, 1.62838836710512520000e-001) (6, -1.11673536222070450000e-001) (7, 1.27789310213741430000e-001) (8, 2.82996794712397080000e-001) (9, -4.28403622518028770000e-002) (10, 1.46168299361165630000e-001) (11, -9.94293822256404370000e-003) (12, -2.82667316888817990000e-002) (13, 2.83946502743981870000e-001) (14, -4.74441740391268960000e-001) (15, 7.13128954772116460000e-002) (16, 5.76423154609366660000e-001) (17, 4.11480001688181880000e-001) (18, 6.84597535396213930000e-001) (19, 3.40039031167946480000e-001) (20, 7.09945052737183340000e-001) (21, 1.27428090465476350000e-001) (22, 1.64020653439600510000e-001) (23, 1.09574508714176230000e-001) (24, 7.25742690662495300000e-003) (25, 7.46004702076788350000e-002) (26, 3.77881350824992190000e-001) (27, 1.97199223898996800000e-001) (28, 6.53631313205214060000e-001) (29, -1.81053416556663710000e-001) (30, 2.07659583992396490000e-002) (31, 1.41441416226767820000e+000) (32, 8.61045936685824630000e-001) (33, -1.62663917000636090000e-001) (34, 1.89183400759400040000e-001) (35, -3.43919161659807130000e-001) (36, 5.55015301015156020000e-002) (37, -1.18244472300800330000e-002) (38, 1.56741057702211420000e-001) (39, 5.77848191229346610000e-001) (40, -1.21459848873948810000e-001) (41, 2.55498934231286560000e-001) (42, -1.11932303717972690000e-001) (43, -7.58072215904785240000e-001) (44, 1.16703425995624200000e+000) (45, -3.24109112657379960000e-001) (46, -2.92695403252712150000e-001) (47, 9.01463353241065310000e-003) (48, 7.46352817742336530000e-001) (49, 5.98737642067594610000e-001) (50, -2.75591826574213050000e-001) (51, 4.88081829988209810000e-001) (52, 1.01738035355864830000e+000) (53, 8.51299382216199610000e-001) (54, 8.00291151367514280000e-001) (55, 7.44044578481322110000e-001) 
