FANN_FLO_2.1
num_layers=4
learning_rate=0.700000
connection_rate=1.000000
network_type=0
learning_momentum=0.000000
training_algorithm=2
train_error_function=1
train_stop_function=1
cascade_output_change_fraction=0.010000
quickprop_decay=-0.000100
quickprop_mu=1.750000
rprop_increase_factor=1.200000
rprop_decrease_factor=0.500000
rprop_delta_min=0.000000
rprop_delta_max=50.000000
rprop_delta_zero=0.100000
cascade_output_stagnation_epochs=12
cascade_candidate_change_fraction=0.010000
cascade_candidate_stagnation_epochs=12
cascade_max_out_epochs=150
cascade_min_out_epochs=50
cascade_max_cand_epochs=150
cascade_min_cand_epochs=50
cascade_num_candidate_groups=2
bit_fail_limit=1.00000001490116120000e-001
cascade_candidate_limit=1.00000000000000000000e+003
cascade_weight_multiplier=4.00000000000000020000e-001
cascade_activation_functions_count=10
cascade_activation_functions=3 5 7 8 10 11 14 15 16 17 
cascade_activation_steepnesses_count=4
cascade_activation_steepnesses=2.50000000000000000000e-001 5.00000000000000000000e-001 7.50000000000000000000e-001 1.00000000000000000000e+000 
layer_sizes=16 41 41 7 
scale_included=0
neurons (num_inputs, activation_function, activation_steepness)=(0, 0, 0.00000000000000000000e+000) (0, 0, 0.00000000000000000000e+000) (0, 0, 0.00000000000000000000e+000) (0, 0, 0.00000000000000000000e+000) (0, 0, 0.00000000000000000000e+000) (0, 0, 0.00000000000000000000e+000) (0, 0, 0.00000000000000000000e+000) (0, 0, 0.00000000000000000000e+000) (0, 0, 0.00000000000000000000e+000) (0, 0, 0.00000000000000000000e+000) (0, 0, 0.00000000000000000000e+000) (0, 0, 0.00000000000000000000e+000) (0, 0, 0.00000000000000000000e+000) (0, 0, 0.00000000000000000000e+000) (0, 0, 0.00000000000000000000e+000) (0, 0, 0.00000000000000000000e+000) (16, 5, 1.00000000000000010000e-001) (16, 5, 1.00000000000000010000e-001) (16, 5, 1.00000000000000010000e-001) (16, 5, 1.00000000000000010000e-001) (16, 5, 1.00000000000000010000e-001) (16, 5, 1.00000000000000010000e-001) (16, 5, 1.00000000000000010000e-001) (16, 5, 1.00000000000000010000e-001) (16, 5, 1.00000000000000010000e-001) (16, 5, 1.00000000000000010000e-001) (16, 5, 1.00000000000000010000e-001) (16, 5, 1.00000000000000010000e-001) (16, 5, 1.00000000000000010000e-001) (16, 5, 1.00000000000000010000e-001) (16, 5, 1.00000000000000010000e-001) (16, 5, 1.00000000000000010000e-001) (16, 5, 1.00000000000000010000e-001) (16, 5, 1.00000000000000010000e-001) (16, 5, 1.00000000000000010000e-001) (16, 5, 1.00000000000000010000e-001) (16, 5, 1.00000000000000010000e-001) (16, 5, 1.00000000000000010000e-001) (16, 5, 1.00000000000000010000e-001) (16, 5, 1.00000000000000010000e-001) (16, 5, 1.00000000000000010000e-001) (16, 5, 1.00000000000000010000e-001) (16, 5, 1.00000000000000010000e-001) (16, 5, 1.00000000000000010000e-001) (16, 5, 1.00000000000000010000e-001) (16, 5, 1.00000000000000010000e-001) (16, 5, 1.00000000000000010000e-001) (16, 5, 1.00000000000000010000e-001) (16, 5, 1.00000000000000010000e-001) (16, 5, 1.00000000000000010000e-001) (16, 5, 1.00000000000000010000e-001) (16, 5, 1.00000000000000010000e-001) (16, 5, 1.00000000000000010000e-001) (16, 5, 1.00000000000000010000e-001) (16, 5, 1.00000000000000010000e-001) (16, 5, 1.00000000000000010000e-001) (0, 5, 1.00000000000000010000e-001) (41, 5, 1.00000000000000010000e-001) (41, 5, 1.00000000000000010000e-001) (41, 5, 1.00000000000000010000e-001) (41, 5, 1.00000000000000010000e-001) (41, 5, 1.00000000000000010000e-001) (41, 5, 1.00000000000000010000e-001) (41, 5, 1.00000000000000010000e-001) (41, 5, 1.00000000000000010000e-001) (41, 5, 1.00000000000000010000e-001) (41, 5, 1.00000000000000010000e-001) (41, 5, 1.00000000000000010000e-001) (41, 5, 1.00000000000000010000e-001) (41, 5, 1.00000000000000010000e-001) (41, 5, 1.00000000000000010000e-001) (41, 5, 1.00000000000000010000e-001) (41, 5, 1.00000000000000010000e-001) (41, 5, 1.00000000000000010000e-001) (41, 5, 1.00000000000000010000e-001) (41, 5, 1.00000000000000010000e-001) (41, 5, 1.00000000000000010000e-001) (41, 5, 1.00000000000000010000e-001) (41, 5, 1.00000000000000010000e-001) (41, 5, 1.00000000000000010000e-001) (41, 5, 1.00000000000000010000e-001) (41, 5, 1.00000000000000010000e-001) (41, 5, 1.00000000000000010000e-001) (41, 5, 1.00000000000000010000e-001) (41, 5, 1.00000000000000010000e-001) (41, 5, 1.00000000000000010000e-001) (41, 5, 1.00000000000000010000e-001) (41, 5, 1.00000000000000010000e-001) (41, 5, 1.00000000000000010000e-001) (41, 5, 1.00000000000000010000e-001) (41, 5, 1.00000000000000010000e-001) (41, 5, 1.00000000000000010000e-001) (41, 5, 1.00000000000000010000e-001) (41, 5, 1.00000000000000010000e-001) (41, 5, 1.00000000000000010000e-001) (41, 5, 1.00000000000000010000e-001) (41, 5, 1.00000000000000010000e-001) (0, 5, 1.00000000000000010000e-001) (41, 5, 1.00000000000000010000e-001) (41, 5, 1.00000000000000010000e-001) (41, 5, 1.00000000000000010000e-001) (41, 5, 1.00000000000000010000e-001) (41, 5, 1.00000000000000010000e-001) (41, 5, 1.00000000000000010000e-001) (0, 5, 1.00000000000000010000e-001) 
connections (connected_to_neuron, weight)=(0, 5.72811743380219560000e-001) (1, -1.75705782170852460000e+000) (2, 6.74313445569118580000e-003) (3, -3.65057066350796930000e-001) (4, -1.57672123406550770000e+000) (5, -5.68598921649981160000e-001) (6, -3.82889450951237660000e-001) (7, 1.17483634303156740000e-001) (8, 4.78181527259784020000e-001) (9, -6.63246443605356030000e-002) (10, -2.16954483353443720000e-001) (11, -3.64638177005108190000e-002) (12, -2.83915005484229390000e+000) (13, 1.44334581401768650000e+000) (14, 4.43144634303965280000e-001) (15, 3.74409473614658820000e-001) (0, 6.67773817207035990000e-001) (1, -4.90872052156219100000e-001) (2, -5.37985975156732010000e+000) (3, 4.18037580471447960000e-001) (4, 4.31244400740371720000e-002) (5, 6.94629580786636920000e-002) (6, 3.66281660768911000000e-001) (7, 1.25403182565159980000e-001) (8, -1.00182626286134670000e-002) (9, -8.56992609684981920000e-001) (10, 1.07209476657703970000e+000) (11, -4.50042922737147240000e-001) (12, 4.28543928340719070000e-002) (13, 2.12884022466629270000e-001) (14, 2.18130131244394010000e-001) (15, 2.15059521710851440000e-001) (0, -1.07826785147280630000e+000) (1, -1.04007881627745660000e+000) (2, 1.45605644735606800000e+000) (3, 9.27436704298667120000e-002) (4, 9.17534953944717850000e-001) (5, 3.20536251638225300000e-001) (6, 7.42564417170296860000e-001) (7, 4.61432778653953930000e-001) (8, 5.43888649638748430000e-002) (9, -2.13735877558653970000e-001) (10, -3.51762221797132120000e-001) (11, 5.42019708590153250000e-001) (12, -7.22272529749873990000e-001) (13, 5.43965483880475610000e-001) (14, -5.40883138378691180000e-001) (15, 1.64701997346883760000e-001) (0, 2.23793589237491240000e+000) (1, -2.99201134432113850000e+000) (2, 3.72925167214727400000e-001) (3, 2.73771658564969490000e-001) (4, 1.40338650577680110000e-001) (5, 5.82186202598845130000e-001) (6, 4.30039069397942950000e-001) (7, 2.16529501360725070000e-001) (8, 3.45210260008514750000e-002) (9, -1.87058016613491420000e+000) (10, -8.27408895489763600000e-001) (11, -3.50913996413019860000e-002) (12, 5.68330502322517250000e-001) (13, -1.81314712025928030000e-001) (14, -7.87951802779238850000e-002) (15, -2.59793414373909570000e-001) (0, 2.00177693417375090000e+001) (1, -1.75664818451826240000e+000) (2, -9.85176844082488730000e-001) (3, 8.86115197479056980000e-001) (4, -1.03347711759237540000e-001) (5, -9.74076704551003060000e-003) (6, -3.88424856086399030000e+000) (7, -1.23879301782668540000e-001) (8, 2.06062887633191800000e-001) (9, -2.64291829521522380000e-002) (10, -2.78219654533164890000e-002) (11, -1.78648394264142860000e-002) (12, -3.03545217038763210000e-002) (13, -1.35332929146138040000e-001) (14, 1.36997614467998670000e-002) (15, -6.10132520195251350000e+000) (0, 2.82591789131641050000e+000) (1, -1.71869395184524270000e+000) (2, 4.88288084062028230000e-001) (3, 8.60506000962513170000e-002) (4, 2.81259068078214710000e-001) (5, 3.19340342845952360000e-002) (6, -2.80298597782082660000e-001) (7, 1.31850273989172260000e-001) (8, -8.91523522812001760000e-001) (9, 3.53142927855732760000e-001) (10, -8.66855026034462740000e-001) (11, 1.04904114201243350000e-001) (12, -1.16792813435255890000e+000) (13, -1.22534108660650290000e+000) (14, 1.16604651777524510000e-001) (15, 3.89958464446598600000e-001) (0, 5.24601525558839110000e-002) (1, -3.01812878831739840000e+000) (2, -1.98652003298508630000e-001) (3, -7.71961895415271270000e-001) (4, 1.11658217706921870000e-001) (5, 1.28956647065154780000e-001) (6, 4.07725062371131150000e-001) (7, 3.44132811379469770000e-001) (8, -1.48812255397858860000e-002) (9, 1.58611181892128910000e+000) (10, -1.07574182552420060000e+000) (11, 5.29720095065397300000e-001) (12, 1.12921776051112120000e-001) (13, 1.44482523931134250000e-001) (14, 3.37494104804345830000e-001) (15, -5.67360666941242210000e-001) (0, 4.01390741915110370000e+000) (1, 1.52336137540528330000e+000) (2, -4.75896761275542200000e-001) (3, -9.63252787314150210000e-001) (4, 1.89234155790441140000e+000) (5, -4.07548458734842360000e-001) (6, -6.27774155985843070000e-001) (7, -1.00074625716174380000e-001) (8, 3.16937295582341240000e-001) (9, 1.36072924885374550000e+000) (10, -6.70779797709531110000e-001) (11, -5.74214035692407810000e-001) (12, 7.01009747498950400000e-001) (13, 1.32139190816559400000e+000) (14, -7.20350608968103990000e-001) (15, 3.56180516410901150000e-001) (0, 8.36849516650523380000e+000) (1, -1.92153526431288020000e+000) (2, 1.36458638612030650000e+000) (3, 4.89428047632056220000e-001) (4, -2.30413999049120740000e+000) (5, 1.67071679369865310000e+000) (6, -1.07980552462770500000e-001) (7, 1.25003146894547550000e+000) (8, -4.07513498255561930000e-001) (9, 5.80321850595250170000e-002) (10, 2.01331326642232770000e-001) (11, -4.63468327247693670000e-002) (12, 5.89615269252113500000e-003) (13, 2.50892406914917210000e-001) (14, 2.62446627504517760000e-002) (15, 1.10339180864268000000e-001) (0, 1.01027313646266090000e+000) (1, -1.77576670734801320000e+000) (2, -3.73552905603334320000e-001) (3, 9.70543386135653940000e-001) (4, 6.86788658442256890000e-001) (5, 2.09648150331609500000e-001) (6, 6.93735639746881570000e-001) (7, 9.48115573777136400000e-001) (8, -2.42257793086239590000e-002) (9, 3.67375367604995400000e-001) (10, -7.96112982483968560000e-001) (11, -1.44572925267713530000e+000) (12, 4.21068913427164290000e-001) (13, 1.67524100139322640000e+000) (14, -8.99070282246894780000e-001) (15, -1.31372754346643390000e-001) (0, 1.69870717791001160000e+000) (1, -1.88711844494044010000e+000) (2, -2.15680638652901190000e+000) (3, -3.79464243993125230000e-001) (4, 5.45389846979504660000e-001) (5, 1.04820396008521110000e+000) (6, -2.66659500228207110000e-001) (7, 5.78548627643066470000e-001) (8, 6.13560697271307690000e-001) (9, 2.42185708099823590000e-001) (10, 2.40618193222535890000e-001) (11, -4.45527803808399850000e-002) (12, 1.00842016219202120000e+000) (13, -7.57789592005051470000e-001) (14, -1.00253228242240280000e+000) (15, -3.32148526790735370000e-001) (0, -2.27720762388497810000e+001) (1, 8.19860001277536200000e+000) (2, -4.91609149200468830000e-001) (3, 3.49920622334117630000e+000) (4, -2.35144686331668940000e+000) (5, -1.10962139109956070000e+000) (6, 5.50914428451799940000e+000) (7, -2.37503948718721340000e+000) (8, 4.79676359223660390000e-002) (9, 3.81788300449751940000e-002) (10, -1.06825110683197650000e-002) (11, -1.30144595960609740000e-002) (12, -8.01583194380840920000e-003) (13, 5.02330245272730460000e-002) (14, -3.71253287183669550000e-002) (15, 9.43270656125364050000e+000) (0, 4.95998770259089210000e+000) (1, -4.05610462780491690000e+000) (2, -4.46132149791055370000e-001) (3, 1.01715267309939630000e+000) (4, 3.65389891639897270000e-001) (5, 3.13684168122345540000e-002) (6, 3.37544896905229360000e-002) (7, -2.67514577843694700000e-001) (8, -1.32077541327688510000e-001) (9, -8.00466120288411460000e-001) (10, 1.62477586511921460000e-001) (11, -1.54120921554054600000e-001) (12, 9.24378380951862280000e-002) (13, -1.65607625272580580000e-001) (14, 4.09219874004100090000e-001) (15, -5.79294039865339120000e-001) (0, -6.77647685121920060000e+000) (1, -8.53628351231976800000e+000) (2, -1.11153492745272350000e+000) (3, 9.33823216738881470000e-001) (4, 2.02439412744998300000e+000) (5, 1.98738164659405360000e-001) (6, 8.43745461888363630000e-001) (7, 4.60098213809800090000e-001) (8, 6.97418308389363810000e-001) (9, 3.07572592993099470000e-001) (10, 3.13295916843221310000e-002) (11, -3.77006030081531330000e-001) (12, -5.22673557602886360000e-001) (13, -2.22334883379547320000e-001) (14, 1.33527923962091090000e-001) (15, 6.53048677516867350000e-001) (0, 1.23992638220235250000e+000) (1, 1.16990541828539230000e+000) (2, -7.96628020541261470000e-001) (3, 1.53147755592955040000e-001) (4, 9.98461689465051090000e-001) (5, 6.34790555806620800000e-001) (6, -3.14720406659013520000e-001) (7, -1.49055291212447820000e-001) (8, 8.86480573279471270000e-001) (9, -1.01210405450176940000e+000) (10, 5.12445238168616650000e-001) (11, -2.98667098938055930000e-001) (12, -2.10995375117685850000e+000) (13, 4.02329548063921630000e-001) (14, -4.03541082047350560000e-001) (15, -3.26521361344567660000e-001) (0, 2.65375708569160370000e+000) (1, -1.31989073458826600000e+000) (2, 3.28119431549433070000e-001) (3, -5.85299269074916920000e-001) (4, 3.79244831997654410000e-001) (5, 3.50909184238597790000e-001) (6, -4.80822220485360500000e-001) (7, 3.90260220145838550000e-001) (8, 4.80342644898576200000e-001) (9, 3.78529658274866570000e-001) (10, 1.59509823650587680000e+000) (11, -1.17056281498415540000e+000) (12, 6.11618078854459070000e-001) (13, 5.26541344398344660000e-001) (14, -4.41638091885156240000e-001) (15, -3.32496622223971080000e-001) (0, -1.11184866470908860000e+000) (1, -4.62740362537409040000e+000) (2, -6.21403978178375230000e-001) (3, 7.82624348327079720000e-001) (4, 8.47645106841139580000e-001) (5, -1.72099059632825690000e-002) (6, 9.50389480122190020000e-002) (7, 1.04160027725347980000e+000) (8, 3.10863987487811580000e-001) (9, -1.32312407253284950000e+000) (10, -2.26718837276239820000e-001) (11, 5.40682084731637150000e-001) (12, -2.89927510211685340000e-001) (13, 7.46104215366054310000e-001) (14, 2.46006366017382380000e-001) (15, -6.86279566409002670000e-001) (0, 8.55156003226471210000e+000) (1, -1.80084572897606020000e-001) (2, -3.44762379137443180000e-001) (3, 7.33418051743534030000e-001) (4, 7.38445121422812600000e-001) (5, 8.62914746071785820000e+000) (6, -4.70228778911122000000e+000) (7, 1.12293488141064100000e+000) (8, 1.89763826017918800000e-001) (9, 6.42382046724734730000e-002) (10, -1.92028731220868910000e-001) (11, 2.08642066594276640000e-001) (12, 9.62035993485420470000e-003) (13, -1.74635836824381050000e-001) (14, -1.30894570981884640000e-001) (15, -7.40814952577655390000e-001) (0, -2.26910941841819720000e+000) (1, -1.62176935754045020000e+000) (2, 3.25063820444602750000e-001) (3, -3.35398002858836140000e-001) (4, -2.85938520601699720000e-001) (5, -4.63648717961006870000e-001) (6, 3.86434398319860730000e+000) (7, 1.29216436807413480000e+000) (8, 4.96798489564035340000e+000) (9, -1.73596581041451900000e-001) (10, 6.09030140300792430000e-002) (11, 1.20592748613490680000e-002) (12, 3.60080765832585140000e-001) (13, -1.52140241778158820000e-001) (14, 1.15157068667185930000e-003) (15, 7.95971437030176140000e-001) (0, 1.25691831223274520000e+000) (1, -1.21154637955057280000e+000) (2, -4.51689107822911940000e+000) (3, 6.49434896660045500000e-002) (4, -1.85915844023471750000e-001) (5, 3.19801345914644820000e-001) (6, 6.49127441899575940000e-001) (7, 4.39874468823202860000e-001) (8, 6.22061624464736670000e-001) (9, 7.78701671261380230000e-001) (10, 1.67261571749876460000e-001) (11, -5.75691318061160140000e-001) (12, -6.01684805648985970000e-001) (13, 3.83476197737474610000e-002) (14, 6.33309494027517910000e-001) (15, 9.65426450099544970000e-001) (0, -1.54927923908988170000e+000) (1, -2.95916610347553500000e-002) (2, 5.80732541496164690000e+000) (3, 4.78135439749128030000e-001) (4, 6.32179709423633110000e-001) (5, -2.10063948691857630000e+000) (6, 3.12123012315027650000e-001) (7, 3.26411751039672660000e-003) (8, -1.56156608904601080000e+000) (9, -2.79206649745650180000e-001) (10, 4.61594991629616650000e-001) (11, -4.91222221944982220000e-001) (12, 1.06150581837666250000e-001) (13, -1.70489027785297440000e+000) (14, 1.24509023772638570000e-001) (15, 7.26966996592074640000e-001) (0, 2.23279868629458720000e+000) (1, -4.67102697615041150000e+000) (2, -2.43008392639962910000e-001) (3, -7.43789744766745310000e-001) (4, -1.47764570862263220000e-001) (5, -9.85926862262720970000e-002) (6, -9.04626455015440920000e-001) (7, 2.56641853711360570000e+000) (8, -1.55955306508766740000e-001) (9, 1.08669775054425250000e+000) (10, -8.14860337429500810000e-001) (11, -5.79222858924257760000e-002) (12, 1.27792934337744320000e+000) (13, -1.94601147087796880000e-001) (14, -5.01064193470086680000e-001) (15, -4.32408558481349680000e-001) (0, 1.20003709276530060000e+000) (1, -4.62874618013321640000e-001) (2, -2.36839566486670710000e+000) (3, 1.85695381582528930000e-001) (4, 7.40611417600063990000e-001) (5, 5.32431554499274600000e-001) (6, 8.41857303213290050000e-002) (7, 7.79032597204785460000e-001) (8, 2.07160780099444330000e-001) (9, -8.37272510831364000000e-001) (10, 9.14757923104543070000e-001) (11, -2.95922144402528950000e-001) (12, 1.44554722008910660000e+000) (13, 9.84074003061532750000e-002) (14, -1.36868343994315190000e-001) (15, 1.09263773206712010000e+000) (0, 3.26975828574347670000e+001) (1, -1.32224354106547490000e+000) (2, -1.34119812606878060000e+000) (3, -1.13965907349283470000e-001) (4, 3.42701849013950090000e-002) (5, 3.57052018818831200000e-001) (6, -6.41958398868167810000e+000) (7, -2.86105105952461440000e+000) (8, 6.48221928911038030000e-002) (9, -3.78666128396621280000e-001) (10, 2.32140107952652330000e-001) (11, -1.70720349931667880000e-001) (12, -2.62449554446460630000e-002) (13, 2.65289216922548590000e-001) (14, -1.17030264714571300000e-001) (15, -3.30353558846247400000e-001) (0, 3.49860176975193360000e+000) (1, 2.81806175527630210000e-001) (2, -5.20199758149743200000e+000) (3, -2.01571355865784400000e-001) (4, -5.58582060664509110000e-001) (5, 4.61287674591785710000e-001) (6, 8.38123732505646760000e-001) (7, 6.33215815997404400000e-001) (8, 1.49138511195097760000e+000) (9, 1.16933700921480320000e+000) (10, 8.50447488124391970000e-001) (11, -2.35737326095853270000e-001) (12, -7.52402816840238690000e-001) (13, 4.72594661690429460000e-001) (14, 1.94529407875415310000e-001) (15, 1.05640423951446220000e+000) (0, 1.94985881665666950000e+000) (1, -3.48141228597736150000e+000) (2, -1.08636640689743370000e+000) (3, -8.86411236250112390000e-002) (4, 1.35153402289875440000e-001) (5, -1.09605395929115800000e+000) (6, -4.54546210719253440000e-001) (7, 2.30363489975435770000e-002) (8, 2.20746999775688240000e-001) (9, -5.62165488331470950000e-001) (10, 5.86780431124020670000e-001) (11, -5.15395972115147650000e-001) (12, 1.03375520523023480000e+000) (13, -1.65315356151882640000e-001) (14, -2.00982917623421160000e-001) (15, 1.24317054210983030000e-001) (0, -1.31335786688578170000e+000) (1, 5.41148906504401170000e-001) (2, 1.34750268031264200000e+000) (3, 3.53772528897627540000e-002) (4, 9.58170788893006470000e-002) (5, 3.03727304227070060000e-001) (6, 1.49389013963941550000e+000) (7, 1.16037853006340060000e+000) (8, 2.72011568792062840000e-001) (9, -4.91154361603424880000e-002) (10, 7.70455408973303560000e-001) (11, 3.25093164460647120000e-001) (12, -3.22943849477927370000e-001) (13, 6.30059463954195880000e-001) (14, 2.89693791060560040000e-001) (15, -6.49127692170420660000e-001) (0, 1.35139028415385610000e+002) (1, 5.15078604815660550000e+001) (2, -1.76412099021692500000e+000) (3, 8.83039087167817320000e-002) (4, 1.61655439048837250000e-001) (5, 1.57649406906481910000e-001) (6, -2.68757879139001230000e+001) (7, -1.15244743492192240000e+001) (8, -3.02452205767223020000e-002) (9, -2.49234409034829350000e-001) (10, 3.41771532670590230000e-002) (11, -5.42260390478052080000e-002) (12, -4.46916312576603190000e-002) (13, -5.46461545091004100000e-002) (14, -1.25905690319299930000e-002) (15, 4.57370142827958580000e+000) (0, -5.49189828106365670000e+000) (1, -2.04564383576576050000e-001) (2, 2.48495046222455330000e+000) (3, -2.65385152756295770000e+000) (4, -4.96353371856142980000e-001) (5, -4.84322816645990530000e-001) (6, 1.07982815301472730000e+000) (7, 1.50911626471732710000e+000) (8, -2.26198772487009770000e+000) (9, -3.68285663713919240000e-001) (10, -8.46733859918109700000e-002) (11, 1.31398848658218960000e-001) (12, 1.78255404747656390000e-001) (13, 3.70344194718316980000e-001) (14, -4.21618407766875050000e-002) (15, 3.87760293259824310000e-001) (0, -1.39237794016776050000e+000) (1, -1.39230707217290310000e-001) (2, 9.04961745201868340000e-001) (3, -2.13685510072046310000e-001) (4, 1.25002017699754440000e-001) (5, 1.60741746854945740000e-001) (6, 2.69759961048142390000e+000) (7, 1.70036663945442280000e-001) (8, -3.92998260082952410000e-001) (9, 1.75204808979647050000e-001) (10, 1.16156338873762990000e-001) (11, -1.68024234665179130000e-001) (12, 2.37700613112193680000e-001) (13, 4.21666770744618110000e-001) (14, 5.66489775783937460000e-002) (15, -1.72296643470401130000e-001) (0, -2.64422169542605390000e-001) (1, 1.87823880723434950000e-001) (2, 1.22938768112881780000e+000) (3, 1.06814087207970680000e+000) (4, 5.32544279947531620000e-001) (5, 1.01947585755940250000e+000) (6, -4.47954377923816090000e-001) (7, 3.79187628709015400000e-001) (8, 4.02327400440953940000e-001) (9, 1.21654236160873670000e+000) (10, 1.06128217192420980000e+000) (11, 1.18444127858474680000e-001) (12, 1.65629849913032840000e-001) (13, 1.45439663317902780000e-001) (14, 1.42709696645462090000e+000) (15, -2.53041767788403410000e-003) (0, 1.83024033268374040000e+000) (1, 2.07972014654878440000e-001) (2, -2.68534523341581680000e-001) (3, 1.62132694641717170000e-001) (4, 4.20143433865877100000e-001) (5, 7.27754839624679540000e-002) (6, 6.53361221906382680000e-001) (7, 3.72259664608740940000e-001) (8, 4.13745492698438020000e-001) (9, -1.62593599881427080000e+000) (10, 2.37902527824499000000e-001) (11, -4.32310580755842390000e-001) (12, 2.71912653096010260000e-001) (13, 2.11824806752927500000e+000) (14, 8.61233766403974590000e-002) (15, -2.96042243689907110000e-001) (0, 2.39835762763460250000e-001) (1, -4.42257063453858570000e-001) (2, -1.12370911798930080000e+000) (3, -9.33010965157084200000e-002) (4, -1.74493373368261370000e-001) (5, 6.08566471696722360000e-003) (6, 6.97954018113869700000e-001) (7, 2.38021986096573160000e-001) (8, 8.19245470483688680000e-001) (9, 6.41311172461036800000e-002) (10, 1.08345057546417290000e-001) (11, -1.07087098847964700000e+000) (12, -1.00814389199155280000e-001) (13, 5.78792280062521370000e-001) (14, 7.81893824125312610000e-001) (15, -1.47360641076524310000e+000) (0, -1.28913116616538190000e+000) (1, 4.29070397295991280000e-001) (2, -2.86564726731961370000e-002) (3, 1.51226799417080970000e+000) (4, 6.50010573377132860000e-001) (5, -1.53130507329598940000e+000) (6, 1.95628628946396230000e+000) (7, 9.79663826282769350000e-002) (8, 1.40321509010535880000e+000) (9, -5.40821613076575000000e-002) (10, -1.93350279053759730000e-001) (11, 5.95379212764392100000e-001) (12, 5.88448279524096280000e-001) (13, 7.89281186713513220000e-001) (14, 3.95405453475515760000e-001) (15, -4.85488284652758840000e-001) (0, -4.02282382755437260000e-001) (1, 2.88489537952945610000e+000) (2, -3.47993598477927430000e+001) (3, -6.71249697919867330000e-002) (4, 5.09180224055486570000e-002) (5, 4.68638914105681540000e-001) (6, 5.42137297688070510000e-001) (7, -3.45971299152029730000e-001) (8, 1.09270093559285360000e+001) (9, 9.33528512546649840000e-002) (10, 4.60756184186330160000e-002) (11, -1.08191746319070290000e-002) (12, -1.11091330534017190000e-001) (13, 1.50675299968550470000e-001) (14, 2.56345424289575290000e-002) (15, 3.45070332480919010000e+000) (0, 3.97266916580535810000e-001) (1, -6.57294030589986030000e-001) (2, -7.97252455730832750000e-002) (3, -4.11276891029076220000e-001) (4, 3.10233091631567150000e-001) (5, -6.84106790969227360000e-002) (6, 1.03863862700982780000e+000) (7, 4.42866362615257690000e-001) (8, -9.98965219880652980000e-002) (9, 5.22949236988357160000e-001) (10, -2.54826668949694750000e-001) (11, 2.60080577082571600000e-001) (12, -2.21270683254632860000e+000) (13, 7.33543330334164520000e-001) (14, -2.26757229350624890000e-001) (15, -2.40775447209289560000e-001) (0, -2.20601033239411760000e+000) (1, 3.15044322224971140000e-001) (2, -1.79693620260869820000e-001) (3, -7.69636262711767110000e-001) (4, 1.72933725824257560000e-001) (5, 2.27789641418879640000e-001) (6, 7.64150433166443270000e-001) (7, -7.11409219290577100000e-001) (8, 4.94064744991090540000e-001) (9, -6.13642356442201250000e-002) (10, 6.91150314811077860000e-002) (11, 1.79775918999030430000e+000) (12, -4.43729781104309110000e-001) (13, 5.34471876392256240000e-001) (14, -1.34712761274412410000e+000) (15, 2.01453666375185830000e-001) (0, -9.03034730645910220000e-001) (1, -1.68278946084434580000e-001) (2, -3.42315511556182670000e+000) (3, -1.11048876704745430000e-001) (4, -2.47192943006480010000e-001) (5, 3.60119514115961050000e-001) (6, 5.43424853496424440000e-001) (7, 2.67773364334643550000e-001) (8, 1.18233773648845690000e+000) (9, -3.45661702279719930000e-001) (10, -3.71503013183427770000e-001) (11, -3.07940084960309830000e-001) (12, 2.25882154749376280000e-001) (13, -5.90572034323723070000e-001) (14, -1.60816953464778810000e-001) (15, 3.87345362516547660000e-001) (0, -2.35799690995906990000e+000) (1, -2.58824181821006280000e+002) (2, 2.22403509462284980000e+000) (3, -5.58454352541122020000e-002) (4, -2.48903089100701330000e-001) (5, 2.91490488927331620000e-002) (6, 5.16970628719090050000e-001) (7, 5.27767006144466110000e+001) (8, -4.72989495861960210000e-001) (9, 8.21937211618284510000e-002) (10, 1.82006016454261920000e-002) (11, 2.61550312012450320000e-003) (12, -6.36500106655563030000e-003) (13, 6.66961024467216530000e-002) (14, -1.88651551038397440000e-002) (15, 4.13905938008196750000e-001) (0, -1.29465092831191430000e+000) (1, -2.34795372339057190000e-002) (2, -1.48482700448283780000e+000) (3, -5.09052763587986010000e-001) (4, -4.54659081719601900000e-001) (5, -1.43003436524965080000e+000) (6, 3.25597340743398080000e+000) (7, -2.63446320771833250000e-002) (8, -2.59317038963756800000e-001) (9, 1.58194908595632390000e+000) (10, 1.74395605081965210000e+000) (11, -7.34103129097457980000e-002) (12, -1.25594398538856370000e+000) (13, -5.11932981131907660000e-001) (14, -3.44896857991848270000e-001) (15, 4.14267430277160950000e-001) (16, 1.09015093013936730000e+000) (17, -2.68066105125950530000e+000) (18, -1.67195039828118920000e+000) (19, -5.56076115387836580000e-002) (20, -6.24688053408031800000e-001) (21, 2.76667180636740500000e+000) (22, -3.20275576857729280000e-001) (23, 1.11854684200515540000e+000) (24, -4.42437539643946890000e-001) (25, -1.31487327066177140000e+000) (26, -5.09169362395329840000e-001) (27, -1.87834818160364270000e+000) (28, 1.02704869017815150000e+000) (29, -2.33052064429165770000e+000) (30, -1.19930235435536360000e+000) (31, 5.73380527693892540000e+000) (32, -2.90232387283232140000e-002) (33, -9.59301416524767970000e-001) (34, -1.95215169463940440000e+000) (35, -4.10386680881116740000e+000) (36, 4.94367946716378630000e-001) (37, -6.42148452430782450000e-001) (38, -2.88620008549288400000e+000) (39, 1.57864682871391190000e+000) (40, -2.70559533522611820000e+000) (41, -2.97175231891197880000e-001) (42, 5.08443638060732120000e-001) (43, 2.34186008123114500000e+000) (44, -8.32199587469024890000e-001) (45, -7.58122283765890350000e+000) (46, 1.44656910227550760000e+000) (47, -1.76911130451320140000e+000) (48, -3.95847426150161110000e-001) (49, -2.23747480103314620000e+000) (50, 5.72406818269542050000e+000) (51, -7.31181675675137560000e-002) (52, -5.37090283482566490000e-001) (53, -3.32631501871068160000e+000) (54, 1.20334413322620960000e-001) (55, -3.16511773054576780000e+000) (56, -2.57407256156929220000e-001) (16, 1.60836323888074480000e+001) (17, 1.13119526331096640000e+001) (18, -2.08123958308231240000e+001) (19, 5.86694041031766120000e+000) (20, -4.90508072629862650000e+000) (21, 1.62934492189336560000e+001) (22, 3.45566477549741080000e+001) (23, 4.58992114551985340000e+000) (24, 1.08089210142658930000e+001) (25, -1.38150711200869010000e+000) (26, 2.50648289694939560000e+001) (27, 3.43124527347542330000e+000) (28, 4.25862544117212670000e+000) (29, -5.59121942665096490000e+000) (30, 5.30950548738710730000e+000) (31, 7.57381293394813470000e-002) (32, 4.55755954707370920000e+001) (33, 4.84311064580179310000e-001) (34, -1.02368118338355370000e+000) (35, 4.54154354900783300000e+001) (36, -4.00491485583318770000e+000) (37, 9.01694214268095260000e-001) (38, 2.04675075421655070000e+001) (39, -2.55531859341787570000e+001) (40, 5.34608884268452920000e+000) (41, 4.92427834544409460000e+001) (42, -2.85307711915013020000e+001) (43, 4.31196781585929310000e+000) (44, -2.85639813935228530000e+000) (45, -2.79217629218658670000e+001) (46, 1.85064564321159100000e+000) (47, -2.95085575158011810000e-002) (48, 1.12089628495700500000e+000) (49, -3.98337117561834640000e-002) (50, 7.13737538913274340000e+000) (51, 1.66257226258152980000e+000) (52, 2.00849660044469300000e+001) (53, 1.54271038113021050000e+000) (54, 7.07599474923508610000e+000) (55, 3.95842323574242760000e+000) (56, 8.66401374420132790000e-002) (16, 4.46540216265525370000e-001) (17, -8.44973686052447270000e-001) (18, -6.48276442143703390000e-001) (19, -1.66234487970149610000e+000) (20, -7.52515254468677060000e+000) (21, -2.49154634545845720000e-001) (22, 1.74847365765004300000e+000) (23, 1.34587812032824590000e+000) (24, 3.69022519182285440000e+000) (25, -1.05507795382305460000e+000) (26, 6.48965306326679150000e-001) (27, -2.44542990723656350000e+000) (28, 2.22548028216506490000e-001) (29, -4.02855102320370030000e-001) (30, 6.38787873077476810000e-002) (31, -3.56601413394780530000e+000) (32, -3.69036776924397850000e-001) (33, -3.10219466074957670000e+000) (34, 9.87215271966346810000e-003) (35, 8.01607704546757340000e-001) (36, -1.59522037011451300000e-004) (37, -4.67891688122126710000e-002) (38, 9.07995643890062600000e-001) (39, 1.02401076704409940000e+000) (40, 1.34736497023975390000e+000) (41, 2.19458472545474680000e-001) (42, 4.11421260778381930000e-001) (43, 2.81429371193852470000e-001) (44, 3.47312947298707930000e-001) (45, -1.00576414750321550000e+000) (46, -1.29298219820590310000e-001) (47, -5.65113090334224520000e-001) (48, -1.05875960337076180000e-001) (49, 2.78503846616540980000e-001) (50, 1.20381677499357220000e+000) (51, 6.59442430414698080000e-001) (52, -3.64875261682913270000e+000) (53, 4.46054110676050940000e-001) (54, 5.00127410653556150000e-001) (55, 1.16465057999095430000e+000) (56, 1.15340826049350590000e-001) (16, 5.90339757347109280000e+000) (17, -6.52740497259943430000e-001) (18, 6.10058864225356710000e-001) (19, 5.40360820010599770000e+000) (20, -7.29052345087814910000e-001) (21, 1.32632460383632970000e+001) (22, 2.24541052646859910000e+000) (23, -2.65327550041861130000e+000) (24, 2.80888631368658330000e-001) (25, 6.99306097337054620000e-001) (26, 1.44111282171166090000e+000) (27, 6.87681894070898550000e-002) (28, 1.26177489592280530000e-001) (29, 3.42847544064883400000e+000) (30, -3.77408639109021760000e+000) (31, 2.52098102638399990000e-001) (32, -3.96808974657587190000e-001) (33, -7.26236085830716530000e-001) (34, 1.35308650516387610000e+001) (35, 1.03944515215796060000e+000) (36, 4.79577691026387360000e-001) (37, 2.79504959148499090000e+000) (38, 1.24988928981295210000e+001) (39, 9.31213668169967090000e-001) (40, 2.96446322713871700000e+000) (41, 1.16766013760471440000e+000) (42, 4.34229493858334430000e+000) (43, -3.33158894430639620000e+000) (44, -2.83177790890554040000e+000) (45, 2.76228530926612200000e+001) (46, -2.11945306849460140000e-001) (47, -1.04100171897313640000e+000) (48, -1.14861419748113100000e+000) (49, 2.16846155230914130000e+000) (50, 3.06130619272964570000e+000) (51, 1.70560245003330250000e-001) (52, 3.37484679198610320000e+000) (53, 5.67916070122762310000e+000) (54, 6.94841213136147110000e-001) (55, 9.22644120533821500000e-001) (56, 3.67097129455350670000e-001) (16, 1.43405667316132180000e+000) (17, 2.78023226796866140000e-001) (18, -7.58776715508702740000e-002) (19, -4.65772239578058630000e-002) (20, -1.31280862434431420000e+000) (21, -1.00358486677581890000e+000) (22, -3.17884127678728490000e+000) (23, -1.34283751834350680000e+000) (24, 1.04969870153831830000e-001) (25, -1.16011323468169940000e+000) (26, -5.79697955385007680000e-001) (27, -5.89724226286898800000e-001) (28, -1.15293629911936670000e-001) (29, -6.88106327380736540000e-002) (30, 7.23877909332155900000e-001) (31, -4.15798325013737310000e-001) (32, 4.17500740221857850000e-001) (33, -1.36360508238368390000e-002) (34, -1.54463659110712090000e+000) (35, 3.93423412269343960000e-001) (36, 6.19619255167727980000e-001) (37, -4.97613268136822210000e+000) (38, 9.59252152714963750000e-002) (39, 6.23551105903823790000e-001) (40, 2.14928255876027310000e+000) (41, 7.57643435165621050000e-001) (42, 1.97565446289033480000e+000) (43, 1.26218963775979120000e+000) (44, 1.01075227124751080000e+000) (45, 2.70716811772955260000e-001) (46, 2.92100687373106520000e-001) (47, 2.03757481797096550000e-001) (48, 5.78818661976065910000e-001) (49, 9.05543632435751170000e-002) (50, 2.69921932029106080000e-001) (51, 1.06670372499672590000e+000) (52, -4.67625076800839690000e+000) (53, -1.23653518546705940000e+000) (54, 2.29438711687042220000e+000) (55, 1.41654308405947730000e+000) (56, 3.59922650714687150000e-001) (16, -9.63334121577715250000e-001) (17, -4.65151524135521740000e-001) (18, -2.74117794798302890000e-001) (19, -1.24959477654014470000e+000) (20, 1.35774333105094900000e+000) (21, 5.00144161211960150000e-001) (22, 2.18306098164871900000e+000) (23, 9.10828779283609280000e-001) (24, -1.81790086292230080000e+000) (25, -5.90869408704817520000e-001) (26, -1.48553536449535770000e+000) (27, 6.09781191589225170000e-001) (28, -8.22527990538170720000e-001) (29, 3.05015265638975630000e-001) (30, -2.17282315578438740000e-001) (31, 8.73517302465651620000e-001) (32, -1.33658372593278530000e-002) (33, 1.30553815535567020000e+000) (34, 2.35752236170884320000e-002) (35, -4.88771060999961200000e-001) (36, -4.25304479054048560000e-001) (37, 2.37281432863959950000e+000) (38, -3.81308894389804690000e+000) (39, 5.99674839280319390000e-001) (40, 1.13046083269150730000e+000) (41, -1.57944960045341220000e+000) (42, 6.85711364930198460000e-001) (43, -2.44685443719996760000e-001) (44, -1.24275721020165240000e+000) (45, 4.29419806672636850000e-001) (46, 1.06207561706852640000e+000) (47, -2.43954379298125710000e+000) (48, 5.04788242969058660000e-001) (49, -1.37440820483212520000e-001) (50, -1.12383597877465460000e-001) (51, 4.81788095226487410000e-001) (52, 1.48869086734999790000e-001) (53, -2.53146119774886990000e+000) (54, 2.17666443221926450000e+000) (55, 1.40779493927170370000e+000) (56, 1.93263978991891770000e-001) (16, -2.04446370191964000000e-002) (17, -1.41685446758019160000e+001) (18, -2.04621029995360450000e+000) (19, 2.72102439498728100000e+000) (20, -8.17801066628423360000e+000) (21, 2.08627596481782360000e-001) (22, -3.44715457011495200000e+000) (23, 1.45366895132434700000e-001) (24, 2.24639218391990280000e-001) (25, -5.97933944224655340000e-002) (26, -1.88869196439160020000e+001) (27, -1.38240312879400260000e+000) (28, 2.33365609801019990000e+000) (29, 2.18908498360162880000e+000) (30, -8.18837259829895640000e-001) (31, -5.39842374595958070000e-001) (32, -6.34971098000531420000e+000) (33, 2.17492328203289420000e+001) (34, -6.58595520308749100000e+000) (35, -3.61706874700685430000e+001) (36, 9.23054987572989380000e+000) (37, 1.81713378655626760000e+000) (38, -9.58760588050033920000e+000) (39, 5.61481698953976950000e+000) (40, 3.93601727977131730000e+000) (41, 1.26495187351883910000e+001) (42, 4.34248609355807250000e+000) (43, -6.23204749842103720000e-001) (44, 8.46900862778136880000e+000) (45, 2.26670719755176010000e+001) (46, -4.78932326711496610000e+000) (47, 1.19315813295118940000e-002) (48, 2.11599089092156490000e-001) (49, 8.10832549222526390000e+000) (50, 2.13577824405141300000e+000) (51, 1.02833780511179240000e+000) (52, -1.19640384183170050000e+001) (53, -9.58427078145500390000e+000) (54, 1.47891139100426040000e+000) (55, 1.21477350449329990000e+001) (56, 4.47116309706726830000e-001) (16, 4.17592238154628780000e+000) (17, -4.69679392704465460000e-001) (18, -3.21068646622894120000e+000) (19, 8.77928577107322190000e-001) (20, -1.41732454772439990000e+000) (21, -1.55153928538199090000e+000) (22, -3.55271216480596170000e-001) (23, -3.93086931523703460000e+000) (24, -7.22542566713278990000e-001) (25, -5.80283632287176000000e-002) (26, 9.03201409491063870000e-001) (27, -2.94460364888657010000e+000) (28, 1.53714690928849640000e+000) (29, 3.69397976793846230000e+000) (30, 4.39287390029710790000e-001) (31, 9.54307837412847880000e+000) (32, 6.94293669709365260000e+000) (33, 1.18464027024182280000e+000) (34, 1.27438187750158070000e+000) (35, -8.76150307029605500000e-001) (36, 8.38123517857605970000e-001) (37, 2.28726001018280660000e+001) (38, -5.52432622679241360000e+000) (39, 4.14165217739135370000e+000) (40, 3.12108690413233800000e-001) (41, 1.07680651928095190000e+000) (42, 7.63929341790943010000e+000) (43, 1.53584533952912830000e+001) (44, -7.72187368552321450000e-002) (45, -6.76871101905713030000e+001) (46, 2.58148933904200370000e+000) (47, 5.82495563416814650000e+000) (48, -1.72781063443498040000e+000) (49, -3.31806258791854970000e+000) (50, 3.61450736278187360000e+000) (51, 2.65557206583367570000e+000) (52, -4.74160353626510300000e+000) (53, -1.87951861146180090000e+001) (54, 3.49137581551439750000e+000) (55, -2.38682031563900930000e+000) (56, -6.44852735603178240000e-001) (16, 4.98047581524111440000e-001) (17, 2.85383663202993190000e-001) (18, 1.64750446891481550000e+000) (19, -3.26602336182467120000e+000) (20, 1.21666821979660120000e+000) (21, -1.80954447565116380000e+000) (22, 9.20106099387737800000e-001) (23, 2.28011132311184510000e+000) (24, 3.84537098855176620000e+000) (25, 8.81755820822045730000e-001) (26, -9.15419397808048960000e-002) (27, 6.11489066111551630000e-001) (28, -4.54002969761893030000e+000) (29, -5.01910463584135600000e-001) (30, 3.37027283707807750000e-002) (31, 4.54522573911767940000e+000) (32, 8.04973585713977670000e-002) (33, 7.12248511762835660000e-001) (34, 2.31917046281022750000e-001) (35, -7.76277381992243170000e-001) (36, -2.53265596169435110000e-001) (37, 7.48327281672497290000e-001) (38, 3.81308501956113490000e-001) (39, -6.62090282375713430000e-001) (40, -4.39275221152870540000e-001) (41, -1.51247657303773810000e+000) (42, 1.35379717049054470000e+000) (43, -5.95557894260094090000e-001) (44, 2.86900331805347910000e-001) (45, -5.40474999877210750000e+000) (46, 1.13329802228446860000e+000) (47, 4.32511857241999830000e+000) (48, 1.15228437543089730000e-001) (49, 4.91313574046119640000e-001) (50, 1.60891463548865320000e-002) (51, -1.31955577911739340000e-001) (52, -1.41000554258639550000e+000) (53, -1.11318866192925140000e+001) (54, 1.88931721995187600000e-001) (55, -2.76861172329551100000e-001) (56, -4.34996064761558720000e-001) (16, 3.28569489191212270000e+000) (17, 2.37302779112933460000e-001) (18, -7.09911406973603110000e-001) (19, 1.29515071237705310000e+000) (20, 5.17230149478141050000e-001) (21, 5.03524093707779440000e-002) (22, 1.31554496211247460000e+000) (23, -2.07640178078076020000e+000) (24, 7.83354006763637560000e-002) (25, -2.60062344805540250000e-001) (26, 1.04615442253317290000e+000) (27, -1.16965429683729670000e+000) (28, 1.08691528446797240000e+000) (29, 1.14673740781809250000e+000) (30, 4.31979933755131220000e-001) (31, 3.73361172582371560000e+000) (32, 1.58590408709227650000e+000) (33, 2.77370327607206990000e+000) (34, -5.31290589591424830000e+000) (35, -6.69142567237019930000e-001) (36, 1.08898536586020820000e+000) (37, 1.64054629439454320000e+000) (38, -1.25024966256637480000e+000) (39, 6.06968308957041810000e+000) (40, -1.44103596591892250000e+000) (41, 4.37233375666862310000e+000) (42, -3.76105904683301340000e+000) (43, 7.18645923139589370000e+000) (44, -6.60405507733767030000e+000) (45, 7.81809742341252270000e+000) (46, -8.88899373209223520000e-001) (47, 2.57226832776501600000e-001) (48, -2.54411158320106020000e-001) (49, 8.52670719724916100000e+000) (50, -8.88770433782412490000e-001) (51, 1.90734156371546980000e-001) (52, 1.39911541097740180000e+000) (53, 8.81070135433823730000e-001) (54, 4.81860208424113170000e+000) (55, 1.66122800494993170000e+000) (56, 4.67757262557143010000e-001) (16, -1.71462939058721080000e+000) (17, 3.09329348991153550000e-001) (18, -2.45475365288291100000e+000) (19, 1.32993066804146180000e+000) (20, 1.24586595927638210000e+000) (21, -3.83501184579714400000e+000) (22, 2.63126036419683550000e+000) (23, -4.96144859708430590000e-002) (24, -2.08370605332861170000e-001) (25, 3.98910046747862680000e-001) (26, 1.65846745355975770000e+000) (27, 1.74815217468166280000e+000) (28, 1.73418261374718920000e+000) (29, 2.73396779772884070000e-001) (30, 9.62169271326778650000e-001) (31, -1.44137747709193740000e+000) (32, 8.51786971612325970000e-001) (33, -2.36311548002830940000e-001) (34, 2.74677228063505070000e+000) (35, -1.41388054528926890000e+000) (36, -1.28113606254964480000e+000) (37, 2.89314513164425070000e+000) (38, -4.51154201919097900000e+000) (39, 3.96802484386053540000e+000) (40, -1.09897307044328980000e+001) (41, -2.21057809226210630000e+000) (42, 1.38809721905830140000e+001) (43, 3.94331728834189490000e-001) (44, 1.05455634703264220000e+000) (45, 9.50638341374060760000e+000) (46, 8.48090759899607140000e-001) (47, 2.87886991022632880000e-001) (48, -4.79213654168462390000e-002) (49, 2.76951086594170580000e+000) (50, -4.02184887651377220000e-001) (51, 4.55073442098088150000e+000) (52, -2.20271947259696520000e+000) (53, 1.58518593161384320000e+001) (54, 7.25572692361404400000e+000) (55, 7.03649940603813740000e+000) (56, -6.34052540944137430000e-001) (16, 5.11421445779536480000e+000) (17, -7.73913935203780050000e-001) (18, 8.60270314285008220000e-003) (19, 3.96216094271209410000e-001) (20, -4.14184861204298870000e-001) (21, -2.26445615527427650000e-001) (22, 1.08200277536799240000e+000) (23, 8.32288964275790200000e+000) (24, 3.50097389431767690000e+000) (25, 1.96491651493531650000e-001) (26, -3.96753609993746700000e-001) (27, 8.44101775560425650000e-001) (28, 2.66829839025884800000e+000) (29, 9.91020710706413620000e-001) (30, 4.01765118091757250000e-001) (31, -1.30363140594901750000e+001) (32, 6.03942769583381670000e-001) (33, -1.26474950977156930000e+000) (34, 1.40900940558803020000e+000) (35, -1.69107827658307310000e-002) (36, -2.23953082412345020000e-001) (37, -4.79262863547016530000e-001) (38, 1.86920446601451860000e+001) (39, -1.78191127288491980000e+000) (40, 1.53478792246536910000e+000) (41, -3.41144327772891000000e-001) (42, -3.25089143420068800000e+000) (43, -4.56793957338163640000e-001) (44, 3.31288627008794470000e-002) (45, -1.06218249045304280000e+001) (46, 2.89589112290949520000e+000) (47, -5.13159720652668680000e-001) (48, 9.62418416951560050000e-001) (49, -4.91791138091087810000e+000) (50, 1.87732153131053670000e+000) (51, 2.30120977491817540000e-001) (52, 6.26064680628131920000e-001) (53, 6.39218342900865720000e+000) (54, 8.01338930307636590000e+000) (55, 4.29973858445713740000e+000) (56, 1.52459165344782250000e+000) (16, 5.90243830293466830000e-001) (17, 1.00913175365945040000e+001) (18, -6.29678521436611320000e+000) (19, -5.06858905755415720000e+000) (20, 2.73219691554242950000e+000) (21, -3.79463644262176870000e+000) (22, 1.28677631220196350000e+000) (23, 2.24419509040318310000e+000) (24, -8.00186739528556320000e+000) (25, 1.15514822544413200000e-001) (26, 4.32317952474203100000e-002) (27, 1.52770191738808900000e-001) (28, -1.50746413187638040000e+000) (29, -1.22620387376747830000e+000) (30, -2.46041034608597660000e-002) (31, -1.37633149604847260000e+001) (32, 1.81780133433668720000e+000) (33, 1.86921336575202130000e-001) (34, -7.76241177748704290000e+000) (35, 1.92977289136779430000e+001) (36, -2.96160208564365800000e+000) (37, 4.49722531702743900000e-001) (38, 1.45046129302986170000e+001) (39, 3.24336314313855960000e-001) (40, 8.79196697998426300000e+000) (41, -1.27934234795399830000e+000) (42, -1.87983365935303280000e-002) (43, 1.80977890943536140000e-001) (44, -1.28033177500034130000e+000) (45, -5.05338331486503380000e+000) (46, -6.58304438213430480000e+000) (47, -8.59299152079195380000e-001) (48, 4.22418875246383720000e-001) (49, 1.32446474504701510000e+000) (50, 5.68640141576784510000e-002) (51, -1.47413492902120800000e+000) (52, 6.70726737325232230000e+000) (53, 1.97435977346724700000e+001) (54, -1.27194766102616510000e+000) (55, 7.16381363745959400000e-001) (56, 5.26097743366274670000e-002) (16, -5.90876499646770800000e+000) (17, 8.70791742331341710000e-001) (18, -6.07456401064130170000e+000) (19, -1.02617802847878950000e+001) (20, 1.97556806473076540000e+000) (21, -7.77025957088442710000e+000) (22, -4.20613577792645900000e+000) (23, -2.08549642046400230000e+000) (24, -1.50922632603667440000e+001) (25, 1.50379225025393940000e+000) (26, -2.01893599340647970000e+000) (27, 5.41155083921070190000e+000) (28, -9.67577249252022040000e+000) (29, -6.18373807901952950000e+000) (30, 4.32429161977326420000e-002) (31, -2.06740716465637680000e+000) (32, 4.96297362417604300000e-001) (33, 3.33774769815719810000e+000) (34, 4.88807226158867270000e+000) (35, 5.94697733528811060000e+000) (36, -4.31935190933406270000e-001) (37, -2.10690302765866410000e+001) (38, -9.49852213232030530000e+000) (39, 2.29942467359803040000e+000) (40, 3.40598926502099260000e+000) (41, -1.09086802707932820000e+001) (42, -2.89052792193220580000e+001) (43, -1.14078148646279890000e+001) (44, 9.10702768162570340000e-001) (45, 2.41379743293310720000e+001) (46, 2.15223082405742310000e-001) (47, 3.79460292157538290000e+000) (48, 1.63160016575253560000e-001) (49, 1.40326194296747400000e+000) (50, -6.83550417872100180000e+000) (51, -7.30822914045848560000e+000) (52, 8.42026613289605310000e+000) (53, 1.17081987141761630000e+001) (54, -1.38462492982618920000e+001) (55, -2.18569391915347340000e+000) (56, -4.70972264998479680000e-002) (16, -3.38844366648471950000e-001) (17, -5.78318473045278720000e-001) (18, 1.51858449981803340000e-001) (19, 1.06736039921063110000e-001) (20, -5.72276718724119780000e-001) (21, 5.25917864730424890000e-002) (22, -7.53250006476418380000e-001) (23, -1.90145404433038710000e+000) (24, -2.93291944479070590000e-001) (25, -3.23142915131967760000e+000) (26, 1.98471805544227160000e-001) (27, -3.45325552857011390000e-001) (28, -7.57634518671991000000e-002) (29, 5.95410244281494540000e+000) (30, -9.54011940956497770000e-001) (31, -1.69640534074520130000e+000) (32, 6.73818850019152430000e-001) (33, 3.60258787683378700000e-002) (34, -6.50088663834164360000e-002) (35, -2.14494772355519410000e+000) (36, 5.99817137256433040000e-001) (37, 2.05227932474390610000e-001) (38, 1.22462083576174850000e+000) (39, 2.08557113570443550000e+000) (40, -1.24829823075060590000e+000) (41, -4.08346524872134190000e-001) (42, -9.02223077745260420000e-002) (43, 1.34695826413726840000e+000) (44, 3.63603389977165210000e+000) (45, -1.66105464665507170000e+000) (46, 5.26471744096268180000e-001) (47, -5.00159116899783210000e-001) (48, -1.88223964479633300000e+000) (49, 1.47501456392440190000e-001) (50, 1.27685965755830470000e+000) (51, -1.21803261350018180000e+000) (52, 1.74903308269817860000e+000) (53, -9.45293402513874140000e-002) (54, 8.11116737765382730000e-001) (55, -5.07504221624886950000e-001) (56, 4.90587191929622250000e-001) (16, 7.82143223072232900000e+000) (17, -5.08457685158961730000e-001) (18, 1.26077720761915150000e+000) (19, 5.14623124304902290000e+000) (20, -5.91260581103651980000e-001) (21, 1.82871834350584660000e+001) (22, 3.83632427466048750000e+000) (23, 8.09486174916594250000e-001) (24, 1.67683256180253970000e+000) (25, 1.54566897029447370000e+000) (26, -3.76218672722922860000e-001) (27, 6.24337060628635140000e+000) (28, -6.06778134372046970000e-001) (29, 6.46046413278052520000e+000) (30, -9.70761337090100800000e+000) (31, 9.20001945048061030000e+000) (32, 3.54431161306064530000e+000) (33, -1.59637179244070900000e+000) (34, 3.42461593957250400000e-001) (35, -1.18618294029737710000e+000) (36, -3.46977633307762550000e-001) (37, -1.53689839887581090000e+000) (38, 1.56934640921611410000e+001) (39, 5.76926294803604910000e-001) (40, -4.24182806227462980000e+000) (41, -5.54057652016887170000e-001) (42, 8.89711781985957550000e+000) (43, -1.68102300266101460000e+001) (44, 1.40029007028853460000e+000) (45, -8.70258430372503790000e+000) (46, 1.45358044741698400000e+000) (47, 2.05241190193340240000e+000) (48, 9.32261867278431410000e-001) (49, -3.79076037987993610000e+000) (50, 2.73441891789752220000e+000) (51, -1.05328469385655050000e+000) (52, 3.90843925570761330000e+000) (53, 2.00857922206180370000e+000) (54, 2.58624068814137720000e+001) (55, 1.47014815550166440000e+000) (56, 4.79050617265973310000e-001) (16, -1.48316964686401480000e+000) (17, -2.99174338634990880000e-001) (18, -1.67216551984612830000e+000) (19, -3.77165928115044120000e-001) (20, -5.80219574360208660000e-001) (21, -6.02554416052685230000e-001) (22, -1.27250579408186600000e+000) (23, -9.51577598456619660000e-002) (24, -1.07195689271567170000e+000) (25, -1.37076423882346390000e-001) (26, 4.59356195021490330000e-001) (27, 2.69740470146732690000e-001) (28, -6.41609085615253760000e-001) (29, 3.03642350991390630000e+000) (30, -1.33679499611119620000e+000) (31, 5.11436993733658140000e-001) (32, -7.64048534631634800000e-001) (33, -4.65791781928015010000e-001) (34, -3.22314054744057330000e-001) (35, -3.20016493593322240000e-001) (36, 1.07030160833542380000e+000) (37, -3.13021372459959000000e+000) (38, 6.64826480728153420000e-001) (39, 1.32776835520294870000e+000) (40, 2.02959960681259320000e+000) (41, 3.16116416449952310000e-001) (42, 2.95875829651482250000e+000) (43, 6.39378258295474340000e-001) (44, -9.92359216600525950000e-001) (45, -5.87023801797787350000e-001) (46, 6.96580540174520110000e+000) (47, 6.14615602921861570000e-001) (48, -2.27722748326533640000e-001) (49, -7.06060470958663480000e-002) (50, 1.50066264473415490000e+000) (51, -1.13639199592122280000e+000) (52, -1.05079140515785710000e+000) (53, -7.71356044307606760000e+000) (54, 4.67066033838185180000e-001) (55, 7.10911677327162870000e-001) (56, 7.22937574500607920000e-001) (16, 2.76201919628479110000e+000) (17, 4.39991461786184780000e+000) (18, 4.46783052577625650000e+000) (19, 1.26834584687248730000e+000) (20, 5.37794007513478940000e-001) (21, 8.77503292067152940000e-001) (22, -3.10836283829400050000e+000) (23, 1.75424184273730410000e+000) (24, 4.78698746549797380000e-001) (25, -2.64491999834108380000e+000) (26, -2.30533112246518000000e+000) (27, 2.48574185001086790000e+000) (28, 2.80196841107237970000e-001) (29, 4.31041667617403860000e+000) (30, 6.63715193018798110000e-001) (31, 1.91111981607327390000e+000) (32, 1.48419477946407240000e+000) (33, -3.63471931748843570000e-001) (34, 6.21150028952355180000e+000) (35, -1.88325861425200110000e-001) (36, 2.02093033896273810000e-001) (37, 6.68323414705631440000e+000) (38, -2.09327756824969090000e+000) (39, 3.00142046449336840000e-001) (40, 2.52233051189852060000e+000) (41, -4.33567662228628030000e-001) (42, 3.64887255826754960000e-001) (43, -3.87868855877528120000e-001) (44, 1.13533631933846690000e+000) (45, -2.18419424760179790000e+000) (46, 5.41848382618304700000e-001) (47, -1.52974896135345870000e-001) (48, 1.03251983086943010000e+000) (49, -2.76007569355386060000e+000) (50, -1.39996957946064180000e-001) (51, -9.27108616218508150000e-001) (52, 1.23774680432204360000e+000) (53, 1.13569116005082500000e+000) (54, -3.56602058607776050000e+000) (55, -2.55886996713249590000e+000) (56, 4.09819750498515320000e-001) (16, 1.17311372942934450000e+001) (17, 3.24771266431422900000e-001) (18, 4.86782272208952000000e+000) (19, -1.06131993474921770000e+000) (20, 1.67611187420796420000e-001) (21, 3.02194627656449290000e+000) (22, 2.50745190650858030000e+000) (23, -9.81824766219560610000e-001) (24, -1.89196313268165480000e+000) (25, 4.67231284983003540000e-001) (26, 7.67733217542092340000e-001) (27, 2.45427214817966560000e-001) (28, 5.91873861408081290000e-001) (29, 1.00484740871304230000e+000) (30, 1.92021004477456010000e-001) (31, -1.31823270081366830000e+001) (32, -7.86052113018801180000e+000) (33, 2.13243446709532460000e+000) (34, 3.13434610501631130000e-001) (35, 1.09194364929582920000e+000) (36, 3.13358509575481130000e+000) (37, 7.09716704636857100000e+000) (38, 2.59312580701937990000e+001) (39, 6.40805360759715950000e-001) (40, 9.39096345637042470000e-001) (41, 7.66146087292027600000e-001) (42, 3.02276485730914500000e+000) (43, 4.37704122894601610000e+000) (44, -5.40836818925939380000e-001) (45, 1.53164477341494520000e+001) (46, -3.52398286131134050000e-001) (47, -1.18197779924725780000e+000) (48, 1.07405859109244830000e-001) (49, 2.57207556367752590000e+000) (50, -1.47337148619823830000e+000) (51, 1.75527609256515250000e+000) (52, 9.95591230051749990000e-001) (53, 1.92340966587972740000e+001) (54, -1.25105052128767460000e+000) (55, 4.06081561710037060000e+000) (56, 1.38626988586321080000e+000) (16, 1.60584278759014460000e+000) (17, -8.50969722238792750000e-001) (18, 9.64658889576890830000e-001) (19, -2.03967867597362980000e+000) (20, 1.45965269542249180000e+000) (21, 5.03572648241944700000e-001) (22, 1.11617536293486270000e+000) (23, -7.53531760343310930000e-001) (24, -5.29364432409780480000e-001) (25, -2.47976670313233090000e-001) (26, -1.79732287659230110000e+000) (27, -8.04941811694185110000e-001) (28, -8.89243641077476440000e-001) (29, -3.61910470138382400000e-001) (30, -3.27692164389996490000e-001) (31, -1.57517423956653380000e+000) (32, 9.96569698615802690000e-001) (33, -3.30001709344515560000e-001) (34, 6.27895116787079880000e-001) (35, -1.03706144840030110000e+000) (36, -1.42968654105997000000e+000) (37, 9.38287047720450460000e-001) (38, -2.08210188292339370000e+000) (39, -2.25817379475005930000e-002) (40, -2.78827049364182010000e-001) (41, -1.64809682583623740000e+000) (42, 1.98060035014864730000e+000) (43, 9.82101918072022180000e-001) (44, -6.53678211226531470000e-001) (45, 5.61973281883929500000e+000) (46, 6.52253385710409250000e-001) (47, -6.04783669933316780000e-001) (48, -2.85670994145586440000e-001) (49, 9.42539813080506690000e-002) (50, -3.27564521938147170000e-001) (51, 1.47073379159487510000e+000) (52, -1.08098492628233430000e-001) (53, 6.90924377340455980000e-001) (54, 2.07941301724154020000e-002) (55, 1.37871856370921870000e+000) (56, 1.73440576942161500000e-001) (16, -1.96783604786436990000e+000) (17, -1.99314387909605540000e-001) (18, 1.68297710742843540000e+000) (19, -1.54295405831678600000e+000) (20, 4.46998301571350880000e+000) (21, -7.07413114852386230000e-001) (22, -5.21872746245232920000e+000) (23, 5.21458148997386580000e+000) (24, -1.70485710683352030000e-001) (25, -6.42434309868932240000e-002) (26, -1.66351840587939300000e+000) (27, -6.81114889086480590000e-003) (28, -1.93534280771416260000e+000) (29, -1.21962697825312730000e+000) (30, 4.88394796730261090000e-001) (31, -3.32598840331897930000e+000) (32, -6.93018075615513100000e-001) (33, -2.01822019017273200000e-001) (34, 3.40212337618738920000e-001) (35, -1.86328280935658610000e+000) (36, 4.92360257265882340000e-001) (37, -9.09527319094003590000e+000) (38, -6.02796141023096640000e-001) (39, 4.21178506719748550000e-001) (40, 4.56035197549478880000e+000) (41, -1.87948814371714650000e+000) (42, -6.57969780838066620000e-002) (43, 3.04593428208131560000e+000) (44, 7.46507296400587220000e-001) (45, 2.95214808923194740000e+000) (46, -1.20421713740148230000e+000) (47, 5.69466267060598000000e-001) (48, -1.84739895351229900000e+000) (49, -1.52335659521335720000e+000) (50, 6.42334232519538250000e-001) (51, -3.42529261382423880000e+000) (52, -1.94399940224831820000e+000) (53, -1.60512682309169530000e+000) (54, 7.47692632843776830000e+000) (55, -2.16176769715476260000e+000) (56, 1.67665096273087170000e+000) (16, -3.40871395526494500000e+000) (17, -6.99934299552374180000e-001) (18, 9.46068612400006390000e-001) (19, -7.07404780745582150000e+000) (20, -1.16579778938302820000e+000) (21, 1.36577861241111420000e+000) (22, 4.23345026975152460000e+000) (23, 6.77667500005173640000e+000) (24, 8.32799917184932960000e-001) (25, -2.97774346558088960000e+000) (26, -5.82640177334028400000e-001) (27, -2.60964416442264690000e+000) (28, 6.24356368565494010000e+001) (29, -2.22896754137856020000e+001) (30, 4.52591619536726770000e+000) (31, 1.37409308628159880000e+001) (32, 7.65915389249276630000e-002) (33, 2.67897407975714910000e+000) (34, 5.05457243753011040000e-001) (35, -1.59588400253043100000e+001) (36, 6.50486097191370400000e-001) (37, 7.13774708119634930000e+000) (38, -1.70045894480899340000e+001) (39, -3.32281450806713750000e+001) (40, 4.92505016883577970000e+000) (41, 2.27717682176911470000e+001) (42, -2.45385125062606870000e+001) (43, 3.02422315466439820000e+001) (44, 2.81408918480205950000e+000) (45, -1.09117771532158110000e+001) (46, 1.54021225861699450000e+001) (47, 2.47337040871169660000e+000) (48, 7.08146166000682030000e-001) (49, -4.05770637488495380000e+000) (50, 6.20733896320095810000e+000) (51, 2.18358348323824250000e+001) (52, 7.52101324611151420000e+000) (53, 3.10380312853938370000e+000) (54, 5.26347750346045800000e+001) (55, -6.09304340841002200000e+000) (56, -2.31279893557868020000e+001) (16, 4.43938049033377610000e+000) (17, -2.59002435670305230000e-001) (18, -4.23868479517566300000e-002) (19, 8.75817009925012260000e+000) (20, 9.77225781348217580000e-001) (21, 1.26562824114894430000e+001) (22, 5.81809790892568480000e+000) (23, -3.12977019456992700000e+000) (24, 8.13070479536113670000e+000) (25, -2.10699216929938690000e+000) (26, 1.17525337986714870000e+000) (27, 1.12963009471472970000e+000) (28, -4.28864807892666460000e+000) (29, 1.69906686709586840000e+001) (30, -6.10674590729412170000e+000) (31, 2.41223774834936040000e+000) (32, -9.91273076296460660000e-001) (33, -4.06965373889984060000e+000) (34, -5.27624962665897530000e-001) (35, -2.20695481007691010000e+000) (36, -9.64497178691030160000e-002) (37, 4.19619893178115340000e+000) (38, 1.80021076071815780000e+001) (39, 5.03767925318254490000e+000) (40, 8.53352218733960830000e+000) (41, 4.57969580418705840000e+000) (42, -9.33723097860158950000e-001) (43, -3.19385587514152500000e+001) (44, 1.31174222898331290000e+000) (45, -4.64613446058288740000e+000) (46, 1.53719219578491620000e+000) (47, 1.54023981374015120000e+000) (48, 1.88540720695453110000e+000) (49, -2.26987565386527420000e+000) (50, 1.30032248691069970000e+000) (51, 5.56427975663685890000e+000) (52, 4.80118553419568170000e+000) (53, -4.00932094141855180000e+000) (54, 3.00782632223611550000e+001) (55, -3.49964369233255600000e+000) (56, -1.18118326549597930000e+000) (16, -4.20820619241158320000e+000) (17, 6.79068973356202040000e+000) (18, -3.26862260981265110000e+001) (19, -3.40620990660069630000e+000) (20, -9.71339420372370980000e-001) (21, -9.61663194121011070000e+000) (22, 2.93758644088466420000e-002) (23, 2.70205154453695750000e-001) (24, 3.80259738746047570000e-001) (25, -1.47121484678413840000e+000) (26, 1.05488108638966960000e+001) (27, -4.43329024968580840000e+000) (28, 2.08717599245512940000e+000) (29, -7.81202654989626600000e-001) (30, 2.61077923620346080000e+000) (31, -8.87358109602924050000e-001) (32, 2.98743109851896120000e-001) (33, 8.57775394853691250000e+000) (34, 1.35592846323332080000e+000) (35, 7.34548121483414640000e+000) (36, -1.46181952501912950000e+001) (37, -1.33777372448339480000e+001) (38, -2.26675440593629390000e+001) (39, 1.36925428919680600000e+000) (40, 1.16012717032807040000e+000) (41, 1.47650826658485750000e+000) (42, 2.53098353620311120000e+000) (43, -3.72893769262700680000e-001) (44, -2.81623190151441880000e+000) (45, -1.83028849691868570000e+000) (46, -7.41635015703279430000e+000) (47, -4.75001618527057450000e-002) (48, 5.35278215612988050000e-001) (49, 6.21764955384008560000e+000) (50, -6.19760527509262180000e+000) (51, -6.50078092629192920000e-001) (52, 6.07133217863303280000e+000) (53, 2.07472270941863040000e+001) (54, -8.80169598416924080000e+000) (55, -1.73930249559263970000e+000) (56, -2.47851373955406060000e+000) (16, -3.62642372524579400000e+000) (17, 1.41739311885842590000e+000) (18, -3.21701570941614890000e-001) (19, -5.22607452490013390000e-001) (20, -6.34841694767167560000e-002) (21, 1.85988536424903650000e+000) (22, -1.89294302902494380000e-001) (23, -4.68760611619020270000e-001) (24, -5.68042253321645370000e-001) (25, 2.64126340123751020000e-001) (26, 3.06649281395223180000e-001) (27, -3.09823541434062820000e-001) (28, -2.48045420037007160000e+000) (29, 1.57519466118221900000e+001) (30, -2.20091965493770690000e-001) (31, 1.47414631679299270000e+000) (32, 1.45445495530537760000e+000) (33, 1.46956309450598740000e+000) (34, 3.50226868128480200000e-001) (35, 6.15984365794328900000e-002) (36, -1.99361191222630410000e+000) (37, -4.75429901441639390000e+000) (38, -1.32224539774413370000e+000) (39, 2.15432665977084690000e-001) (40, 1.73161372378993850000e+000) (41, -9.11823438724284290000e-001) (42, -3.38609362969995860000e+000) (43, -5.40316888122646670000e-001) (44, 1.00299366688974480000e+000) (45, 4.04728767351410110000e-001) (46, 1.32827249289799880000e+000) (47, 9.39157079920290180000e-001) (48, -1.46013357373412100000e+000) (49, 3.06247900136834070000e+000) (50, 3.93026252970740590000e+000) (51, -8.33932330429176580000e-001) (52, 2.16228848574047070000e+000) (53, 2.40350721680501020000e+000) (54, 3.37430883471009760000e+000) (55, -1.49392395810598290000e+000) (56, 4.30985634574099330000e-001) (16, -2.83351196433744290000e+000) (17, -8.08193519272148860000e-002) (18, -4.21449575875446760000e+000) (19, 1.11778670085908470000e+000) (20, -1.46779003336124660000e+000) (21, 2.22410398233692200000e+000) (22, 3.18088035825272990000e+000) (23, -7.21227865481586510000e+000) (24, -3.43923642944758120000e+000) (25, -2.53722322932323060000e+000) (26, 4.16341302018177740000e+000) (27, 3.82839469591517290000e+000) (28, 1.26003274886300090000e+001) (29, 9.85372539191470940000e-001) (30, -1.90980664397352750000e+000) (31, 2.02602877016979580000e+001) (32, 2.29865419602451870000e+001) (33, -5.07550786293363250000e-001) (34, -7.15148526057709600000e+000) (35, -1.11275861899575010000e+001) (36, -1.70628595394860640000e-001) (37, 1.47972356698750910000e+001) (38, -3.15022155194834460000e+001) (39, -1.34118855324665210000e+000) (40, -4.60824568512666490000e+000) (41, 8.07361490964763640000e+000) (42, 2.20710167426407970000e+001) (43, 2.47964379738879130000e+000) (44, -2.44423216024208490000e+000) (45, 1.63267837323789740000e+001) (46, 7.85594538803686240000e-001) (47, 7.75085400794855990000e-001) (48, -2.93669349973913310000e-001) (49, -2.49965980091014470000e+000) (50, 5.00996205291866300000e+000) (51, 4.74731258872685300000e+000) (52, -1.47307698257463700000e+000) (53, 2.46550458627289860000e+001) (54, 3.31241071490946410000e+001) (55, 3.08113179175570850000e-001) (56, -2.05768414755258130000e+000) (16, 4.22317523052620110000e+000) (17, 3.16900700629072770000e-001) (18, -1.08040546048369570000e+000) (19, 1.37269234321469360000e+000) (20, -1.42795200655047410000e+000) (21, 2.73116009844586040000e+000) (22, 2.38018446635037950000e+000) (23, -1.06171439581652290000e+000) (24, -1.86640369680878800000e+000) (25, -6.50882442157471370000e-001) (26, 1.24015308460660290000e+000) (27, -2.06446630177958970000e+000) (28, 1.68480253947260830000e+000) (29, 1.49052584515033940000e+000) (30, -1.84313246251638850000e+000) (31, 1.65745370916117980000e+001) (32, 3.10286226228852560000e+000) (33, -1.80489260694633750000e-001) (34, 3.61391673435499780000e+000) (35, 2.51978595947828680000e-002) (36, -6.33538520738629710000e+000) (37, 6.47493018518413520000e+000) (38, -5.05080346017587180000e+000) (39, 7.01791653069973930000e-001) (40, -1.70904859010304920000e+000) (41, 2.20924754513417860000e+000) (42, 1.87169244471757090000e+000) (43, 1.09624317897665640000e+001) (44, -2.91762106051852770000e-001) (45, -6.61928573772628540000e+001) (46, 2.29379968959816210000e+000) (47, 6.30657740720259440000e-003) (48, 1.82362973712297880000e+000) (49, 6.34444171027593100000e-001) (50, 4.89363112079419960000e+000) (51, 3.32558794589445030000e-002) (52, -2.73109890720663160000e-001) (53, -1.20256816804904560000e+001) (54, 6.17299985127743510000e+000) (55, -5.57322180824180970000e+000) (56, 8.39547873800740810000e-001) (16, 2.24359121328787880000e+000) (17, -8.20316378586914420000e-001) (18, 2.53748003703530630000e+000) (19, -1.63584110926024670000e+000) (20, 4.25041215161019660000e-002) (21, -2.43486936120053070000e-001) (22, -3.49310016273840150000e+000) (23, -1.78682761429066830000e+000) (24, 6.92526254490308800000e-001) (25, -1.52737980150405540000e+000) (26, -5.99405701121754950000e-001) (27, 3.92047169374841260000e-002) (28, -4.18018197661424950000e-001) (29, -5.93498847496845010000e-001) (30, 7.21358848655632710000e-001) (31, -4.59829509681626390000e-001) (32, -4.50592450339881100000e-001) (33, 1.59682900453233280000e+000) (34, 5.66308151256841530000e-001) (35, -3.10356412612488700000e+000) (36, 1.53045002719080410000e+000) (37, 9.09492022379574110000e-002) (38, -1.76364630686074660000e+000) (39, 1.59281113865300750000e+000) (40, -3.62136994238980160000e-001) (41, -9.23741347706088180000e-001) (42, 1.07388429628035900000e+000) (43, -1.16781863519330000000e+000) (44, -6.08100498934448840000e-001) (45, 6.50726590302780790000e-001) (46, 3.39985910216108520000e-001) (47, -4.97988826011105950000e-001) (48, 4.08461267968069430000e-002) (49, -3.96598540692957140000e-001) (50, 5.51035852712877810000e-001) (51, 7.51560539227104090000e-001) (52, 2.30789750255606040000e+000) (53, 3.82298856800396170000e+000) (54, -2.77062613736083960000e+000) (55, 1.68650516376981190000e+000) (56, 1.96588077918170230000e-001) (16, 8.21016282232043370000e-001) (17, -5.05035678233036860000e-001) (18, -2.75220100278949830000e-001) (19, 4.90017648692140150000e-001) (20, 6.83831090944673870000e-001) (21, -1.90478642079896120000e-001) (22, 3.94431038458070040000e-001) (23, -1.80536031584135270000e+000) (24, 1.38759051030506650000e+000) (25, -3.09320298029347350000e-001) (26, -1.59610448684527630000e+000) (27, -3.22980447497222880000e+000) (28, 7.16307845826646530000e-001) (29, -2.01934316147653560000e-001) (30, -3.25312078860586110000e-001) (31, -1.67889383181933780000e+000) (32, 2.14874824944926780000e+000) (33, -1.44628563091611810000e+000) (34, 6.22973925073888930000e-001) (35, -2.21573321542840930000e-001) (36, -1.21084139167110250000e+000) (37, -5.57496262201227610000e-001) (38, -1.02362213489257470000e+000) (39, -7.75069405524865250000e-001) (40, -6.92769303351396530000e-001) (41, -8.46852126288292540000e-001) (42, 1.07149282317999610000e+000) (43, -7.34096676870015450000e-001) (44, 1.10616601633729570000e+000) (45, 1.41339013680360340000e-001) (46, 2.18398046139695850000e+000) (47, 9.91483551149030970000e-001) (48, 8.60885453038654490000e-001) (49, 3.95434058648150070000e-001) (50, -8.18726723652547060000e-001) (51, 9.23016087878960060000e-001) (52, -2.21052507633817320000e+000) (53, -2.54809030817128380000e+000) (54, -1.52557374133954270000e+000) (55, -1.13421518904779830000e+000) (56, 4.25479186163984390000e-001) (16, 4.50379078819358990000e+000) (17, -2.60190678882962350000e+000) (18, 2.46799316235572300000e-001) (19, 4.18649067306060290000e+000) (20, 9.90399655241315650000e-002) (21, 5.04419687376626410000e+000) (22, -3.63751868566008000000e-001) (23, -7.34380672710235150000e+000) (24, 2.41695440085861190000e-001) (25, 2.75878897601279500000e+000) (26, -3.33855736394297860000e+000) (27, -2.07718976903246100000e+000) (28, -7.55811204909978770000e-001) (29, 4.51445876767239800000e+000) (30, -4.69779741138828370000e-001) (31, 3.82906025700059520000e+000) (32, 1.18827553211238350000e+001) (33, -1.43961559078914680000e+000) (34, -3.52681599745740090000e-001) (35, -6.10063109846715080000e+000) (36, 2.99174002313449040000e-001) (37, 1.55419933867573330000e+001) (38, 4.55818369139440270000e+000) (39, 7.03176798782973920000e+000) (40, 8.65393047222836740000e+000) (41, 7.52420051368500160000e+000) (42, 1.26104113093293970000e+000) (43, 1.57709504508644990000e+001) (44, 7.52394418875081960000e-001) (45, -3.03852538197445870000e+000) (46, 5.60148499346010450000e+000) (47, -2.18222469484896650000e+000) (48, 6.91434560304967420000e-001) (49, -1.95108218548258990000e+000) (50, -1.63042266045943230000e+000) (51, 1.95398293810152660000e+000) (52, 1.52174410115264670000e+000) (53, 1.27668741701971780000e+000) (54, 1.40002803195106740000e+001) (55, -3.21124194042312900000e-001) (56, 1.05464107195798060000e+000) (16, -8.20706933071109310000e-001) (17, -1.86116040932244560000e+000) (18, -2.45849751870768300000e-001) (19, -2.89785875105534020000e-002) (20, 3.58787030477496880000e-001) (21, 1.59437771831595620000e+000) (22, 9.54329726087318030000e-001) (23, -1.51296030725396790000e+000) (24, 7.56847564750546710000e-001) (25, -6.14941868591448500000e-001) (26, -1.07017801075888100000e+000) (27, -5.94417182523491070000e-001) (28, 4.15621243551288270000e-001) (29, -1.12747077958876570000e+000) (30, -3.16478708909486930000e+000) (31, -4.75713471024096450000e+000) (32, 1.81874141081017200000e+000) (33, 6.37179219706810320000e-002) (34, -6.86431188759748930000e-002) (35, -2.59228210761139090000e+000) (36, 3.04287324895853970000e-001) (37, -7.16019465445614900000e-001) (38, 1.16520042436956000000e-001) (39, 4.56977793329491340000e-001) (40, -1.41619333744854710000e+000) (41, -1.12117272002984160000e+000) (42, -4.59709549722570190000e+000) (43, 9.34962030546068410000e-001) (44, 1.05820396301860130000e+000) (45, 6.98291392370713560000e+000) (46, 3.75803943095777940000e+000) (47, -4.14768568418246160000e-001) (48, -5.09663426123532550000e-001) (49, 3.07517931812934010000e+000) (50, 4.11513799004501260000e-002) (51, -2.88838307212689750000e+000) (52, 4.82199996292336900000e-001) (53, -2.02646283860165650000e+000) (54, 1.09599676540077140000e+000) (55, -3.13214601128568940000e+000) (56, -3.57815208626739100000e-001) (16, 1.03113140316231270000e+000) (17, -2.70920247999994190000e+000) (18, 3.28857463037907970000e-001) (19, -1.18190967350289800000e+000) (20, -1.86746868347689500000e-001) (21, -6.09300908921652900000e-001) (22, -4.90277964762372450000e-001) (23, -3.29942290020880070000e+000) (24, -9.10061103835078100000e-002) (25, -1.93494164974259090000e+000) (26, 2.41939135954256150000e-001) (27, -1.43196368078016440000e-001) (28, 2.83514727614474050000e-001) (29, 8.88135870157928390000e-001) (30, -4.81732773254139990000e-001) (31, -1.49614015384284930000e-001) (32, 4.23269683475867300000e-001) (33, 4.01188898703305870000e-001) (34, -1.17757115942939720000e-001) (35, -1.70083744359983240000e+000) (36, 9.00378789129085750000e-001) (37, 1.16253004290438830000e+000) (38, 8.48386884647807450000e+000) (39, 1.56534752779608950000e+000) (40, -4.98837214862689230000e-001) (41, -7.36125741817105660000e-001) (42, 1.04577678398018300000e+000) (43, 5.71515177990854830000e-001) (44, -1.32355940545698770000e+000) (45, 6.36275650670860580000e+000) (46, 1.06562801332902770000e-001) (47, -2.17687289153068610000e+000) (48, -7.23008339134838530000e-001) (49, -4.61650070167848450000e+000) (50, 5.07192222026719760000e-001) (51, 5.36284124680692360000e-002) (52, -6.89815591011116720000e-002) (53, -1.40864566613417150000e+000) (54, -4.22273241310555990000e-001) (55, 2.97587010396654340000e+000) (56, 1.83099639730287690000e+000) (16, 5.95266602555131640000e-001) (17, -2.09377990108404660000e-001) (18, 7.12354281044421360000e+000) (19, -9.47644965447476560000e-001) (20, 9.05647135033587510000e-001) (21, -6.06129957722909900000e-001) (22, -3.72632548085420120000e-001) (23, -1.12661846038005130000e+000) (24, 8.24528281280834640000e+000) (25, -1.19064692678843770000e-001) (26, -7.11750764042224370000e-001) (27, 1.21865298015515140000e-001) (28, -1.04435262157997230000e-001) (29, 5.19477321649104340000e+000) (30, 2.78975022284912020000e+000) (31, -1.01656551663547000000e+001) (32, 3.53041232106818410000e+000) (33, -9.76204876800368050000e-001) (34, 2.92884791794100390000e+000) (35, 1.01283610514123730000e+000) (36, 6.06371459314353340000e+000) (37, 1.09542718088377120000e+001) (38, 1.10828687737915140000e+001) (39, 1.00667706873926700000e+000) (40, 2.51752989366611780000e-001) (41, -5.45770174373810370000e-001) (42, 1.54000205077153570000e+001) (43, -3.08226608012474830000e+000) (44, 2.22491414792184770000e+000) (45, 3.41480965119541510000e+001) (46, -2.80002520378545670000e+000) (47, -3.81487976744249170000e+000) (48, 9.95646813458772370000e-001) (49, 3.41962617441773940000e+000) (50, -2.36840642398056330000e+000) (51, 1.97475903876975050000e+000) (52, -2.23984406265155660000e+000) (53, 1.94190402634867460000e+001) (54, -1.06875531099621890000e+000) (55, 4.51751428686664450000e+000) (56, 3.80734186947748520000e-001) (16, -4.24250706036550520000e-001) (17, -5.46623564318708400000e-001) (18, -2.60969545274508620000e+000) (19, -1.15748018125510790000e-001) (20, -1.48300942771041870000e+000) (21, 1.53946936302070850000e-001) (22, -2.97509485810875550000e-001) (23, -1.63639519918463900000e+000) (24, -2.36037293894746920000e-001) (25, -7.04487689888604330000e-001) (26, 9.90399956959968190000e-001) (27, -6.01405388499380970000e-001) (28, 1.26042759534238740000e+000) (29, 1.81265410393806970000e+000) (30, 2.63574350046856250000e-001) (31, -1.26605302317092750000e+000) (32, -3.11318707544358110000e+000) (33, -1.39926523256587430000e+000) (34, -6.28512404887480170000e-001) (35, 4.94350654605438260000e-001) (36, 2.10218224887712080000e-001) (37, -1.36475785254661530000e+000) (38, -1.16798770164386710000e+000) (39, 1.26986513002391430000e+000) (40, 2.37267614988946150000e+000) (41, 5.78176001403008510000e-001) (42, -2.47176994119442800000e-001) (43, -4.83117072443580930000e-001) (44, -1.12539560200156430000e+000) (45, -2.97425942058294980000e-001) (46, 4.44068157613682790000e-001) (47, -3.28682784750217040000e+000) (48, -2.43355646710878840000e-002) (49, -1.03699656034606710000e-001) (50, 4.26431814525492950000e-001) (51, -1.75078900955391720000e-001) (52, -1.41029659284750930000e+000) (53, 1.03957428951883890000e+000) (54, 8.35124066727210850000e-001) (55, 8.86328454677539730000e-001) (56, 2.38757799991316850000e-001) (16, 2.32014876132641090000e+000) (17, 1.40705593566255450000e-002) (18, 7.36857386812256540000e-001) (19, 3.67619088710108510000e-001) (20, 2.01807115048286970000e+000) (21, -9.09149632009946630000e+000) (22, 5.20660364086372600000e+000) (23, -3.98227777090776990000e+000) (24, -1.10349617546899850000e+000) (25, 3.68422475103266760000e+000) (26, -4.65950776885096780000e-001) (27, -4.47956025381991910000e+000) (28, -1.29111212801421080000e+000) (29, 2.91788526501617080000e+000) (30, -3.34358231053311690000e-001) (31, -2.81370269793085440000e-001) (32, 1.23761840501166120000e-001) (33, -1.26543522155032350000e+000) (34, 1.16784211936593500000e+000) (35, 4.93707565446200740000e+000) (36, -2.05830489736239470000e+000) (37, -1.05542252224129740000e+000) (38, 6.56529054867047890000e+000) (39, 4.84344926916737520000e+000) (40, 6.24617407366192980000e+000) (41, -1.25127927798265650000e-001) (42, -1.06319193424903880000e+001) (43, 5.51287339578217140000e+000) (44, 1.21738399134471600000e+000) (45, -3.15309950616106000000e+001) (46, 4.40234356847355630000e+000) (47, 2.01295790525923750000e-001) (48, -2.34585414407789060000e+000) (49, 5.57601400175590630000e+000) (50, -1.01397212390184350000e+001) (51, 2.72494799286500330000e+000) (52, 1.96941429123137320000e+000) (53, 1.42858738819232370000e+001) (54, -5.76514755369040070000e-001) (55, 3.82566198671897010000e-001) (56, 3.74251398081727960000e+000) (16, -3.12433175669884640000e+000) (17, -9.45632550447465970000e-001) (18, -3.03980630561097170000e-002) (19, -2.62953403253206770000e+000) (20, -3.87671209794830050000e-001) (21, -8.56094367725997070000e+000) (22, 1.14788223399048220000e+000) (23, -8.30327819239889740000e+000) (24, -6.86104919838335550000e+000) (25, 5.19058933243621730000e+000) (26, -1.69116137157146200000e+000) (27, 5.96483165043209040000e-002) (28, -3.21869285412374940000e+000) (29, 1.07960800622000040000e+000) (30, 1.17547839348852360000e+000) (31, 5.46190148238023920000e-001) (32, 5.48485772798258430000e+000) (33, 8.10018068209250370000e-001) (34, -3.36685754027187430000e+000) (35, 5.39178677158062490000e-003) (36, -5.97303418981023240000e-001) (37, 3.39985684973012960000e+000) (38, -7.58597523631338430000e+000) (39, -3.60139155935294260000e+000) (40, 5.22075925870752240000e-001) (41, 3.66962653165537930000e+000) (42, 6.92466136372598310000e+000) (43, -7.89730913483366440000e-001) (44, 1.46326887056081080000e+000) (45, -1.21993152000342150000e+000) (46, -8.82452412038483710000e-002) (47, -3.22557959105099550000e-001) (48, -7.50601010510341340000e-001) (49, -8.82230988875678750000e-001) (50, 1.04733041121255880000e+000) (51, 6.45448827075199460000e-001) (52, -1.85878158866271350000e+000) (53, 1.08960218309551230000e+001) (54, 1.21693199369556880000e+001) (55, 2.89618860074717070000e+000) (56, -9.61909322740549190000e-001) (16, 1.29791443091747530000e-001) (17, 2.63956608113460170000e-001) (18, -3.23139381530348100000e-001) (19, -7.11594000008406180000e+000) (20, 7.35827327718222230000e-001) (21, 2.42808799626999920000e-001) (22, -3.38882618397573540000e+000) (23, 1.36264849455843560000e+000) (24, -2.47506540745664520000e+000) (25, 3.81401092962687870000e+000) (26, -3.00380525664395840000e+000) (27, 2.89289190338590440000e+000) (28, -1.16144001742113970000e+001) (29, -1.24205448148847110000e+000) (30, 3.81311843129094550000e-001) (31, -1.34466385000665480000e+001) (32, 7.85823808610515150000e-002) (33, 1.47003315604860370000e+000) (34, -1.71765541339183270000e+000) (35, -2.29488223700964510000e+000) (36, 1.23736552743189290000e+000) (37, 1.40968339740415030000e+000) (38, 1.10883062625271980000e+001) (39, -3.16466426810926430000e+000) (40, 5.27449971766602930000e+000) (41, 6.34597104418096360000e-001) (42, 7.39879539246672020000e+000) (43, -6.20477351286592960000e+000) (44, 1.28601064490573780000e+000) (45, -1.60266187587297860000e+001) (46, 1.22076760948337810000e+000) (47, 3.40625031882571340000e+000) (48, -1.92640954166712830000e+000) (49, -3.85120196703488470000e+000) (50, -2.37959607049033030000e+000) (51, 1.60572545121312800000e-001) (52, -3.28566716287720210000e+000) (53, 1.18380667962112080000e+001) (54, -8.26128675244965290000e+000) (55, 1.00038920060482760000e+000) (56, 1.36933152639655800000e+000) (16, -2.61611075148502180000e-001) (17, 4.37293348296996440000e-002) (18, 1.52683428085272910000e+000) (19, -2.46127667816373340000e+000) (20, 3.83999760034169980000e+000) (21, -2.14926643120228360000e-001) (22, -4.12214015728453110000e+000) (23, 2.09599450486407380000e-001) (24, -3.01619550499761470000e-001) (25, 3.05396052607555200000e-001) (26, -1.56610809903447470000e+000) (27, -1.44121685668009180000e-001) (28, -1.87932145501044730000e+000) (29, -9.91042954420707780000e-001) (30, -8.97409178062643780000e-002) (31, 4.17962352853112130000e-002) (32, -1.37445629890534550000e-001) (33, 1.44850718018731170000e-001) (34, 2.58806290419374530000e-001) (35, -3.20563207970515100000e+000) (36, 5.90033999086187920000e-001) (37, -5.54550798400193710000e-002) (38, -1.21560881218619170000e+000) (39, 5.70442774632585120000e-002) (40, -6.43179093739512650000e-001) (41, -1.45477507021443800000e+000) (42, 7.89880315313360120000e-001) (43, -8.01793319957483600000e-001) (44, 1.10443099123924360000e+000) (45, 5.23534713999830000000e+000) (46, 1.85614816519266790000e+000) (47, 5.34205704070952140000e-001) (48, -1.93866995858748760000e+000) (49, -1.28923300437754930000e-001) (50, 8.08230025735921620000e-001) (51, -5.72546820865848450000e+000) (52, 1.82708982046195860000e+000) (53, -1.14082331494725580000e+000) (54, 1.64156948109750730000e-001) (55, 1.23443694064118190000e+000) (56, 1.11151072134546420000e+000) (16, 8.97188942089252930000e-001) (17, -3.68332398932121940000e-001) (18, 1.69165747217933090000e+000) (19, -6.06624276051816460000e-001) (20, 1.60522277722638650000e+000) (21, 5.58124321596822170000e+000) (22, -1.72028649219393700000e-001) (23, -1.58410696209298550000e+000) (24, -6.10388459930655820000e-002) (25, 6.67931072508626270000e-001) (26, -5.29050135855608450000e-001) (27, 7.11739780054979290000e-001) (28, -6.56250837443007470000e-002) (29, 5.55608843755891880000e+000) (30, 1.39440300033266080000e+000) (31, 1.09585097443722380000e+000) (32, 6.30404104575327700000e-001) (33, 1.14312909096631680000e+000) (34, -4.49199267809542720000e-001) (35, -6.25464557839180650000e+000) (36, 1.79327593408119960000e-001) (37, -9.79469724869490160000e-002) (38, -2.80211962990010210000e+000) (39, -6.64403272785982630000e-002) (40, -3.34992016497834920000e+000) (41, -1.94147971549785690000e-001) (42, 4.50371821116302030000e-001) (43, -2.29183940036680000000e-001) (44, -1.44357239224403730000e+000) (45, 5.71480185948814510000e+000) (46, -1.66371570099804340000e+000) (47, -1.47821233711796520000e+000) (48, 1.40035450207055350000e-001) (49, -1.29026246706717920000e+000) (50, 8.37364374191310490000e-001) (51, 1.29337575292288460000e+000) (52, 1.47614132323586360000e+000) (53, -6.61332417192953880000e-001) (54, -7.17886285969632550000e-001) (55, 1.76111534581721240000e+000) (56, -4.25449855333308760000e-001) (16, 6.27702850057425100000e+000) (17, 2.14017148814816150000e-001) (18, -2.08697560395091270000e-001) (19, -5.01659736122200050000e-001) (20, 4.32848583445615220000e-001) (21, -1.18615606629182990000e+001) (22, 2.68760454250953540000e+000) (23, -3.86283263236827560000e+000) (24, -1.89831886478240340000e+000) (25, -2.05165314162175070000e+000) (26, -4.56196225289187400000e+000) (27, 1.91324077341102540000e-001) (28, 5.24577839533286850000e-001) (29, -5.07220334480075690000e+000) (30, -1.96945599221646540000e+000) (31, -5.43434089557629730000e+000) (32, -1.75072075825304410000e+001) (33, 5.19682838476498770000e-001) (34, 2.17827990676651950000e+000) (35, -9.59241367226828620000e-001) (36, 1.05855956985460330000e+000) (37, -6.18455492545104680000e+000) (38, -4.69767055444756740000e+000) (39, 4.23798916404122220000e+000) (40, 4.68190735349550860000e-001) (41, 7.51943250928987970000e+000) (42, -1.65463325865291710000e+001) (43, 2.36595214518571460000e+000) (44, 7.42571840779480690000e-001) (45, 6.30078767685411820000e+000) (46, -2.68360098749536880000e+000) (47, 3.27830025093437570000e+000) (48, -9.40669819529803220000e-001) (49, -2.90183613739486160000e+000) (50, -5.54989277159987270000e+000) (51, -1.89449300835450310000e+000) (52, 3.21396901191228500000e+000) (53, -5.52371811297033940000e+000) (54, -1.18646902312662620000e+000) (55, 4.21176425733466860000e-001) (56, 1.16148427717984220000e+000) (57, 1.43080703512493860000e-001) (58, 7.70498059969764030000e-002) (59, -3.77823354816366170000e+000) (60, -3.33080809153066150000e-001) (61, 3.70130950588329500000e+000) (62, -8.60729941487121050000e+000) (63, 2.65710168167741790000e-001) (64, 1.52602516522269470000e-001) (65, -1.48866391798232600000e+000) (66, 7.15348805090246370000e-002) (67, 1.57099989277150120000e+000) (68, 2.99665612011105550000e+000) (69, -1.88625730505859760000e-001) (70, 1.35166905706408370000e+000) (71, 5.78523193945394890000e+000) (72, 6.85250533879657910000e+000) (73, -4.53427298795114360000e+000) (74, 2.52945918432612690000e+000) (75, 9.99684950077459500000e-001) (76, -6.82582044963371800000e+000) (77, 2.52559407581878090000e+000) (78, 7.32550804864471510000e+000) (79, -4.33410970211508580000e+000) (80, -1.68404192035361390000e-001) (81, 6.54500626347822250000e-001) (82, -5.80628080378222580000e+000) (83, 1.52558717359605880000e-001) (84, 3.42151935378495140000e-001) (85, 1.00071078630886100000e+001) (86, -4.14535349004304980000e+000) (87, -1.79437490374699490000e+000) (88, 8.50826203101718160000e-002) (89, 5.39690902016377260000e-001) (90, -1.41225609461599430000e+000) (91, -3.44336577811052200000e-001) (92, -1.73053068235652300000e+000) (93, -4.57230373761623290000e-001) (94, 2.55037941029953120000e+000) (95, 7.07084103019706810000e-001) (96, 9.33337630199517210000e-001) (97, 1.38463658909872360000e-001) (57, -6.47289551231556180000e-001) (58, -3.91656965414041600000e+000) (59, 1.07877917214416570000e+000) (60, -1.36696277722820110000e-001) (61, -2.75867548121374640000e+000) (62, 2.39838373394368590000e-001) (63, 9.11754832618742790000e-001) (64, -2.11629201920440460000e-001) (65, -2.90097259996555060000e-001) (66, 3.12140279462459760000e-001) (67, 2.55256154213016450000e-001) (68, 9.02654570166810370000e+000) (69, -3.51385161598023950000e+000) (70, 2.89443875040724000000e+000) (71, -2.14029256968114630000e+000) (72, -5.85736294535306960000e-001) (73, -4.78857484815755720000e+000) (74, -1.18128044186052120000e+000) (75, 2.97815041122980050000e-002) (76, -1.40901312182751170000e+000) (77, -3.57347575631166240000e+000) (78, 3.02456812405322850000e-001) (79, -4.70377658923004260000e-001) (80, -2.51167642451280590000e-001) (81, -1.32689749371548360000e+000) (82, 9.54051906336428670000e-001) (83, -3.39954877188123060000e-002) (84, -2.24633096526741790000e+000) (85, -3.01274642849241550000e-001) (86, 1.44267527291149530000e+000) (87, 5.89508229342888510000e+000) (88, -5.61995068340983740000e+000) (89, 4.99433056592805010000e-001) (90, -1.49117809223396460000e+000) (91, 1.63411197957557830000e+000) (92, -2.95026115472538160000e+000) (93, 1.19128977985536480000e+000) (94, -1.69252462927770540000e+001) (95, 2.57447263813713300000e+000) (96, -5.53202250838884630000e-001) (97, -3.02341695131306840000e+000) (57, -2.39318464743602630000e+000) (58, -4.49223445965107270000e-001) (59, 4.16588730024838140000e+000) (60, -1.32663634511566360000e-002) (61, 3.81287712095654950000e+000) (62, -2.93842320794895650000e+000) (63, 1.11078666376402620000e+000) (64, 2.11547563100789700000e-002) (65, 1.29820192798412700000e+000) (66, 1.32456907512554920000e+000) (67, 7.70553206599150050000e-001) (68, -1.51820323701706370000e+000) (69, -3.81838043620719030000e+000) (70, -1.03919932202098410000e-001) (71, -7.89967455164831560000e+000) (72, 8.48198765379882120000e-002) (73, 1.42584641610959740000e+000) (74, 1.52484090186555240000e+000) (75, 6.13001763305069280000e-001) (76, -1.74221275394310240000e+001) (77, -3.49034102348201760000e+000) (78, -3.81979449202397740000e-001) (79, -4.92198035980248750000e-001) (80, -5.63950226929834760000e-001) (81, -8.44796062626466780000e-001) (82, 5.76196905134095160000e-001) (83, 3.88377599722045270000e-001) (84, -1.83347038353851330000e+000) (85, -6.88899440173067920000e+000) (86, 6.74393329234903030000e-002) (87, -5.30896673784041710000e+000) (88, -3.39957941348736800000e+000) (89, 4.43279017514560720000e-001) (90, 3.15411600288075800000e+000) (91, 3.68993222169958280000e-001) (92, 1.45605888941038120000e+000) (93, 1.78658652811508610000e-001) (94, -2.96357711375731900000e+001) (95, -3.05052755169342630000e+000) (96, 1.99229110922446410000e-001) (97, -1.52581363549750670000e+000) (57, 7.99930657456142340000e-001) (58, 9.63865630714700190000e-002) (59, -4.31442858347053150000e-001) (60, -3.87741328342942640000e+000) (61, 3.90062803616454050000e+000) (62, 6.28793984392792550000e-001) (63, 4.10010454517132430000e-002) (64, -5.78677411637822380000e+000) (65, -1.76323196013822380000e+000) (66, 3.56054954022007760000e-001) (67, -5.46369280541840220000e+000) (68, 2.73796791740153230000e+000) (69, -1.65582755119579340000e-001) (70, 3.46062018268081320000e+000) (71, -1.42397901759581820000e+000) (72, 3.31058507596889660000e+000) (73, -4.39196579809100600000e-001) (74, 3.73130312868379520000e+000) (75, 1.48285803078677740000e+000) (76, 8.32343923614493160000e+000) (77, 3.74689489155332560000e+000) (78, 3.72007668928191170000e+000) (79, -2.26770780568814660000e+000) (80, 8.91596505878310410000e-002) (81, -3.57447274563194340000e+000) (82, -3.60492172908235140000e+000) (83, 6.55224816326912050000e+000) (84, 1.47519546221776500000e+000) (85, 3.66365286859968320000e+000) (86, -6.84708587013818090000e-001) (87, -4.26103921374546160000e+000) (88, 4.93114987535106570000e-001) (89, 5.33760776190766690000e+000) (90, 1.39923839193632870000e+000) (91, -3.76564050111078740000e-001) (92, 2.08622397504184280000e+000) (93, -3.91299461630189120000e+000) (94, -2.19095512972358190000e+000) (95, 8.76260467789435890000e+000) (96, -1.99566096651031240000e+000) (97, 9.47078978888011070000e-001) (57, 1.01242066704074670000e+001) (58, 4.76426614261308170000e-001) (59, -9.96349774253980860000e-001) (60, 9.25011821013566600000e-001) (61, 1.64098479359626130000e-001) (62, 2.21441050609131050000e-001) (63, -3.72783263605576730000e-001) (64, 3.32006034169448680000e-001) (65, -6.78657710427310960000e+000) (66, 2.64639089164821020000e+000) (67, -2.03617639388760410000e-002) (68, -8.71662989307032400000e-002) (69, -6.69711243039615490000e+000) (70, -1.78092738842262130000e+000) (71, 2.99771376321121160000e+000) (72, 1.75613907162539330000e-001) (73, 6.33781716788383240000e-001) (74, -4.98489042025938290000e+000) (75, 3.92951553028676150000e+000) (76, -4.59333421172027730000e+000) (77, -1.56275572591925660000e+000) (78, 9.96644745685102280000e-002) (79, 8.18576103164486420000e-002) (80, 9.68887490210438180000e-001) (81, -1.44246061446151150000e+000) (82, 5.74883199844318240000e-001) (83, 9.94399928058839140000e-001) (84, 3.62402961110557140000e-001) (85, -9.81293453665904590000e-001) (86, -1.14738010168662320000e+000) (87, -1.28537581522846580000e+000) (88, 2.01509365097700810000e+000) (89, 8.46741245472824140000e-001) (90, 1.04349193835838800000e+001) (91, -6.83988653353838050000e+000) (92, -1.62890923270058810000e+000) (93, 4.41543871594261540000e+000) (94, -1.26287653428830730000e+000) (95, 1.93208740474701400000e+000) (96, -1.85698806022680850000e+000) (97, 8.82829245685142090000e-001) (57, -3.50464177101014850000e+000) (58, -1.91351543664378070000e-001) (59, -1.61823870031384410000e+001) (60, 2.96389992427988430000e-002) (61, -3.49635473038025910000e+000) (62, 4.90968647807244450000e+000) (63, -8.09476732085671100000e+000) (64, 3.46113930758188580000e-001) (65, 1.48171289005138850000e+000) (66, 2.40816931069806370000e+000) (67, 1.99714215412056920000e+000) (68, -2.06062065064270870000e+000) (69, -4.82757641026755340000e-001) (70, -5.86496077866174650000e-002) (71, -6.60526121961535820000e-001) (72, -5.68192610635722680000e-001) (73, -3.83927652861837210000e+000) (74, -2.20252204606825240000e-001) (75, 1.82997910635740420000e+000) (76, -1.87694927576070960000e+000) (77, 8.08025103701858760000e-001) (78, -2.22289548188208040000e-001) (79, 2.46513921999982950000e-001) (80, -4.84357171439199700000e+000) (81, -4.45525353635587700000e+000) (82, 6.29519839287925320000e-001) (83, 1.30096492854085530000e-001) (84, 1.63278405986620200000e+000) (85, -1.54234523058960560000e+001) (86, -4.65454102288819560000e-001) (87, -4.90961143101795820000e+000) (88, 2.88162474628112560000e-001) (89, -5.10689746189482820000e-001) (90, -3.64699777992150680000e+000) (91, -1.63157377695701800000e+000) (92, 1.75857484120388750000e+000) (93, 1.99750704442187480000e+000) (94, 9.94726445681732190000e-001) (95, 5.23323070018307580000e+000) (96, 4.08374625543713870000e+000) (97, 4.47585303651187040000e-001) 
