FANN_FLO_2.1
num_layers=6
learning_rate=0.700000
connection_rate=1.000000
network_type=1
learning_momentum=0.000000
training_algorithm=2
train_error_function=1
train_stop_function=1
cascade_output_change_fraction=0.010000
quickprop_decay=-0.000100
quickprop_mu=1.750000
rprop_increase_factor=1.200000
rprop_decrease_factor=0.500000
rprop_delta_min=0.000000
rprop_delta_max=50.000000
rprop_delta_zero=0.100000
cascade_output_stagnation_epochs=12
cascade_candidate_change_fraction=0.010000
cascade_candidate_stagnation_epochs=12
cascade_max_out_epochs=150
cascade_min_out_epochs=50
cascade_max_cand_epochs=150
cascade_min_cand_epochs=50
cascade_num_candidate_groups=2
bit_fail_limit=1.00000001490116120000e-001
cascade_candidate_limit=1.00000000000000000000e+003
cascade_weight_multiplier=4.00000000000000020000e-001
cascade_activation_functions_count=10
cascade_activation_functions=3 5 7 8 10 11 14 15 16 17 
cascade_activation_steepnesses_count=4
cascade_activation_steepnesses=2.50000000000000000000e-001 5.00000000000000000000e-001 7.50000000000000000000e-001 1.00000000000000000000e+000 
layer_sizes=13 20 20 20 20 6 
scale_included=0
neurons (num_inputs, activation_function, activation_steepness)=(0, 0, 0.00000000000000000000e+000) (0, 0, 0.00000000000000000000e+000) (0, 0, 0.00000000000000000000e+000) (0, 0, 0.00000000000000000000e+000) (0, 0, 0.00000000000000000000e+000) (0, 0, 0.00000000000000000000e+000) (0, 0, 0.00000000000000000000e+000) (0, 0, 0.00000000000000000000e+000) (0, 0, 0.00000000000000000000e+000) (0, 0, 0.00000000000000000000e+000) (0, 0, 0.00000000000000000000e+000) (0, 0, 0.00000000000000000000e+000) (0, 0, 0.00000000000000000000e+000) (13, 5, 5.00000000000000000000e-001) (13, 5, 5.00000000000000000000e-001) (13, 5, 5.00000000000000000000e-001) (13, 5, 5.00000000000000000000e-001) (13, 5, 5.00000000000000000000e-001) (13, 5, 5.00000000000000000000e-001) (13, 5, 5.00000000000000000000e-001) (13, 5, 5.00000000000000000000e-001) (13, 5, 5.00000000000000000000e-001) (13, 5, 5.00000000000000000000e-001) (13, 5, 5.00000000000000000000e-001) (13, 5, 5.00000000000000000000e-001) (13, 5, 5.00000000000000000000e-001) (13, 5, 5.00000000000000000000e-001) (13, 5, 5.00000000000000000000e-001) (13, 5, 5.00000000000000000000e-001) (13, 5, 5.00000000000000000000e-001) (13, 5, 5.00000000000000000000e-001) (13, 5, 5.00000000000000000000e-001) (13, 5, 5.00000000000000000000e-001) (33, 5, 5.00000000000000000000e-001) (33, 5, 5.00000000000000000000e-001) (33, 5, 5.00000000000000000000e-001) (33, 5, 5.00000000000000000000e-001) (33, 5, 5.00000000000000000000e-001) (33, 5, 5.00000000000000000000e-001) (33, 5, 5.00000000000000000000e-001) (33, 5, 5.00000000000000000000e-001) (33, 5, 5.00000000000000000000e-001) (33, 5, 5.00000000000000000000e-001) (33, 5, 5.00000000000000000000e-001) (33, 5, 5.00000000000000000000e-001) (33, 5, 5.00000000000000000000e-001) (33, 5, 5.00000000000000000000e-001) (33, 5, 5.00000000000000000000e-001) (33, 5, 5.00000000000000000000e-001) (33, 5, 5.00000000000000000000e-001) (33, 5, 5.00000000000000000000e-001) (33, 5, 5.00000000000000000000e-001) (33, 5, 5.00000000000000000000e-001) (53, 5, 5.00000000000000000000e-001) (53, 5, 5.00000000000000000000e-001) (53, 5, 5.00000000000000000000e-001) (53, 5, 5.00000000000000000000e-001) (53, 5, 5.00000000000000000000e-001) (53, 5, 5.00000000000000000000e-001) (53, 5, 5.00000000000000000000e-001) (53, 5, 5.00000000000000000000e-001) (53, 5, 5.00000000000000000000e-001) (53, 5, 5.00000000000000000000e-001) (53, 5, 5.00000000000000000000e-001) (53, 5, 5.00000000000000000000e-001) (53, 5, 5.00000000000000000000e-001) (53, 5, 5.00000000000000000000e-001) (53, 5, 5.00000000000000000000e-001) (53, 5, 5.00000000000000000000e-001) (53, 5, 5.00000000000000000000e-001) (53, 5, 5.00000000000000000000e-001) (53, 5, 5.00000000000000000000e-001) (53, 5, 5.00000000000000000000e-001) (73, 5, 5.00000000000000000000e-001) (73, 5, 5.00000000000000000000e-001) (73, 5, 5.00000000000000000000e-001) (73, 5, 5.00000000000000000000e-001) (73, 5, 5.00000000000000000000e-001) (73, 5, 5.00000000000000000000e-001) (73, 5, 5.00000000000000000000e-001) (73, 5, 5.00000000000000000000e-001) (73, 5, 5.00000000000000000000e-001) (73, 5, 5.00000000000000000000e-001) (73, 5, 5.00000000000000000000e-001) (73, 5, 5.00000000000000000000e-001) (73, 5, 5.00000000000000000000e-001) (73, 5, 5.00000000000000000000e-001) (73, 5, 5.00000000000000000000e-001) (73, 5, 5.00000000000000000000e-001) (73, 5, 5.00000000000000000000e-001) (73, 5, 5.00000000000000000000e-001) (73, 5, 5.00000000000000000000e-001) (73, 5, 5.00000000000000000000e-001) (93, 5, 5.00000000000000000000e-001) (93, 5, 5.00000000000000000000e-001) (93, 5, 5.00000000000000000000e-001) (93, 5, 5.00000000000000000000e-001) (93, 5, 5.00000000000000000000e-001) (93, 5, 5.00000000000000000000e-001) 
connections (connected_to_neuron, weight)=(0, -2.10161066422312260000e-002) (1, 1.62634965818490020000e-001) (2, -1.40331574005428620000e-001) (3, -1.14267449670642310000e-001) (4, -9.44345871605101640000e-001) (5, 1.90378611104143170000e-001) (6, -1.07673362099430330000e+000) (7, -7.76592190913739380000e-002) (8, -7.92246269928287420000e-002) (9, -1.30096857518846060000e-001) (10, 3.11949940527982360000e-001) (11, 1.84790529195680060000e-001) (12, 6.74461598658424170000e-002) (0, -2.49587099860751620000e-001) (1, -1.88878888386176170000e-001) (2, 2.53264518463451990000e-001) (3, 1.17273904144918850000e+000) (4, 1.00614973446919880000e+000) (5, -1.70354500249222490000e-002) (6, -4.74939000501545860000e-001) (7, 4.63999316101923350000e-001) (8, -8.84761467424804160000e-002) (9, -1.76625116482721340000e+000) (10, 8.51086699743117790000e-001) (11, 1.73031799728275590000e-001) (12, 3.64756082923872740000e-002) (0, -4.19948390271962730000e-001) (1, -6.39281313130238390000e-001) (2, 1.29982939381733150000e+000) (3, 4.86964750338874320000e-001) (4, -1.12556837788279180000e-001) (5, 1.67690716981478300000e-001) (6, 6.24474099852505460000e-001) (7, 2.27984527673315180000e-002) (8, 4.99636349633588160000e-002) (9, 4.06488932835868620000e-001) (10, 1.14331217899061090000e+000) (11, 2.39070160074493070000e+000) (12, 8.64157497278608410000e-002) (0, 9.04155014263973850000e-002) (1, 6.59071539228425320000e-001) (2, -1.67507411326807550000e-001) (3, -8.85442926665034880000e-002) (4, 3.79729517496525230000e-001) (5, 1.86887835018761970000e-001) (6, -1.44722061859034970000e-001) (7, 3.59804223892638280000e-002) (8, -1.92208355788864360000e-001) (9, -3.18915930717967200000e-001) (10, 5.29582749630898570000e-001) (11, 1.11980540022747980000e+000) (12, 1.05979183412976370000e-001) (0, -9.14252181489595000000e-002) (1, -7.05966422669042860000e-001) (2, 1.60568715062187620000e-001) (3, 8.89212667408001090000e-001) (4, 7.86613569113269520000e-001) (5, -4.16136284945055720000e-001) (6, -1.50632961449922620000e+000) (7, 9.66067133563500380000e-001) (8, -1.37756375759306040000e+000) (9, 7.37831867195957170000e-002) (10, -8.87521338886054080000e-002) (11, -6.57792307504788450000e-001) (12, 4.99692545734578720000e-001) (0, -5.04595965387597660000e-001) (1, 2.45953442895272540000e-001) (2, 2.02530897127672420000e-001) (3, 1.59751481383337450000e-001) (4, -1.28850068178608890000e-001) (5, 4.31959413584551090000e-001) (6, -2.92695965873848150000e-003) (7, 4.01064576137514060000e-001) (8, -3.39533577575011740000e-001) (9, -7.87918440086369910000e-001) (10, -2.18394260688005940000e-001) (11, -1.15495951754119660000e-001) (12, 2.59349523539825870000e-002) (0, 5.00352243956072360000e-001) (1, 5.84030182705955080000e-001) (2, 4.99506954988016730000e-001) (3, -3.89058236406112530000e-001) (4, -2.62280070652624100000e-001) (5, -1.58320963382907990000e-002) (6, 1.14209035878038360000e-001) (7, 1.82725102043986400000e+000) (8, -1.70304366769556850000e+000) (9, -4.05167210431878690000e-002) (10, 2.65879208650143470000e-001) (11, -1.87158134030850000000e+000) (12, -4.48272335012335040000e-001) (0, -2.02150521032738140000e-002) (1, 7.37913518657303400000e-002) (2, -5.18700629402805770000e-002) (3, 2.02906925706554240000e+000) (4, 3.38501943841154170000e-001) (5, -3.14701132896815120000e-001) (6, 6.45560008080781070000e-001) (7, -9.26525380028403010000e-001) (8, 9.04732075824393740000e-001) (9, 2.95374449677431010000e+000) (10, 4.88934504748602890000e-001) (11, -1.88208242007814720000e-001) (12, -1.08588426709759950000e-001) (0, -2.39197477606330480000e-001) (1, 1.31582041454255700000e-001) (2, 1.09514282308066810000e-001) (3, -7.96637555122484800000e-001) (4, -3.71931349779356770000e-001) (5, 4.52521472282756740000e-003) (6, -2.70775101019946560000e-001) (7, -2.78454825856000900000e-001) (8, 3.86229781311996590000e-001) (9, 5.73366874176980400000e-001) (10, 1.57748539576272770000e-001) (11, -1.78622566928764190000e-001) (12, 6.37615324111599930000e-001) (0, 1.00003286986992370000e-001) (1, -4.19035558378036240000e-001) (2, 2.12571434971091930000e-002) (3, 2.82223392644899120000e-002) (4, 5.86532039726248180000e-003) (5, -5.26258348282964580000e-001) (6, 1.66381135440900330000e-001) (7, -1.87555778758293710000e-001) (8, -2.12239638365898320000e-001) (9, -2.35154663572828470000e-001) (10, -1.66850769565562770000e-001) (11, -4.18925120909803550000e-001) (12, 1.30325776599834600000e-001) (0, 5.35989284295379510000e-001) (1, 2.86019386318846210000e-002) (2, 6.13404845714599910000e-002) (3, -2.99891851162431780000e-001) (4, -7.24454310239712850000e-001) (5, 2.71276256820290880000e-002) (6, 8.06142611437348110000e-001) (7, 1.97741861585446240000e-001) (8, -2.21912379798323210000e-001) (9, 3.28048030512776480000e-001) (10, -4.18635998932881890000e-001) (11, 1.69244237635168300000e-001) (12, -5.13252043531967630000e-001) (0, -2.04159547654739730000e-001) (1, -1.57916938964616260000e-002) (2, -1.47756624378618670000e-001) (3, -5.31802838140572610000e-002) (4, 3.55841835431414180000e-001) (5, -5.11611087430873580000e-001) (6, -3.30250757768347110000e-001) (7, 4.11959007279058150000e-001) (8, -3.64844895977923020000e-001) (9, 6.39086242558323800000e-001) (10, 4.92503348796896170000e-001) (11, 6.87178033016492500000e-001) (12, 7.03367670259900100000e-001) (0, 6.65522396782012030000e-002) (1, -1.58762347087486240000e-001) (2, -5.74458197685337790000e-001) (3, -5.13299551178860170000e-001) (4, 6.82264306861380730000e-001) (5, 5.34161987018710200000e-001) (6, 8.71306872927336130000e-002) (7, -1.75248713558185080000e-001) (8, 9.61664069069044230000e-002) (9, 7.32307057579523330000e-002) (10, 2.69717141576549800000e-001) (11, -2.98488719098770390000e-001) (12, 2.60747092868234900000e-002) (0, -1.70039648168935080000e-001) (1, 8.70085349536966340000e-002) (2, -1.72005252946748840000e-004) (3, -1.10705065283458360000e+000) (4, -3.18289988650298560000e-001) (5, -3.29124240379743140000e-001) (6, -2.76234647195184980000e-001) (7, -1.07914020602452640000e-001) (8, -2.98856034957465790000e-002) (9, -2.15483390646020820000e-001) (10, -3.27937620895743870000e-002) (11, -2.78522452182394690000e-001) (12, -4.61611624933448870000e-001) (0, 7.96247229393212270000e-002) (1, -2.09372360286705110000e-001) (2, 1.90146010769668760000e-002) (3, 1.16791617226917460000e-001) (4, 8.45369620597955730000e-001) (5, -4.59959970006660500000e-001) (6, -2.66510430380697660000e-001) (7, -4.59770751804599240000e-002) (8, -1.54770344391607280000e-001) (9, -2.55117967510241740000e-001) (10, 2.42694858308517780000e-001) (11, 4.24204739077751080000e-001) (12, -3.05084777395448370000e-001) (0, 9.90984077120216490000e-002) (1, -4.79307611182202330000e-001) (2, -6.15333921580478730000e-001) (3, -9.86038579891857920000e-002) (4, 1.89329908178704040000e-001) (5, -9.98398262482889760000e-001) (6, 6.35464292088549600000e-001) (7, 4.77884652310113510000e-001) (8, -2.60544575167407480000e-001) (9, -1.14272257543717170000e+000) (10, 1.45059882110158770000e+000) (11, -7.23053734768175030000e-001) (12, -4.44673439847071860000e-001) (0, 8.76608016794528930000e-002) (1, 2.28573773734908530000e-001) (2, -2.89335162133299960000e-001) (3, -2.84411119384265720000e-001) (4, -3.27818073780783870000e-001) (5, 5.61467958681007850000e-001) (6, 1.55422837854591290000e-001) (7, -1.00127853796933630000e-001) (8, 1.39940817435396910000e-001) (9, -1.43120729098359630000e-003) (10, 6.89835480880690020000e-002) (11, -1.58848110612360290000e-001) (12, -4.30003608089346400000e-001) (0, 6.13536646604189160000e-002) (1, -3.95124598045486550000e-001) (2, -8.27561544763676830000e-001) (3, -6.75724314273690590000e-002) (4, -1.03870138852308430000e-001) (5, -3.47441700286451220000e-001) (6, -2.92916163979656030000e-001) (7, 6.11252699740831850000e-001) (8, -6.70571375624393730000e-001) (9, -1.75141265943367960000e-001) (10, -4.19335641059014500000e-001) (11, 5.59581948026368630000e-001) (12, 4.71843474183218980000e-001) (0, -2.61151178024275950000e-001) (1, 2.91525853756085080000e-001) (2, -5.16527712196822140000e-001) (3, 5.62415775602170260000e-001) (4, -8.27534135744083970000e-001) (5, 9.86913239227037300000e-002) (6, 6.33116989080481640000e-001) (7, -4.66199461950094210000e-001) (8, 7.26910239289609630000e-001) (9, -7.30602647749450610000e-001) (10, 5.05503718233908720000e-001) (11, -2.62170922930013650000e-001) (12, 4.83826155930149600000e-001) (0, 7.62810764550003520000e-001) (1, -1.22558298955874650000e-001) (2, 4.47048471785784940000e-001) (3, -6.55756746098475200000e-002) (4, 1.77319294126806610000e-001) (5, 1.22810043417280550000e-001) (6, 1.59888258236550870000e-001) (7, -7.70724283591612410000e-002) (8, -2.60763651615602280000e-001) (9, 4.02029249506122570000e-001) (10, 3.60822404779301610000e-001) (11, -3.42829535986995560000e-001) (12, 5.15703086744631940000e-001) (0, -6.58307752078673420000e-001) (1, 9.24863168124646970000e-001) (2, 1.25441325667449540000e+000) (3, -8.68023960408615290000e-001) (4, -2.06591605175278470000e-001) (5, 4.38090326843613880000e-001) (6, -1.37317092548163740000e-001) (7, 4.69220794575671170000e-001) (8, -7.07339092884132210000e-002) (9, -1.98544477715208910000e+000) (10, 4.31625079107189170000e-001) (11, -3.58528351707965420000e+000) (12, 8.84293969186391720000e-002) (13, 2.05547213857234650000e-001) (14, 4.99315982529395190000e-001) (15, 8.22506719762076120000e-002) (16, -5.65011441616481090000e-001) (17, 5.81425064168042070000e-001) (18, 1.80656383331042810000e+000) (19, -8.18661258111794910000e-001) (20, 7.02061613781400500000e-002) (21, -5.52564681814722180000e-001) (22, 2.20861704379303790000e+000) (23, 2.04025276339662220000e-001) (24, -1.87282561188508190000e+000) (25, -7.18439146117385240000e-001) (26, 4.93833506344585280000e-001) (27, 1.06879529091496410000e+000) (28, 1.26963465902716520000e+000) (29, 2.72913455556737850000e-001) (30, 3.42591201685713160000e-001) (31, -7.06313411420835150000e-001) (32, -5.72521380243460220000e-001) (0, -2.52053964319699560000e-001) (1, -2.95119772160646850000e-002) (2, 3.68123675674084830000e-001) (3, -1.45965819310421610000e+000) (4, 6.70830071082022190000e-001) (5, 1.49195181321539480000e+000) (6, -3.35672905060457380000e-001) (7, 3.44949256596201240000e-001) (8, -5.13889830887863660000e-001) (9, -5.86833023309588160000e-002) (10, 8.84733775594879480000e-002) (11, -4.30644894080376150000e-001) (12, 2.90688293686053100000e-002) (13, 1.42781220528651080000e-001) (14, 1.16612471084277320000e+000) (15, 1.30831231883275450000e-001) (16, 2.92168933865196320000e-001) (17, -8.23798270787806210000e-001) (18, 3.22233020086737490000e-001) (19, 2.08434681364454810000e-001) (20, 1.83331869651843780000e-001) (21, 6.07930741545798960000e-001) (22, 2.03828668408223020000e+000) (23, 2.28130630764076190000e-001) (24, 1.27000877108803280000e+000) (25, -5.54717246869564810000e-001) (26, 2.17288146447654710000e-001) (27, -3.75476101586866620000e-001) (28, 4.56864301465927100000e-002) (29, 7.30754927673165080000e-001) (30, 4.90018779793058800000e-001) (31, 3.40037449148573150000e-001) (32, 2.52035474694115970000e-001) (0, -3.55416856250065750000e-001) (1, 4.09316072027133440000e-001) (2, 2.61004400400142390000e-001) (3, 6.54244313955517630000e-001) (4, -2.13258096920699330000e-001) (5, 8.78394297847651330000e-001) (6, 3.53690413816664000000e-001) (7, -3.95623546959666560000e-001) (8, 4.10516351859813940000e-001) (9, 1.07848060241687180000e+000) (10, 1.38154035052460710000e-001) (11, 8.45064514773732790000e-001) (12, 4.92835169857724490000e-002) (13, 2.47784280140339240000e-001) (14, -9.58395377060637710000e-001) (15, -1.67210209405331770000e-001) (16, -8.59719129565702730000e-001) (17, -5.40946127140785160000e-001) (18, 2.23085676712350740000e-001) (19, -4.06479962954457210000e-001) (20, -8.58629357145598290000e-002) (21, -4.83216514260036810000e-001) (22, 7.51221516179305220000e-001) (23, 3.09615213361212450000e-001) (24, -1.61034033126489960000e+000) (25, -2.26010493601516820000e-001) (26, 5.74598645539702190000e-001) (27, 6.63804711739404470000e-001) (28, 3.35933723776988880000e-001) (29, -1.82937628882565760000e-001) (30, 4.49199145563086820000e-001) (31, 2.58956533622502690000e-002) (32, 1.06951524511900180000e-001) (0, 2.49442059108278740000e-001) (1, 2.27159307191222960000e-001) (2, -1.58192741867600790000e-001) (3, 1.60987640537044770000e+000) (4, -1.00467671740975790000e-001) (5, -2.46379291252264680000e-001) (6, 3.48237250066208150000e-001) (7, 7.48040740908518640000e-003) (8, 2.05443198390416800000e-001) (9, 7.18268181493441740000e-001) (10, 3.08869838452904140000e-002) (11, 1.44531292120136930000e-001) (12, 3.18054730577038080000e-002) (13, 5.01689974529733850000e-001) (14, -3.45901016024908250000e-001) (15, -9.61211308201170840000e-002) (16, -1.80234791371611550000e-001) (17, 3.80365791004712820000e-003) (18, -4.70883354952529640000e-001) (19, 4.58309153796190750000e-001) (20, 9.17834752523164490000e-002) (21, -1.70742302038171250000e+000) (22, 2.22559986344682270000e-001) (23, 8.63288129577523770000e-001) (24, -5.97643194637946100000e-002) (25, 8.19416423068052570000e-002) (26, 3.12073496708178970000e-001) (27, 6.85329488599390800000e-001) (28, 6.00338340512560520000e-001) (29, 1.96424042083885780000e-001) (30, 1.92668357584174580000e-001) (31, -2.88933432545062670000e+000) (32, -2.86586259989395620000e+000) (0, 1.91633376765774830000e-001) (1, 4.41489275617974520000e-001) (2, -5.92094980307159010000e-001) (3, -5.44910312955365520000e-001) (4, -1.02662035546170150000e+000) (5, -8.59090639542385510000e-001) (6, 1.58053408816076870000e-002) (7, 2.45673907523125290000e-001) (8, 4.77137656226511510000e-002) (9, 1.00845930206564430000e-001) (10, -1.14523308360031590000e-001) (11, -1.46758131260869030000e-001) (12, 5.88993635462965790000e-001) (13, 1.31881820801172580000e-001) (14, -7.03115572491248450000e-001) (15, -3.15436347408341980000e-001) (16, -2.40968708086037130000e-001) (17, 1.29731537929950850000e-001) (18, 5.91065034662640600000e-001) (19, 1.12496633404875880000e-001) (20, 7.49438340778059260000e-001) (21, 3.03961911662159360000e-001) (22, 4.65272052466556560000e-002) (23, 6.74684313205352460000e-002) (24, 8.97996643623461770000e-001) (25, 1.62900056445889200000e-001) (26, -1.00499360080815480000e+000) (27, -6.54746830902827590000e-002) (28, -8.70772926492225490000e-001) (29, 1.12759041774968600000e+000) (30, 2.52643083406953130000e-001) (31, -9.73896034016597110000e-002) (32, 1.45482517441177640000e+000) (0, 2.95276796991987610000e-001) (1, -2.13231419773107920000e-001) (2, -6.74690314679469160000e-001) (3, 1.20339525113875130000e-001) (4, -4.31731209271590870000e-001) (5, -7.54294229428805610000e-002) (6, 3.20020688846231470000e-002) (7, -3.28334783536568360000e-001) (8, 2.97605693708692780000e-001) (9, -6.24426188368866140000e-002) (10, 3.88910248467290330000e-001) (11, 1.96986237513454900000e-001) (12, -1.67728531330523840000e-001) (13, -5.09656066333575780000e-002) (14, 4.24802098039727850000e-001) (15, -6.18218587446906780000e-002) (16, 3.38555699251245680000e-001) (17, -1.69708323304669090000e-001) (18, -3.00090863134715100000e-002) (19, -3.03030176870475560000e-001) (20, 1.13376857164861860000e+000) (21, 7.64491174683606500000e-001) (22, -4.11982892573162120000e-001) (23, 2.28971510087269680000e-001) (24, -4.37204800508926310000e-003) (25, 3.40201483110567420000e-001) (26, 1.67218726849380080000e-001) (27, 4.22129863770628060000e-001) (28, 2.91578630313944820000e-001) (29, 6.07150759917715610000e-001) (30, -3.47476274219244360000e-002) (31, 2.21793671576241500000e-001) (32, -3.45222915371185380000e-001) (0, 8.73811681884041350000e-001) (1, 3.44457522947636930000e-001) (2, -9.38179809599864020000e-001) (3, 5.26750713422444510000e-001) (4, 8.61727384272961690000e-001) (5, 8.88384506218741100000e-001) (6, -1.85900626472913000000e-001) (7, 4.00777098877554530000e-001) (8, -9.73418515118482440000e-003) (9, 3.03166390707609150000e-001) (10, 1.70619598192898680000e-001) (11, 2.66856976643999040000e-001) (12, -6.45949568110612660000e-001) (13, 2.40549954271887360000e-001) (14, 2.49964047114419830000e-001) (15, 4.10607313222310870000e-001) (16, -9.86435490876601870000e-001) (17, 1.80567471324088620000e-001) (18, 8.77212834057477940000e-002) (19, 2.84093916148222440000e-001) (20, 3.40564501788652110000e-001) (21, 3.58455053759506370000e-001) (22, -4.78941225444209140000e-001) (23, -2.37269414931851570000e-002) (24, -8.78463482559875140000e-002) (25, 1.03315483650855700000e+000) (26, 3.81592481247268800000e-001) (27, 1.99388063143536790000e+000) (28, 1.45428109815525150000e-001) (29, -4.37226594729355540000e-003) (30, 3.21969931788542720000e-002) (31, -1.69085136050208230000e+000) (32, -1.11652937302031320000e+000) (0, -3.91417819525541110000e-001) (1, 3.60994652613755460000e-001) (2, -5.24014030013066010000e-001) (3, 3.39333762804436450000e-001) (4, 1.46530382745379880000e-002) (5, 6.01183317658413490000e-001) (6, 3.62929985590969400000e-001) (7, 4.63029505517380650000e-001) (8, -1.27584898264710140000e-001) (9, -7.87294187553475200000e-003) (10, -5.02666029454853060000e-001) (11, -1.14030889052422200000e-001) (12, 1.89520898915985920000e-001) (13, 1.59160479958533000000e-001) (14, -2.08289358371123970000e+000) (15, 2.10340185109222460000e+000) (16, -2.15645999772405140000e-001) (17, 6.90826277067436270000e-001) (18, 1.02402416161646480000e-001) (19, -1.65898659936311740000e+000) (20, 6.03613458225121360000e-001) (21, 4.84697853775055920000e-001) (22, -4.19576437201175490000e-001) (23, 3.62563768859054840000e-001) (24, 4.47758928270809340000e+000) (25, 5.40627642110891200000e-001) (26, 9.30790541952496030000e-002) (27, -2.37144691136786490000e-001) (28, -9.02538715287365840000e-001) (29, 3.25208315040715070000e-001) (30, 2.14560464037611630000e-002) (31, 2.39359190058371810000e-001) (32, 1.30457780542235970000e-001) (0, -5.32246062367690230000e-001) (1, 2.06129166199932740000e-001) (2, -4.72525408209108430000e-001) (3, 4.39815235815753380000e-001) (4, 1.45915879275115100000e-002) (5, 5.90814452769538260000e-001) (6, 2.17150014893564640000e-001) (7, 4.93377913319740240000e-002) (8, 6.26238374044827960000e-001) (9, 4.91591548237408860000e-001) (10, -2.21871810610315000000e-001) (11, 6.70294946614497840000e-001) (12, 3.56032834658167150000e-001) (13, -2.68511405873780970000e-001) (14, -5.11365027601488610000e-001) (15, 7.91003938535530300000e-001) (16, 5.11999447638261450000e-002) (17, 2.06965702118858190000e-002) (18, -1.69024614989692870000e-001) (19, -1.12707594077066080000e-002) (20, -5.04032663587307470000e-001) (21, -7.01715090995037150000e-001) (22, 1.39965699321097460000e+000) (23, 1.99545128557680500000e-001) (24, 4.94151117131940920000e-003) (25, 1.45860934256700130000e-001) (26, 1.02926660896068210000e+000) (27, 1.09864729591038700000e+000) (28, -1.19882497252589270000e-001) (29, -3.48229318244490100000e-001) (30, 1.24894684184704090000e+000) (31, -4.71002604153500310000e-001) (32, 6.00800050715947710000e-002) (0, 1.93514215532634650000e-001) (1, -1.09207693506661370000e-001) (2, 3.96098860363861600000e-001) (3, -7.70385038853235950000e-001) (4, -7.07561811963368310000e-001) (5, 1.38553751788392200000e+000) (6, 7.41964800415403470000e-001) (7, 5.91153356501095910000e-001) (8, -4.37119431314318570000e-001) (9, -2.09031736123028810000e-001) (10, -4.40117406886465220000e-001) (11, 5.00555436172206550000e-001) (12, 3.29633795347972320000e-001) (13, 6.22006027940463670000e-001) (14, 3.66073587077004210000e-001) (15, -4.75251699244656880000e-001) (16, 2.72126558919240090000e-001) (17, 9.32486982487021670000e-001) (18, 1.12781276389406090000e+000) (19, 5.95211703666544190000e-001) (20, 1.23586193845165780000e+000) (21, 7.93235174555454890000e-001) (22, 9.08501653719259310000e-002) (23, 1.23432319170462290000e+000) (24, 1.39280265594347250000e-001) (25, 9.18687475177292660000e-001) (26, -6.67014091722519380000e-002) (27, -6.88466682080612350000e-001) (28, 6.97738877765021260000e-003) (29, 2.39617691587731390000e-001) (30, 4.69855074414448240000e-001) (31, 6.75834885945009510000e-001) (32, -9.32807247403509570000e-002) (0, 8.36412338758317000000e-001) (1, 8.06222871280692250000e-001) (2, 1.09526836340813150000e+000) (3, 4.26043224968144400000e-001) (4, 9.04864856013369410000e-001) (5, 2.31568418846405420000e-001) (6, -1.93017251160301770000e-001) (7, 6.50605988583714550000e-001) (8, -4.33572940381006040000e-002) (9, 3.13162055467224370000e-001) (10, 6.05337274983489880000e-001) (11, -1.22330661501248070000e+000) (12, 1.11612160601815270000e-001) (13, 9.43892764441746520000e-001) (14, -4.36409908480134830000e-001) (15, -5.76963774600614680000e-002) (16, -1.25817617644255940000e+000) (17, 2.00790292614613260000e-001) (18, 7.06386684425734930000e-001) (19, -6.38656471332291200000e-001) (20, -6.32548054340878460000e-001) (21, 4.87006656253087190000e-002) (22, 1.49379836341825410000e+000) (23, 6.63407312906459380000e-002) (24, -5.76690906852771020000e-001) (25, 7.68552140309609060000e-001) (26, 8.70184170045593010000e-001) (27, 3.32919895786488060000e-001) (28, -1.96070559362653520000e-001) (29, -2.27541913847375230000e-002) (30, 9.84006464026493610000e-001) (31, 4.41274196990798850000e-003) (32, 7.61287485766311440000e-001) (0, -9.88212717053691820000e-002) (1, 4.53647659729879970000e-001) (2, -6.10291216663761200000e-002) (3, 2.71980285472518460000e-001) (4, 1.37901092216115490000e-001) (5, -8.96556601593464090000e-002) (6, 2.36465125950465840000e-001) (7, -1.93746291282171940000e-001) (8, 6.27074458550599840000e-001) (9, 3.88452636808548630000e-001) (10, 3.53679620982867820000e-001) (11, -1.94122281825678260000e-001) (12, -2.08913158076036270000e-002) (13, -6.09432769106238010000e-003) (14, 6.01697576094634810000e-001) (15, -5.96777135846639940000e-001) (16, 1.40571104979992150000e-001) (17, 2.71431193022620590000e-001) (18, -4.56126467904103550000e-001) (19, 3.40610131184458320000e-001) (20, 4.06962533290001820000e-001) (21, 6.34498069350623510000e-003) (22, -1.42440900649041220000e-001) (23, 2.90094853673623030000e-001) (24, 2.60613120372048420000e-001) (25, -3.82314167681279960000e-002) (26, 9.94711209177320120000e-002) (27, 3.65291339618774750000e-001) (28, -1.67824424604008570000e-001) (29, 5.41389351859665520000e-001) (30, -1.15264286048488470000e-001) (31, -5.34762562353099600000e-001) (32, -4.08221835744232080000e-002) (0, 5.94571986071545490000e-001) (1, -1.30478451697738860000e-001) (2, 2.66472825220254660000e-002) (3, 4.65073216381489300000e-001) (4, -1.38512234486894760000e+000) (5, -4.21677114114974220000e-001) (6, 3.09746592858366090000e-001) (7, 7.16008837534839900000e-001) (8, -5.78174156722692570000e-001) (9, 1.06179366682064740000e-002) (10, -4.68644909062092050000e-001) (11, 2.85190131473556260000e-001) (12, -2.85083986931180530000e-001) (13, 6.39312586395521460000e-001) (14, -7.40986240768182480000e-002) (15, -6.08641086152523790000e-003) (16, -1.25167494395203690000e-001) (17, -1.39287205780819970000e-003) (18, 4.45380824298589490000e-001) (19, -5.48072391051677920000e-002) (20, 1.23867257170045690000e-001) (21, 1.43631952492735800000e-001) (22, 1.58502111486536760000e-001) (23, -5.59169199964757000000e-001) (24, -1.45723767562769470000e-001) (25, 1.46235406161636770000e-001) (26, 1.06999247427627940000e+000) (27, 1.28082131948586360000e-001) (28, 3.22086704734381390000e-001) (29, 3.97468029141685090000e-002) (30, 5.34558002700059490000e-001) (31, -3.84607466276463810000e-001) (32, -8.63590564734821040000e-002) (0, -9.80745456613516840000e-003) (1, 6.03804827383242700000e-001) (2, -1.52172514238766740000e-001) (3, 1.72455099034100940000e+000) (4, 1.34066990967782740000e+000) (5, -1.52848143441227130000e-001) (6, 3.58465798568018800000e-001) (7, -1.19411770511031340000e-001) (8, 1.79763238276238330000e-001) (9, 5.84821261957650940000e+000) (10, 4.24888958172964850000e-001) (11, -1.11754925964688240000e-001) (12, -4.20265857500506820000e-001) (13, -1.64161862690393860000e+000) (14, 4.60267319431311990000e-001) (15, 5.18300446241056530000e-001) (16, -1.23931065585731950000e+000) (17, -4.57943794333284970000e-001) (18, 5.40832543169081800000e-001) (19, -4.26877775186619730000e-001) (20, -4.98977128603855620000e-001) (21, -8.31696620764419750000e-001) (22, 8.48290982249533950000e-002) (23, 8.74160367452650910000e-001) (24, 5.81658852404589480000e-001) (25, 9.13267695268485530000e-002) (26, 1.59308774520261350000e+000) (27, 1.18887959017922530000e+000) (28, 5.37200713481746690000e-001) (29, 8.37647975864372560000e-001) (30, 8.94703348989368820000e-002) (31, -8.12706049658337810000e-001) (32, 7.09190446636450420000e-002) (0, -4.88007417115082550000e-001) (1, -2.35916562597188380000e-001) (2, 7.89687877591865540000e-001) (3, 5.20386746552636390000e-001) (4, -4.51664496037041010000e-001) (5, 3.78817748744279430000e-001) (6, 3.26544369651858290000e-001) (7, 8.67319428262953050000e-001) (8, -2.95318358662718990000e-001) (9, 2.12296685516352970000e-001) (10, 2.26891119600387020000e-001) (11, 5.29910250136562680000e-001) (12, -7.26041738211997580000e-001) (13, 5.08998304580608130000e-001) (14, -2.42283752542555590000e+000) (15, 5.39261632466345840000e-001) (16, -6.24425039832803290000e-001) (17, 4.44699070365093210000e-001) (18, 7.67848985515854480000e-002) (19, 3.43853132023922310000e-001) (20, 1.26548730389332760000e+000) (21, -2.29258926416901320000e-001) (22, 4.03428133904701060000e-001) (23, 1.08072972670723840000e+000) (24, 1.49371050035644160000e-001) (25, 2.36839642032378560000e-001) (26, 6.80862006696205890000e-001) (27, 7.57614287878867090000e-001) (28, 1.09873708771994050000e-001) (29, 9.28297705039459050000e-002) (30, 4.53542609881097850000e-001) (31, 6.55023325299672470000e-002) (32, 1.83368320127056340000e-001) (0, -2.13381832346940780000e-001) (1, -5.86487119439679900000e-001) (2, -1.03733422187212500000e-001) (3, 4.11879478843890030000e-001) (4, -1.84764056928098690000e-001) (5, -2.80505154612546100000e-001) (6, -2.70657652286559690000e-001) (7, -6.66578017654703480000e-001) (8, 7.93176592264355910000e-002) (9, -1.97123820647783110000e-001) (10, 2.72440941875568830000e-001) (11, -1.82298638983764060000e-001) (12, -2.23442005507152990000e-001) (13, -1.16982044813877420000e-002) (14, 5.39956045592646760000e-001) (15, 3.92603758377568610000e-001) (16, 1.06998168929653750000e-001) (17, -3.02752981250355380000e-001) (18, 6.51665527821737810000e-001) (19, 1.59638039313688470000e-001) (20, 5.04728352175547120000e-001) (21, 2.55985532437254750000e-001) (22, 6.84383233829566670000e-001) (23, 1.49349159156952740000e-001) (24, -6.71627132491019680000e-001) (25, 3.31918523639401940000e-001) (26, -1.71795904773703300000e-001) (27, 5.85224459932591650000e-001) (28, -1.78142001477333780000e-001) (29, 5.33780816635575310000e-001) (30, -1.33058835485727330000e-001) (31, 2.76228701848554080000e-001) (32, -6.12021452373506800000e-001) (0, 7.18063196080064190000e-001) (1, 7.27623123571844890000e-001) (2, -3.48274722099383040000e-001) (3, 6.93895493720316470000e-003) (4, 1.74977623666153630000e-001) (5, -5.33944000312791680000e-002) (6, 3.65183366052782340000e-001) (7, 3.99198287969361910000e-001) (8, -4.44676342337460280000e-001) (9, 7.49446500788352510000e-001) (10, 2.65633878051531600000e-001) (11, -7.13356407821501560000e-001) (12, 4.70955686935965840000e-001) (13, 1.77379502370230980000e-001) (14, -1.19208537073960440000e-001) (15, -1.75387448944605450000e-001) (16, -4.64844627982576860000e-001) (17, 6.01062664161705730000e-001) (18, -1.47190024610545450000e-001) (19, 3.62309273422825040000e-001) (20, 5.43025366493524520000e-002) (21, 9.63503043253604140000e-001) (22, 4.57719711664674010000e-001) (23, -8.23093251550431750000e-002) (24, 3.67949481433672510000e-001) (25, 8.08664144079253130000e-001) (26, 4.77281504696486780000e-001) (27, -2.86249915149864810000e-001) (28, 2.74851659158077970000e-001) (29, -7.94895750758322310000e-001) (30, 9.55628219945167670000e-001) (31, -6.03187917621235280000e-002) (32, -3.66242744104945280000e-001) (0, -4.97572223433323470000e-001) (1, -2.68892379780879490000e-001) (2, 4.01044899063311260000e-001) (3, -1.27842917624252460000e-001) (4, 3.52291927892202260000e-001) (5, -7.76712621450246670000e-001) (6, -7.10326023414305620000e-001) (7, -1.24331048655616450000e-001) (8, 3.04039257132217740000e-001) (9, -6.21295621661472670000e-001) (10, -2.85124107849548890000e-001) (11, -3.36434785468458670000e-001) (12, 1.29654900751860040000e-001) (13, 4.55633508390969820000e-002) (14, 1.71640126315755730000e-001) (15, -2.05613549978462600000e-001) (16, 2.12800840456836750000e-001) (17, -9.38208478782935010000e-001) (18, -4.98436023622059350000e-001) (19, -6.79724697279806000000e-001) (20, 1.66089353830503990000e-001) (21, 1.04372322856131470000e+000) (22, -8.92953021866633860000e-002) (23, 3.06941010524042210000e-001) (24, 2.31790453082210440000e-001) (25, 2.65160356875309530000e-001) (26, -2.95870042675961060000e-001) (27, 1.92528452713753430000e-002) (28, 2.96358077269813670000e-001) (29, 7.69269319005306710000e-001) (30, 1.66973457068858110000e-001) (31, 7.78883912245960430000e-001) (32, 9.05564623690824130000e-001) (0, -1.27673508789236610000e-001) (1, 3.54491064140585010000e-001) (2, 4.97343249655127660000e-001) (3, -5.66693570115078370000e-001) (4, -3.02643433853121480000e-001) (5, 2.46904874774093750000e+000) (6, 4.59345002598893010000e-002) (7, 6.12461510226132820000e-001) (8, -2.83456877536824530000e-001) (9, -1.98259663573879140000e-001) (10, 5.17845514445720470000e-001) (11, 2.38905368148363270000e-001) (12, 8.75632287903984840000e-001) (13, 6.34623298076570920000e-001) (14, 1.26756991420816000000e+000) (15, -3.65185872201430120000e-001) (16, 4.17362449359741320000e-001) (17, 6.96870939422009170000e-001) (18, 9.47839118984450950000e-001) (19, 3.74558799992955770000e-001) (20, 8.47141922290688080000e-001) (21, 1.44730745817411630000e-001) (22, 2.81041105056438370000e-001) (23, 1.80064085765534070000e-001) (24, 8.35773110572707760000e-001) (25, -4.77155131635880360000e-001) (26, -3.80932001312163510000e-002) (27, 2.08444805477132650000e-001) (28, 2.79766284166713790000e-001) (29, 3.24101353735399670000e-001) (30, 2.03742963222364050000e+000) (31, 6.65889690705093070000e-001) (32, 1.43360181672261700000e+000) (0, -1.11617275017474930000e-001) (1, 8.33422080163770950000e-001) (2, 1.29218276748931320000e+000) (3, 7.68661970147934580000e-001) (4, 8.13209058606230270000e-001) (5, -1.79096640141325510000e+000) (6, 1.66013512097069440000e-001) (7, 4.72093201671065550000e-001) (8, -5.05507318752209330000e-001) (9, 2.85792768773511730000e-001) (10, -1.12931429120438030000e+000) (11, 7.79105677695950290000e-001) (12, 5.09494046409809220000e-001) (13, -5.76800952760987200000e-001) (14, -6.41844847389428150000e-001) (15, 1.79033469576957730000e-001) (16, 2.65402630477665660000e-001) (17, 3.48471834212480400000e-001) (18, -8.84650713503084770000e-001) (19, 5.42965304919663110000e-001) (20, -1.55755097528808070000e+000) (21, 5.69549987202158100000e-001) (22, 7.62137706554251610000e-001) (23, 4.99392099436628100000e-001) (24, -5.23279434235233270000e-001) (25, 6.22755057518054160000e-001) (26, -5.09687076785183270000e-002) (27, -2.65302780781865130000e+000) (28, 1.31690348620902340000e-001) (29, -2.34280544159935330000e+000) (30, 1.54719019183392350000e+000) (31, 1.07948991146052360000e+000) (32, -9.45556756082325390000e-002) (0, -1.19663390083749220000e+000) (1, 2.31818371439827280000e-001) (2, -9.12507225240890450000e-001) (3, 4.76138711000531900000e-001) (4, -6.34010765252372540000e-001) (5, -3.40500747928630830000e-001) (6, -5.37656195745192190000e-001) (7, 4.00756584106138070000e-001) (8, -5.88022978252954350000e-001) (9, 4.02899867824794260000e-001) (10, 4.25534928021478300000e-001) (11, -2.64440312766597560000e+000) (12, -2.51639502787244010000e-001) (13, -2.06906659665841670000e+000) (14, 3.37437633429504220000e-001) (15, -7.57389287257926200000e-001) (16, 2.91278563631669310000e-002) (17, 8.84530778908534820000e-001) (18, 2.52043680751699140000e-001) (19, 4.43681499894854170000e-001) (20, -3.09029962480318610000e-001) (21, 5.71452048300982170000e-001) (22, -1.86749622843899790000e-001) (23, -1.13409295051636550000e-001) (24, 3.98296258875591220000e-001) (25, 1.42974406626381190000e+000) (26, 9.09884216680429680000e-002) (27, -7.55681617265264500000e-001) (28, 9.87226909871253720000e-001) (29, 4.04868824142216140000e-001) (30, 1.17269264697512310000e+000) (31, -4.84289018356561070000e-001) (32, -6.76607368004449210000e-003) (33, 1.00456651131890370000e+000) (34, 2.54346323628406980000e-001) (35, 5.52634076513112360000e-001) (36, 9.39714984107679200000e-002) (37, 1.42954765741769610000e-002) (38, 1.46969823169602550000e-001) (39, -1.02960856895760370000e-001) (40, 1.87873355299846970000e-001) (41, 5.70650474017369120000e-001) (42, 1.01085926145224670000e-001) (43, -1.95632277638606190000e-001) (44, -1.73235097233747140000e-001) (45, 3.41529863346842930000e-001) (46, 1.11567229765887510000e+000) (47, 1.56859488493637340000e-001) (48, 1.01238086216684380000e-001) (49, -8.46300082564682810000e-001) (50, 6.26733806048932810000e-001) (51, 7.87750777635859880000e-001) (52, 7.35675039780648720000e-002) (0, 2.25024838745138790000e-001) (1, 3.66026495669309730000e-001) (2, 4.87751686093462810000e-001) (3, 1.64924992387174950000e-001) (4, -3.30106815020863590000e-001) (5, -5.26940993034692220000e-001) (6, 1.77558592717960100000e-001) (7, 2.74139145342317310000e-001) (8, -2.67214103599465010000e-001) (9, 3.64513635180117920000e-001) (10, 5.27884021877898290000e-001) (11, 3.19452087653635130000e+000) (12, -9.38109874498730260000e-002) (13, 7.82940133540142340000e-003) (14, -1.13495824418376510000e-001) (15, 4.16925037846480880000e-001) (16, -4.73897901600781270000e-001) (17, -4.88359180560221370000e-001) (18, -2.82589023933480820000e+000) (19, 1.02883627847049240000e-001) (20, -2.37460702562113240000e-001) (21, -1.52064044057860170000e-001) (22, 6.20862589189367870000e-001) (23, 7.83645807859669340000e-002) (24, 3.92712473984950070000e-001) (25, 3.31306767411870820000e-001) (26, 5.52464916758225620000e-001) (27, 7.33062710162505570000e-001) (28, -1.42303352216897630000e+000) (29, -3.13506764787094990000e-001) (30, 2.51804600473662880000e-001) (31, -1.79959045555816380000e-001) (32, -8.32612819059131870000e-001) (33, -2.34088781182606560000e-001) (34, 9.96416862205415920000e-002) (35, 6.27996987938879590000e-001) (36, 9.39529448579361630000e-002) (37, 7.12506466166456740000e-001) (38, 3.77898793784381180000e-001) (39, -1.58576652514507060000e-001) (40, 1.04977556657035280000e+000) (41, 2.50086355489484770000e-001) (42, 8.64535963518934940000e-002) (43, 1.94928149671862230000e+000) (44, 2.34389366462121270000e+000) (45, 3.08369369091604620000e-001) (46, -1.98979660087997810000e-001) (47, 5.23473399708972000000e-001) (48, 6.68248937343257740000e-001) (49, -2.33002218808058140000e+000) (50, -2.42906892157876420000e-001) (51, 4.68048343618530820000e-001) (52, 1.78028689000619740000e-001) (0, -1.01260417570243090000e+000) (1, -2.76195045291366350000e-001) (2, -1.21317292033113480000e-001) (3, 7.67163326199648000000e-001) (4, -8.64488592884319010000e-001) (5, -2.28025686343836260000e+000) (6, -4.84199293915388240000e-001) (7, -7.54027060709190230000e-001) (8, 1.06245925729557380000e+000) (9, -4.61808451746075040000e-001) (10, 4.80621959403477680000e-001) (11, 2.76008075191848610000e-001) (12, 7.09034827867129240000e-001) (13, 5.68349994635591990000e-001) (14, -1.07791375284352990000e-001) (15, 3.60996093186139120000e-001) (16, 1.76483305582228610000e-001) (17, -8.62457296989076140000e-001) (18, -5.85261722436492440000e-001) (19, -5.36072573224940620000e-001) (20, -1.68620982396285450000e-001) (21, 1.09218105587646800000e+000) (22, 5.69285447183448090000e-001) (23, -1.14407381186578450000e-001) (24, 5.40556796942234240000e-001) (25, -9.67527062204091710000e-002) (26, -1.31687323565108490000e-002) (27, 5.40167909517743290000e-001) (28, 4.24447465284057690000e-001) (29, 8.45769107641675230000e-001) (30, -1.15629680254204770000e-001) (31, 4.87473594201749240000e-001) (32, 2.77670138566131760000e+000) (33, -8.14813327289270250000e-001) (34, 1.93776196285517820000e-001) (35, -3.77336935426722970000e-001) (36, 2.34849818142613910000e-001) (37, 2.89793750244620450000e-001) (38, 9.32794357628733140000e-002) (39, 1.69826024644832040000e-001) (40, -3.93836316908496020000e-001) (41, 6.89530472685986360000e-003) (42, -6.34066479967545970000e-003) (43, 7.72049971285061810000e-001) (44, -5.59214693119583220000e-002) (45, -2.04179925828282060000e+000) (46, -8.00179337398777670000e-001) (47, 4.83179044288896760000e-003) (48, 3.90767464379280060000e-001) (49, 5.96484508291793780000e-001) (50, -1.41583644838156440000e-001) (51, -4.88537819939851680000e-001) (52, 7.95952878021793710000e-001) (0, 4.11080144728192710000e-001) (1, 7.65702116258153320000e-001) (2, -1.09254117077806360000e-001) (3, 7.56704525294595310000e-002) (4, 5.09008154969720290000e-001) (5, 1.50205750559112760000e-001) (6, 1.32437337395143300000e-001) (7, 5.38969932124543470000e-001) (8, 6.48096589653961340000e-003) (9, 5.47388714659393870000e-001) (10, 2.49727901927400350000e-001) (11, 1.83772605232286200000e-001) (12, -1.40968967115758840000e-002) (13, 6.78048797510842570000e-001) (14, 4.15248597973152670000e-001) (15, 3.54611934313161010000e-001) (16, 6.96178849119722280000e-001) (17, 1.74229422014577880000e-002) (18, 1.32805076510342920000e+000) (19, 5.79627295741852010000e-001) (20, -8.41972680680908300000e-002) (21, 6.42078166809898040000e-001) (22, 6.67437639234556680000e-001) (23, -1.14732267181678660000e-001) (24, 2.41085634663363750000e-001) (25, 5.83666894943121740000e-001) (26, 1.97779208766642340000e-001) (27, 1.01171006209992060000e-001) (28, 1.02505278784587460000e+000) (29, -4.48536741909195510000e-001) (30, 2.16142766779025940000e-001) (31, -1.24106818883554480000e-002) (32, 5.07938903699155400000e-001) (33, 9.06674923065924340000e-001) (34, 6.01322131812799030000e-001) (35, 1.33373907086183060000e+000) (36, -4.68544958895578400000e-002) (37, -4.83063458252283380000e-002) (38, 7.04887645057530040000e-002) (39, -9.88323786406594510000e-003) (40, 7.91331330721561590000e-001) (41, 6.49286756502534670000e-002) (42, -3.45196170922855090000e-001) (43, 8.65491796881171500000e-001) (44, -4.59457741612682380000e-001) (45, 1.01137784994456290000e+000) (46, 3.71305456295373810000e-001) (47, 3.73933401737374550000e-001) (48, -2.13483804428789750000e-001) (49, -3.83139974945581220000e-001) (50, 1.06182262749352560000e+000) (51, 6.60380596491711990000e-001) (52, 2.84110722248126060000e-001) (0, 3.62471076934083150000e-001) (1, 4.90105808307839620000e-001) (2, -2.63973766955094110000e-001) (3, 9.14181387481619150000e-001) (4, -1.51056309905873110000e+000) (5, 4.35119287455586260000e-001) (6, -2.31508849382601660000e-001) (7, 3.07240299992195930000e-001) (8, -2.65363556055243530000e-001) (9, -2.64186300715480680000e-002) (10, 1.68120261221495070000e-001) (11, -9.32990655613706310000e-002) (12, 7.74548267936628680000e-001) (13, -1.61944041301172960000e-001) (14, -1.39049488416608520000e-001) (15, 1.27207484388389250000e+000) (16, 1.82447782700330240000e-001) (17, -2.53211314632937000000e-001) (18, 8.08407486673574870000e-001) (19, 2.09974048776749660000e-001) (20, -2.64380296269836060000e-001) (21, 2.89847429895253640000e-001) (22, 4.66759171962631560000e-001) (23, 4.40463623037538890000e-001) (24, 2.28990700277427910000e-001) (25, -3.93992451540981170000e-001) (26, 6.01213418436038590000e-001) (27, 1.32118847379178730000e-001) (28, 6.24178493596406090000e-001) (29, -9.35167966799678870000e-002) (30, 1.43412161033697540000e+000) (31, 3.65863278751132840000e-001) (32, 1.70276985197544420000e-001) (33, 2.67836156578824090000e-001) (34, 3.90607987150780660000e-001) (35, -5.96497666852294330000e-001) (36, -4.20789580790109360000e-001) (37, -1.23496126831786550000e-001) (38, -3.27386670283531630000e-001) (39, 4.36871283523654510000e-001) (40, 2.07534998625376330000e-001) (41, 9.04679860164870680000e-001) (42, -3.82378337827350980000e-001) (43, 1.46076052960022420000e+000) (44, -5.06808782241343960000e-001) (45, 1.76252857289737160000e-002) (46, -5.39072456631603250000e-002) (47, -1.08522587547259340000e+000) (48, -3.99953980415027260000e-002) (49, 1.00158280427992440000e+000) (50, 3.06602751607319200000e-001) (51, -5.83244046781128510000e-001) (52, 5.36136967516140150000e-001) (0, 8.89149135058253990000e-001) (1, -2.86840493635141640000e-001) (2, 1.02113826476092990000e+000) (3, 2.54344736952786480000e-001) (4, 1.70386226199832720000e+000) (5, 1.11613495039820710000e-001) (6, 2.66089191069763250000e-001) (7, 2.33927974686163720000e-001) (8, 1.36699321689339740000e-001) (9, 2.44567389017060150000e-001) (10, 2.49254083728176510000e-001) (11, -4.22187562575187190000e-001) (12, 6.81129470257887390000e-002) (13, 8.28997096689117920000e-001) (14, 1.20754612365358710000e-001) (15, -2.92154471007861630000e-001) (16, -9.98119365217853270000e-001) (17, 4.93245394345724450000e-001) (18, -1.08085987597217560000e-001) (19, -1.17744460301830500000e-001) (20, -4.34219544373221800000e-001) (21, 2.92143662098714400000e-001) (22, 2.14944848913138640000e-001) (23, -2.87952321246690350000e-001) (24, -2.75202765346787630000e+000) (25, -4.69228239764716890000e-001) (26, 8.81819361377788270000e-001) (27, 5.95235259400543780000e-001) (28, 2.93937974421956790000e-001) (29, -1.35738941660613680000e-001) (30, 3.30223145436238260000e-001) (31, -2.78608127647156680000e-002) (32, 5.84426015387990720000e-002) (33, 5.25919112702437300000e-001) (34, 3.55980159152891330000e-001) (35, -1.32311850301775560000e-001) (36, -4.66010174541371500000e-001) (37, 5.36302697416588760000e-001) (38, 9.68196588177719030000e-001) (39, 4.11563602532493470000e-001) (40, 1.69675451427811370000e+000) (41, -1.53148577320046320000e+000) (42, -1.29719715859512460000e-002) (43, 1.72746654779925730000e-001) (44, 4.46566214916393530000e-001) (45, 2.27946736803115360000e-001) (46, -1.86255067887240940000e-001) (47, 6.40877771496463300000e-001) (48, 1.06766148170472630000e+000) (49, 9.81257487314830260000e-002) (50, -4.21804809968699120000e-002) (51, -1.29203228520129980000e+000) (52, -4.64770479052659170000e-001) (0, 1.90130459981927460000e-001) (1, -2.75046709826220480000e-001) (2, 1.23079271620437890000e-001) (3, -4.11898201876340190000e-001) (4, -9.58064563247254750000e-001) (5, -2.92283197204821320000e-001) (6, -1.64025413031829880000e-001) (7, 2.51398587228155450000e-001) (8, -9.51651960160042190000e-002) (9, 1.82799413543752560000e-001) (10, -7.10616690033236410000e-002) (11, 3.34154724979938310000e-001) (12, -2.00388983803990380000e-002) (13, -1.94763962389099490000e-001) (14, -9.37469726144504740000e-001) (15, -1.57505541617468210000e-002) (16, 2.24818100904343620000e-001) (17, -2.74447790855089080000e-001) (18, -2.92783344070666470000e-001) (19, -2.59679897842828970000e-001) (20, -7.29152877584426930000e-001) (21, 1.51004634020632490000e-001) (22, 1.16524705779477490000e+000) (23, 3.14968383477193190000e-001) (24, -7.27516805197468750000e-001) (25, -9.35450792800107680000e-003) (26, 2.59393451174472490000e-001) (27, 1.79403366517927490000e-001) (28, 3.28488157026734890000e-001) (29, -2.84548382356151260000e-001) (30, -1.50938702282837040000e-001) (31, 3.43588631763116330000e-001) (32, 1.92655373682320080000e-001) (33, -3.25321807814002720000e-001) (34, -1.72263843470423280000e-001) (35, -8.19174730306392980000e-001) (36, -3.06698639468842350000e-001) (37, -8.09719736964772290000e-001) (38, 2.19221103849395550000e-001) (39, 4.16530787699627090000e-001) (40, -6.77906024796443240000e-001) (41, 1.63305456534457690000e-001) (42, 4.98827458802419910000e-001) (43, -1.27360612888097080000e+000) (44, 2.20864926120775710000e-001) (45, -2.55430803078230070000e-001) (46, -1.99219776232580140000e-001) (47, -7.70939617835408990000e-001) (48, 5.93268427091756640000e-001) (49, -1.82198738619707310000e-001) (50, 2.48155481166842470000e-001) (51, -5.04735179336987860000e-001) (52, -8.26565741693349620000e-001) (0, -5.23854323384823520000e-001) (1, -1.24514949666827370000e-001) (2, 3.13390905982813490000e-001) (3, 1.75589921781641040000e-002) (4, 1.72586448089599800000e+000) (5, -2.16879006822239210000e-001) (6, 1.25451006500174100000e-001) (7, 9.50815460892832640000e-001) (8, -6.77496824106753490000e-001) (9, 3.34344918701372450000e-001) (10, 5.88524391203955500000e-001) (11, 3.27166923017146390000e-001) (12, -3.54837100852605110000e-001) (13, -5.64424777881169400000e-001) (14, 5.76094428637762630000e-002) (15, -1.72745821368882610000e-001) (16, 3.57691153256995910000e-001) (17, 4.99009971050714100000e-001) (18, -5.81406345531848780000e-001) (19, 2.84563041321123120000e-002) (20, 1.09109655842586990000e-001) (21, 5.20260632014948990000e-001) (22, 2.27292854575102870000e-001) (23, 7.87426516983844250000e-001) (24, 6.84132296431757660000e-001) (25, -9.99276567689568050000e-002) (26, -4.72509816850372880000e-002) (27, -1.02727175716769440000e-002) (28, -2.74197699025452930000e-001) (29, 2.29160833318967530000e-001) (30, -3.88884801182671180000e-003) (31, 5.16682632861867330000e-001) (32, -5.77661883598493130000e-002) (33, 1.86049664984858700000e-001) (34, 7.63716010990924450000e-001) (35, 6.87631926571139580000e-001) (36, 4.14044051929062180000e-001) (37, 1.08657610019989140000e-001) (38, -8.80897321031614420000e-002) (39, 4.45611746433536290000e-001) (40, -3.84841095980984930000e-001) (41, 5.38472598765018300000e-001) (42, 9.50277452684193390000e-002) (43, 2.38706982597794350000e-001) (44, 7.30383767263213800000e-002) (45, 4.17973009347324400000e-001) (46, 5.88293813300626240000e-001) (47, 2.23633285856867430000e-001) (48, 2.07315902439766040000e-002) (49, 6.61118949021580420000e-001) (50, 5.68404323572525240000e-001) (51, 2.23546839335814370000e-001) (52, 8.85651531714873990000e-001) (0, 4.62767486103862870000e-001) (1, 2.55268102121112010000e-001) (2, 5.70210254225891670000e-001) (3, 9.44789917164218120000e-001) (4, -1.18594652755560290000e+000) (5, -4.98909084018345440000e-001) (6, 4.22955408131336860000e-001) (7, 8.95047316991968930000e-001) (8, 2.31702971093267150000e-001) (9, 3.70890968834598820000e-001) (10, -3.85342937015703270000e-001) (11, -4.06022829074360820000e-001) (12, 4.71075457881710960000e-001) (13, 1.95891189932679580000e+000) (14, -2.01623029425041650000e-001) (15, 1.19170014279551230000e-001) (16, -3.03220072519499730000e-002) (17, 4.60114806581632010000e-001) (18, 9.26439877240004320000e-001) (19, -2.05843518722052890000e-001) (20, -8.79191663556463280000e-001) (21, 7.34328625208949540000e-002) (22, 1.58008596441315240000e+000) (23, -4.43227098342083510000e-001) (24, -3.14233711318484100000e-001) (25, -1.80508573312009370000e-001) (26, 1.16152174222947390000e-001) (27, -1.67698033768468490000e-002) (28, -2.03218344026767560000e-001) (29, -6.37947758271895650000e-002) (30, 5.19996276270287130000e-002) (31, 5.40749340000318050000e-001) (32, 1.06090967307460550000e+000) (33, 6.68452151028862550000e-002) (34, -6.05149234042806140000e-002) (35, -5.87291344836269550000e-001) (36, -2.36179954008939400000e-001) (37, 9.31524975192628340000e-001) (38, -1.72552631073158490000e-001) (39, -8.80341532302284070000e-001) (40, 1.02417207666071540000e-002) (41, -5.59296118005854210000e-001) (42, -3.90279190638454840000e-001) (43, 1.12731957072790730000e-001) (44, 7.01361718561765880000e-001) (45, 3.79198891095566200000e-001) (46, 1.37058747893017600000e+000) (47, -1.84512414135697410000e-002) (48, 5.35748292931412460000e-001) (49, -9.64872890191412610000e-005) (50, 4.50062185901760060000e-002) (51, -1.05553901364396630000e-001) (52, 1.80820316359393140000e-002) (0, 8.03761163574191330000e-002) (1, 6.64880823058827950000e-002) (2, 4.10824515330758090000e-001) (3, -4.59462715075963040000e-001) (4, -1.16880208801132060000e+000) (5, -1.90026863432445260000e-001) (6, -1.08042353520559840000e-001) (7, 2.50658099588402460000e-001) (8, 6.38990652561430700000e-002) (9, 1.20509784342770730000e+000) (10, 4.30795501747398500000e-001) (11, 5.54860972311569390000e-002) (12, 1.96752185089160200000e-001) (13, -5.90629700071419480000e-003) (14, -3.14323841878867580000e-001) (15, -2.41020315651015560000e-001) (16, 1.26340364128198850000e+000) (17, 2.70972264844311920000e-001) (18, 1.81610449964482790000e-002) (19, 4.69231070581192960000e-003) (20, 2.83267113540035030000e-001) (21, 3.87663040859525520000e-001) (22, -1.31015435343150080000e-001) (23, 1.76844395508099940000e-001) (24, 9.73063172619927030000e-001) (25, 4.88610023691148200000e-001) (26, -9.09044031954850670000e-002) (27, -4.95938076400183130000e-002) (28, 4.38723498933693000000e-001) (29, 3.71406569220695930000e-001) (30, 5.97574390784325950000e-001) (31, -1.12810546711571480000e-001) (32, 3.54144932355156750000e-002) (33, 3.81434942357194770000e-001) (34, 5.73435715023597470000e-001) (35, 8.42117645173404590000e-001) (36, -4.21134895207812170000e-001) (37, 1.38005991394422380000e-001) (38, 2.81740081302118690000e-001) (39, 1.56451740353929500000e-001) (40, 5.75595350314874520000e-001) (41, 6.40166800543741980000e-001) (42, -8.15589596364529210000e-001) (43, 1.04570174194889300000e+000) (44, 9.33366637009614970000e-002) (45, 5.22292948147685010000e-001) (46, 1.99875261219538940000e-001) (47, 4.22552273440782110000e-001) (48, 2.26529569699239000000e-002) (49, 4.14809510881795130000e-001) (50, -7.20472865581494590000e-002) (51, 5.96835987379148560000e-001) (52, 6.38982706918946760000e-001) (0, 4.73889558769857500000e-001) (1, 1.02050166344611130000e+000) (2, -1.00659150141643520000e-001) (3, 1.78609831635833750000e+000) (4, 6.78301284208009500000e-001) (5, 7.37038646067944560000e-001) (6, -6.70115597432946740000e-002) (7, -1.16525514120069820000e+000) (8, 1.41267716369236740000e+000) (9, 5.50790620858996330000e-001) (10, 2.51141245584375170000e-001) (11, -9.66913771345100040000e-001) (12, 7.10164416982113630000e-002) (13, 6.96185184650938040000e-001) (14, 1.71571087166783460000e-001) (15, 6.92027508622776950000e-001) (16, -3.12447025476143390000e-001) (17, 1.64722250500143250000e-001) (18, 1.12895145344491830000e-002) (19, -2.76173797339322400000e-001) (20, 3.07095036077377430000e-001) (21, 4.16656842308290860000e-001) (22, 3.53604978410797910000e-001) (23, -7.11537282313723040000e-001) (24, 4.89820874376092840000e-001) (25, 5.73499361276546880000e-001) (26, -7.38843151509306490000e-002) (27, 8.06044150123166100000e-001) (28, 6.65140378776984060000e-001) (29, 5.51371765878481250000e-001) (30, -2.14111727313941290000e-001) (31, -2.56630934618158340000e-001) (32, 4.09750330075797230000e-002) (33, 3.42003935650630030000e-001) (34, 1.01547249177601300000e+000) (35, -1.06691389897919140000e-001) (36, -3.25697050381582700000e-001) (37, 1.80202128338966150000e-001) (38, -1.40542836068435010000e-001) (39, -5.38384154675182080000e-001) (40, 1.09110190475655160000e+000) (41, 1.99905974911015440000e-001) (42, 1.38585564737239100000e-001) (43, 3.72390510076535060000e-001) (44, -9.92530020075679480000e-001) (45, 3.55299773041738930000e-001) (46, -1.22591188216043470000e+000) (47, -3.20481711509864820000e-001) (48, 5.03082590787709890000e-001) (49, 2.84968967080386600000e-001) (50, 3.41697442857385510000e-001) (51, -5.61952762526009010000e-002) (52, -3.98907552242898700000e-001) (0, 5.70588917940948350000e-001) (1, 3.02400516881312700000e-001) (2, -3.04960856898041440000e-002) (3, -4.46207137476941520000e-001) (4, -1.11029244556724200000e+000) (5, -9.43639784353427440000e-001) (6, 7.61075462368947520000e-001) (7, 3.08995893443142660000e-001) (8, -2.76347475292569030000e-001) (9, 2.29200458785640330000e-001) (10, -3.86162055721096300000e-001) (11, -1.71001859591264460000e-001) (12, 4.51667288543771140000e-001) (13, 1.26527258658904460000e-001) (14, -6.98512100353236630000e-001) (15, -6.76303568385518530000e-001) (16, -3.49229509076539160000e-001) (17, -3.69145700692372460000e-001) (18, 4.23228423080939940000e-001) (19, -6.53154290430710160000e-001) (20, -1.97815396695738420000e-001) (21, 2.84257990831307930000e-001) (22, 6.60482695081050510000e-001) (23, 2.32864752669982510000e-002) (24, -7.32746122301167760000e-001) (25, -2.64965188574699750000e-001) (26, -1.45949413807573010000e-001) (27, -2.06368890000948880000e-001) (28, -2.63670038029008960000e-001) (29, -1.33782227014638850000e-001) (30, 3.64361918085218780000e-001) (31, 1.51444179680763710000e-001) (32, 3.08934826303133630000e-001) (33, 9.41366823558236620000e-002) (34, 1.27878850207176380000e+000) (35, 4.62948625642285230000e-001) (36, -3.45762436076762210000e-001) (37, -3.85560920344035660000e-001) (38, -4.71892489429901960000e-002) (39, 7.14195721553449600000e-002) (40, 3.16026716368285220000e-001) (41, 6.05811823001503600000e-001) (42, -1.98093336124295690000e-001) (43, -1.55724687157051430000e-001) (44, 1.83256655289850660000e-001) (45, -7.57022906848500710000e-002) (46, -7.65752468359865990000e-001) (47, 3.54062075449742440000e-001) (48, -2.40064058531886170000e-001) (49, -4.27826666531521400000e-001) (50, 5.74754727818256760000e-001) (51, 1.06515317794877480000e-001) (52, 1.61370684588620530000e-001) (0, 1.82444736324711000000e-001) (1, 1.16531152211979140000e+000) (2, 6.72363171934226710000e-003) (3, -4.16163268897286830000e-001) (4, -4.43048263371434230000e-002) (5, 3.51528877423464340000e-001) (6, 5.34370669684389730000e-001) (7, 9.65017340108122350000e-001) (8, -4.65145346008921050000e-001) (9, 4.41920052260179550000e-001) (10, 2.02146168035841480000e-001) (11, -3.86913308409614350000e-001) (12, -5.42529059652788860000e-001) (13, -5.80196164389398250000e-001) (14, -7.00404711111175860000e-001) (15, -5.52913281547876560000e-001) (16, 4.68866347270084800000e-001) (17, 1.71000168048916770000e-001) (18, 1.31392527020814530000e-001) (19, 2.65446824153209030000e-002) (20, -4.91105266674353950000e-001) (21, 2.59780247202429090000e-002) (22, 4.96913328643358470000e-001) (23, -8.44625401168601410000e-001) (24, -3.26683553272001050000e-001) (25, 5.28782858246300700000e-002) (26, 8.31348235800337340000e-001) (27, 3.55128946256712820000e-001) (28, 2.13379357183026180000e-002) (29, -2.27442314370284780000e-001) (30, 5.26855405052160220000e-001) (31, -3.12556650990657990000e-001) (32, 5.49292683097187820000e-002) (33, 4.40202471775014040000e-001) (34, 2.19501769672219880000e-001) (35, 5.02513779476348900000e-001) (36, 1.02703014396744010000e+000) (37, -1.32695846797699900000e+000) (38, -4.35743518074094060000e-001) (39, 3.24349878860190950000e-001) (40, -3.89224752590717540000e-001) (41, 1.20192917022686060000e+000) (42, -1.20848224480399050000e+000) (43, 3.00911338211639400000e-001) (44, -4.65672775201890650000e-001) (45, 7.94653412948451600000e-001) (46, -1.30037314107802500000e-001) (47, 1.06784181667783160000e+000) (48, -9.88752044759470820000e-002) (49, -2.35562778726130910000e-001) (50, 5.65491007612861020000e-002) (51, 6.59111208002974290000e-001) (52, 2.65260179428940700000e-001) (0, -5.46875842205701510000e-001) (1, -6.18509354770417460000e-001) (2, -4.72690645249905730000e-001) (3, 1.59579786720452090000e-001) (4, 6.60699821892958950000e-001) (5, 1.17882096951615910000e+000) (6, 8.16800807918397380000e-001) (7, -1.05621370116087870000e-001) (8, -4.26687716329867740000e-001) (9, -7.01024944374999400000e-001) (10, -8.26126170053467780000e-001) (11, 4.21580973406801780000e-001) (12, 2.10992515537194670000e-001) (13, 3.23980151071446230000e-001) (14, 1.23482887750137830000e+000) (15, 4.79159769662844020000e-001) (16, 1.91320660874777240000e+000) (17, -7.19165664358665660000e-002) (18, -4.15494837502821070000e-001) (19, 2.46120966518436690000e-002) (20, -2.01732193262898460000e-001) (21, 4.39533947463058850000e-001) (22, 1.80030648330345240000e-001) (23, 2.13866133963934690000e-002) (24, -2.45724528575912450000e-001) (25, 8.50271308163341510000e-001) (26, -4.77937125372844500000e-001) (27, 3.09474337567098410000e-002) (28, 2.35544599351710430000e-001) (29, 8.85639932656589470000e-001) (30, -2.94678460104034870000e-001) (31, 4.60165434081129480000e-001) (32, -1.78372446356692870000e-002) (33, 8.60985074428897570000e-002) (34, -4.99123952072157210000e-001) (35, -4.56248792262671230000e-002) (36, 4.32565500637058510000e-001) (37, 1.09113464512918760000e-001) (38, -3.16216574716184080000e-001) (39, 3.03243147794930390000e-001) (40, -8.14221045057475610000e-001) (41, 5.14567695729340020000e-001) (42, 3.34072194764422130000e-001) (43, 1.06141754733923090000e+000) (44, 3.83629472690534060000e-002) (45, 6.98037059070151120000e-001) (46, 3.50709951736988320000e-001) (47, 1.68122269167693320000e-001) (48, 1.25571312894984160000e-001) (49, -1.05943138053298210000e-001) (50, 3.63778408698205100000e-001) (51, 1.33924161785301090000e-001) (52, 5.34569471767742830000e-001) (0, -6.58096316509850230000e-001) (1, -1.60365692838568970000e-001) (2, 3.31782977630402540000e-001) (3, 9.74210202227343340000e-001) (4, 2.22906549236989230000e-002) (5, 1.37325878292412230000e+000) (6, -3.13340204249074200000e-004) (7, 1.40377693483664290000e+000) (8, -1.47800055296030710000e+000) (9, 3.28813126553040180000e-001) (10, 1.87709932743845430000e-001) (11, 3.51860236947546980000e-001) (12, 7.17048082505422960000e-001) (13, 1.22355582268223670000e+000) (14, -3.49275446441329410000e-001) (15, 1.01369153814782020000e+000) (16, -3.16252948927090660000e-001) (17, 6.18224632331476060000e-001) (18, 6.00240349087120980000e-001) (19, -5.61055011698905070000e-002) (20, 8.59320177105688530000e-001) (21, 6.67896336849504110000e-001) (22, -9.80691002143123440000e-001) (23, 5.01219286058148530000e-002) (24, 6.09393709537220940000e-001) (25, 2.62581290203928900000e-001) (26, 9.95010745281469710000e-001) (27, -2.93718383194666980000e-001) (28, 6.81849994240307680000e-001) (29, 6.89441718324404660000e-003) (30, 4.51557913285964780000e-001) (31, 1.23841065525070460000e+000) (32, 9.92424535428298450000e-001) (33, -4.98303587475683600000e-001) (34, -7.61650587708254670000e-001) (35, -2.04577027958250090000e-001) (36, 9.47414958053921650000e-002) (37, 5.37347692822897740000e-001) (38, -4.94308862967780820000e-003) (39, 1.99294820703736360000e-001) (40, -2.79987596060271680000e-001) (41, 2.69798979560918920000e-001) (42, 6.30712315720854290000e-001) (43, 4.90277312855523170000e-001) (44, 2.69857940790465770000e-001) (45, 3.51671350440409700000e-001) (46, 4.29108365846904980000e-001) (47, -1.34364316620570940000e-001) (48, 8.03359600168011890000e-001) (49, 1.58897376126082460000e-001) (50, -1.62806003930562130000e-001) (51, -1.95451826832144630000e-001) (52, -2.40984997136805600000e-001) (0, 6.92923361263864780000e-001) (1, 2.47306635617495500000e-001) (2, 1.98374385660735310000e-001) (3, -6.23290192356196650000e-001) (4, 1.07955351825692670000e+000) (5, -1.77983926411326290000e-001) (6, -9.87186864217005080000e-002) (7, -2.41774858043500490000e-001) (8, -1.92955577571548580000e-002) (9, -2.38152925014763960000e-001) (10, 1.59612951568595650000e-001) (11, 5.05818583387575150000e-002) (12, 1.03021043942296460000e-001) (13, 1.70951247674327510000e-001) (14, 1.11524314572017640000e+000) (15, -1.34057754104049410000e-001) (16, 9.98421034244314050000e-001) (17, -7.08492018114756930000e-001) (18, 6.45602599510865180000e-001) (19, 2.38708881627042960000e-001) (20, 1.09591920215607890000e+000) (21, 2.35896111128869180000e-001) (22, -2.55334023197510810000e-001) (23, 6.72740579526598380000e-001) (24, 3.04910452164385730000e-001) (25, 5.52093546316892890000e-001) (26, 1.28835828444649050000e-001) (27, 1.49031682426649080000e+000) (28, 5.95257512007768440000e-001) (29, 1.04095478782060540000e+000) (30, 4.69647140843402370000e-001) (31, 1.38595616717438610000e-001) (32, 8.68954991316791960000e-002) (33, 4.87457422566119400000e-001) (34, 4.52561878839138120000e-001) (35, 1.08690902467020980000e+000) (36, 4.84180757321417630000e-001) (37, -7.66842669028853790000e-001) (38, -3.87762789382768570000e-003) (39, -2.19662686082402570000e-002) (40, 3.54585448236611810000e-001) (41, 1.27402089774215770000e+000) (42, -3.49358922101637710000e-001) (43, 1.31126455077968360000e+000) (44, -8.19275609599497080000e-001) (45, 6.14109115179630520000e-001) (46, 2.74738032052424920000e-001) (47, 4.44995896830093500000e-001) (48, 3.94395119245858410000e-001) (49, -4.23248502261058980000e-001) (50, 3.37407710733649340000e-001) (51, 4.05009630155673710000e-001) (52, 3.56887062411067600000e-001) (0, 5.40637683180037350000e-001) (1, -1.72388228497681570000e-001) (2, 3.37499575763575980000e-002) (3, -3.16059790470926190000e-001) (4, 9.09480719205641890000e-001) (5, -9.09073255557923680000e-002) (6, 2.16905033245171130000e-001) (7, 7.06511265862309720000e-001) (8, -6.87320191599991360000e-001) (9, 1.58489420480817110000e+000) (10, -5.98576107979886920000e-001) (11, 7.61875288716069160000e-002) (12, -5.33641006119242310000e-002) (13, 1.48288759117957970000e-001) (14, -2.36492420950236400000e-001) (15, -2.94174381932421130000e-001) (16, 1.65254383355650290000e-001) (17, 4.20012296610023480000e-001) (18, 6.66231076605683150000e-001) (19, 5.63324103330120840000e-001) (20, 2.03212902701825290000e-001) (21, 1.28270652776285180000e+000) (22, 2.60586835387731860000e-001) (23, -6.42006844327507460000e-002) (24, 1.42105579981184450000e+000) (25, -9.68273994905561540000e-001) (26, 1.44272561777971430000e-001) (27, -1.25943597791238400000e-001) (28, 6.53112928952406190000e-003) (29, 2.39606968428990790000e-001) (30, -2.36345528928255280000e-001) (31, -9.26939962807405980000e-001) (32, -7.39156632915778040000e-001) (33, 3.16718697662258240000e-001) (34, 8.54228540416827500000e-001) (35, 9.86984903017634420000e-001) (36, 2.21523064980081040000e-001) (37, 1.19809672503427940000e-001) (38, 1.82719219192929240000e-001) (39, 1.24543524243956870000e-001) (40, 6.23209312000556630000e-001) (41, -9.86053807829644360000e-002) (42, 1.18841771650317470000e-001) (43, 4.51176769284730160000e-001) (44, -3.98216189551486970000e-001) (45, 4.51437801617844360000e-001) (46, 4.11344182054268980000e-001) (47, 2.81984202559615200000e-001) (48, -2.68255227519880180000e-001) (49, 5.98769495002129530000e-002) (50, 1.38494527204280440000e+000) (51, 5.37711157022040640000e-001) (52, 1.64539194255316050000e-001) (0, -3.10716185535472590000e-001) (1, 2.00910720857367830000e-001) (2, -6.71905220364356180000e-001) (3, -4.87178230373163820000e-001) (4, 1.50763480933768820000e-001) (5, 5.09814920300262760000e-001) (6, -7.92682127807536190000e-002) (7, -7.42671341634020540000e-002) (8, 3.43344076517018150000e-001) (9, 5.80424020003985630000e-001) (10, 1.39125037567022910000e-001) (11, 6.90472737549473360000e-001) (12, 1.63888897811020620000e-001) (13, -8.76562131409367450000e-002) (14, -1.32816082879634030000e-001) (15, 2.90633714739888080000e-001) (16, 1.18509759585270870000e-001) (17, 2.94975375621897570000e-001) (18, 5.43225608722034400000e-001) (19, -2.39838526382496950000e-001) (20, -3.66890666521944080000e-001) (21, 8.30069236259882300000e-002) (22, 1.92049386737458500000e-001) (23, 1.15581023088562220000e-001) (24, -7.03461904724587470000e-001) (25, 3.49532322482494720000e-001) (26, 1.04166599327271130000e+000) (27, 3.06017866752419990000e-001) (28, -5.20049782283818690000e-002) (29, -3.83173372664581010000e-001) (30, 1.17504363944231030000e+000) (31, -5.31258475281197180000e-001) (32, 1.52313393326629550000e-001) (33, 1.24051810485949820000e+000) (34, -1.53451819699548800000e-001) (35, 4.71897905014442840000e-001) (36, -4.69160399832147660000e-002) (37, 6.55720077851249320000e-003) (38, 7.65561760869223450000e-001) (39, 1.57655843355040930000e-001) (40, -9.83112260689792270000e-002) (41, 7.74834830658031940000e-001) (42, -2.59099448712248440000e-001) (43, -1.94231651604880560000e-002) (44, 6.89034136926271130000e-001) (45, -1.75675155064981300000e-001) (46, 3.07728141077285910000e-001) (47, 4.60610005412909810000e-001) (48, 1.13336454671595050000e+000) (49, -2.43747448721531480000e-001) (50, -2.20480620651662030000e-002) (51, 6.86764522906446050000e-002) (52, 2.16342318459782800000e-001) (0, 2.15452168890636010000e-001) (1, -5.92600327752737300000e-001) (2, -5.67473958448546310000e-001) (3, -1.56907569435712620000e+000) (4, 5.10902517954092810000e-001) (5, 7.33848097471344380000e-001) (6, 1.15601945107734310000e-001) (7, 4.39105358208570770000e-001) (8, -6.09359642337772840000e-001) (9, -1.83395404532065990000e-002) (10, 3.50019734551495270000e-001) (11, 1.11693310440160120000e-001) (12, 3.94741245558862530000e-001) (13, -1.19667687791240440000e-001) (14, 7.35116296971284220000e-001) (15, 1.08258384562137340000e+000) (16, 4.24996127758075880000e-001) (17, -1.25498511086775340000e-001) (18, 2.39877772010659830000e+000) (19, 4.51537621506317090000e-002) (20, -1.40122424292460470000e-001) (21, 3.90600565241897400000e-001) (22, 1.10046250955609800000e+000) (23, 3.19378551897954280000e-001) (24, -1.02784469260297230000e+000) (25, 2.13937359987508930000e-001) (26, -2.78086387329898700000e-002) (27, 7.87461748125570020000e-001) (28, 4.93477589898756520000e-002) (29, 2.41152115845843260000e-001) (30, -1.83182421928820110000e-002) (31, 3.77931904303123230000e-001) (32, 2.62573994251198820000e-001) (33, -1.06318724205922300000e-001) (34, 1.28420637180355150000e-001) (35, -9.35026190299760450000e-002) (36, 3.37413240946976670000e-001) (37, -1.74750890061216300000e-001) (38, 2.03060363358443380000e-001) (39, 3.60967942707701490000e-001) (40, -4.55800528475583060000e-001) (41, 3.49320115156656340000e-001) (42, 3.38025025358163640000e-001) (43, 2.09311230466573270000e-001) (44, 3.04926097181222040000e-001) (45, 4.20439664936936300000e-001) (46, -6.36606650890983560000e-001) (47, -5.93952060746854720000e-002) (48, 2.22002869059173300000e-001) (49, 3.60858212437027090000e-001) (50, 7.76407178656020600000e-001) (51, 9.86231130208135130000e-001) (52, 6.99613307222405670000e-001) (0, 9.35791712175064630000e-003) (1, 3.05287138186855770000e-001) (2, 3.52812260415697080000e-001) (3, 2.86464872552906720000e-002) (4, 8.11488143637250970000e-001) (5, 1.33332065281152020000e+000) (6, 4.01931932983994770000e-001) (7, -7.06446909950194660000e-002) (8, 2.87113383703846920000e-001) (9, 3.42958477607307800000e-001) (10, 4.87040753546812030000e-001) (11, -1.33339797949728940000e-001) (12, 6.76578625815191380000e-002) (13, -1.65384878089595210000e-001) (14, -2.88326612616917830000e-001) (15, -6.21251975485530910000e-001) (16, -3.29093689835272040000e-001) (17, 8.49688902801084330000e-001) (18, 1.99168141259462500000e-001) (19, 3.94924182022989570000e-002) (20, 7.98294835045989530000e-001) (21, -3.06697015003863870000e-001) (22, -4.09235285095086110000e-001) (23, 1.71582099899301260000e-001) (24, 1.32438355247556510000e-001) (25, 5.14811206035885480000e-001) (26, 3.78087726077625030000e-001) (27, 2.55772947477162340000e-001) (28, -1.53721440022280940000e+000) (29, 1.91133503072591170000e-001) (30, 3.26509642754889640000e-001) (31, -4.63853468176282590000e-001) (32, 1.23641858587039510000e-001) (33, -4.19786715853570800000e-001) (34, 5.77015721920354220000e-001) (35, -7.19272062430823530000e-001) (36, 1.54069875685767050000e-001) (37, 5.78297349158722330000e-001) (38, 5.97580910047877390000e-001) (39, 2.71636258560705280000e-001) (40, 4.12825094828675020000e-001) (41, -7.99036028918587720000e-002) (42, -3.12738721836821110000e-001) (43, 1.18989568426575900000e-002) (44, 5.73101835623006870000e-001) (45, 3.81307507266537230000e-001) (46, -1.77646898711171200000e-001) (47, -8.89940988768414400000e-002) (48, 3.94180556031906100000e-001) (49, -2.55761708839865820000e-001) (50, 1.23620842076548490000e+000) (51, -1.77740036657663450000e-002) (52, -7.69036211901964140000e-001) (0, -1.09025519878844900000e+000) (1, -1.87487013661743610000e-001) (2, -1.74418463649072070000e-001) (3, 1.34818669083709410000e+000) (4, -1.15511944000781060000e+000) (5, 1.68289524992061870000e+000) (6, -3.73934397473704330000e-001) (7, -1.67151170270356780000e-001) (8, -1.98899237596575180000e-001) (9, -2.01494872771781660000e-001) (10, 1.09850040401436320000e-001) (11, -2.70446923712367950000e-001) (12, -4.20015362175160110000e-001) (13, -3.85715444896142960000e-001) (14, 4.61299405222418080000e-001) (15, 1.52035818989352730000e-001) (16, 7.11068282026981360000e-001) (17, -2.31237487066201260000e-001) (18, 6.64703108338422610000e-001) (19, -1.04669483487671440000e-001) (20, -1.94089346645416810000e-002) (21, -3.13884998138208140000e-001) (22, 1.31994541672773500000e-001) (23, 3.61108235710310920000e-001) (24, 1.85826817354791280000e-001) (25, 2.78327695482953660000e-001) (26, -6.22735938523819520000e-002) (27, 7.22358818311832130000e-001) (28, -2.63542457699731390000e-001) (29, 2.19033747725078800000e-001) (30, -3.04316073217555660000e-001) (31, 1.03831915804834950000e-001) (32, -3.43036718533340560000e-001) (33, -8.39726308691092490000e-002) (34, -5.83978434723143700000e-001) (35, 6.54347225392586270000e-001) (36, 4.29012126919235460000e-001) (37, 2.70745518384779840000e-001) (38, -1.54013419556403910000e-001) (39, 2.95404647656503760000e-001) (40, -8.39062031741498740000e-001) (41, 3.36910724934288700000e-001) (42, -7.44724725883121050000e-002) (43, 3.41603836078452180000e-001) (44, -1.68441497060919520000e-001) (45, 1.69815167030704930000e-001) (46, -1.39226154449653810000e+000) (47, -7.49769554353996030000e-002) (48, 9.44672991209909300000e-002) (49, 5.80302392442055280000e-001) (50, -1.32919460466280140000e-001) (51, 1.41483868537948430000e-002) (52, 6.03354080315176570000e-001) (53, -6.17272120147142170000e-001) (54, 2.61676534003763890000e-001) (55, 1.30293569446539690000e-001) (56, 1.04716978276578820000e+000) (57, -2.31929966698388560000e-001) (58, 7.77106534921669030000e-001) (59, 2.12576195102119450000e+000) (60, -2.62213387382340400000e-001) (61, -2.05453622923428230000e-001) (62, -5.13438219420179200000e-001) (63, -8.45648868312454670000e-001) (64, 2.89442467462431130000e-001) (65, 3.32920589895824400000e-001) (66, -1.36737349226094870000e-001) (67, -1.46994261567533120000e+000) (68, -9.55431771002909990000e-001) (69, 1.46031698767497840000e+000) (70, 2.38372239377495600000e-001) (71, 5.87997612547271230000e-001) (72, 1.33110308417994010000e+000) (0, -1.64563618335824450000e-001) (1, -1.36127268810028630000e-002) (2, 8.26829432673858170000e-002) (3, 5.64518813355690100000e-001) (4, 6.37438039156702830000e-001) (5, -1.61576144986069760000e-002) (6, -3.92444302281787450000e-001) (7, 3.64638809425745000000e-001) (8, 1.34363965678781840000e-001) (9, -6.41606419746752060000e-002) (10, 3.70912104863681700000e-001) (11, 1.45289966243400870000e+000) (12, 4.36271362126397330000e-001) (13, 2.45984048024440040000e-001) (14, 3.45421621842144590000e-001) (15, 4.35229004218685540000e-001) (16, -2.96407037810825170000e-001) (17, -2.25916733805504980000e-001) (18, -4.64724998074440500000e-002) (19, 4.22477399223540220000e-001) (20, 4.66674485082705540000e-001) (21, -3.66274047767046360000e-001) (22, 5.71317838129357100000e-001) (23, 4.83646412144635550000e-001) (24, 6.16413045937524220000e-001) (25, -1.38577901345007850000e+000) (26, -2.59662385173142720000e-001) (27, 5.65765798867559730000e-001) (28, -6.43686419128857490000e-001) (29, 4.19487667479873820000e-001) (30, 2.95823191057363710000e-001) (31, 5.81019279056530500000e-001) (32, -1.05208308963874830000e-001) (33, 2.92330298638927900000e-001) (34, 7.68572658010190920000e-002) (35, 3.40286058956652540000e-001) (36, 6.64477841267795630000e-001) (37, 9.19297606759965750000e-001) (38, 3.61551820968424640000e-001) (39, 3.57876583506878730000e-001) (40, -1.17573399653527490000e-001) (41, -2.07718534405427790000e-002) (42, 2.58127607114892240000e-001) (43, 6.80214466400668520000e-001) (44, -1.33072022983653620000e+000) (45, 1.51702974781138640000e-001) (46, 2.06741306628637140000e-002) (47, 5.13455158933820640000e-002) (48, 3.83714326205369880000e-001) (49, 3.88501313900088300000e-001) (50, -4.84029058647156620000e-001) (51, 2.19940882675030420000e-001) (52, 6.00528066686186300000e-001) (53, 2.48803628377139290000e-001) (54, 6.78050757144931680000e-001) (55, 4.33802748991113980000e-001) (56, 8.54884374917043500000e-001) (57, -1.13185803466113070000e-001) (58, 8.83435922054061850000e-001) (59, 4.54870831078392320000e-001) (60, -2.67075672622663520000e-001) (61, -1.39893133873421310000e-001) (62, -6.07864422476269840000e-002) (63, -8.29375317575011480000e-001) (64, 7.64757623402423700000e-001) (65, -6.23501647665545140000e-002) (66, 1.42306445466266870000e+000) (67, -3.43058890087840740000e-001) (68, 2.21492891035083180000e-001) (69, 8.15693687678046620000e-001) (70, 7.93079803854731200000e-001) (71, 2.89386060470667340000e-001) (72, 4.91684892967926170000e-001) (0, 1.76110304116224210000e+000) (1, 3.78479758960937160000e-001) (2, -1.89720088550175000000e-001) (3, 1.01366562087327080000e+000) (4, 9.44933794904424200000e-001) (5, 1.11578939339420690000e+000) (6, 6.49651956842462130000e-001) (7, 3.01579952972340030000e-001) (8, -1.78755830244875690000e-002) (9, 3.04642809077011410000e-001) (10, -2.26357503238267060000e-001) (11, 1.32140702601060390000e-001) (12, -2.63562805416634570000e-001) (13, 3.90848658916950030000e-001) (14, 6.65328677345252690000e-001) (15, 1.05909350922988030000e+000) (16, -1.63616022285739770000e-001) (17, -7.37213990947228750000e-002) (18, -3.49214369961268870000e-001) (19, 6.46183922592524220000e-001) (20, -4.51528253123256280000e-001) (21, -2.77921236561422260000e-001) (22, 5.65346894316588800000e-001) (23, -3.99292730050757260000e-002) (24, 2.00797412216811580000e-001) (25, 8.52956989882912580000e-001) (26, -2.12053204130192240000e-001) (27, 6.23716593006138800000e-001) (28, -1.59515042808672990000e-001) (29, 5.53589317105327440000e-001) (30, -1.75176614953702540000e-001) (31, 4.94861631458964110000e-001) (32, -2.36626743798792230000e-001) (33, -2.62410802861648240000e-002) (34, 4.99616922601944350000e-001) (35, 5.29099801154717890000e-001) (36, 7.11317944895755280000e-001) (37, 3.58589810368882820000e-001) (38, -1.21477409160205160000e-001) (39, -5.68570276918580960000e-002) (40, 3.91121891563618210000e-001) (41, -7.10531436374525480000e-002) (42, -1.77029928359339030000e-001) (43, 3.17033327198134540000e-001) (44, -4.62160949014965290000e-001) (45, 4.71198129007505520000e-001) (46, 2.49736147191326780000e-001) (47, -1.18616425918402270000e-001) (48, 2.84788585949017960000e-001) (49, 1.86138292969810490000e-002) (50, 2.98145922548044230000e-001) (51, -1.07030866744979350000e+000) (52, -1.12500109924037580000e-001) (53, 6.01059237349320430000e-001) (54, 4.43536448285431040000e-001) (55, 1.68177806161296020000e-001) (56, -5.76415706415207670000e-001) (57, -3.49492873829409250000e-001) (58, -4.13887571247025310000e-002) (59, 1.03732378817587660000e+000) (60, 4.72288885869046380000e-001) (61, -1.00459159283835810000e-001) (62, 1.81401715709317880000e-002) (63, 2.65700819443888880000e+000) (64, -5.67110862784772350000e-002) (65, 9.89572462267139020000e-001) (66, -1.53229809722673590000e+000) (67, -3.04338323678920820000e-002) (68, -7.97818926144925560000e-001) (69, -3.82947117835242660000e-001) (70, -2.74105725870913090000e-001) (71, 1.40732940339602820000e+000) (72, -3.51344640929399880000e-001) (0, -1.44589295312970600000e+000) (1, 1.87500920997892950000e+000) (2, -1.96759872802904630000e+000) (3, 8.43585730447345140000e-002) (4, 1.42931635532492480000e+000) (5, 2.86669395958492100000e+000) (6, 8.33039001108315750000e-001) (7, 9.61107653846825390000e-001) (8, -1.08033726771488920000e+000) (9, 4.29630506341559640000e-001) (10, -4.44616086682294190000e-001) (11, 8.71526182757081160000e-001) (12, -1.73928366106748830000e-001) (13, 2.07748755995847480000e+000) (14, -3.28042587826155420000e-001) (15, 1.79021323744818960000e+000) (16, -2.50515028937449860000e+000) (17, -2.65481441567194390000e-002) (18, 1.55835452002404320000e+000) (19, 2.99298786419518960000e-001) (20, 1.26986712361731730000e-001) (21, 5.61892599998746860000e-001) (22, 1.53781928661578720000e-001) (23, 1.16162598113128550000e+000) (24, -3.24151936277166600000e-001) (25, 6.52357926410667030000e-001) (26, 2.35085898869761360000e-001) (27, 2.76202181981816120000e-001) (28, 1.46809211612786910000e+000) (29, -2.36672104736719260000e-001) (30, 3.20291447772261760000e-001) (31, 6.65087994503936960000e-001) (32, 3.12158962370855330000e-001) (33, 2.96880203963101610000e-001) (34, 1.30742898512111960000e+000) (35, 8.61589658461435340000e-002) (36, -5.04322539258449170000e-001) (37, -6.14759229387844900000e-002) (38, 2.19349928608605920000e-001) (39, 6.03226924169756540000e-001) (40, -1.53849784771768670000e+000) (41, 6.00655929158802170000e-001) (42, -1.09193390475808490000e+000) (43, -2.96418162602406170000e-001) (44, 5.74756439694807720000e-001) (45, 3.31569331409279800000e-001) (46, 3.67859315009723740000e-001) (47, 1.60639583574449190000e-001) (48, 9.14382239826975750000e-001) (49, 4.46860967010223320000e-002) (50, 1.01758963888497210000e+000) (51, -8.41325041906736400000e-002) (52, 1.00254031300303540000e-001) (53, -3.86706710183027710000e-001) (54, 3.14031168340399790000e-001) (55, 4.78015909667141690000e-001) (56, -9.89313660954951460000e-002) (57, 1.15953169106222840000e+000) (58, 1.57068393253926790000e+000) (59, 7.38884193028468640000e-001) (60, 2.25230380701990420000e+000) (61, 1.55467565805144510000e+000) (62, 1.17663319939351530000e+000) (63, -9.73925350027693320000e-001) (64, 5.35019309825056190000e-001) (65, 1.23704142626642180000e+000) (66, 5.17732670709373570000e-001) (67, -7.05616887279237990000e-001) (68, 1.89534167125935450000e+000) (69, -8.38354786541209980000e-001) (70, -1.61270509873244010000e+000) (71, -5.21905785801152880000e-001) (72, 8.38662442235066700000e-001) (0, -4.81397595122387170000e-001) (1, 7.29619815717298390000e-002) (2, 1.30814425742560480000e+000) (3, -3.82782661561844040000e-001) (4, 1.36888300292943140000e+000) (5, 9.03123577357530240000e-001) (6, -1.60374921647432170000e-001) (7, 7.58630783256845410000e-001) (8, -6.24680129871897470000e-001) (9, -1.07544165421406630000e-001) (10, -9.64331531270225810000e-002) (11, 1.99983677880952780000e-001) (12, -4.29198307353648510000e-002) (13, 1.10856772326505180000e-001) (14, -2.36947131289162890000e-001) (15, 5.12837923012561700000e-001) (16, 1.66274789742752580000e+000) (17, 4.03028218191065160000e-001) (18, -1.23476576912831400000e-001) (19, 1.69016703705040410000e-001) (20, 4.66549868431384130000e-001) (21, -1.56190052189236070000e-001) (22, -2.58525643066049250000e-001) (23, 1.10752866438032990000e-001) (24, 2.01366160830244450000e-002) (25, -3.89134707965670890000e+000) (26, -4.86201735566943180000e-001) (27, 4.42692317046587790000e-001) (28, -2.52974217275561300000e-001) (29, 7.89984987102103850000e-001) (30, -5.08646156566107570000e-001) (31, -1.04895725227785900000e+000) (32, -3.98033979613321500000e-002) (33, -2.87348516905743700000e-001) (34, -1.89132663444891660000e-001) (35, -1.21149880514791920000e-001) (36, 6.45885487745211370000e-002) (37, 2.85265065760956000000e-001) (38, -6.37065672120039620000e-001) (39, 1.09844257867874620000e+000) (40, -5.39290263507263000000e-002) (41, 1.77125429451608470000e-001) (42, 5.48331077283822020000e-001) (43, -3.45788814848290270000e-001) (44, 2.03818830326327860000e-001) (45, 1.52808160308703790000e+000) (46, -2.23346735563471090000e-001) (47, 4.80689024761221220000e-001) (48, 1.89764107785423300000e+000) (49, -9.35941345026971020000e-002) (50, 4.71138090877016690000e-001) (51, -4.43036341805009780000e-001) (52, 1.09770982634684460000e+000) (53, -1.79661680479221570000e-001) (54, -1.25889797493014130000e-001) (55, -2.14417943170296030000e-001) (56, 1.06508573521331010000e+000) (57, -7.97210094086605370000e-001) (58, -1.57748565099782320000e+000) (59, 1.76622245329171460000e+000) (60, 9.53837551921776990000e-001) (61, -1.64469451728537890000e-001) (62, 5.12048613444573310000e-001) (63, -9.00478471309878040000e-002) (64, 2.75137246493992790000e-001) (65, -2.95573390330701850000e-001) (66, 8.47868683596259330000e-001) (67, -5.61195512768546620000e-001) (68, -4.15884690867745040000e-001) (69, -2.17596279656580630000e-001) (70, 7.09617518230516110000e-001) (71, 2.09119366524479410000e-001) (72, 1.88325749324047140000e-001) (0, -3.37215742309510400000e-001) (1, 6.83369428102494900000e-001) (2, 1.07212121477522130000e-001) (3, -4.22761804175186110000e-001) (4, 1.89690852104756690000e+000) (5, -1.14989449721761020000e+000) (6, 2.24523104155922110000e-001) (7, 1.68688447308350250000e-003) (8, 2.27943328877933450000e-001) (9, -3.75429017777042180000e-001) (10, 4.91802366533493800000e-001) (11, 7.46598230818199090000e-001) (12, 3.18503067923685550000e-001) (13, 1.94268092655288330000e-001) (14, 7.18316087799690470000e-001) (15, 6.84315923802027880000e-001) (16, -1.07864111461763060000e-001) (17, 2.04225547084612490000e-001) (18, -7.87698175495987750000e-002) (19, 7.57638044276278680000e-001) (20, 3.02906450782634400000e-001) (21, 6.02123550418999120000e-001) (22, 1.86708351528364010000e-001) (23, 3.64990165336924190000e-001) (24, 7.10004859090168080000e-001) (25, 2.47770473493593100000e-001) (26, -2.41152753341703360000e-001) (27, 3.16470071181026600000e-001) (28, 8.45099830573270430000e-002) (29, 5.75710297088551700000e-001) (30, -2.27608261009828780000e-001) (31, 1.77818305966592450000e-002) (32, 1.82286293056608210000e-001) (33, 4.36186323081105830000e-001) (34, 9.68750540512531570000e-002) (35, 4.72542547519047900000e-001) (36, 5.60863988559578310000e-001) (37, -2.52617095165050820000e-001) (38, 5.42094735044820860000e-001) (39, 3.74915498509942390000e-002) (40, -3.21390035372117050000e-002) (41, -1.98615769557453330000e-001) (42, 1.26037755209452970000e+000) (43, 5.57247910458185340000e-001) (44, -2.69005924000836730000e-001) (45, 1.15486530017162650000e+000) (46, 6.05241441533600820000e-001) (47, 4.15062564057726010000e-001) (48, 1.48658452440814300000e-001) (49, 2.49478934711613860000e-001) (50, 7.98961522352802270000e-001) (51, 9.13491663786513810000e-001) (52, 3.52967109667893410000e-001) (53, -5.04290488005980530000e-001) (54, -3.69017715432823410000e-001) (55, 9.15120962409364140000e-001) (56, -6.01821582734584530000e-001) (57, 1.57341472483000130000e-002) (58, 9.04753162146297970000e-001) (59, 4.71842021434436600000e-001) (60, -2.11066649392757570000e-001) (61, -2.09058425928133920000e-001) (62, -1.82024261408095970000e-001) (63, 3.87192949473543770000e-001) (64, 9.14006900477632860000e-002) (65, 7.64367518779577320000e-001) (66, 8.58057392098371950000e-001) (67, 9.41531016692613740000e-001) (68, 2.35759781335395380000e-001) (69, 3.11519662745958330000e-001) (70, -2.44148440127976040000e-001) (71, -2.76397807037616410000e-001) (72, 3.18039664184379510000e-001) (0, 5.92665493492810720000e-001) (1, -1.94952073394920130000e-001) (2, 4.16243408648288960000e-001) (3, -4.76999135965533010000e-001) (4, -1.42942104069458400000e+000) (5, 1.61233773738634300000e+000) (6, 2.31523617183446720000e-001) (7, -2.65007988878695530000e-001) (8, 5.86799106131686400000e-001) (9, 4.83962557766489940000e-001) (10, -1.02527258601490210000e+000) (11, 2.28717143808349730000e-001) (12, 2.49014364750943490000e-001) (13, -6.29427197292791450000e-002) (14, 1.16813557334240970000e-002) (15, -2.67258362352819470000e-001) (16, -1.99595477960996550000e-001) (17, -1.40658108770165740000e-001) (18, -3.85180493873464310000e-002) (19, -6.48343677526668330000e-001) (20, 6.47454345808025080000e-002) (21, -1.37544233946944400000e-001) (22, 5.02023471955179600000e-001) (23, -2.44591652253370120000e-001) (24, 1.94012081594731430000e-001) (25, -1.26902944297815150000e-001) (26, 2.35070607923896720000e-001) (27, 4.73889605243278220000e-001) (28, -1.59907341478621420000e+000) (29, -6.21258084303397240000e-001) (30, 5.26352313795991790000e-001) (31, 8.90712963241549140000e-001) (32, 2.26619058182485040000e-001) (33, 8.43704666020678400000e-001) (34, 7.29505955186855570000e-001) (35, -2.49845783272937220000e-001) (36, -7.03002614593474790000e-001) (37, 6.22999053308265550000e-001) (38, -6.95311455312756400000e-001) (39, 7.92800248115370780000e-002) (40, 6.08583743796556330000e-001) (41, 1.85395551856780920000e-001) (42, -3.01778845604924300000e-001) (43, 7.84064766697648710000e-002) (44, -1.20895271122813200000e-001) (45, -1.72321556942585520000e-001) (46, -3.96025016969244910000e-001) (47, -7.60692254296673200000e-001) (48, 8.68394666617544190000e-002) (49, 7.33470325954762690000e-001) (50, 1.18913590783026570000e+000) (51, -7.16926988745989370000e-001) (52, -5.43875800383882280000e-001) (53, 2.69429626623379270000e-001) (54, 3.73732492155935850000e-001) (55, -3.71869021973051440000e-001) (56, -7.99737758341401710000e-001) (57, 1.42918607713577690000e+000) (58, 5.27141272240439720000e-001) (59, 6.09970666727544190000e-001) (60, 5.98317908896239150000e-001) (61, 4.21718105522591660000e-002) (62, -5.61384287624231760000e-001) (63, 3.30147636098896910000e-001) (64, 6.17982027165880020000e-001) (65, -1.34386201993199640000e-001) (66, 2.87543130239526880000e-001) (67, -8.73529955824560860000e-002) (68, -1.15461771942997730000e-001) (69, 2.14284427912712100000e-001) (70, 8.84768532085385420000e-001) (71, -3.97893731211525770000e-002) (72, 1.64567663879231070000e+000) (0, -1.24923998908787320000e-001) (1, 5.35954607337065030000e-002) (2, 2.63726506937221830000e-001) (3, -1.38123104625546930000e+000) (4, 2.97598669885083100000e-001) (5, -7.76311765567932690000e-001) (6, 5.69008565270963110000e-001) (7, -4.89096989452640190000e-001) (8, 1.14275454462305740000e+000) (9, 1.10973743264158720000e-003) (10, 5.46131784560001440000e-001) (11, 3.69282881838395170000e-002) (12, 3.81711237861290960000e-001) (13, 8.07918496124764710000e-002) (14, 1.21045206784589960000e-001) (15, 3.99171735471851810000e-001) (16, -5.27923637525304470000e-001) (17, -6.06068373689585990000e-001) (18, 1.04611435556199410000e+000) (19, -1.12711327383970630000e-001) (20, 2.87073006785252720000e-001) (21, 2.80708116852837420000e-001) (22, 7.02048048435022000000e-001) (23, 6.99092367294379400000e-001) (24, 3.70796606567350200000e-001) (25, 7.80461301325642840000e-001) (26, 4.12663136964052380000e-001) (27, 8.42878081927315170000e-001) (28, 1.12123327310463420000e+000) (29, 3.32075304239596860000e-001) (30, -5.06090903153631590000e-001) (31, 8.63322782827062320000e-001) (32, 3.77795809066827970000e-001) (33, -2.83066462166757740000e-001) (34, 3.13078966742571680000e-001) (35, 3.73180246202500510000e-001) (36, 4.98107708272870650000e-001) (37, 1.22618171754553930000e-001) (38, -2.39786242365412990000e-001) (39, 1.58498546892698020000e+000) (40, 2.85297534588300320000e-001) (41, 3.82802164376475410000e-001) (42, 6.12418230471199700000e-001) (43, 3.45222523453593830000e-002) (44, 1.56397207564442200000e-001) (45, -1.72187870428403310000e+000) (46, -1.44383487415455500000e+000) (47, 2.49493079084760320000e-001) (48, 6.76590679515826300000e-001) (49, 6.36076295120355680000e-001) (50, -2.48339652737411400000e-002) (51, -5.19820012197316990000e-001) (52, 7.86137051404120820000e-001) (53, -4.28284944217629730000e-002) (54, 1.78170178500961560000e-001) (55, -2.85398169260100640000e-001) (56, -1.87324846405928780000e-001) (57, -1.38470607139752180000e-001) (58, 1.08275074025844240000e+000) (59, 4.44266669420806250000e-002) (60, 1.98516203253794100000e-001) (61, 6.90658731092893270000e-002) (62, 6.65853299695137850000e-001) (63, 6.29252529230196760000e-002) (64, 3.88482882958322620000e-001) (65, -4.92573315854992130000e-002) (66, 3.47680178595607680000e-001) (67, 1.61662383406270450000e-001) (68, 1.05412813148900500000e+000) (69, -5.72132475810006590000e-001) (70, -8.50628507799767310000e-002) (71, -5.68534938660616770000e-001) (72, -4.84077356973802160000e-002) (0, 2.21474159720645280000e+000) (1, 1.84484430506993950000e+000) (2, -1.27616570011001240000e-001) (3, 9.10779538678933460000e-001) (4, 5.84644649268726420000e-002) (5, 5.36855438059960830000e-001) (6, 7.74519617741775580000e-001) (7, -9.74538708193672830000e-001) (8, 3.61345118090441400000e-001) (9, 3.47250825990622000000e-002) (10, 5.05040224248787690000e-001) (11, 3.08307505101206860000e-001) (12, -1.52987424703188630000e-001) (13, 4.51482073039017440000e-001) (14, -2.64303488084191410000e-001) (15, 1.96366687534638870000e-001) (16, 2.15169047402045150000e-001) (17, -3.10533409818457900000e-001) (18, 1.55375443452927950000e-001) (19, -2.15523462199328690000e-001) (20, -3.50288011484444990000e-001) (21, -2.76674430368931470000e-001) (22, -7.89425925341005860000e-001) (23, 6.89284028718201570000e-002) (24, -1.19439743287353740000e-001) (25, -3.27176944646575370000e-001) (26, 6.61609812343019520000e-001) (27, 5.79602901417675340000e-001) (28, 5.17121987843788490000e-001) (29, 1.10173993575724300000e-001) (30, -2.22224911126878260000e-001) (31, 1.84776897149405150000e-002) (32, -4.44207570604080800000e+000) (33, -3.53981925029975000000e-001) (34, -3.25965381441864820000e-001) (35, -8.32154731545927450000e-001) (36, 3.83229851115987060000e-001) (37, -3.94890724804570880000e-001) (38, 3.02560374682206260000e-001) (39, 5.43686659962747230000e-001) (40, -3.20611078870249640000e-001) (41, 1.48022960623503290000e-001) (42, 6.76877906471622050000e-001) (43, -4.24057503751314460000e-001) (44, 1.11859387902682240000e+000) (45, -1.86540199306596930000e-002) (46, -3.67800785528405780000e-001) (47, 2.25613670041428800000e+000) (48, 9.34656425863676250000e-001) (49, 5.18340548482543070000e-001) (50, -1.96122966633279940000e-001) (51, 6.01636651680745590000e-002) (52, 6.03284552644717700000e-001) (53, -6.25766840465082130000e-001) (54, 6.28196201722435840000e-001) (55, 1.19800328221891590000e+000) (56, 4.00273621724790470000e-001) (57, 2.42267660218290850000e-001) (58, 1.02462675726513520000e-001) (59, 1.33180744630387520000e+000) (60, 5.40691899185354870000e-001) (61, -1.23198701296457200000e+000) (62, -3.69942976145610000000e-001) (63, 1.39346551737048170000e+000) (64, 6.73161522350044450000e-001) (65, -2.20514193008038710000e-001) (66, -4.08434142743963720000e-001) (67, -7.91491396670370050000e-001) (68, -5.14832093772089830000e-001) (69, 3.37183503492686720000e-001) (70, 2.10412657497482360000e-001) (71, 1.33888824339818970000e+000) (72, 2.61981853222835290000e-001) (0, -5.38631169917459300000e-001) (1, -6.94907570849358840000e-001) (2, 5.52616163277508400000e-001) (3, -1.61962524347285290000e+000) (4, -1.03731350420798860000e+000) (5, 1.89472530119957330000e+000) (6, 3.43451399443425400000e-001) (7, -4.13215706271085950000e-001) (8, 2.24214597043544070000e-001) (9, -6.91856107068427150000e-001) (10, -5.35140744463817210000e-001) (11, -2.48520181985918460000e-001) (12, 6.26321812654033970000e-001) (13, 5.67025252696867990000e-001) (14, 2.38016513425485960000e-001) (15, 5.16479085557589920000e-001) (16, -5.25485149440914620000e-001) (17, -3.57552101815468540000e-001) (18, -1.17214485347745770000e-001) (19, -1.51114103512478250000e+000) (20, 9.52451454841687360000e-002) (21, -2.97893894432898880000e-001) (22, 6.47912345642596920000e-001) (23, 5.71013412663606500000e-001) (24, -2.64231348862460580000e-001) (25, -4.91767729648249000000e-001) (26, -7.45275670043153270000e-003) (27, 6.50596370682597460000e-001) (28, 9.43419089113186950000e-001) (29, 6.25317769289706950000e-001) (30, -2.84159424023539720000e-001) (31, 2.68895553015497780000e-001) (32, -6.35160652087342760000e-002) (33, 2.18081988596333070000e-001) (34, 7.40487864324813280000e-001) (35, -1.71400377239383260000e-001) (36, -1.61011182559125970000e-001) (37, -1.90422010729428410000e-001) (38, -1.12239485715188770000e-001) (39, 3.75472866801333520000e-001) (40, -3.72159812600692250000e-001) (41, 3.62787502847610580000e-001) (42, -1.31213031032600980000e+000) (43, -3.34311532147815890000e-001) (44, 2.12762310110947340000e-001) (45, 1.22818261191647600000e-001) (46, -1.25592814702310650000e-001) (47, -3.06424155152850540000e-001) (48, 6.04764676224519460000e-001) (49, 2.59562959147173200000e-001) (50, 2.35580444370735050000e-001) (51, 1.73748369821178390000e-001) (52, 1.65886786213814860000e-001) (53, -9.96784859701092320000e-001) (54, -1.41205434839226700000e+000) (55, 1.95370270895092110000e-002) (56, 7.69295436917040830000e-001) (57, -4.57111931194526590000e-001) (58, 1.97459219069504060000e-001) (59, 2.37326174685690640000e-001) (60, 4.80165169429229990000e-001) (61, -2.08457422151415910000e-001) (62, -6.41359955370473300000e-001) (63, 1.15885630836850680000e-001) (64, 1.91227917137108900000e-001) (65, 9.39296012493503250000e-001) (66, 1.10920284548104030000e+000) (67, -5.15339616865414850000e-001) (68, 4.57362135393251430000e-001) (69, 1.05962344530449020000e+000) (70, -3.38146881394498160000e+000) (71, -8.48202738233548440000e-002) (72, 6.41399113258470540000e-001) (0, 6.34364499274369780000e-001) (1, 6.78163348229007810000e-001) (2, -1.14431280777013960000e-001) (3, 1.90505326346158720000e-001) (4, -6.92006807820216950000e-001) (5, 2.62546942618329120000e-001) (6, 7.42808565425679000000e-002) (7, -1.41459775935741630000e-001) (8, 6.29839640640428970000e-001) (9, -4.36221537600517250000e-004) (10, -6.03227602950850220000e-002) (11, -4.98098041005757900000e-002) (12, 2.18808012212894780000e-001) (13, 4.01430054955169420000e-001) (14, -5.64032886850302170000e-001) (15, 4.27793879851948940000e-001) (16, -5.68699226731806840000e-001) (17, 2.59662872714061630000e-001) (18, -6.49524924894109730000e-001) (19, -4.23797461244525390000e-001) (20, 4.91037811208576420000e-001) (21, 2.62738320951017510000e-001) (22, 1.13780536583479820000e-001) (23, -8.27810348011989720000e-002) (24, -1.05939776247746890000e+000) (25, 4.36301384830012960000e-001) (26, 5.06801850673316620000e-001) (27, 3.03623274977550210000e-001) (28, 5.01250708832282510000e-001) (29, -7.31527331578385340000e-001) (30, 8.75711723647958350000e-001) (31, -6.37715436205057550000e-001) (32, 1.08197563714081790000e-001) (33, 1.62842900623403040000e-001) (34, 7.53842782163673180000e-001) (35, -3.28120404502949660000e-001) (36, -4.14050010966048210000e-001) (37, 4.00419149831576780000e-002) (38, -8.21988625724753620000e-001) (39, -3.32787632609585940000e-001) (40, -2.15349245350763440000e-001) (41, -2.08207572936356810000e-002) (42, -2.40542676230718150000e-001) (43, -4.93017924103458570000e-001) (44, 1.42723610536881760000e-001) (45, -1.00877437545325080000e-001) (46, 8.08314341472613160000e-001) (47, -5.17972312257272030000e-001) (48, -1.72791448879234150000e-002) (49, -2.48474781129400550000e-001) (50, 5.50881305869919120000e-001) (51, -8.58163965058953700000e-002) (52, 3.10571594942096350000e-001) (53, 2.77322808952678800000e-001) (54, -4.19073797947854880000e-001) (55, -2.13438073513945390000e-001) (56, -2.05660979409528270000e-001) (57, 7.12264513988354330000e-001) (58, -8.19323841287890930000e-001) (59, -3.56521332822114900000e-001) (60, -6.56290547145321870000e-001) (61, 3.98403439585871930000e-001) (62, -1.26018316471745840000e+000) (63, 8.20699655096003290000e-001) (64, 6.72684874844364790000e-001) (65, 4.15614381814063240000e-001) (66, 2.33775993144751810000e-001) (67, 8.48358472423305310000e-001) (68, 4.36716024198227640000e-001) (69, -6.56732412820671740000e-001) (70, 5.41550232670909020000e-002) (71, -2.76630893963146440000e-001) (72, -8.20636995897840340000e-001) (0, 1.28208087433604400000e-001) (1, 2.58237780724667190000e-001) (2, 