FANN_FLO_2.1
num_layers=4
learning_rate=0.700000
connection_rate=1.000000
network_type=1
learning_momentum=0.000000
training_algorithm=2
train_error_function=1
train_stop_function=1
cascade_output_change_fraction=0.010000
quickprop_decay=-0.000100
quickprop_mu=1.750000
rprop_increase_factor=1.200000
rprop_decrease_factor=0.500000
rprop_delta_min=0.000000
rprop_delta_max=50.000000
rprop_delta_zero=0.100000
cascade_output_stagnation_epochs=12
cascade_candidate_change_fraction=0.010000
cascade_candidate_stagnation_epochs=12
cascade_max_out_epochs=150
cascade_min_out_epochs=50
cascade_max_cand_epochs=150
cascade_min_cand_epochs=50
cascade_num_candidate_groups=2
bit_fail_limit=1.00000001490116120000e-001
cascade_candidate_limit=1.00000000000000000000e+003
cascade_weight_multiplier=4.00000000000000020000e-001
cascade_activation_functions_count=10
cascade_activation_functions=3 5 7 8 10 11 14 15 16 17 
cascade_activation_steepnesses_count=4
cascade_activation_steepnesses=2.50000000000000000000e-001 5.00000000000000000000e-001 7.50000000000000000000e-001 1.00000000000000000000e+000 
layer_sizes=16 51 50 6 
scale_included=0
neurons (num_inputs, activation_function, activation_steepness)=(0, 0, 0.00000000000000000000e+000) (0, 0, 0.00000000000000000000e+000) (0, 0, 0.00000000000000000000e+000) (0, 0, 0.00000000000000000000e+000) (0, 0, 0.00000000000000000000e+000) (0, 0, 0.00000000000000000000e+000) (0, 0, 0.00000000000000000000e+000) (0, 0, 0.00000000000000000000e+000) (0, 0, 0.00000000000000000000e+000) (0, 0, 0.00000000000000000000e+000) (0, 0, 0.00000000000000000000e+000) (0, 0, 0.00000000000000000000e+000) (0, 0, 0.00000000000000000000e+000) (0, 0, 0.00000000000000000000e+000) (0, 0, 0.00000000000000000000e+000) (0, 0, 0.00000000000000000000e+000) (16, 5, 5.00000000000000000000e-001) (16, 5, 5.00000000000000000000e-001) (16, 5, 5.00000000000000000000e-001) (16, 5, 5.00000000000000000000e-001) (16, 5, 5.00000000000000000000e-001) (16, 5, 5.00000000000000000000e-001) (16, 5, 5.00000000000000000000e-001) (16, 5, 5.00000000000000000000e-001) (16, 5, 5.00000000000000000000e-001) (16, 5, 5.00000000000000000000e-001) (16, 5, 5.00000000000000000000e-001) (16, 5, 5.00000000000000000000e-001) (16, 5, 5.00000000000000000000e-001) (16, 5, 5.00000000000000000000e-001) (16, 5, 5.00000000000000000000e-001) (16, 5, 5.00000000000000000000e-001) (16, 5, 5.00000000000000000000e-001) (16, 5, 5.00000000000000000000e-001) (16, 5, 5.00000000000000000000e-001) (16, 5, 5.00000000000000000000e-001) (16, 5, 5.00000000000000000000e-001) (16, 5, 5.00000000000000000000e-001) (16, 5, 5.00000000000000000000e-001) (16, 5, 5.00000000000000000000e-001) (16, 5, 5.00000000000000000000e-001) (16, 5, 5.00000000000000000000e-001) (16, 5, 5.00000000000000000000e-001) (16, 5, 5.00000000000000000000e-001) (16, 5, 5.00000000000000000000e-001) (16, 5, 5.00000000000000000000e-001) (16, 5, 5.00000000000000000000e-001) (16, 5, 5.00000000000000000000e-001) (16, 5, 5.00000000000000000000e-001) (16, 5, 5.00000000000000000000e-001) (16, 5, 5.00000000000000000000e-001) (16, 5, 5.00000000000000000000e-001) (16, 5, 5.00000000000000000000e-001) (16, 5, 5.00000000000000000000e-001) (16, 5, 5.00000000000000000000e-001) (16, 5, 5.00000000000000000000e-001) (16, 5, 5.00000000000000000000e-001) (16, 5, 5.00000000000000000000e-001) (16, 5, 5.00000000000000000000e-001) (16, 5, 5.00000000000000000000e-001) (16, 5, 5.00000000000000000000e-001) (16, 5, 5.00000000000000000000e-001) (16, 5, 5.00000000000000000000e-001) (16, 5, 5.00000000000000000000e-001) (16, 5, 5.00000000000000000000e-001) (16, 5, 5.00000000000000000000e-001) (16, 5, 5.00000000000000000000e-001) (67, 5, 5.00000000000000000000e-001) (67, 5, 5.00000000000000000000e-001) (67, 5, 5.00000000000000000000e-001) (67, 5, 5.00000000000000000000e-001) (67, 5, 5.00000000000000000000e-001) (67, 5, 5.00000000000000000000e-001) (67, 5, 5.00000000000000000000e-001) (67, 5, 5.00000000000000000000e-001) (67, 5, 5.00000000000000000000e-001) (67, 5, 5.00000000000000000000e-001) (67, 5, 5.00000000000000000000e-001) (67, 5, 5.00000000000000000000e-001) (67, 5, 5.00000000000000000000e-001) (67, 5, 5.00000000000000000000e-001) (67, 5, 5.00000000000000000000e-001) (67, 5, 5.00000000000000000000e-001) (67, 5, 5.00000000000000000000e-001) (67, 5, 5.00000000000000000000e-001) (67, 5, 5.00000000000000000000e-001) (67, 5, 5.00000000000000000000e-001) (67, 5, 5.00000000000000000000e-001) (67, 5, 5.00000000000000000000e-001) (67, 5, 5.00000000000000000000e-001) (67, 5, 5.00000000000000000000e-001) (67, 5, 5.00000000000000000000e-001) (67, 5, 5.00000000000000000000e-001) (67, 5, 5.00000000000000000000e-001) (67, 5, 5.00000000000000000000e-001) (67, 5, 5.00000000000000000000e-001) (67, 5, 5.00000000000000000000e-001) (67, 5, 5.00000000000000000000e-001) (67, 5, 5.00000000000000000000e-001) (67, 5, 5.00000000000000000000e-001) (67, 5, 5.00000000000000000000e-001) (67, 5, 5.00000000000000000000e-001) (67, 5, 5.00000000000000000000e-001) (67, 5, 5.00000000000000000000e-001) (67, 5, 5.00000000000000000000e-001) (67, 5, 5.00000000000000000000e-001) (67, 5, 5.00000000000000000000e-001) (67, 5, 5.00000000000000000000e-001) (67, 5, 5.00000000000000000000e-001) (67, 5, 5.00000000000000000000e-001) (67, 5, 5.00000000000000000000e-001) (67, 5, 5.00000000000000000000e-001) (67, 5, 5.00000000000000000000e-001) (67, 5, 5.00000000000000000000e-001) (67, 5, 5.00000000000000000000e-001) (67, 5, 5.00000000000000000000e-001) (67, 5, 5.00000000000000000000e-001) (117, 5, 1.00000000000000010000e-001) (117, 5, 1.00000000000000010000e-001) (117, 5, 1.00000000000000010000e-001) (117, 5, 1.00000000000000010000e-001) (117, 5, 1.00000000000000010000e-001) (117, 5, 1.00000000000000010000e-001) 
connections (connected_to_neuron, weight)=(0, 5.44423887306422150000e+001) (1, 1.88572196565892830000e+001) (2, 5.92568131831234710000e+000) (3, 6.24591684184020220000e-001) (4, 1.15460981654136210000e-001) (5, 4.47228215217741810000e+000) (6, -3.03447080797112960000e+001) (7, 2.45648402728426310000e-001) (8, 3.01236834881375510000e+000) (9, -3.29612889430011930000e-001) (10, 7.90578718975187610000e-001) (11, -2.96110499771276460000e-001) (12, 1.08836908586013730000e-001) (13, 2.59786508092180350000e-001) (14, 2.61048156798012690000e-001) (15, -1.30487548213885810000e-001) (0, 6.28606865055238160000e+001) (1, 1.00640464437966210000e+000) (2, 2.80988020730680150000e+001) (3, 1.78462180584984640000e-001) (4, -7.83284286299121950000e-001) (5, 3.26346430894942140000e-001) (6, -1.40727036895660990000e+001) (7, 3.02073574406008240000e-001) (8, -1.34997482398743340000e+001) (9, 2.44447585945415800000e-001) (10, -3.72124024521554410000e-001) (11, 2.88785441332880030000e-001) (12, 4.05258110635828840000e-002) (13, 1.60700702223982760000e-002) (14, -1.47073842909641730000e-001) (15, 2.60319575198161460000e-001) (0, 3.49293897398848690000e+000) (1, -7.23607070131503380000e-001) (2, -1.38611956060705720000e+001) (3, -9.86451760296380930000e-001) (4, -7.57678445275873460000e-003) (5, 1.30634842075013410000e+000) (6, 3.24906460714992160000e+000) (7, -3.64063417018484260000e+000) (8, -3.20220856600348880000e-001) (9, -3.62889735322700250000e-001) (10, 2.81023328819539790000e-001) (11, -2.36671805526469350000e-001) (12, 3.99101542261956880000e-001) (13, -4.58218097072945400000e-002) (14, -1.73405130155065900000e-001) (15, 4.97971217239758300000e-002) (0, 1.10184224225941050000e-001) (1, -4.77617857549412010000e+001) (2, 1.84438056860475340000e+000) (3, -2.21508506017571390000e+000) (4, -7.27351968345408650000e+000) (5, 1.25643955003357570000e+000) (6, -5.01703970365256780000e+000) (7, -2.64363582499602790000e-001) (8, -3.10879830953241630000e+000) (9, 4.19707697854096450000e-002) (10, 3.77309518235628310000e-001) (11, -4.46940108979141380000e-001) (12, 5.18466764322300770000e-001) (13, -4.40436503107245030000e-001) (14, -3.26347711532199600000e-001) (15, -2.96389795907537390000e-001) (0, -2.41147579764121110000e+000) (1, -1.37244833789572200000e+001) (2, 1.45260398941894310000e+001) (3, -1.72639136013120110000e-001) (4, 1.60174465077628230000e+000) (5, 6.37552106127698860000e-001) (6, 3.25626503141703220000e-001) (7, -1.43837813720249930000e+000) (8, -9.77102757752429610000e-001) (9, 9.07647323963368250000e-002) (10, 8.57962939370332940000e-002) (11, -5.08498663044631360000e-002) (12, 1.44491689518410130000e-001) (13, -1.03259431773158980000e-001) (14, 1.55625382865767190000e-001) (15, -2.78321216284758980000e-001) (0, -1.65322489038783860000e+001) (1, 6.28303905048273310000e+000) (2, -3.78619461018961160000e+001) (3, -1.44296291190638310000e+000) (4, 9.14121570343543350000e-001) (5, 2.58411245427744160000e+000) (6, 1.23539458412791860000e+001) (7, -6.30278466797329350000e+000) (8, -1.45932587948084350000e+000) (9, 7.13314613333123180000e-001) (10, 5.94000764652065920000e-002) (11, 3.31645040163563220000e-001) (12, 1.80215156775631490000e+000) (13, -2.79911709973157790000e-001) (14, 3.26073472638388760000e-001) (15, -9.33641431488532180000e-001) (0, 1.67922112229816190000e+000) (1, -8.27789027754015370000e+000) (2, 1.17724286768889110000e+001) (3, -5.60297479882440390000e-001) (4, -8.06391627194526840000e-001) (5, -7.44087993626533220000e-001) (6, -2.89609781769335720000e-001) (7, -5.02556551533804070000e-001) (8, 2.36352486275596880000e+000) (9, 3.51527584253954750000e-001) (10, 6.67272874198520940000e-002) (11, 9.59013726199451670000e-003) (12, 1.93937039783877910000e-001) (13, 4.43973793882007970000e-001) (14, -3.66975634715050530000e-002) (15, 8.74977180427971220000e-003) (0, 1.58532241299970720000e+000) (1, -7.45505072041761640000e-001) (2, -1.50381061923431610000e+001) (3, 1.18759406085744420000e+001) (4, -1.49235273535944190000e+000) (5, -1.86640357921991920000e+000) (6, 2.26722907448201030000e+000) (7, 2.95930847019447230000e+000) (8, 5.82247987565346210000e+000) (9, -3.58182938508292360000e-001) (10, 1.01372980813756470000e+000) (11, -1.48875443442285230000e+000) (12, 4.53938779700279770000e-003) (13, 3.42350617838306340000e-001) (14, 1.48390340322050120000e+000) (15, -5.64580798480088800000e-002) (0, 1.85678073507630550000e+000) (1, 8.28057656797033030000e+000) (2, 4.31267016327963760000e+000) (3, 3.81077364691099710000e-001) (4, 5.48308163626480380000e-001) (5, -3.63974721874592400000e-001) (6, -1.14314218488263350000e+000) (7, -1.33759499932771120000e+000) (8, -5.06539963993140500000e+000) (9, -2.00546196494614030000e-001) (10, 5.56544413111203060000e-001) (11, -4.68937693749012790000e-001) (12, -1.33477719512543340000e-001) (13, 2.15493822917251530000e-001) (14, 2.84832298391956490000e-002) (15, 1.80051632872369860000e-001) (0, -3.54796614123077770000e+001) (1, 4.98824618688101840000e+000) (2, -4.95790191984859020000e+001) (3, -3.06989383337633450000e-002) (4, 8.11915675207922070000e-002) (5, 1.04424972951948370000e+000) (6, 2.64122607313720260000e+001) (7, 3.34812834685225710000e+000) (8, 1.94579787434248710000e+001) (9, -8.87364405286816400000e-002) (10, 2.80105915754683580000e-001) (11, -5.35560992624927290000e-001) (12, -2.90844381110266740000e+000) (13, -3.27856840348186680000e-001) (14, -4.49708915520458180000e-002) (15, 9.16593584742207840000e-002) (0, 2.31506172814582530000e+001) (1, -1.53789295378306880000e-001) (2, -1.99246167723821300000e+001) (3, 7.11286566123644380000e-001) (4, -1.41654066429232310000e+000) (5, -2.08604196563044120000e+000) (6, 4.71532781916449380000e+000) (7, 2.70303215476386290000e+000) (8, -1.55123956297689740000e+001) (9, -1.00414535165929150000e+000) (10, -5.56235563634054020000e-001) (11, 6.33647162727758670000e-001) (12, -4.84034914821272370000e-001) (13, 5.17563590881526040000e-001) (14, 2.31135254911205400000e-001) (15, 1.20746435667274790000e+000) (0, 2.10464656322187980000e+001) (1, -9.20470668499515550000e+000) (2, -7.45149452173233500000e+000) (3, 9.82521738187721730000e-002) (4, 1.03766032942165180000e+000) (5, -1.07973611678637750000e+000) (6, 9.46194911791152340000e-001) (7, -1.41653013169632960000e+001) (8, -1.26828768903307020000e+001) (9, 1.28635363354362940000e+000) (10, 1.73449572960346420000e+000) (11, -7.11611716804662060000e-001) (12, 3.23471722833918400000e-001) (13, 8.80672605588258880000e-001) (14, 4.16665324506421690000e-002) (15, -5.13157644438417900000e-002) (0, 2.80026605244894250000e+001) (1, -3.25597243807618760000e+000) (2, 4.56431773005320720000e+000) (3, 2.35271350518279960000e+000) (4, 3.50706461098457060000e-002) (5, 2.96209618703691000000e-001) (6, -3.51602803232994130000e+000) (7, -6.17304083163732910000e+000) (8, 2.14794327294261090000e+000) (9, -7.83185078225920870000e-001) (10, -4.21473509068355460000e-001) (11, 2.28795735691217360000e-001) (12, 1.73557794860102090000e-001) (13, 1.67940365028792250000e-001) (14, 1.12235974645033020000e-001) (15, -5.63254221597913470000e-002) (0, 2.58077495441071750000e+001) (1, -2.63975333967322140000e+001) (2, -1.08121506616455700000e-001) (3, -4.91303534214047210000e-001) (4, 1.50330038509519560000e-001) (5, 2.40574424189865250000e+000) (6, 2.27067457037851780000e-001) (7, 1.74068785309092560000e+000) (8, 4.63989529523318790000e-001) (9, 3.60234896863853430000e-002) (10, -1.73953140331535060000e-001) (11, 8.25351762677912990000e-001) (12, -4.83217269430087010000e-002) (13, 4.16349182489067770000e-001) (14, 1.97529292735365400000e-001) (15, -8.50803990656517460000e-001) (0, 6.23135846540384190000e+000) (1, 5.05535873165088390000e+000) (2, 5.86539600279223540000e+000) (3, 4.05594094625875590000e-001) (4, -3.53320580310358620000e-001) (5, -7.55953574146218330000e-001) (6, -3.55252093060940680000e+000) (7, -1.26759150024108110000e+000) (8, -9.67467811698816570000e-001) (9, -7.63007562753406500000e-002) (10, 4.55082010138624090000e-001) (11, -1.61032257775489630000e-001) (12, 1.02456358093901450000e-001) (13, 1.11126941865269680000e-001) (14, 5.72766059815436740000e-002) (15, 4.82752726449289130000e-001) (0, -9.63793573041771620000e+000) (1, 8.94095758211532040000e+000) (2, 6.02821758942471500000e+000) (3, 9.22882529395866460000e-001) (4, 1.30093757508247320000e+000) (5, 7.23967542458846090000e-001) (6, -1.03932400505645890000e+001) (7, -1.23460222234541920000e+000) (8, 4.35380219027243060000e+000) (9, -2.90861084381072890000e-001) (10, 1.54616414558553660000e-001) (11, -2.62946377455884510000e-002) (12, -2.72214594521835550000e-001) (13, 2.94836021111988260000e-001) (14, 6.06022936923058130000e-004) (15, -1.12877813807166030000e-002) (0, 1.23394379454843990000e+001) (1, 2.41660880673192580000e+000) (2, 2.09939453232613090000e+000) (3, -1.59626679232128640000e-001) (4, -8.01928071031026480000e-001) (5, 8.59997421114640170000e-001) (6, -3.25412344098376450000e+000) (7, -1.26015216008419890000e+000) (8, -5.34221412096113290000e-001) (9, -3.04758201374083180000e-002) (10, 2.65473635801057980000e-001) (11, 1.67632323618106590000e-001) (12, -6.88140718891948390000e-001) (13, -1.19690997463530910000e-002) (14, -1.42728417205910630000e-003) (15, 3.99797808418401530000e-002) (0, 3.59159544152737100000e+000) (1, -2.02543904812220490000e-002) (2, -2.96170028809549860000e+000) (3, -1.93164891273846790000e+000) (4, 8.13247391375180430000e-001) (5, -8.45762891667358460000e-002) (6, -4.86129548262775830000e+000) (7, -1.87126808442667980000e+000) (8, 3.80458498831804100000e-001) (9, -1.21155856729679060000e-001) (10, -1.89199117491978850000e-001) (11, 1.53688690432877420000e-001) (12, 4.51251003090391290000e-002) (13, 2.78541771886596460000e-001) (14, 3.23787638964011860000e-001) (15, 2.43264949982979400000e-001) (0, -2.37910103271502570000e+001) (1, -2.10526168762498860000e+000) (2, 7.28485007469496630000e+000) (3, 5.15810621641114350000e-001) (4, 7.70766541594318230000e-001) (5, 3.66958205036061050000e+000) (6, -3.54598114620009100000e+000) (7, -1.15883422185031740000e+001) (8, 5.17757112025173690000e+000) (9, 1.97436072125308730000e-001) (10, -9.36280625147143940000e-002) (11, 8.34088212393112930000e-001) (12, -2.79902844627498480000e-001) (13, 4.20843357741896740000e-001) (14, 2.28340369318824040000e-001) (15, 3.21161912010163480000e-001) (0, 2.44931487972545700000e+001) (1, 1.98778350660733840000e+000) (2, -1.43676662707467950000e+001) (3, -1.24271529778902590000e-001) (4, 1.20763421859718690000e+000) (5, 5.46389474764314100000e-001) (6, 3.82293647731145380000e-001) (7, 1.86646410207820820000e+000) (8, -7.52261109225250250000e-001) (9, 4.69708741345349180000e-001) (10, 4.61639154832627800000e-001) (11, -1.60705561145441740000e-001) (12, -4.02459714895089800000e-002) (13, 4.47374895086164960000e-001) (14, -2.11110499217333020000e-001) (15, -5.75802824216295260000e-002) (0, 4.49644871956143090000e+000) (1, -1.74198117463714960000e+000) (2, 1.67191581246055100000e+001) (3, -4.67994908095465510000e+000) (4, -2.78768673929375210000e-001) (5, 6.42649501651670780000e-001) (6, 7.52654265331321960000e+000) (7, 6.64120122732149550000e+000) (8, -6.28740314722526610000e+000) (9, 6.34271309224161750000e-001) (10, 7.55951470198161450000e-001) (11, -9.40531677645695560000e-001) (12, 6.39732539050870690000e-001) (13, -2.49521738693664840000e-001) (14, 1.49201987512316840000e-001) (15, 1.36074809547548110000e-001) (0, 1.13440311969934160000e+000) (1, -3.37835398650041170000e+000) (2, 7.44432876869160150000e+000) (3, 2.41446455312694490000e+000) (4, -3.88507942646727770000e+000) (5, 4.77720520442224310000e+000) (6, 6.20769058572282350000e+000) (7, 3.18872168320962410000e+000) (8, 4.60863906761487360000e-001) (9, 6.91234727589062350000e-001) (10, 4.90440789298355050000e-001) (11, 2.65600531092871460000e-001) (12, -1.61078957934912110000e-002) (13, 5.68955275679694510000e-001) (14, 4.70712071982437030000e-001) (15, 6.33236416911422820000e-002) (0, 1.51376150645355200000e+001) (1, -1.06305195734174160000e+001) (2, 1.50931269176930590000e+001) (3, 3.30871942217280560000e+000) (4, 1.11251889855333890000e-001) (5, -4.04959814838584900000e-001) (6, -1.84143612107052710000e-001) (7, 4.71694711176250230000e-001) (8, 4.85900514438386290000e+000) (9, 2.78490905476255490000e-001) (10, 3.91112498464239840000e-001) (11, 3.08219343724161540000e-001) (12, 4.68408352613360000000e-001) (13, 2.17552134303743040000e-001) (14, 3.69079564732234300000e-001) (15, 1.98069777234877230000e-001) (0, 2.54823778017405080000e+001) (1, -2.24410416041810810000e+001) (2, 3.40826607516949520000e+001) (3, 2.70059717269073430000e+000) (4, -1.34683176462741790000e+000) (5, 1.31573317627730920000e+000) (6, -6.68888245186404350000e+000) (7, 6.51059993523031810000e+000) (8, 2.73512092790736410000e+000) (9, -1.38391253427495700000e-001) (10, 6.49761617483778140000e-001) (11, 2.55439227971445640000e-001) (12, 5.10665272968752080000e-001) (13, 1.09190601241122070000e-001) (14, 3.82673818784239170000e-001) (15, -1.94056990055062990000e-001) (0, -3.11959642550241940000e+001) (1, -3.85382870987966000000e+000) (2, -1.36433704455892090000e+000) (3, 2.50292228190814340000e+000) (4, 8.88737418108685780000e-001) (5, -1.28196637811596760000e+000) (6, 1.14520147218033940000e+001) (7, 7.10173996675624530000e-001) (8, -3.58778541694365630000e-001) (9, -7.02292065156718690000e-002) (10, 2.45362749906750190000e-001) (11, -1.08812125842831180000e-001) (12, 1.50727834206834830000e-001) (13, 4.61054578540767920000e-001) (14, -1.17897925208714410000e-001) (15, 8.92547238200804280000e-001) (0, 1.81857482621378640000e+000) (1, 1.10824599497343380000e+000) (2, 1.55071102801053050000e+001) (3, 1.00888645431697840000e+000) (4, -1.36607865192533030000e+000) (5, 5.40701205956971460000e-001) (6, 3.30518223336283250000e+000) (7, 3.95281123070098860000e+000) (8, -5.94645550194758620000e-001) (9, -3.04413921048632070000e-001) (10, 2.66714555898198700000e-001) (11, 1.32118750215334200000e-001) (12, 2.02805632114348660000e-001) (13, 4.53603054414528140000e-001) (14, -1.85252299176372150000e-001) (15, 1.15678168068482860000e-001) (0, -1.09609415307985500000e+001) (1, 5.83902938200766290000e+001) (2, 1.81723731659124680000e+001) (3, 1.86458301770928660000e+000) (4, 5.70928226318470180000e-001) (5, -2.85224434323052380000e+000) (6, 1.66290657484815640000e+000) (7, -1.35087882639606300000e+001) (8, -8.87442021439817210000e-001) (9, 1.48111858786500430000e-001) (10, -2.06226638715897030000e-001) (11, -2.67761200946583070000e-001) (12, -5.76366453200721220000e-001) (13, 2.00420765635639130000e-001) (14, -2.81104230251130130000e-001) (15, -3.65496109027704520000e-001) (0, -1.92948060998661970000e+001) (1, 9.32354308678754680000e+000) (2, 2.09102650049970060000e-001) (3, -1.12446892344395110000e+000) (4, -1.37276726439141350000e+000) (5, -3.01227571535414410000e-001) (6, 7.30135269559495640000e+000) (7, -2.35219575074639180000e+000) (8, -4.66849283454358110000e-001) (9, 2.45178632828683030000e-002) (10, 5.38256540503796660000e-002) (11, -7.45092348346466650000e-002) (12, 1.81191753035985360000e-001) (13, 1.41785397994032360000e-001) (14, -4.35853161105565630000e-002) (15, -4.34262330326279810000e-001) (0, -7.16178429878518650000e-001) (1, -5.03970831692700830000e+001) (2, -8.10538410066429930000e-002) (3, 1.37575166189943770000e+000) (4, 2.93344681126972340000e+000) (5, 5.31126841224401900000e-001) (6, -7.55552240898564960000e+000) (7, -2.50753651029467810000e+000) (8, -9.45437370362458830000e+000) (9, 5.50129607092901480000e-001) (10, -1.43445526715452830000e+000) (11, 7.50532962027836930000e-001) (12, -2.52806236675224560000e-001) (13, 4.78879300516311450000e-001) (14, 2.56726955855521400000e-002) (15, 2.21737370312518500000e-001) (0, -1.59158450392575850000e+001) (1, 9.18725892063194930000e+000) (2, 1.02852211214927730000e+001) (3, 1.04876818812428610000e+000) (4, -1.65513426832206360000e+000) (5, 5.95550761543336860000e-001) (6, 2.54048507258648070000e+000) (7, 2.59453701543514590000e+000) (8, 4.29911825169132820000e+000) (9, 7.95338194763487580000e-002) (10, -4.30700928945095540000e-002) (11, 2.49949592303476660000e-001) (12, 4.64042697283634650000e-002) (13, 3.10256409466315050000e-001) (14, 4.88494808683916090000e-001) (15, 3.38864653323989070000e-001) (0, -1.79348210464633550000e+001) (1, -1.78505329812876430000e+001) (2, -6.93158440644684150000e+000) (3, 9.68883586639361470000e-001) (4, 4.63594619313315630000e+000) (5, -8.22620858673849580000e+000) (6, 7.99473374914712150000e-001) (7, 3.08855647790645660000e+001) (8, 1.33188355924990280000e+001) (9, 5.15096181396911820000e-001) (10, -1.95952194409120340000e-001) (11, 4.71359552750613920000e-001) (12, -5.65325239704056790000e-001) (13, -4.75510122219566120000e-001) (14, 1.08897176796798360000e-001) (15, -1.79076970405056160000e-002) (0, -4.02292777529450250000e-001) (1, -1.26964478711246310000e+001) (2, 1.78832396763661270000e+001) (3, 8.83982556755991800000e-001) (4, 6.18807010932247440000e+000) (5, 5.67876359492400560000e-001) (6, 7.23837824559714790000e-001) (7, 8.67507121614103840000e+000) (8, -1.28938057913377420000e+000) (9, -1.98648968919485500000e-001) (10, -1.78599093238938800000e-001) (11, -8.57155291030890720000e-001) (12, -1.62969049259540310000e-001) (13, -4.83207034611825680000e-001) (14, 2.69806990904892350000e-001) (15, 1.44071737947156640000e-001) (0, 4.38390138686209680000e+000) (1, 1.40215301471596390000e+001) (2, 2.18732849643380690000e+001) (3, 6.69912617938857920000e-001) (4, 4.53730580573123880000e-001) (5, 3.30982463770536640000e-001) (6, 6.13313737199160520000e-002) (7, -1.13629179526339170000e+000) (8, 5.90786037484966720000e+000) (9, 8.13085659240895260000e-002) (10, -1.07055346655544200000e-001) (11, 3.56523351349184520000e-002) (12, 1.43880071182595490000e-001) (13, 1.79749428575213450000e-001) (14, -5.79525422217345500000e-002) (15, 1.22980604130728960000e-001) (0, 2.39581260021493420000e+001) (1, 1.76184004154307810000e+001) (2, -1.86285328100250210000e+001) (3, 6.34055815256874270000e-001) (4, 2.05505047141134070000e+000) (5, -1.23609464189788260000e-001) (6, -7.55615348681317830000e+000) (7, -4.25031376134494270000e-001) (8, 2.59016312745458780000e+000) (9, 6.36083845488780720000e-001) (10, 4.82533166850733220000e-001) (11, 1.28147162146460740000e-001) (12, 4.15042412167855200000e-001) (13, 2.43308809178245990000e-001) (14, -6.73878834909281970000e-002) (15, 1.30744791746833980000e-001) (0, -2.78166033230907580000e+000) (1, 4.41331186143650540000e+000) (2, 1.97028176729752930000e+001) (3, -1.25292733702832470000e+000) (4, 2.96828645934008430000e-001) (5, -1.11961076264154550000e-001) (6, 1.66850805502137440000e+000) (7, -1.33636251369690130000e+000) (8, -3.72970077539989790000e-001) (9, 2.45338846541491430000e-001) (10, 3.78131310944108120000e-001) (11, -1.18639645411956420000e-001) (12, 5.05235561858964340000e-001) (13, 6.14484170661392830000e-001) (14, 3.52554107237928350000e-001) (15, 4.76325646239326940000e-001) (0, -1.16430607090067880000e+001) (1, -6.39432731158289870000e+000) (2, 3.02814870650223010000e+001) (3, -1.00386603242984990000e+001) (4, -6.06992439303018560000e+000) (5, 3.09558031579683360000e+000) (6, 9.71709199129512410000e+000) (7, -9.82910040253416820000e+000) (8, -2.80552168750131250000e+000) (9, -1.83701448140232420000e+000) (10, 1.47983174409648450000e-001) (11, -4.80184551695462650000e-001) (12, 3.23149944576212930000e-001) (13, -1.11266323017807700000e-002) (14, -2.07217592148207540000e-001) (15, -1.35547707663639520000e-001) (0, 4.22537949553573780000e+001) (1, 1.15473866915994710000e+001) (2, 1.68507102288649580000e+001) (3, -3.33123559962223050000e+000) (4, -5.82928760192764010000e+000) (5, 1.23098936834489300000e-001) (6, -4.11935576719635410000e+000) (7, 7.21090842765652880000e-002) (8, 1.97351426695810270000e+000) (9, 5.74311662711903370000e-001) (10, 1.19864983408576260000e-001) (11, -5.22691053596299470000e-002) (12, -3.49693932473778490000e-002) (13, -2.64040240466435150000e-001) (14, 1.74202972451355300000e-001) (15, 1.68810008609494850000e-002) (0, -1.36175317860679320000e+001) (1, 3.90001325419963910000e+000) (2, 1.36542255478456750000e+001) (3, 1.71798688136953510000e+000) (4, -7.97051522718232040000e-002) (5, -1.72053550492869460000e+000) (6, -8.83324754311080260000e-001) (7, 4.55723044848864830000e-001) (8, -3.70401417144313780000e+000) (9, 5.95761352501221640000e-001) (10, 1.23825861577025370000e-001) (11, 3.92408911183413960000e-003) (12, 1.48322739205376670000e-001) (13, 1.70414948407680390000e-002) (14, 5.77287201972976670000e-001) (15, -5.50183126635004770000e-002) (0, 3.50150141078773340000e+001) (1, 1.00736783796887250000e+002) (2, -3.35938948112857860000e+001) (3, 2.23740222316539450000e+000) (4, 2.80685513629339620000e+000) (5, -5.97496442350868180000e-001) (6, 4.61687607209294980000e+000) (7, -1.35084141718984990000e+001) (8, 6.92869460117797240000e+000) (9, 2.47104377907034520000e-001) (10, 7.05324201967581050000e-001) (11, -4.09889961661409400000e-001) (12, -6.59745826122365540000e-001) (13, 5.81283112754448440000e-001) (14, -1.16881202888163630000e-001) (15, 1.61959267692736110000e-001) (0, 1.41741371915189320000e+000) (1, -5.08778802996878100000e+000) (2, 1.99786169374115550000e+001) (3, -1.46992881881379710000e-001) (4, 1.42307674894622440000e+000) (5, -7.59768246249138550000e-002) (6, -6.34240224733220950000e-001) (7, 4.57554561391931120000e-001) (8, -1.84213572286586680000e+000) (9, -1.27740815798287440000e-001) (10, 1.61138464244044880000e-001) (11, -7.81843859148525610000e-001) (12, -5.33134138211846380000e-002) (13, -3.19959293468775000000e-001) (14, 8.00205674636829820000e-002) (15, 8.53818275415057190000e-003) (0, -1.46942634388295210000e+001) (1, 3.57082421418394930000e-002) (2, -1.83716555729508290000e+001) (3, -7.87439510040298330000e-001) (4, 1.59091587152776460000e-001) (5, -4.36569630446593860000e-001) (6, -3.44567218234764510000e+000) (7, -4.83672981981193750000e+000) (8, 5.58196605163512240000e+000) (9, -2.39448093008692080000e-001) (10, 7.97623450423963490000e-002) (11, 5.67122871686754350000e-002) (12, 2.76114932558803480000e-001) (13, -9.34258930021133750000e-002) (14, -1.66049837506528210000e-001) (15, 3.03097710831199520000e-001) (0, -9.17349240495552460000e+000) (1, 2.18207941717561970000e+000) (2, 1.44486966415298090000e+001) (3, 7.96906854319520020000e-001) (4, 6.79171757788466060000e-001) (5, 6.28721265364699740000e-001) (6, 2.83775963685288900000e-001) (7, -1.24109808925276300000e+000) (8, 9.37535982329452540000e+000) (9, -1.15030100846276600000e-001) (10, 9.57668466296064670000e-002) (11, 2.09336662743559580000e-003) (12, 1.10641027513295050000e-001) (13, 8.39472913481766890000e-002) (14, 4.66013263183548690000e-002) (15, -4.66866333489741530000e-002) (0, -1.72486237924138950000e+001) (1, -1.17564364117290370000e+001) (2, -6.73430543858725090000e+000) (3, 3.92622043437434840000e-001) (4, 2.72249534448272580000e+000) (5, 1.86226418718034580000e-001) (6, 1.23856506798553100000e+001) (7, -1.58237344381952210000e+000) (8, 4.87168546393533310000e+000) (9, -5.00153658925137430000e-002) (10, 4.53478435101438540000e-001) (11, 1.04271915265661170000e-001) (12, 1.02108283138396350000e+000) (13, 2.29754360606635400000e-001) (14, 2.60240592276514530000e-001) (15, -1.26570675875820130000e-001) (0, -1.53600539161347030000e+001) (1, 1.48335294667398670000e+001) (2, 3.67909407913188960000e+000) (3, 4.17341405889243680000e-001) (4, -6.69520959722764710000e-001) (5, 2.11184820232760580000e-001) (6, -1.48991200170894840000e+000) (7, -4.03487678621450830000e+000) (8, 2.54080324554984640000e-001) (9, 3.49891799763152770000e-001) (10, -3.78671735960772580000e-001) (11, 1.98011766220304110000e-001) (12, 1.06611093459234450000e-001) (13, -1.69707706582264560000e-001) (14, 1.47264012703307330000e-001) (15, 2.19750046422044180000e-001) (0, -2.08072670469343600000e+001) (1, 2.47101670689024540000e+001) (2, 3.45303271364196180000e+000) (3, 6.48272648941616960000e-001) (4, 1.02765389542395200000e+001) (5, -4.11024007251323380000e+000) (6, 1.86883156198094190000e+001) (7, 7.16202899191507260000e-001) (8, -1.17357012530392920000e+000) (9, 1.54447488908739120000e+000) (10, 8.86677075650138810000e-002) (11, 4.42914970539124320000e-001) (12, 1.08399918933030430000e+000) (13, 4.43948297407683490000e-001) (14, -3.79307089283742130000e-001) (15, 2.75378274888812610000e-001) (0, 2.56613358328467100000e+000) (1, -4.52239724149146980000e+001) (2, 3.90115605784664230000e+001) (3, 6.87557050295072300000e-001) (4, -1.96964822795407590000e+000) (5, -6.92583485349216880000e-001) (6, -6.12140976510180290000e-001) (7, 4.96137743829069140000e+000) (8, -1.31044362586055080000e+001) (9, 3.06232482670522440000e-001) (10, -4.93731745988658380000e-002) (11, -3.11058538367043610000e-001) (12, -4.43950803009911730000e-002) (13, -2.28271540526762830000e-003) (14, -6.58349604892407990000e-002) (15, 1.91119270597209230000e-001) (0, -1.29776382549899550000e+001) (1, 2.54861468527454310000e+001) (2, 1.67702198233795450000e+001) (3, -1.50666986479945670000e+001) (4, -1.57994712405779830000e+001) (5, -4.01591967179579880000e+000) (6, 7.29966209587875260000e+000) (7, -3.86907827804384840000e+000) (8, -7.33903734448937330000e+000) (9, -1.77622523630562660000e-001) (10, 1.17638193731531240000e+000) (11, -1.21229135229749760000e+000) (12, -1.08544546032999290000e-001) (13, 5.78842561376935570000e-001) (14, -3.19321033226944940000e+000) (15, 1.43427945853771800000e-001) (0, -2.07180224940565340000e+001) (1, -2.89493076677908690000e+001) (2, 2.22925230618108050000e+001) (3, 6.17880366611874510000e-001) (4, -2.64272437481294720000e+000) (5, 9.66436618727242400000e-001) (6, 3.02205812732668420000e+000) (7, 1.50153421589888880000e+001) (8, -1.34525871317769760000e+000) (9, -6.00360386765929620000e-002) (10, -5.87747257438809510000e-001) (11, 7.07827072879641970000e-001) (12, -3.98342076910640050000e-001) (13, -5.86838874684605870000e-002) (14, 4.14775114746023970000e-001) (15, 2.45537109807268420000e-001) (0, -2.50109035333166220000e+000) (1, -7.93557278125567220000e+000) (2, 1.17786827372992760000e+001) (3, 1.94316072376988050000e+000) (4, 3.03313786654225650000e-001) (5, -8.48201530306004870000e-001) (6, -1.94770240418643390000e+000) (7, -1.16244613591869150000e-001) (8, 2.39707605726902080000e+000) (9, 1.53706434596655370000e-001) (10, 2.22587368454893880000e-001) (11, 1.18301507311542740000e-001) (12, 1.11189413987005310000e-001) (13, 7.85857860592109880000e-002) (14, -4.95355606966894120000e-001) (15, -5.44922921757063140000e-001) (0, -1.28179332055861760000e+001) (1, -4.70648274668731490000e+000) (2, -1.49728345525814670000e+001) (3, 8.27444443827025370000e-002) (4, 8.43754273032184310000e-001) (5, 1.86360654217079980000e-001) (6, 1.99693250821557140000e-001) (7, -1.54628866722451240000e+000) (8, 5.11595955555219280000e+000) (9, 1.87242370235046950000e-001) (10, 9.47359490631528020000e-002) (11, -4.38392378907265350000e-001) (12, -3.72774578196220170000e-001) (13, 1.07240662090814800000e-001) (14, -3.03003570337950080000e-003) (15, 3.01890545025117310000e-001) (0, -7.04621744232279300000e+000) (1, -9.04017645214956470000e+000) (2, 8.18214306883112390000e+000) (3, 5.10422075672132490000e-001) (4, 7.98633132425224600000e-001) (5, -1.30963071817601310000e-001) (6, 2.82245701832257790000e-002) (7, -7.92332596769152090000e+000) (8, 3.06909932061716310000e+000) (9, -8.53726008814387760000e-002) (10, 7.13669427860535170000e-002) (11, -8.00451701526560090000e-001) (12, 2.33840465343418510000e-001) (13, -1.98751389911019980000e-001) (14, -1.18890352077400690000e-001) (15, 1.23367471429304530000e-001) (0, 2.78663888442106610000e+001) (1, 9.36732602845429520000e+000) (2, -9.65198030306499180000e+000) (3, 3.70189944085579090000e+001) (4, 1.40933220899805410000e+001) (5, -9.78161930452637130000e+000) (6, -5.95681968966442720000e+000) (7, -3.88337219212335260000e+001) (8, 1.72696645746599530000e+000) (9, 4.31873834327238800000e-002) (10, -8.84505936560168850000e-001) (11, 4.78738179050441190000e-001) (12, 5.53987835486645870000e-001) (13, 1.04984311463093680000e+000) (14, 5.68341514935827070000e-001) (15, 4.72852738246648140000e-001) (16, 3.95544445916454880000e-001) (17, 2.84144301976336670000e-001) (18, -1.10977111231209540000e-001) (19, -7.82092422138512820000e-001) (20, 9.40939020792679190000e-002) (21, -5.95167225717222030000e-001) (22, 4.25902239342475450000e-001) (23, 9.40229834442327880000e-001) (24, 1.85172562472199820000e-001) (25, 3.54212733572326240000e-001) (26, 1.90058254555209110000e-001) (27, -7.01426700067445670000e-001) (28, 8.53889287788294320000e-001) (29, -1.89243116683117860000e-001) (30, 8.30638061475189700000e-001) (31, 4.37261214409801920000e-001) (32, -3.12338063483874270000e-001) (33, 4.18441072884307900000e+000) (34, 8.59523879788826830000e-001) (35, 2.22961558088204450000e-001) (36, 4.90696663254295280000e-001) (37, 3.25723315240021350000e-001) (38, 7.32522614440219380000e-001) (39, 4.02621830468186780000e-001) (40, 8.71195634932051320000e-001) (41, 1.41258608131171190000e-001) (42, 4.23580129194235710000e-001) (43, 1.66810162591018770000e-001) (44, 1.03156494346154190000e+000) (45, 3.03376332867331920000e+000) (46, -1.22429811648961890000e+000) (47, 4.67679706785965320000e-001) (48, 8.40435513375822230000e-001) (49, -3.78412232787954220000e-001) (50, 8.79604750113332830000e-001) (51, 5.89491477101308560000e-001) (52, 5.27194396437926430000e-001) (53, 3.42583754856172980000e-001) (54, -7.28255606583501410000e-001) (55, 3.10017056151920490000e-001) (56, -8.30371609692638070000e-002) (57, -1.49453327326307580000e+000) (58, -2.79368276768303840000e-001) (59, -1.51815465447731310000e-001) (60, -1.60382917513841120000e-001) (61, 1.10409452094145320000e+000) (62, 3.25898094690741440000e-001) (63, -1.19565944964536850000e+000) (64, -5.54341585451073150000e-001) (65, 4.38768726295866220000e-001) (66, 5.19714869573974500000e-001) (0, -3.50642687756375300000e+001) (1, 3.84099584640378920000e+001) (2, 4.42465907336639220000e+001) (3, 8.77225828958893780000e-001) (4, 3.64666491363306070000e+000) (5, -2.76570228367300300000e+000) (6, 6.17841095728719340000e+001) (7, 1.07163126562343190000e+001) (8, -8.45286611070036640000e+000) (9, -8.50335636956383170000e-002) (10, 1.22136577122526010000e+000) (11, -5.43946557031301570000e-001) (12, -2.37283389674039110000e-001) (13, -6.56525049357377210000e-001) (14, 2.93032906603760480000e-002) (15, 6.49494557405359880000e-001) (16, -9.84146437792326330000e-002) (17, -2.49363692923212170000e-001) (18, 1.03627963564792440000e+001) (19, 7.22176255422740220000e-001) (20, 5.36272420089043190000e-001) (21, 1.00310541022644260000e-001) (22, -1.99039214102010500000e-001) (23, -1.76242017071640360000e-001) (24, 6.46689451504863920000e+000) (25, 3.12138334596736920000e+000) (26, 4.51097668592533920000e-001) (27, 1.96517500355757350000e-001) (28, 3.83870738272358570000e-001) (29, -5.72035912946073140000e-001) (30, 4.85429892756201210000e+000) (31, 8.79452318657979880000e-002) (32, 3.04134690148778360000e-001) (33, -1.79963961934657720000e-001) (34, 2.92612509732716130000e-001) (35, -5.18301551827341500000e-002) (36, -5.14839784415925150000e-001) (37, 1.07677808552632250000e-001) (38, 2.21034146867911650000e-001) (39, 9.59046739503154780000e-001) (40, 3.01300099940120440000e+000) (41, 2.12288500774516150000e+000) (42, 8.88890146596585270000e-001) (43, 6.39193041184037750000e-001) (44, 2.07881093850940360000e-001) (45, 6.09278093593326260000e-002) (46, 1.48748135153969100000e+000) (47, 9.37230576898863690000e-001) (48, -3.66200685201815810000e-001) (49, 3.83531324396969520000e-001) (50, -7.59392649843804170000e-002) (51, 1.04955783413840950000e+000) (52, 2.79234153176019180000e-001) (53, -7.50052577914341320000e-001) (54, -1.05662933988650810000e+000) (55, 1.28828357030061040000e+000) (56, 7.13754863600657760000e-001) (57, 4.63754164998006370000e-001) (58, 4.52133152303671510000e-001) (59, 4.75827120262090900000e-001) (60, -2.73672555260909890000e-001) (61, 8.59811359453387820000e-001) (62, -5.10175615534138700000e-001) (63, 8.91092512991990990000e-001) (64, 1.40689910215668480000e-001) (65, 5.19195143144268110000e+000) (66, 1.78380828376192760000e+000) (0, -1.12855986928824840000e+001) (1, 5.91898082883637140000e+001) (2, -8.30217608432985940000e+001) (3, 3.15570127585901220000e+000) (4, -6.04470753245172340000e+000) (5, -6.92545172875148560000e+000) (6, 1.02018226859169610000e+001) (7, -5.71773924614126900000e+000) (8, -2.62550482880309770000e+001) (9, 2.34464855160807580000e-002) (10, 8.67925876515824760000e-001) (11, 7.50744872436766240000e-001) (12, 1.29489297014934580000e-001) (13, 4.91781382174333590000e-001) (14, -3.23415048720650910000e-001) (15, -1.52874185946958290000e-001) (16, 1.76741324406230690000e+000) (17, -8.99872058615128270000e+000) (18, 1.94799199300857600000e-001) (19, 5.51716216303659750000e-001) (20, 3.09428992674430390000e-002) (21, 4.95020811259334280000e-001) (22, 1.97971341547920840000e-001) (23, 9.90037322331539650000e-002) (24, 7.01872098344175190000e-001) (25, 1.49756299112218410000e-001) (26, -3.76707845714702780000e-001) (27, 6.49695353663973910000e-001) (28, 7.32230308095564220000e-001) (29, 1.73898145726132850000e-001) (30, -1.36035893884274590000e-001) (31, 1.48837054701742820000e+000) (32, 1.08564216473127040000e-001) (33, 1.99304012350192210000e-001) (34, 3.08082568822614370000e-001) (35, 1.91019742222163270000e+000) (36, -7.40757862269509760000e-002) (37, 3.14244605201301760000e-001) (38, 1.06884313491661820000e-001) (39, 7.37448437343886760000e-001) (40, -6.09625849875197970000e-001) (41, 2.73358155201851920000e-001) (42, 1.32396953889453740000e+000) (43, 3.43990424139654140000e-001) (44, -1.02238274394369170000e+000) (45, -4.35133808501509010000e-001) (46, 3.59150390574059900000e-001) (47, 1.37198741395603510000e+000) (48, 1.54597675428435440000e-001) (49, 3.03684206889806680000e-002) (50, -1.89200065376171730000e+000) (51, 2.75765262927526100000e+000) (52, -2.87531619767940430000e-003) (53, -3.31737620569465430000e-001) (54, -3.92367593273955210000e-001) (55, 1.54567127067206390000e+000) (56, 9.55066829392127270000e-003) (57, -1.63534698564894200000e+000) (58, 5.16380297787683240000e-001) (59, -7.02832077904817720000e-001) (60, -7.88203897073459780000e-002) (61, -1.27960929826104610000e+000) (62, -3.30390707677467250000e-001) (63, -3.23133962644362120000e-001) (64, 2.40029667817782320000e-001) (65, 5.20483318680076020000e-001) (66, 4.68621301526286500000e-001) (0, 7.42822238202642900000e+000) (1, -2.91109076482853590000e+001) (2, 8.93775081526890420000e+000) (3, 1.83866406733511310000e+001) (4, 1.38408005408712090000e+001) (5, -1.25541935017502700000e+000) (6, 1.71549109970023640000e+001) (7, -4.93655337560279590000e+000) (8, -7.49692453869212020000e+000) (9, -6.47898536343186060000e-002) (10, -5.00819515960528760000e-001) (11, 4.00538485847298120000e-001) (12, -9.62154290694704040000e-001) (13, 8.22528942788004480000e-002) (14, 1.13003084287851370000e+000) (15, 2.13240941358435710000e-001) (16, -6.20891617478819600000e-001) (17, -4.09638585006788010000e-001) (18, -3.54168771928372330000e+000) (19, -8.55040841105275000000e-004) (20, 3.69836922086503650000e-001) (21, 5.69969629985559670000e-001) (22, 1.86688505600383690000e-001) (23, -2.82701178342799730000e-001) (24, 5.11235523004916810000e-001) (25, 1.81049905760732830000e+000) (26, 1.51268337622827030000e+000) (27, 1.82831989859534530000e-001) (28, -5.05408126794775200000e-001) (29, 2.55975799876223540000e-001) (30, 4.78967821368216420000e-001) (31, 3.69311792670695190000e-001) (32, 2.42693545280888760000e+000) (33, -4.97585295638970470000e-001) (34, 2.42493136116938900000e+000) (35, -1.39483739003662700000e-001) (36, 1.44855636998136130000e+000) (37, 1.04088520835657380000e-001) (38, -6.68157971048864710000e-002) (39, -8.64159527982325430000e-001) (40, 7.37044747421090190000e-002) (41, -2.38668536402894250000e+000) (42, 7.10011523008836630000e-001) (43, 4.23262428551583360000e-001) (44, 1.94496662970812780000e+000) (45, -3.89419781126723100000e-001) (46, -9.38051243257320010000e-002) (47, -7.49972852006442480000e-002) (48, 2.01214200126562020000e-001) (49, -6.59163892583570890000e-001) (50, 3.81483495445268380000e-001) (51, 1.51958703569231050000e-001) (52, 4.88596960779601130000e-001) (53, 4.56454127056156460000e-001) (54, 5.49177294359579850000e-001) (55, -1.65730663257607460000e-001) (56, 8.52326285872792020000e-002) (57, -1.26010056980719850000e+000) (58, 5.55137694118051360000e-001) (59, -1.02976501204881240000e-001) (60, -1.43843842292168380000e+000) (61, 2.20757891522239100000e-001) (62, 2.67437419613468030000e+000) (63, 6.67627996934447630000e-001) (64, 3.62274339837315770000e-001) (65, -5.41027911335055570000e-001) (66, -5.42625759786287910000e-001) (0, -6.50103685855893330000e+001) (1, 6.55424610171020840000e+001) (2, -5.85973784582578980000e+000) (3, -7.63315693409970120000e+000) (4, 2.44009673321416580000e+001) (5, -7.61198648653771050000e+000) (6, -2.18673125617123930000e+000) (7, -2.84493730563193770000e+001) (8, 3.16094875640833100000e+001) (9, -1.66819752903941420000e+000) (10, 1.29226213946098540000e+000) (11, 9.84113813528982420000e-001) (12, 6.17356529448403470000e-002) (13, 4.20861232106764320000e+000) (14, -4.50036445719375730000e-001) (15, 1.16677360186197360000e-001) (16, -2.26854151187987800000e+000) (17, 3.31514327039361190000e+000) (18, 9.13983903880142560000e-002) (19, 5.07220576623677590000e-001) (20, 1.35867196900835040000e-001) (21, -3.67705221112115180000e-001) (22, 1.44419685985071020000e-001) (23, 1.46791440598208080000e+000) (24, 6.77778172631729790000e-001) (25, 7.29941264407511950000e-001) (26, 5.04613773502108120000e-001) (27, 2.84613681862443180000e-001) (28, -6.69224836434394010000e-001) (29, 7.35025265410039210000e-001) (30, -5.84793373495496450000e-002) (31, 2.20552708258021110000e+000) (32, -2.21722006243720070000e-001) (33, -7.25288817130024240000e-002) (34, 3.50558560205333990000e-001) (35, -3.87368754530033050000e-001) (36, 1.01743955950462510000e+000) (37, 1.62923351790587090000e-001) (38, 3.54404697224146190000e-001) (39, 3.62000019825738260000e-001) (40, 4.69518104820902450000e-001) (41, 2.41575092512247510000e+000) (42, 8.66474640605479520000e-001) (43, -1.64198470446709830000e+000) (44, 2.38835447381586520000e-001) (45, -2.31299178342046520000e+000) (46, 1.47732087288274530000e-001) (47, 1.16110272883471820000e+000) (48, 4.29810059352022540000e-001) (49, 7.69299342658296000000e-002) (50, 8.29128151814429590000e-002) (51, 1.30793514796555250000e-002) (52, 1.87492618849781830000e+000) (53, -1.09561098371896580000e+000) (54, -1.75124797903929520000e+000) (55, 5.57840517057176630000e-001) (56, -8.70674625945758400000e-001) (57, 5.04042448220658020000e-001) (58, -2.27118538372564550000e+000) (59, 9.35415134640292520000e-003) (60, -4.64661371865991490000e-001) (61, 4.96791206109394760000e-001) (62, -5.32564195408331350000e-002) (63, -1.07027767417039260000e-002) (64, 2.18691801314791880000e-001) (65, -2.57107352493012180000e+000) (66, 6.11664852098357410000e-001) (0, -7.08053303002920130000e+001) (1, -1.53816290892524050000e+001) (2, 5.30182411396098540000e+000) (3, -5.87870482555408190000e+000) (4, -1.94200387342722290000e+001) (5, 2.00062016818120900000e+000) (6, 6.44064174740817210000e+001) (7, -2.63709322806988760000e+000) (8, -1.43289839523868390000e+001) (9, -8.82209916850989820000e-001) (10, -1.96041241061381720000e+000) (11, 1.06651326531873500000e+000) (12, 1.72375611290503690000e-001) (13, 3.57665115837404460000e-001) (14, 8.19006824138290710000e-002) (15, 8.08133353420056320000e-002) (16, 1.14906310990408910000e+000) (17, 4.84763988043240720000e-001) (18, -3.55518336549164980000e-001) (19, -3.71823434853149120000e-001) (20, -2.26465014811669470000e-001) (21, -4.50231657492122680000e-001) (22, -4.11282766466514130000e-001) (23, -9.78275556042924710000e-001) (24, -1.06438712894817540000e+000) (25, 5.07217142824047060000e-001) (26, 7.35308960732381170000e-001) (27, -2.28429156462120950000e-001) (28, -2.72167077834202240000e-001) (29, -3.68359146558852490000e-001) (30, 3.87693390474323000000e-001) (31, 3.77923571503593570000e-001) (32, 3.84218082223238110000e-001) (33, 8.84718353482591870000e-001) (34, -2.02183747010609070000e-001) (35, -5.50855291864868240000e+000) (36, -1.12147387530484480000e-001) (37, -9.92572623792880030000e-001) (38, 7.13765817516845150000e-002) (39, 9.94307006401987940000e-002) (40, 1.23906925419855020000e+000) (41, 7.20431881305601260000e-002) (42, 3.81987599756749400000e-001) (43, 3.97003965392060120000e-001) (44, -3.23530883749499560000e-001) (45, 1.12860369541901780000e-001) (46, 3.07697970001240050000e-001) (47, 9.37091275934813370000e-002) (48, 7.69294766189926320000e-001) (49, 8.20862943484457730000e-003) (50, 2.06444506100148080000e-001) (51, -1.57804900636380390000e-001) (52, -4.10529491184922880000e+000) (53, -2.31545582208857650000e-001) (54, -4.98891893156108990000e-002) (55, -1.40446485513271970000e-002) (56, 5.74338139565224500000e-001) (57, 8.83668879778588960000e-002) (58, 9.59054010118737480000e-001) (59, 2.17242465054856560000e-001) (60, 5.59469071180197440000e-002) (61, 9.19711808014456180000e-002) (62, -8.78784446520912810000e-001) (63, -5.23864993987260270000e-001) (64, 1.70247664358276030000e-002) (65, 1.78112783497533710000e-001) (66, 1.23779842633621510000e-002) (0, -2.41743730541571690000e+001) (1, 6.80653025540461700000e+000) (2, 4.71852898531101910000e+001) (3, 4.55889334766860530000e+000) (4, 5.10562787703703870000e+000) (5, -3.67420407759097230000e-001) (6, -5.67612185391181520000e-001) (7, -5.66089981925759920000e+000) (8, -1.95108055565873140000e+001) (9, -6.67587468666622220000e-001) (10, -2.40857586406701830000e+000) (11, 7.24635086532233520000e-001) (12, -3.40919599487904850000e-001) (13, 4.02100664722283840000e-001) (14, 8.16624635706700190000e-001) (15, 7.33033420814531600000e-001) (16, -4.81614060610803970000e-001) (17, 1.25326116618281410000e+000) (18, 1.80353241006395710000e+000) (19, -2.43408574906500610000e-001) (20, 7.98624019000632290000e-001) (21, 3.09860872479216950000e-001) (22, 2.83414919270079780000e-001) (23, -1.69397819216331990000e+000) (24, 1.07481221845633600000e+000) (25, -1.03323774706891230000e-001) (26, 1.59462960364792630000e-001) (27, -2.42082533046568040000e-001) (28, -1.31330053989909570000e-001) (29, -3.61800157034131760000e-001) (30, 1.86618189658829450000e-001) (31, 6.72991721526987160000e-001) (32, 4.06054429735178190000e-001) (33, -5.07713339732551950000e-001) (34, 2.33959936001760690000e-002) (35, -1.76168398497473900000e+000) (36, 2.01103410932473370000e-002) (37, 2.97574408033150380000e-001) (38, 5.39775494447098940000e-001) (39, 6.32313497857953880000e-001) (40, 4.04157136244604410000e+000) (41, 5.16698122566273450000e-001) (42, 8.83158962282325270000e-001) (43, 9.43351548710206350000e-003) (44, -3.51299691925985810000e-001) (45, -1.89623038421881300000e-001) (46, 7.82489606298707310000e-002) (47, 8.78043186510266580000e-001) (48, 1.06148614611104810000e+000) (49, -5.40631231201900150000e-001) (50, 9.11094898076349050000e-002) (51, 1.43299362932786690000e+000) (52, -5.76702141785898850000e-001) (53, 6.16168487047461300000e-001) (54, -8.68005360123935140000e-001) (55, 7.54776875246933270000e-001) (56, -5.94701278181669850000e-001) (57, 5.51364145094159990000e-001) (58, -7.78271583933646950000e-002) (59, 4.37000207133664610000e-001) (60, 3.14627294144635580000e-001) (61, 1.01701097762882410000e+000) (62, 3.98111806625810750000e-001) (63, 3.14329878585909260000e+000) (64, 2.58703429781834300000e-001) (65, -2.67443498649524640000e-002) (66, 2.03836809619767910000e-001) (0, -1.30403771182118340000e+001) (1, 1.59717070477853550000e+001) (2, 1.25022065948403860000e+001) (3, 6.26938576611753360000e+000) (4, 5.32607079545324070000e+000) (5, -4.27596003230403990000e+000) (6, 1.35935688918023970000e+001) (7, 2.35087551366482220000e+001) (8, -3.58462588760001280000e+001) (9, 5.40277320930444670000e-001) (10, -4.95430407894868310000e-001) (11, -1.20320871853897490000e-001) (12, 2.16701029451560470000e+000) (13, -1.20432193012636300000e-001) (14, -1.43018757208216140000e-001) (15, -7.39342748406824010000e-001) (16, 3.34215436848738080000e-002) (17, 8.13895350510456250000e-001) (18, 8.85750047214364340000e-001) (19, 5.72799731276877670000e-001) (20, -2.50740389916792540000e-001) (21, -1.27295235386212680000e-001) (22, 2.13452080219504760000e-001) (23, -3.30020345857391210000e-001) (24, -3.40993188950499130000e-002) (25, 8.91969153315640420000e-001) (26, 5.62633861052224680000e-001) (27, 1.14510102939317830000e-001) (28, 8.46405426025455760000e-001) (29, 4.62403028489752180000e-001) (30, -7.04690811306901140000e-002) (31, -5.52681187068483020000e-001) (32, -1.64431667807888540000e+000) (33, -2.10815075205120720000e-001) (34, 3.35076344805235850000e-001) (35, -2.33918041672549300000e+000) (36, 9.24149148139009500000e-001) (37, -2.68266108509647940000e-001) (38, 2.29742639136154500000e-001) (39, 1.42009299054194660000e+000) (40, 2.57790875336478760000e-001) (41, 7.58206854511360720000e-002) (42, -6.23182201306117720000e-002) (43, 4.07545079952313370000e-001) (44, -4.74687946373277940000e-001) (45, 1.13439289476147390000e+000) (46, -1.31459669083164640000e+000) (47, 6.90016817927760260000e-001) (48, 7.62278832312551340000e-001) (49, 2.46961703408924570000e-003) (50, 1.22776522790630360000e+000) (51, 3.08655868234939330000e-002) (52, -5.61180780883573590000e-001) (53, 1.17566384652105140000e+000) (54, -1.27267740257111890000e+000) (55, -1.99250006894434870000e-001) (56, 4.62670642787421590000e-001) (57, -5.25303171938839130000e-001) (58, 6.62203723939330140000e-001) (59, 5.21925100271172000000e-001) (60, 1.34687140179799390000e+000) (61, 2.48108517952475150000e-001) (62, 3.77261917038047790000e-001) (63, -6.87049522865564530000e-001) (64, -4.02705369753418030000e-002) (65, -2.18760033874311150000e+000) (66, 1.55933702001778610000e-001) (0, 2.21524231429413090000e+001) (1, -1.76466318127695270000e+001) (2, -2.01202241327388580000e+001) (3, 4.60260293138292380000e+000) (4, -2.82089358625406410000e-001) (5, 4.59409433636616440000e+000) (6, -1.83744774174503820000e+001) (7, 3.53075775247823740000e+001) (8, 3.10511922026348750000e-001) (9, -7.77939032321052990000e-001) (10, 3.23998181363884140000e-001) (11, 6.51920501377448500000e-001) (12, 2.13416944238479860000e+000) (13, 1.86181984508027730000e-001) (14, -1.55530836142825670000e-001) (15, 7.22946481895513140000e-001) (16, 1.04996025847619110000e-001) (17, 1.27973421821441550000e-004) (18, 1.37577956329247010000e+000) (19, 5.48996626634051450000e-003) (20, -5.19195207250327200000e-001) (21, 2.78809060631078410000e-001) (22, -6.65113665991472370000e-001) (23, 1.35125843432300830000e-001) (24, -9.64857362671971640000e-001) (25, -3.16062128578507960000e-001) (26, 3.35671911124595930000e-003) (27, 4.32001370845594870000e-001) (28, 1.75778587388905730000e-001) (29, -3.38237530336204410000e-001) (30, 4.80017774774828490000e-001) (31, -1.85889440592399540000e-001) (32, -5.97820817958835440000e+000) (33, 1.56324259723344360000e+000) (34, -9.84195069344398490000e-002) (35, -4.16675105578712290000e-001) (36, 3.06823848488131660000e-001) (37, -6.52966712847605770000e-001) (38, 5.33361989810366560000e-002) (39, -2.90968859926059250000e-001) (40, 6.36551974835098290000e-001) (41, 3.24997704967979880000e+000) (42, 1.02162804273325180000e-001) (43, 2.08728837408651420000e-001) (44, -1.44982545100563630000e-001) (45, 1.69398711982735040000e+000) (46, 7.28833893261792820000e-001) (47, 5.92605972538165490000e-001) (48, 4.27221685544299510000e-001) (49, 1.69167372446522380000e-001) (50, 4.73056513614122880000e-001) (51, 1.02505998542015010000e+000) (52, 5.33843561424083290000e-001) (53, -4.92897231465982260000e+000) (54, 1.96347808778044200000e-001) (55, 5.58400125054160810000e-001) (56, 1.18668860137596590000e+000) (57, -2.87488814603831520000e-001) (58, 1.42540182347272950000e+000) (59, 3.42913665979260320000e-001) (60, -2.14516052115807380000e-001) (61, 8.44998728048050100000e-001) (62, -7.08349586140019970000e-001) (63, 4.02547015002144240000e-001) (64, 5.02960741792795370000e-001) (65, 3.97642754883558990000e-001) (66, -1.17784494212961790000e-001) (0, -1.23116620131228580000e+001) (1, 2.05556625448204290000e+001) (2, -4.02612434984365350000e+001) (3, 1.86937269081909040000e+001) (4, -4.60950510651600620000e+000) (5, 3.24508483491917230000e+000) (6, -3.51311878895695740000e+001) (7, -2.54146318448078930000e+001) (8, -2.09909311776140810000e+000) (9, -4.58861508252351650000e-002) (10, -1.30527317494032430000e-001) (11, -4.69542488852916220000e-001) (12, -2.03289001703889030000e-001) (13, 5.33805663565817270000e-001) (14, 3.40632010371393790000e-001) (15, 4.55619622630788310000e-001) (16, 1.45268794113912510000e+000) (17, 6.12754462165701060000e-001) (18, -5.35099461664347580000e-002) (19, -2.51785636410275850000e-001) (20, -3.49527984094221840000e-002) (21, -2.84453537607687820000e-001) (22, 4.68454220236444620000e-001) (23, -3.50844621880785150000e-002) (24, 2.06470313593611990000e+000) (25, -7.86371026510234720000e-001) (26, 2.27657178979269320000e-002) (27, 9.98811310241915720000e-001) (28, 1.52183863760485560000e+000) (29, -5.50253762032965720000e-001) (30, 1.84344355829370120000e+000) (31, -2.50745422095101700000e-001) (32, 3.30223511548535740000e-001) (33, 2.18965398790457900000e-001) (34, -4.02631049782716520000e-001) (35, -2.76270597976928710000e-001) (36, 8.25929343345207380000e+000) (37, -5.53803467938912660000e-001) (38, -2.69747504626496050000e-002) (39, -1.22294586727016870000e-001) (40, 2.60628351051429400000e-001) (41, -1.12589003741741020000e-002) (42, -1.29157929472207660000e+000) (43, 8.61922228305527500000e-002) (44, 1.41145251755634420000e+000) (45, 1.76132595433788040000e-001) (46, 8.78768292022989450000e-001) (47, -8.82683800465509790000e-002) (48, -5.79229365328087890000e-001) (49, -3.11438049123060000000e-001) (50, -3.99322413402652400000e-001) (51, 4.39349446345543790000e-001) (52, 1.05004384908729930000e-001) (53, 4.46436798077711470000e-001) (54, 9.53683340892617410000e-001) (55, -1.63565806680720430000e-001) (56, 5.73471029995502680000e+000) (57, -1.50590357784044460000e+000) (58, 6.27119792611222300000e-001) (59, 5.84925808003465720000e-001) (60, 2.40639498770704090000e-001) (61, -8.09496347130018610000e-001) (62, 6.58533044455330450000e-001) (63, 5.13259049716842550000e-001) (64, -4.21421564573448770000e-002) (65, 1.32556458589897710000e+000) (66, -2.41204941178497940000e-001) (0, 7.13691931086365800000e+001) (1, 1.23160770324572870000e+002) (2, 3.17148738284949910000e+001) (3, 2.74952773702906720000e+000) (4, -2.21123077138524680000e+000) (5, -4.05992862818215890000e+000) (6, -1.89499627352622180000e+001) (7, 4.08894661594569660000e-001) (8, 8.27089324258061250000e+000) (9, 7.12477485075074800000e-001) (10, -9.51918988007424580000e-001) (11, 2.79803594607501090000e-001) (12, 4.76095307203988790000e-001) (13, 3.17752843536199260000e-001) (14, 1.23831750889489960000e-001) (15, -5.22051985931047740000e-001) (16, 1.00361552050544380000e-002) (17, 3.00752543406368260000e-001) (18, -8.28684375212770160000e-001) (19, 5.02435764760532310000e-001) (20, 9.24744993249287270000e-001) (21, 9.95454426059743880000e-001) (22, -1.76808024539860600000e+000) (23, -1.02189081810331080000e+000) (24, -1.25701360627164330000e+000) (25, 3.53406982645267150000e-001) (26, 2.15571225418838610000e-001) (27, 1.54026845100661590000e-001) (28, 1.48735732776805630000e+000) (29, 3.99686997490258640000e+000) (30, 4.47714750430354580000e-001) (31, -2.98113520688935120000e-002) (32, 1.79864311850987630000e+000) (33, -3.98059795184774020000e-001) (34, 2.58702819644589580000e-001) (35, 1.94981812489831770000e+000) (36, -6.59108497387777830000e-002) (37, -1.28425351421142040000e+000) (38, 8.77924788727231230000e-001) (39, 5.66869356844169060000e-001) (40, -4.69986905416146070000e-001) (41, -3.61975783274726970000e+000) (42, 1.09496215380980780000e+000) (43, 3.98432958119553480000e-001) (44, 1.19239454394808940000e+000) (45, 6.05957617291391300000e-001) (46, -2.70998732581064380000e-001) (47, 2.10750675475590150000e-001) (48, 4.61655311888849010000e-001) (49, 1.13816746404589720000e+000) (50, -7.53204922474555620000e-001) (51, 1.53760390247359410000e-001) (52, 6.60446760076161320000e-001) (53, 3.49639669796550150000e-001) (54, 2.86707945777597170000e-001) (55, 4.81900983821370530000e-001) (56, -1.27876192942022500000e+000) (57, -3.92844613437957010000e-001) (58, -3.79400618814975500000e-001) (59, 2.15658822372992110000e-001) (60, 2.39416061435715170000e-001) (61, 5.47736623455978400000e-001) (62, 2.06684381826272910000e-001) (63, 1.48777830872980380000e-001) (64, 3.49525490421122910000e-001) (65, -1.01502428075683570000e+000) (66, 4.97016220789585350000e-001) (0, -5.48048930022063900000e+000) (1, 1.35142863760306930000e+001) (2, 1.81581342640180130000e+001) (3, 2.55413772733595950000e-001) (4, 1.74215439122971350000e+000) (5, -4.10052298712645410000e+000) (6, -1.27817638198373070000e+001) (7, 8.21776220596641060000e+000) (8, -2.37153576715459520000e+001) (9, 6.05149841510454810000e-001) (10, 1.81097670349186290000e+000) (11, 1.67656713479131390000e-001) (12, 3.73808454478632700000e-001) (13, 2.91060177890857310000e-001) (14, 2.60322912205260710000e-001) (15, -4.28639058100741820000e-002) (16, 1.22473314713383750000e-001) (17, 1.54561376834696820000e+000) (18, 6.38019188246324750000e-001) (19, 7.04351879610188640000e-001) (20, 1.75157357214604610000e+000) (21, 3.67932057731751030000e-001) (22, -1.00758445200939390000e-001) (23, -5.79666560461036400000e-002) (24, 2.16659795233538950000e+000) (25, 5.61812088131136480000e-001) (26, -1.60835096245696670000e-001) (27, -2.80243796402284760000e-002) (28, 1.90478687675145770000e+000) (29, -5.13016944150841090000e-001) (30, 2.51759821134592330000e-001) (31, 1.33821278355216930000e-001) (32, 1.16263721210887040000e-001) (33, -2.92248970355319770000e-001) (34, 1.87624383444453950000e-001) (35, -4.05127074240615280000e-001) (36, -4.96135267768678940000e-001) (37, -6.12857047923608620000e-001) (38, 2.69041172193734630000e-001) (39, 1.06196376922005140000e+000) (40, -5.93087496053984810000e-001) (41, -4.39503224600264200000e-001) (42, 4.46095482058427140000e-001) (43, 1.91298418300910130000e-001) (44, -3.84471487583348700000e-001) (45, -2.16251406511915180000e-001) (46, -1.35046387363246640000e-001) (47, 7.09410992025205970000e-001) (48, 3.36285263558950440000e-001) (49, -6.76753336753844970000e-001) (50, 9.07419583926145410000e-001) (51, 8.56938068396154940000e-001) (52, 3.47665258409782190000e-001) (53, 3.44659376603523360000e-001) (54, -5.89972819152844020000e-002) (55, 1.16527542944693760000e+000) (56, -2.85715652628235880000e+000) (57, 7.68713155947278290000e-001) (58, -5.11175535195984800000e-001) (59, -4.27566105947050980000e+000) (60, -3.05002494494496070000e-001) (61, -6.64913017621113430000e-001) (62, 1.09731893669749840000e-001) (63, 2.27466650625215150000e-001) (64, 1.24890907626101290000e+000) (65, 7.00611953950155270000e-002) (66, 6.85643419135873790000e-001) (0, 3.83304316352927260000e+001) (1, -6.86245981897923230000e+001) (2, -1.17953844156476780000e+001) (3, -1.51266376570026750000e+000) (4, -2.72773076894129090000e+000) (5, 8.41258284277215120000e+000) (6, 1.01801107042686500000e+000) (7, 7.25146508863617180000e+000) (8, -1.16306160797312400000e+001) (9, -4.30806923015217450000e-001) (10, 2.00058045712922990000e-001) (11, -1.98177387859803600000e-001) (12, 3.06891269639035620000e-001) (13, -2.42182443246197370000e-001) (14, 1.41656705984755160000e-002) (15, -2.03084326737268310000e-001) (16, -5.11744961831218090000e-002) (17, 3.76992260139369820000e-001) (18, 1.24700801956665300000e-001) (19, 3.92514894331000790000e-001) (20, 5.15816756798521130000e-001) (21, -1.99008216728012080000e-001) (22, 3.17050877497516750000e+000) (23, -8.65511185592378610000e-001) (24, -7.19314545480735150000e-001) (25, 3.38644962791982530000e-001) (26, 7.60094725957236480000e-001) (27, -4.91698810416182520000e-001) (28, 1.51690424089204940000e+000) (29, 1.58478818539880170000e+000) (30, -1.35320320419619340000e+000) (31, 5.00642099476329760000e-001) (32, 3.82557845468209980000e-001) (33, 2.92762322560367330000e-001) (34, 3.05156332922276120000e-001) (35, 3.55811344397346100000e-002) (36, 4.95500294431962640000e-001) (37, -1.14458527756019650000e-001) (38, 1.28262291436824230000e-002) (39, 4.26989853153101830000e-002) (40, 6.17259225557946920000e-003) (41, -4.49569934756437920000e-001) (42, 2.60046942022347850000e-001) (43, -6.94496840867354910000e-002) (44, 6.55542517238919210000e-001) (45, 1.32008544023544840000e-001) (46, 2.12556502831597930000e+000) (47, -2.15979637244307910000e-001) (48, -9.72302548945956360000e-002) (49, -5.86434251255491310000e-001) (50, -1.25193544867638230000e+000) (51, -2.15660942915744170000e-001) (52, 5.00418793582956610000e-002) (53, 3.95379380305425390000e-003) (54, -3.12567250833980030000e+000) (55, 1.41187670842676580000e-001) (56, -2.49387210906622060000e+000) (57, 9.62953974307632410000e-001) (58, 2.94058862819398190000e-001) (59, 1.28211425312428820000e-001) (60, 4.02237633313173860000e-001) (61, 6.22523518094732830000e-001) (62, -2.70944674698288480000e-001) (63, 3.26491827061224540000e-001) (64, 2.31933116699430450000e-001) (65, -2.20537183951086040000e+000) (66, -3.64365119812200930000e-001) (0, -6.43756520695933610000e+000) (1, 4.39116060647134740000e+001) (2, -3.94780668210945460000e+000) (3, 2.23792717313669650000e+000) (4, 1.16954391810036180000e+001) (5, -2.67325437605107850000e-001) (6, -4.06314640926757240000e+000) (7, -1.61999755074892530000e+001) (8, 3.10699819783247510000e+001) (9, 3.08434640425404080000e-001) (10, 3.40101608319802180000e-001) (11, -5.94691797262746120000e-001) (12, 1.30090731174343670000e-001) (13, -9.34067985157745690000e-001) (14, -1.03558262425171690000e-003) (15, 1.76597037773223340000e-004) (16, 7.56302334670486350000e-001) (17, 1.06413178761541130000e+000) (18, -3.44940418496114450000e+000) (19, 8.54469941240025730000e-001) (20, 2.40985616232310020000e-001) (21, 1.35078075588111600000e+000) (22, -7.91558339615278380000e-002) (23, 1.59983624535479850000e+000) (24, -1.57127623725626000000e-001) (25, 1.25713540266842890000e+000) (26, -2.23062639454557690000e-002) (27, 1.07265174692138920000e+000) (28, 2.46026225865239730000e-001) (29, -1.47772578289592090000e+000) (30, 8.03828279627889280000e-001) (31, 4.89743577334387230000e-001) (32, 3.35707566276577830000e-001) (33, -6.09106218226028280000e-001) (34, -5.98896447085910720000e-001) (35, 2.27957133188992470000e-001) (36, 1.75371821954314800000e-001) (37, -2.90939281791229740000e-001) (38, 1.70701638053484840000e-001) (39, 6.97249081382554510000e-002) (40, 6.72896029898774060000e-002) (41, -3.20314039084038940000e-002) (42, -5.76628988403385560000e-003) (43, 6.03572163025321910000e-001) (44, 1.91076602775346970000e-001) (45, 6.08086676720558380000e-001) (46, -8.88012812519674680000e-001) (47, 3.22609868817918590000e-001) (48, -6.52471231813582800000e-002) (49, 5.43592732322830670000e-001) (50, 1.15787711307065640000e-001) (51, 1.00055103171375780000e+000) (52, 6.91094372214816180000e-001) (53, -3.98360403643057970000e-001) (54, 6.50247340790863770000e-001) (55, -3.62428618934689530000e-001) (56, 2.14370602435095890000e+000) (57, 2.56583657913219080000e-001) (58, 1.34592501169774770000e+000) (59, 1.67069455304709210000e-001) (60, -1.93655426881409050000e-002) (61, 9.05344845269977270000e-001) (62, 9.76896327006206770000e-001) (63, 1.82193659078903470000e-001) (64, -2.04521761484590530000e-001) (65, 1.19592870725847610000e+000) (66, 1.64810073353264970000e-001) (0, 1.65011213209718230000e-001) (1, 3.59777554197882310000e+001) (2, -1.56361210531837730000e+001) (3, -3.34337527534756160000e+001) (4, 7.62321247331607490000e+000) (5, -5.35699209619635400000e+000) (6, 6.63410706421176500000e-001) (7, 5.86392966141689430000e+000) (8, 6.30431699507935580000e+000) (9, 7.38409264127355830000e-002) (10, 6.92753229618940370000e-001) (11, -1.05661237966815120000e+000) (12, 2.47913932515256840000e-001) (13, 4.44657693700663940000e-001) (14, 8.55993404431749210000e-001) (15, -2.31929345134354900000e-001) (16, 7.07285660937051250000e-001) (17, -1.70323061364883490000e+000) (18, -4.65624523410084620000e-002) (19, 1.09504748809258960000e+000) (20, -5.91675076653355390000e-001) (21, 2.47962377432668600000e+000) (22, 1.57907056955952110000e-001) (23, -2.41070935166267790000e+000) (24, 5.76685282074986640000e+000) (25, 3.84736151419381790000e-002) (26, 4.08097896431960760000e-001) (27, 3.99912154963657730000e-001) (28, 2.93819602563692660000e-001) (29, 3.41469970281791210000e-001) (30, -2.69444839599430940000e-001) (31, 1.25667849755579960000e-001) (32, 1.41003851860107030000e-001) (33, 8.41760574178649910000e-001) (34, 6.83550390229859750000e-001) (35, 5.09712078839383780000e-002) (36, -3.67256947230565620000e-001) (37, 4.72634709536767160000e+000) (38, 3.28862610581752310000e-001) (39, -6.69673359550650440000e-001) (40, -2.30262460820913510000e-001) (41, 6.17538766947997810000e-001) (42, 4.68871971680311970000e-001) (43, 2.87707586602639790000e-001) (44, -3.36198170431811270000e-001) (45, 2.99402963678847720000e-001) (46, -4.58775013851679070000e-001) (47, 3.42241278312165330000e+000) (48, -2.45769799555632880000e-001) (49, 5.19300684467772000000e-001) (50, -4.84586736586221870000e-001) (51, 2.73434072005497570000e-001) (52, -2.67450940375105360000e-001) (53, -3.31607755007065690000e-001) (54, 9.94854798208371640000e-001) (55, 2.21674036361719610000e+000) (56, -3.48522879680499830000e-002) (57, -2.76927183937218050000e-001) (58, 5.89100927120291940000e-001) (59, 3.44773953885304350000e-001) (60, -2.21813054752930320000e+000) (61, 7.49402217560099500000e-001) (62, -3.01404419055813920000e+000) (63, 1.98789829403645760000e-001) (64, -3.18909325138624470000e-001) (65, 1.35785912706035730000e+000) (66, 9.91583214456572380000e-001) (0, -2.21921844510818960000e+000) (1, -2.08575916826015630000e+002) (2, -3.02549295886529370000e+000) (3, -2.43718910013258760000e+000) (4, -1.35983218767603580000e+000) (5, 3.46996503213288140000e+000) (6, -1.84386129465715710000e+000) (7, 3.43417773178626430000e+001) (8, -7.57384104915873930000e-001) (9, -3.72661652683184830000e+000) (10, 7.56205292960218100000e-001) (11, -6.09203071942266490000e-002) (12, 8.59875042379634970000e-001) (13, 1.76884321888320100000e-001) (14, -1.38639505644511690000e-001) (15, -2.29453910214206860000e-001) (16, -1.61965656794659570000e-001) (17, 1.98738034530310630000e-002) (18, -4.06175694593453040000e-001) (19, 6.11195192982108120000e-001) (20, 4.80355084070741340000e-001) (21, -8.17415919613955210000e-001) (22, -7.33341417282715180000e-002) (23, 3.77452200440747900000e-001) (24, 7.13312091771212910000e-001) (25, 1.92290214439513580000e-001) (26, 4.25057651646883690000e-001) (27, 1.14658192366041910000e-001) (28, 5.94300051458953730000e-002) (29, 8.68180618013998930000e-001) (30, -2.49616283059340470000e-001) (31, -1.53973026692757060000e-001) (32, 5.25218091254283980000e-001) (33, 4.66894747542664800000e-001) (34, 1.32149093680159870000e-001) (35, 7.78423294623716620000e-001) (36, -2.16160239849934560000e-002) (37, -3.71755666648609980000e-001) (38, -5.80590444903532970000e-002) (39, 4.83699910842573020000e-001) (40, 1.72419725867495270000e-001) (41, 5.38438904117246600000e-001) (42, 3.90562530443482050000e-001) (43, -2.97216555240534530000e-001) (44, 2.80800936403718170000e-001) (45, 4.86800317071727990000e-001) (46, 1.26064922433385610000e+000) (47, -7.29232541854200470000e-002) (48, -4.98176609523635630000e-001) (49, 3.04252082261149800000e-001) (50, 1.85206265582155720000e-001) (51, -2.77420121908796610000e-001) (52, 4.19972816155326940000e-001) (53, -2.19070186973533470000e+000) (54, -3.42086630601602710000e-001) (55, -1.65333824012665020000e-002) (56, 5.23531092459975870000e-001) (57, -1.73072163410978700000e-001) (58, 5.11350017592805410000e-001) (59, 4.48171357277704280000e-002) (60, -4.03469374038418980000e-001) (61, 1.05105388458179870000e+000) (62, -2.70439472406552810000e-001) (63, -5.69263742149584860000e-001) (64, -1.05324047651659170000e+000) (65, 7.11604205947951370000e-001) (66, 6.13388260427080170000e-001) (0, 9.88885659573221150000e+001) (1, -7.99631859172562400000e+001) (2, -1.01558474646372060000e+002) (3, 3.98087936555893850000e+000) (4, 1.40440322962368910000e-001) (5, 1.04508418727990390000e+000) (6, -3.67691976836461410000e+001) (7, -1.40027458359689620000e+001) (8, 4.14306511949245360000e+001) (9, -1.91349564332483870000e-001) (10, -5.22320999635651150000e-001) (11, 9.52993443672683460000e-001) (12, 5.40894546586285550000e-001) (13, 1.77376825645499080000e+000) (14, 1.05994005645016330000e+000) (15, -2.01708211336394600000e-001) (16, 1.03747111756606520000e-001) (17, -5.17810703569019590000e-001) (18, -3.69387856408321220000e-001) (19, 9.78066957438803730000e-002) (20, 4.97474838147978880000e-001) (21, 1.23525749519543200000e+000) (22, 5.83439588603568040000e-001) (23, -1.27847472522409860000e-001) (24, -1.13704876047786850000e+000) (25, -3.81309559183732820000e+000) (26, -1.59508331659888850000e+000) (27, 2.20262973862193460000e-001) (28, -4.95918624519892550000e-001) (29, 7.75454892072658660000e-002) (30, -1.67012910362686400000e-001) (31, 1.43450311384032390000e+000) (32, 1.02030968025438700000e+000) (33, -1.96573581746137170000e+000) (34, -1.67281490676407960000e-001) (35, 1.15685659803431660000e+000) (36, 3.56338730578546200000e-001) (37, 2.54712076804004260000e-001) (38, 5.44290008060222870000e-001) (39, -2.32717543184688580000e+000) (40, 6.60392688049989410000e-001) (41, -2.88160514903032270000e+000) (42, 1.84973900262418420000e+000) (43, -5.28339326546225510000e-001) (44, -4.36203256467322780000e-001) (45, -4.07881431803848380000e-002) (46, 1.45446224616894830000e-001) (47, 4.67513325001271960000e-001) (48, 3.36549239351480230000e-001) (49, -4.60395961845462500000e-001) (50, -1.00408540610405340000e+000) (51, 5.58528325198856530000e-001) (52, 2.70692216912179100000e-001) (53, 1.09806375701255070000e+000) (54, 3.09730452809143840000e+000) (55, 6.88190807701584690000e-001) (56, -4.45019556397733830000e-002) (57, 7.75681526633693270000e-001) (58, 9.32375353761785820000e-001) (59, 1.52261463215112750000e-001) (60, 2.95029464839624110000e-001) (61, 1.25127272246670240000e-002) (62, 1.70408670379919830000e-001) (63, 3.82753936850721340000e-001) (64, 6.44370377685890120000e-001) (65, -2.94758211923994780000e+000) (66, -2.36382557724445880000e-002) (0, -4.41816014651176750000e+000) (1, -8.47774032490726800000e+000) (2, 6.18836939669145550000e+000) (3, 1.25442982948260970000e+000) (4, 2.02751935762033460000e-001) (5, -4.49370558184125080000e-001) (6, 1.24587989174126810000e+001) (7, 1.87667021383737560000e+001) (8, -2.53080987465673780000e+001) (9, 7.86887241087534160000e-001) (10, 3.99905307460400980000e-001) (11, 8.92803430689121520000e-002) (12, -4.94145912832873010000e-001) (13, -1.76273908767559300000e-001) (14, -6.52448223622973390000e-001) (15, 1.30409112031052520000e-001) (16, -4.05314094261717550000e-002) (17, 1.79018691855542760000e-001) (18, 4.07564082042962740000e-001) (19, 3.41722390427642350000e-001) (20, -5.77796340941649000000e-001) (21, 7.95477418633077080000e-001) (22, -2.08114572365696420000e-001) (23, 3.87573191507368690000e-001) (24, 3.30822844932569020000e+000) (25, -3.26262492013583370000e-001) (26, 3.66803955433098020000e-001) (27, -6.09434125375792140000e-003) (28, 4.14329196656107010000e-001) (29, -4.61205652215783190000e-001) (30, 4.31732067521088410000e+000) (31, 3.32161710177476870000e-001) (32, 5.11242532050905860000e-001) (33, 3.87779482064917360000e-001) (34, 3.49110514152111470000e-001) (35, 4.98989648133175920000e-001) (36, 1.39157876205088660000e+000) (37, -6.26278026947380550000e-001) (38, 2.08957557378683820000e-001) (39, 2.92324547170051960000e-001) (40, 5.94300226839972860000e-001) (41, 1.50997395158501020000e-001) (42, 7.09625702363443360000e-001) (43, 3.57322028822336770000e-001) (44, 1.68331330205939790000e-001) (45, 2.66561053016238000000e-001) (46, -5.23364076121370370000e-001) (47, 1.18441710780666920000e+000) (48, 8.07319306155632880000e-002) (49, -1.46411244139499840000e+000) (50, 2.98382667851029680000e-001) (51, 8.89598520371839290000e-002) (52, 6.63475550562248190000e-002) (53, 3.04683656142945570000e-001) (54, -4.01861861282184970000e-002) (55, 5.72500138482160300000e-001) (56, -3.20373896613693550000e-002) (57, -3.69486588500132500000e-001) (58, 1.23781982125616160000e-002) (59, -1.14632628711271280000e-001) (60, 4.45648840810752500000e-002) (61, 5.86410280195042490000e-001) (62, 4.86490741433637520000e-002) (63, -3.27038229870507680000e-001) (64, 6.89519348148376950000e-003) (65, 3.87635201680704260000e-001) (66, 4.20395257828747150000e-001) (0, 2.93836158662587260000e+001) (1, -1.67726926858763220000e+002) (2, -1.04402622712929000000e+002) (3, -9.89799169961257050000e-001) (4, 7.95581865516584050000e+000) (5, -1.05421552745499650000e+000) (6, -1.41301123748908670000e+001) (7, 6.14075812964744190000e+001) (8, 9.65733912312108520000e+000) (9, 5.47161242570343490000e-001) (10, 1.95977106202663480000e-001) (11, -5.67065078275483800000e-001) (12, 4.56276481062050170000e-002) (13, -6.08015053909115260000e-001) (14, 2.38647331337886740000e-001) (15, 2.33969203318582340000e-001) (16, -3.17310094605252170000e-001) (17, -2.95475250099957340000e-001) (18, 1.89925380633065500000e+000) (19, 2.03733000768584740000e+000) (20, 8.47687152644146510000e-001) (21, -4.65317939779672730000e-001) (22, -1.78826006367512170000e-001) (23, 1.35037248629822980000e+000) (24, 3.44059167459104460000e-002) (25, 4.31769744704043390000e-001) (26, 9.59610032633342740000e-002) (27, -3.55084398816319420000e-001) (28, -8.55261703648242940000e-001) (29, 3.66415110336527980000e+000) (30, 4.60944278789923060000e-001) (31, -4.20331681594629520000e-001) (32, 9.82484491059998580000e-001) (33, 1.74918899202459470000e+000) (34, -6.78258922952620690000e-001) (35, 2.52097170381100090000e+000) (36, 5.76235046669913880000e-001) (37, 4.26248339739720590000e-001) (38, 2.39281542878648910000e+000) (39, 6.58205837958336540000e-001) (40, 1.67226577786535990000e-001) (41, -2.95434178796318210000e+000) (42, 2.32163577855549610000e-001) (43, 3.35424866374349210000e-001) (44, 8.04797168738779050000e-001) (45, 2.68105405579272430000e-001) (46, 7.17693717792294070000e-001) (47, -3.25000985351105220000e-001) (48, 2.37254778308525480000e+000) (49, 2.83031521356653270000e-001) (50, -1.06710553683109470000e+000) (51, 3.51471318125132660000e-001) (52, 4.46732056564312640000e-001) (53, 5.11189907276714320000e-001) (54, -2.19260422129696600000e-001) (55, 7.61789520274508750000e-001) (56, 3.01898827907349570000e+000) (57, -5.14240147919366870000e-003) (58, -8.80502813107326590000e-001) (59, -9.64191806897611410000e-001) (60, 3.86175858259806410000e-002) (61, 7.13292054854888110000e-001) (62, 5.95255239778403440000e-001) (63, -1.01040511314115910000e+000) (64, 1.33707581617578390000e+000) (65, 7.21631319454617670000e-001) (66, 1.34921963810051640000e+000) (0, 7.76343163499523140000e+001) (1, -9.74458196711863070000e+000) (2, -1.75225563319666120000e+001) (3, 8.80497301479921110000e+000) (4, 7.71448105244596770000e+000) (5, -1.97424025567729600000e+000) (6, 1.31942304097358590000e+001) (7, 1.85312962230044460000e+001) (8, -6.54614334422571710000e+000) (9, 2.44467622337968430000e-001) (10, 1.37078333844370030000e+000) (11, -4.38203849085297690000e-001) (12, 1.79309505528227440000e-001) (13, 2.39504935819509850000e-001) (14, -1.61659788076021330000e-001) (15, -1.28959674244417180000e-001) (16, 2.24035449070694480000e+000) (17, -3.74579923328295540000e-001) (18, 9.80740504332870690000e-002) (19, 1.27638019159642520000e+000) (20, 2.12120157909378600000e-001) (21, 3.60188555432987720000e-001) (22, 4.24916122541149690000e-001) (23, 4.71272465634242130000e-001) (24, 9.87017353557229640000e-001) (25, 8.01011925629457330000e-001) (26, 2.59353200289300640000e-001) (27, 1.08418202644002410000e+000) (28, 1.38835264629485060000e+000) (29, 6.09219836575523700000e-001) (30, 2.55468759509837950000e-002) (31, -5.08851691214148530000e-001) (32, -1.98345094936801050000e-001) (33, 3.18476032767894730000e+000) (34, 5.10045909153280030000e-002) (35, -9.13247431287505410000e-001) (36, -1.48040241018413700000e-001) (37, 7.71100705115215080000e-002) (38, 1.20282304559487530000e-001) (39, -6.61211254203535440000e-001) (40, -3.40791891517469190000e-001) (41, 1.67000046587081290000e-001) (42, 1.43403999363406250000e-001) (43, 2.72962168424061650000e+000) (44, 1.74953147341840460000e+000) (45, 7.57373029215925090000e-001) (46, 6.20314725457732030000e-001) (47, 5.08929007888859640000e-001) (48, -7.02520358899897700000e+000) (49, 5.03754388614962360000e-001) (50, -9.16805537278921560000e-001) (51, 9.39001767821689870000e-001) (52, 1.16790465474103490000e-001) (53, 4.35346099368420360000e-002) (54, -6.26716265280686580000e-001) (55, 9.73538646502351560000e-001) (56, -1.06650948505839130000e-001) (57, -1.34453324295127600000e+000) (58, 8.46093660726980330000e-001) (59, 3.50323788372987000000e-001) (60, -1.01100703905431980000e-001) (61, 6.89669681098713790000e-002) (62, 2.69795521280213000000e-001) (63, 2.75285506655556620000e-001) (64, 2.25767348137487730000e+000) (65, 3.77663375984391260000e+000) (66, 5.15746583790024140000e-001) (0, -2.56244495516034260000e+001) (1, -8.35814943952743050000e+000) (2, 1.84114640112320130000e+001) (3, 1.10378978761545100000e+001) (4, -3.97606979828728770000e+001) (5, 2.66257554465864570000e+001) (6, -1.87918739596512020000e+001) (7, -3.60223692555266070000e+000) (8, -7.31685841737138530000e+000) (9, 6.21385417431930430000e-001) (10, -3.76594452795313140000e-002) (11, 1.26270394722828080000e-001) (12, -9.77760523142278130000e-001) (13, -9.75649614290993730000e-002) (14, 1.25170735867220730000e+001) (15, 2.44708673722986740000e-001) (16, -6.23754809938377620000e-001) (17, 9.91631582745612140000e-001) (18, 3.49861716252856890000e-001) (19, 7.90478575746247910000e-001) (20, 3.60250522046703820000e-001) (21, 4.91320561495068030000e-001) (22, -2.14687093663384650000e-001) (23, 6.89179528446037470000e-001) (24, -4.92257810564769120000e+000) (25, 1.22772744442270820000e+000) (26, 3.83375891487073240000e-001) (27, -1.20579005179365730000e-001) (28, 1.29508325358168120000e+000) (29, 4.92624431034941130000e-001) (30, 4.46454081974067940000e-001) (31, 7.15733961068697910000e-001) (32, 6.73687581177429990000e-001) (33, 2.25897200094138770000e-001) (34, 2.34008199715068700000e-001) (35, 1.37714432646413000000e-001) (36, -1.33292266260085140000e-001) (37, 3.14871752592786660000e+000) (38, 6.11677135982830580000e-001) (39, 2.95953243428280890000e-001) (40, 2.48420680464091160000e-001) (41, -1.62450731244167780000e+000) (42, 7.23715924687535980000e-001) (43, 2.89588112652725440000e-001) (44, -2.12574417941681390000e+000) (45, -2.18770285203433860000e-002) (46, -6.31152379450710680000e-001) (47, 1.92205287145688020000e-001) (48, 4.33997462425971480000e-001) (49, -1.03619863221393250000e+000) (50, -1.70031718726999380000e-001) (51, 3.14827257286899530000e-001) (52, -1.68769426767235210000e+000) (53, 3.05936693912893020000e-001) (54, 9.35497572346684620000e-001) (55, 1.92594501447471450000e-001) (56, -6.61674206802643990000e-001) (57, -1.90613750980589480000e+000) (58, -7.64011991300863060000e-002) (59, 7.29021020923616980000e-002) (60, 1.03311433160407470000e+000) (61, 5.38959410862091980000e-001) (62, -1.72367129942126220000e-001) (63, 2.69334211380421910000e-001) (64, 1.77975682841123830000e-001) (65, 5.53850285394963840000e-001) (66, 4.41659628663207890000e-002) (0, 2.54862195197000610000e+001) (1, 1.10832228734343840000e+002) (2, 9.75240746545814260000e+001) (3, -7.19840309308297140000e+000) (4, 3.77817157182872520000e+000) (5, -2.07904481060642340000e+000) (6, 9.50190991726098220000e-001) (7, -2.21682064516489420000e+001) (8, -1.54977582219768380000e+001) (9, 3.92579673257962610000e-001) (10, -8.02727917311006760000e-002) (11, 4.08421389434951880000e-001) (12, -5.59321294005205470000e-001) (13, -1.53945522600195480000e-001) (14, 3.47273757023385420000e-001) (15, 6.60464458491670010000e-001) (16, 3.80377005942079130000e-001) (17, 8.15764292306549680000e-001) (18, 5.03978162982465780000e-001) (19, 7.20869380203628120000e-001) (20, 5.29769651305599280000e-001) (21, -5.04719329700713980000e-001) (22, -5.52702145761587160000e-001) (23, 2.09867671463220580000e-001) (24, 1.18575371232730140000e+000) (25, 5.18763307779460560000e-001) (26, -1.62553462907799010000e-001) (27, -4.20401338580609070000e-002) (28, 3.92197635150163370000e-001) (29, -5.03132649611722730000e+000) (30, 9.36871567008257130000e-001) (31, 7.14278597191301710000e-001) (32, 7.06352882221672470000e-002) (33, -4.47812635184750170000e-001) (34, -6.09482917131269120000e-001) (35, 7.45092830319012970000e-001) (36, -3.70428109536149190000e-001) (37, -1.49857610472362460000e-001) (38, 1.21590853867844540000e+000) (39, 7.90456041094222070000e-001) (40, 1.82901384670640410000e+000) (41, 2.29401731982313530000e+000) (42, -3.85815871863077480000e-001) (43, -5.03332947503950300000e-001) (44, 1.17151306942255850000e-001) (45, -2.85164051437537700000e-001) (46, -1.42127223967780750000e+000) (47, 1.00669356510804930000e+000) (48, 3.42360784485327360000e-001) (49, 3.93953848038821770000e-001) (50, 1.68023505061010230000e+000) (51, 3.53548929478833400000e-002) (52, 7.16836912255824130000e-001) (53, 3.20962603270911920000e-001) (54, 1.33451563380726660000e+000) (55, 1.39022480722670360000e+000) (56, -7.63531772785845610000e-001) (57, 8.81114880839157570000e-001) (58, 9.68718698251204300000e-002) (59, -1.95911684444788150000e-001) (60, -1.83120464000819880000e-001) (61, 6.57232837544833530000e-001) (62, 1.52819335813934750000e-001) (63, 6.08006899633459890000e-001) (64, 3.93252180793451980000e-001) (65, -2.15674278732721050000e+000) (66, 1.39405269003941230000e+000) (0, 8.28390151715474940000e+000) (1, -4.60699000911659980000e+001) (2, -1.69828373676433840000e+001) (3, 3.44679102945613370000e+000) (4, 5.23155235683941560000e+000) (5, 3.39448881216806030000e+000) (6, 8.10350735354778880000e+000) (7, 1.18539599182135510000e+001) (8, 8.13324801543685720000e+000) (9, -4.03276221651454990000e-001) (10, 1.45867974702771800000e+000) (11, 8.01739252992765380000e-001) (12, 6.68836572908794280000e-001) (13, -2.19896826506255940000e-001) (14, -3.13218304309888340000e-001) (15, -2.19038483886637230000e-003) (16, -7.51408228412709100000e-002) (17, -1.26392891958528740000e-001) (18, 2.61574813241961690000e-001) (19, 2.24091723739851780000e-001) (20, -9.10820682635327670000e-001) (21, -3.32305448697509780000e-001) (22, 2.59686015152378100000e+000) (23, -7.82514560341182750000e-002) (24, 1.51931415897182590000e-001) (25, 1.75671944696161130000e-001) (26, 5.56153821105737220000e-002) (27, 9.83893603817325600000e-001) (28, -1.24808895348811520000e-001) (29, -9.45610866965262140000e-002) (30, -3.47365743777637680000e-001) (31, -4.36959720813269560000e-001) (32, 4.32418195729278090000e-001) (33, 3.87498763181398530000e-001) (34, 2.29996200619417970000e-001) (35, 2.05836965463727270000e+000) (36, 8.02552329893241880000e-001) (37, 2.37786842854471520000e-001) (38, 3.39169217846681300000e-001) (39, 3.89609213628844150000e-001) (40, 3.15118604704879230000e-001) (41, -1.95534795131606030000e+000) (42, -1.68137312566757100000e-001) (43, 8.29778478681182240000e-002) (44, -2.24586306570449170000e-001) (45, 7.55093268665136820000e-001) (46, 9.70975463799286680000e-001) (47, -8.02076009744564720000e-001) (48, -8.45420909437827770000e-001) (49, -4.91043168877517260000e-001) (50, -2.27885302038367990000e-001) (51, -9.62954060789471990000e-001) (52, -3.26489433172779730000e-001) (53, -4.67736379778540600000e-001) (54, -2.40398546118886090000e+000) (55, -1.37049724946330390000e-001) (56, -7.09614228311278520000e-001) (57, 4.16641373277237940000e-001) (58, 3.82496351478276820000e-001) (59, 2.69088627055503240000e-001) (60, 1.99637306736212360000e-001) (61, 3.02057057775636070000e+000) (62, 4.16789251401005530000e-001) (63, 4.69813659502480550000e-001) (64, -7.99998347180707610000e-001) (65, 6.82908944547592880000e+000) (66, -3.07512098411587160000e-001) (0, 1.36809850881187600000e+002) (1, 1.95832485371107200000e+000) (2, -2.86820732625293250000e+001) (3, 5.02303793832853730000e-001) (4, 4.23472563765006750000e-001) (5, -7.26474922898120990000e-001) (6, -5.37000774639390150000e+000) (7, 9.01214885652844980000e+000) (8, 5.13885717653195910000e-001) (9, 6.91606304189933850000e-001) (10, 1.51645400091499040000e-001) (11, 3.78008301867744530000e-001) (12, -9.37864286422455950000e-002) (13, -1.24107444959752660000e+000) (14, 1.71708974308357380000e-001) (15, 1.39613072454610160000e-001) (16, 1.67558071038294080000e+000) (17, 8.83944934243755980000e-001) (18, 1.08577643437857900000e+000) (19, 3.76555540674370410000e-001) (20, 3.17698425232782360000e-001) (21, -1.39148923487613760000e+000) (22, 7.12610443039976560000e-002) (23, 7.70871592571652280000e-001) (24, 1.62558639255050900000e+000) (25, -6.28675485536767390000e-002) (26, 5.37508288018775590000e-001) (27, -7.96412726364076860000e-003) (28, -1.76234051983265720000e+000) (29, 4.25777966264389570000e-001) (30, 2.39339960082604230000e+000) (31, -5.35870997463960720000e-001) (32, -2.00503029481523320000e+000) (33, 4.62654427428771160000e-001) (34, 5.19253040050069000000e-001) (35, 2.63568953135869010000e+000) (36, -2.14956315164370780000e-002) (37, 7.87073884507782370000e-002) (38, 9.26347175269308760000e-001) (39, 7.06695118331441000000e-002) (40, -2.71830674489004720000e-001) (41, -3.47380361126384980000e-001) (42, 5.19242785004881690000e-002) (43, -2.18682531310233660000e-001) (44, 1.21525697109862740000e+000) (45, 5.80829880971757580000e-001) (46, 5.18641867803527960000e-002) (47, 6.93252560679441190000e-001) (48, 7.05037942892770000000e-001) (49, 3.24574043351558390000e+000) (50, -2.66669145852065300000e-001) (51, 1.25637645146700390000e-001) (52, 1.87401991691610200000e+000) (53, 3.26897074618386240000e-001) (54, -7.91596252887821980000e-001) (55, 7.85392894825393760000e-001) (56, 2.31645775928994960000e-001) (57, -5.70892394071754530000e-002) (58, -1.24411600990294870000e+000) (59, 9.07667129355464590000e-002) (60, 5.88435969356937980000e-001) (61, 1.63657293169037210000e+000) (62, 6.31222488017184390000e-001) (63, 7.42038790064175890000e-002) (64, -2.74590804610748030000e-001) (65, 4.09162189570933510000e+000) (66, 1.56028897243004420000e+000) (0, -2.35717272498087170000e+001) (1, 3.23552833973102880000e+001) (2, 3.55583589511251720000e+001) (3, -6.31589497302962500000e+000) (4, -7.84375773182682680000e+000) (5, 1.62508836761994590000e+000) (6, -4.68328007306518930000e+000) (7, 6.20648164891844270000e+000) (8, 3.16330206071972640000e+000) (9, -1.19501980595303830000e-001) (10, 1.81794739861250170000e-001) (11, 1.00689855126976720000e+000) (12, 5.06185509040258270000e-001) (13, -6.98199725459435320000e-001) (14, -3.60655373641452170000e-001) (15, 2.87353507228538970000e-001) (16, -5.60367350465721060000e-001) (17, 1.07363321213810940000e+000) (18, -2.43591147780375210000e+000) (19, -3.45081145851044440000e-001) (20, 1.56774555374847300000e-001) (21, 4.36258584433015910000e-001) (22, 5.65811417011242490000e-001) (23, 1.06282596923156360000e+000) (24, -3.33174839805402020000e-001) (25, 7.99638486877745970000e-001) (26, 8.07078364987784180000e-001) (27, 7.35592824085870120000e-001) (28, -7.01792065087855630000e-001) (29, 3.60658998217973310000e-001) (30, -7.10706068915860190000e-001) (31, 2.30323158816081810000e-001) (32, -2.18732394282368550000e-002) (33, -3.85994439319483360000e+000) (34, 9.05573275668338780000e-001) (35, -4.28450122481965290000e-001) (36, 1.29608715416242050000e-001) (37, 3.53731474383395080000e-001) (38, -4.05428708672877220000e-001) (39, -2.13389368496808010000e+000) (40, -2.99597673332095970000e-001) (41, -9.22621049264404910000e-001) (42, -1.78126662275296470000e-001) (43, 5.10898728357700780000e-001) (44, 2.06205101407046070000e+000) (45, 1.07644015120141460000e+000) (46, 6.21863930196142390000e-001) (47, 1.45212629533927080000e-001) (48, 2.17832441698290500000e-001) (49, -1.36907957721158850000e-001) (50, 4.21800807596277860000e-002) (51, -3.18861668729199520000e-001) (52, -2.29305194929460530000e-001) (53, 3.90451576959049470000e-001) (54, 3.30599462640031980000e-001) (55, -7.00846418635523660000e-001) (56, 5.72504875433703740000e+000) (57, 6.55606846651225760000e-002) (58, 9.40650516809974250000e-001) (59, 1.91320313460198910000e+000) (60, 1.80055228608466680000e-002) (61, 1.85566503580795430000e+000) (62, 1.38587345177237730000e-001) (63, 6.91863194989815970000e-001) (64, -5.78254707416430700000e-001) (65, 9.42402190539266550000e-001) (66, 2.66006436819180920000e-002) (0, -6.95324769211087810000e+001) (1, 2.03208260241974550000e+001) (2, 6.24791999461253840000e+001) (3, -2.79241765083097080000e+000) (4, 2.08447476435523040000e+000) (5, 2.98357812489674630000e+000) (6, 1.73151323110822060000e+001) (7, -2.72735564942561410000e+001) (8, 4.94200222420762000000e+000) (9, 3.20103677733765520000e-001) (10, 5.31198950502350000000e-001) (11, 2.83040259987131840000e-001) (12, 4.12186671917333210000e-001) (13, 1.47451087613206300000e-001) (14, 2.75373902861931250000e-001) (15, -1.66085384373099250000e-001) (16, -1.65568761273970630000e-001) (17, 1.38970265062535270000e-003) (18, 1.00928292475917590000e-001) (19, 3.73058809119898970000e-001) (20, 9.88423648158880670000e-002) (21, 3.63232368228340870000e-001) (22, -6.93888434736599780000e-002) (23, 1.63694227732741200000e-001) (24, 4.56351384536427980000e-001) (25, 1.86569558607595390000e-001) (26, 1.99595397266896080000e+000) (27, -3.79640581379660850000e-002) (28, -8.68515409458587940000e+000) (29, -2.18136821574396580000e+000) (30, -6.44385346802739620000e-001) (31, 7.64125014717629840000e-001) (32, 4.21729726555985450000e-001) (33, -1.49247049186720300000e-001) (34, 1.15815181539582850000e-001) (35, -6.59623848434773620000e-001) (36, -2.12319519147880860000e-001) (37, 1.94290206542196810000e-001) (38, 3.05414456459457580000e-001) (39, 1.16056040506199750000e+000) (40, 3.24473875856898260000e+000) (41, 5.29898475159870760000e-001) (42, 2.95067773252823130000e-001) (43, 1.76086298344893280000e-001) (44, 5.48192911874114670000e-001) (45, -1.20121476147394000000e-001) (46, -1.84676449785715290000e+000) (47, 1.40474714408952890000e+000) (48, 5.07654469284500310000e-001) (49, -1.70962557587405310000e+000) (50, 3.53453664253811750000e-001) (51, -9.37897104542833480000e-001) (52, -5.26284349257915840000e-002) (53, 1.09337251105174830000e+000) (54, 9.63511139184630380000e-001) (55, 2.58777404504607040000e+000) (56, -5.66571250005617700000e-001) (57, 7.14977472302342320000e-001) (58, 3.30157817029703590000e-001) (59, 2.18922628383923460000e-001) (60, 4.06895396043504970000e-002) (61, -1.03041811620707670000e-002) (62, 7.32523708430310890000e-001) (63, 5.25062281747779910000e-001) (64, 1.31706727261150510000e-001) (65, -2.44786400065071350000e-001) (66, 3.62720840615522840000e-001) (0, 1.97158687920429860000e+001) (1, 8.76111610158027080000e+001) (2, 9.41434034707463780000e+001) (3, -2.89118658550581610000e+000) (4, -3.83352011514839570000e+000) (5, 2.79865638105986840000e+000) (6, -4.94054850520074500000e+000) (7, -2.02077086248214890000e+001) (8, -2.58079658407277040000e+001) (9, 2.70086906895587730000e-001) (10, -1.66106138379381600000e+000) (11, 5.13806214195054230000e-001) (12, 1.61700497508666440000e-001) (13, -8.12975080426086430000e-003) (14, -5.31688601825073690000e-002) (15, 3.27136562469444840000e-001) (16, -1.41535136110905980000e+000) (17, -3.86221024365968000000e-001) (18, -3.82641531296571190000e-001) (19, -7.52876396583526120000e-002) (20, -1.41064075387038660000e-001) (21, 3.11743430280033100000e-001) (22, 7.13987367888979370000e-002) (23, -2.60322792003139400000e-001) (24, -1.14919877601860490000e+000) (25, 6.70770828265234430000e-002) (26, 1.93725754562262370000e-002) (27, 1.34252317327646750000e-001) (28, -8.70170834760234710000e-001) (29, -1.19498594066170900000e-001) (30, 4.97970685147429430000e-001) (31, 5.57827976231608620000e-001) (32, 1.04542146631473360000e+000) (33, 4.74535556836132510000e-002) (34, 4.07813172384378990000e-002) (35, -3.40598209781969750000e-001) (36, 2.65695442893962300000e-001) (37, 1.35442074929319310000e-001) (38, -5.75127561896362630000e-002) (39, -2.67082334130520900000e-001) (40, 2.13983334202401870000e-001) (41, 3.97631267722421080000e-001) (42, 2.46498639221227140000e-001) (43, 3.85778476185722470000e-001) (44, 2.27422019443733360000e-001) (45, -7.91149357841569810000e-001) (46, -1.05337915525001840000e-001) (47, -5.41478642122447450000e-001) (48, -4.14375988603431170000e-001) (49, -2.99520525518797260000e-001) (50, -2.74214390983090750000e-001) (51, -9.31557467963970100000e-001) (52, 1.98854161389663250000e-001) (53, 2.73105551019700410000e-001) (54, 1.19305201401555140000e+000) (55, -5.75806049819487690000e-001) (56, 5.11914648349167890000e-001) (57, 1.21202295584745250000e+000) (58, 1.42811309397657450000e+000) (59, 5.40816404431506030000e+000) (60, 3.93016875023178890000e-001) (61, -7.48665321511217900000e-001) (62, -2.15372211915202370000e-001) (63, 6.01095579627264600000e-003) (64, 4.51190740056594370000e-001) (65, 2.06764478055551800000e+000) (66, -1.15910499186930680000e-001) (0, 3.00958379982996290000e+001) (1, 1.11314330696746300000e+002) (2, -1.38518930405582830000e+001) (3, -6.43227126812709040000e+000) (4, -3.76990899647251080000e+000) (5, -7.78438487672881240000e+000) (6, 2.05898028186010330000e+001) (7, 9.15675093163437910000e+000) (8, -9.12517415492964010000e+000) (9, -6.36382915380048540000e-001) (10, 1.56018628437211730000e-001) (11, 1.51222203321932810000e+000) (12, 2.45962484965264960000e-001) (13, -5.96051751634730790000e-001) (14, -3.92420573293636550000e-001) (15, 1.03680614431598700000e-002) (16, 1.48719124215476480000e+000) (17, 1.59083064479773160000e+000) (18, 3.58466654329845420000e-001) (19, 8.03249076569277350000e-001) (20, 3.64173817225729950000e-001) (21, 4.92022617758596010000e-001) (22, -2.04471861843602470000e-001) (23, 2.68762742053914370000e-001) (24, 5.31562318490558190000e+000) (25, 5.77942415444482330000e-001) (26, 8.25196323595157380000e-001) (27, -4.88450081412840690000e-001) (28, 5.71004307117686060000e+000) (29, 4.80160599652993900000e-001) (30, 1.02366643813323430000e+000) (31, 3.57698150912692180000e-002) (32, 7.44257255124450290000e-001) (33, 1.48254057231714170000e-001) (34, 9.11136882722018760000e-001) (35, 9.01721458821325260000e-001) (36, -3.19369563357201120000e-001) (37, -1.91267913037346110000e-001) (38, 1.49634310436214920000e-001) (39, 1.82663134144845540000e-002) (40, -8.19434586024025140000e-002) (41, -3.52432504138611940000e-001) (42, 5.67148091952607290000e-001) (43, 1.50924990138578520000e-001) (44, 4.95338811309902320000e-001) (45, -1.78408613607872010000e+000) (46, -8.41466408322539550000e-002) (47, 5.79541551057440430000e-001) (48, 2.45984716265699930000e+000) (49, 5.91899306290702530000e-001) (50, -2.49692167549822790000e-001) (51, 9.58601053157711490000e-001) (52, 5.10905073814396540000e-001) (53, -4.55751232450788140000e-001) (54, -3.36860083963079260000e-001) (55, 3.74182839815466350000e-001) (56, -4.15919417517025050000e-001) (57, -2.15368314492990630000e-001) (58, -4.73422049206362050000e-001) (59, -7.18121528526378950000e-002) (60, -4.78994726334789900000e-002) (61, -2.84423212187099430000e-001) (62, -4.59486656218563330000e-001) (63, -3.43349704517324160000e-001) (64, 9.79644630257126840000e-002) (65, 2.75298528458121220000e+000) (66, 2.97789400382949100000e-001) (0, 3.20594225782343830000e+001) (1, -9.27931015890268360000e+000) (2, 8.83863207585186570000e+000) (3, -3.04190951468246460000e+000) (4, 1.10423428984967100000e+001) (5, 4.98947104661413210000e+000) (6, -1.57511161594445280000e+001) (7, 3.45219748395506300000e+001) (8, -1.26320259037567930000e+001) (9, 3.49634705568299340000e-001) (10, 3.45234606921393130000e-001) (11, -1.70241116295097000000e-001) (12, 1.24262690620757450000e-001) (13, 8.67994629723063400000e-001) (14, 5.14055152748107650000e-001) (15, 1.94214206389953070000e-001) (16, 2.05213866983795150000e-001) (17, 7.32574010307689650000e-001) (18, 7.59114147401355850000e-001) (19, 6.65816097858750180000e-001) (20, 5.53546992665176820000e-001) (21, -3.46447208006882220000e-001) (22, 2.48867627216474800000e+000) (23, 3.51882285206398390000e-002) (24, 6.98778724312830500000e-001) (25, -2.10206474126327040000e-001) (26, 7.10444548052855840000e-001) (27, 4.54264935184718890000e-001) (28, -8.16838234631883380000e-002) (29, 9.53705607188768400000e-001) (30, -8.01880688000017470000e-002) (31, 4.38450660838894280000e-001) (32, 1.88015399085115280000e-001) (33, 1.61088349223001140000e-001) (34, 7.22142649963817160000e-001) (35, -2.85991707439586630000e-001) (36, 1.10995240680584140000e-002) (37, -4.23674508509307490000e-001) (38, -3.17453179663825940000e-002) (39, 7.53751657185603110000e-001) (40, -3.71126008563862910000e-001) (41, -4.82679548303898030000e-001) (42, 2.26679419673970180000e+000) (43, -2.10196324164604010000e-001) (44, 2.59570749638260990000e-001) (45, -1.14402652940007470000e-001) (46, 5.62497664081281550000e-001) (47, 1.63250107746195860000e-001) (48, 8.02626408114034960000e-001) (49, 2.20639417394011250000e+000) (50, 1.72838880521255650000e-001) (51, 9.12718284957574340000e-002) (52, 4.34307339844189120000e-001) (53, 3.15957019990794560000e-001) (54, 2.81986684588464570000e-002) (55, 2.68249455116794930000e-001) (56, -1.50832244594809650000e-001) (57, 6.87554102391126460000e-001) (58, -2.47545643517222580000e-001) (59, 5.30454484240359570000e-001) (60, 8.13843179475099320000e-001) (61, 1.89666545936176020000e+000) (62, 1.33957223119347270000e-001) (63, 9.32583615560144130000e-002) (64, 1.30986315841299440000e-001) (65, 1.09510991841672800000e-001) (66, 1.66538716370418670000e-001) (0, 1.94057064837398950000e+001) (1, 1.21907146273953830000e+001) (2, 1.47561400268425980000e+001) (3, 9.50552509223030210000e+000) (4, 