FANN_FLO_2.1
num_layers=4
learning_rate=0.700000
connection_rate=1.000000
network_type=1
learning_momentum=0.000000
training_algorithm=2
train_error_function=1
train_stop_function=1
cascade_output_change_fraction=0.010000
quickprop_decay=-0.000100
quickprop_mu=1.750000
rprop_increase_factor=1.200000
rprop_decrease_factor=0.500000
rprop_delta_min=0.000000
rprop_delta_max=50.000000
rprop_delta_zero=0.100000
cascade_output_stagnation_epochs=12
cascade_candidate_change_fraction=0.010000
cascade_candidate_stagnation_epochs=12
cascade_max_out_epochs=150
cascade_min_out_epochs=50
cascade_max_cand_epochs=150
cascade_min_cand_epochs=50
cascade_num_candidate_groups=2
bit_fail_limit=1.00000001490116120000e-001
cascade_candidate_limit=1.00000000000000000000e+003
cascade_weight_multiplier=4.00000000000000020000e-001
cascade_activation_functions_count=10
cascade_activation_functions=3 5 7 8 10 11 14 15 16 17 
cascade_activation_steepnesses_count=4
cascade_activation_steepnesses=2.50000000000000000000e-001 5.00000000000000000000e-001 7.50000000000000000000e-001 1.00000000000000000000e+000 
layer_sizes=16 50 50 6 
scale_included=0
neurons (num_inputs, activation_function, activation_steepness)=(0, 0, 0.00000000000000000000e+000) (0, 0, 0.00000000000000000000e+000) (0, 0, 0.00000000000000000000e+000) (0, 0, 0.00000000000000000000e+000) (0, 0, 0.00000000000000000000e+000) (0, 0, 0.00000000000000000000e+000) (0, 0, 0.00000000000000000000e+000) (0, 0, 0.00000000000000000000e+000) (0, 0, 0.00000000000000000000e+000) (0, 0, 0.00000000000000000000e+000) (0, 0, 0.00000000000000000000e+000) (0, 0, 0.00000000000000000000e+000) (0, 0, 0.00000000000000000000e+000) (0, 0, 0.00000000000000000000e+000) (0, 0, 0.00000000000000000000e+000) (0, 0, 0.00000000000000000000e+000) (16, 5, 5.00000000000000000000e-001) (16, 5, 5.00000000000000000000e-001) (16, 5, 5.00000000000000000000e-001) (16, 5, 5.00000000000000000000e-001) (16, 5, 5.00000000000000000000e-001) (16, 5, 5.00000000000000000000e-001) (16, 5, 5.00000000000000000000e-001) (16, 5, 5.00000000000000000000e-001) (16, 5, 5.00000000000000000000e-001) (16, 5, 5.00000000000000000000e-001) (16, 5, 5.00000000000000000000e-001) (16, 5, 5.00000000000000000000e-001) (16, 5, 5.00000000000000000000e-001) (16, 5, 5.00000000000000000000e-001) (16, 5, 5.00000000000000000000e-001) (16, 5, 5.00000000000000000000e-001) (16, 5, 5.00000000000000000000e-001) (16, 5, 5.00000000000000000000e-001) (16, 5, 5.00000000000000000000e-001) (16, 5, 5.00000000000000000000e-001) (16, 5, 5.00000000000000000000e-001) (16, 5, 5.00000000000000000000e-001) (16, 5, 5.00000000000000000000e-001) (16, 5, 5.00000000000000000000e-001) (16, 5, 5.00000000000000000000e-001) (16, 5, 5.00000000000000000000e-001) (16, 5, 5.00000000000000000000e-001) (16, 5, 5.00000000000000000000e-001) (16, 5, 5.00000000000000000000e-001) (16, 5, 5.00000000000000000000e-001) (16, 5, 5.00000000000000000000e-001) (16, 5, 5.00000000000000000000e-001) (16, 5, 5.00000000000000000000e-001) (16, 5, 5.00000000000000000000e-001) (16, 5, 5.00000000000000000000e-001) (16, 5, 5.00000000000000000000e-001) (16, 5, 5.00000000000000000000e-001) (16, 5, 5.00000000000000000000e-001) (16, 5, 5.00000000000000000000e-001) (16, 5, 5.00000000000000000000e-001) (16, 5, 5.00000000000000000000e-001) (16, 5, 5.00000000000000000000e-001) (16, 5, 5.00000000000000000000e-001) (16, 5, 5.00000000000000000000e-001) (16, 5, 5.00000000000000000000e-001) (16, 5, 5.00000000000000000000e-001) (16, 5, 5.00000000000000000000e-001) (16, 5, 5.00000000000000000000e-001) (16, 5, 5.00000000000000000000e-001) (16, 5, 5.00000000000000000000e-001) (66, 5, 5.00000000000000000000e-001) (66, 5, 5.00000000000000000000e-001) (66, 5, 5.00000000000000000000e-001) (66, 5, 5.00000000000000000000e-001) (66, 5, 5.00000000000000000000e-001) (66, 5, 5.00000000000000000000e-001) (66, 5, 5.00000000000000000000e-001) (66, 5, 5.00000000000000000000e-001) (66, 5, 5.00000000000000000000e-001) (66, 5, 5.00000000000000000000e-001) (66, 5, 5.00000000000000000000e-001) (66, 5, 5.00000000000000000000e-001) (66, 5, 5.00000000000000000000e-001) (66, 5, 5.00000000000000000000e-001) (66, 5, 5.00000000000000000000e-001) (66, 5, 5.00000000000000000000e-001) (66, 5, 5.00000000000000000000e-001) (66, 5, 5.00000000000000000000e-001) (66, 5, 5.00000000000000000000e-001) (66, 5, 5.00000000000000000000e-001) (66, 5, 5.00000000000000000000e-001) (66, 5, 5.00000000000000000000e-001) (66, 5, 5.00000000000000000000e-001) (66, 5, 5.00000000000000000000e-001) (66, 5, 5.00000000000000000000e-001) (66, 5, 5.00000000000000000000e-001) (66, 5, 5.00000000000000000000e-001) (66, 5, 5.00000000000000000000e-001) (66, 5, 5.00000000000000000000e-001) (66, 5, 5.00000000000000000000e-001) (66, 5, 5.00000000000000000000e-001) (66, 5, 5.00000000000000000000e-001) (66, 5, 5.00000000000000000000e-001) (66, 5, 5.00000000000000000000e-001) (66, 5, 5.00000000000000000000e-001) (66, 5, 5.00000000000000000000e-001) (66, 5, 5.00000000000000000000e-001) (66, 5, 5.00000000000000000000e-001) (66, 5, 5.00000000000000000000e-001) (66, 5, 5.00000000000000000000e-001) (66, 5, 5.00000000000000000000e-001) (66, 5, 5.00000000000000000000e-001) (66, 5, 5.00000000000000000000e-001) (66, 5, 5.00000000000000000000e-001) (66, 5, 5.00000000000000000000e-001) (66, 5, 5.00000000000000000000e-001) (66, 5, 5.00000000000000000000e-001) (66, 5, 5.00000000000000000000e-001) (66, 5, 5.00000000000000000000e-001) (66, 5, 5.00000000000000000000e-001) (116, 5, 1.00000000000000010000e-001) (116, 5, 1.00000000000000010000e-001) (116, 5, 1.00000000000000010000e-001) (116, 5, 1.00000000000000010000e-001) (116, 5, 1.00000000000000010000e-001) (116, 5, 1.00000000000000010000e-001) 
connections (connected_to_neuron, weight)=(0, 8.27760223957179160000e+000) (1, -3.11100933523363480000e+000) (2, -4.75561277595189140000e+000) (3, 4.97411561484817910000e-001) (4, -4.54172456208406410000e-001) (5, 4.39061180479706880000e-001) (6, 2.83218899162004110000e+000) (7, 2.14624417527774410000e+000) (8, -2.65179116783200990000e+000) (9, 4.86334540172546290000e-001) (10, 3.44682053078169350000e-001) (11, -4.45882526017484790000e-001) (12, 1.01332694606471610000e-001) (13, 1.27412013479641960000e-001) (14, 1.56802913230835840000e-001) (15, 4.92058407720983300000e-001) (0, 4.07791273937149690000e+000) (1, -9.34115999652888900000e+000) (2, 1.16894639834569460000e+001) (3, 4.26845312663448330000e-001) (4, -8.88112541005640350000e-002) (5, -8.00800579608411250000e-002) (6, -4.14522434248106590000e-001) (7, 1.14097666984396450000e+000) (8, -3.55008680164507770000e+000) (9, -1.26923735278649330000e-003) (10, -2.14837273222637600000e-001) (11, 1.54269137431544520000e-001) (12, -4.22449284106124650000e-001) (13, 4.02560379339752970000e-001) (14, -1.21889275171176870000e-001) (15, 3.61177985986844090000e-001) (0, -9.05384335449055300000e+000) (1, 6.95334621348673480000e+000) (2, 1.72656128824156570000e+000) (3, -6.28144642464497860000e-001) (4, -1.26322948608341400000e-001) (5, 6.42984047540091500000e-002) (6, -1.61912786704513900000e-003) (7, 4.18747954279258760000e-001) (8, 4.76464753667373290000e-001) (9, 4.89917958727545120000e-001) (10, -1.75007207482729100000e-001) (11, 2.92429124901279540000e-001) (12, 3.09316172281275340000e-001) (13, 1.70672085439323080000e-001) (14, 1.61053248592500000000e-001) (15, 4.68420138731708920000e-002) (0, -4.79543545384903690000e+000) (1, 2.16378770675655340000e+000) (2, -1.64743456628402180000e+001) (3, -2.95674550582687550000e-001) (4, 6.34093448061143210000e-001) (5, -1.61680570313332870000e+000) (6, 3.57931313039517200000e+000) (7, 1.92386857419549130000e-003) (8, 2.17387529422717840000e+000) (9, -8.01799097026996420000e-002) (10, -3.56261995680381640000e-001) (11, 2.27270863770644680000e-001) (12, 8.92810650476870970000e-002) (13, 8.49255717363896070000e-002) (14, 1.42932693938146120000e-001) (15, 2.30939595622198620000e-001) (0, 3.84459945313672380000e+000) (1, -6.69538639632571630000e+000) (2, -3.20978279137433330000e+000) (3, 1.45389220459943140000e+000) (4, -7.42641041674073080000e-001) (5, 7.77995961884860310000e-001) (6, -1.71847178558772560000e+000) (7, 3.20779863566511690000e+000) (8, 3.33174045135357180000e+000) (9, 2.50162709825276250000e-002) (10, 2.09837148689381910000e-001) (11, -1.31800307749618110000e+000) (12, 8.28772899567323920000e-001) (13, 7.17316831381986760000e-001) (14, 1.09036462635264380000e-002) (15, 9.07100782951822620000e-001) (0, 7.37947389151675900000e+000) (1, 2.20498547977590460000e+001) (2, -1.25791672106364540000e+001) (3, -7.20148019217899280000e-001) (4, 1.97923240510416290000e-001) (5, 1.33137036144651830000e-001) (6, -4.62254611351095690000e+000) (7, -8.27577338520334390000e+000) (8, 5.39190650441038330000e+000) (9, 1.64638422023537910000e+000) (10, -8.27341190667390200000e-001) (11, 7.32526683312338830000e-001) (12, 2.93925971064226090000e+000) (13, -4.21507222849793530000e-001) (14, -9.57452527378090110000e-002) (15, 1.72403597319793400000e+000) (0, -1.31221403528328060000e+001) (1, -2.79692158131518550000e+000) (2, -1.02602691710004380000e+001) (3, 1.29975007285477950000e+000) (4, 8.45388401542760630000e-001) (5, 2.32719948517518480000e-001) (6, 2.25926906540825500000e+000) (7, 6.98003629751676160000e+000) (8, 1.86662885769446410000e+000) (9, -7.29454869079037890000e-001) (10, 1.77749601446627680000e+000) (11, -1.43166616427258450000e+000) (12, 2.69982567702146570000e+000) (13, 8.29115338841255990000e-001) (14, -2.21255138142151600000e-002) (15, -4.68704768082948360000e-001) (0, 4.02114789089302870000e+000) (1, 2.03110525886044360000e+001) (2, -2.51381359204385370000e-001) (3, 3.93262181040391840000e-001) (4, -2.58726647005235730000e-001) (5, 1.17262368692917190000e-001) (6, -3.95873174287587840000e-001) (7, -1.34123119711097960000e+000) (8, -1.65346666545882190000e+000) (9, -1.72208983559661260000e-002) (10, 1.62488272703098450000e+000) (11, -1.32017094981177110000e+000) (12, 5.40023860238357580000e-001) (13, -4.26827866455953970000e-003) (14, -2.13676725265104620000e-001) (15, 4.69295962318648670000e-001) (0, 1.97204799059438900000e+001) (1, -4.12219915877646270000e+001) (2, 1.05793346431943980000e+001) (3, -1.44200563530975130000e-001) (4, 2.19600535917994000000e-001) (5, -6.32532690749601390000e-001) (6, -2.57800839102502710000e+000) (7, 8.92568103666310010000e+000) (8, -9.48402010701694940000e-001) (9, -1.28097125716487130000e+000) (10, -4.68815268130729770000e-001) (11, 3.25810704903115480000e-001) (12, 2.00269626361747440000e-001) (13, -1.51460274393554030000e-001) (14, -2.08268931626302380000e-002) (15, 1.59079833830265690000e-001) (0, 2.32430308204066890000e+000) (1, -3.86124851542491630000e+000) (2, 1.64480569546185240000e+000) (3, 2.66982018125075450000e+000) (4, 4.01881354872033470000e+000) (5, 1.95647718977653250000e+000) (6, 1.57778184276119920000e-001) (7, 1.08557307610284040000e+000) (8, 1.02035055638205810000e+000) (9, 1.00581117416590270000e-001) (10, 1.51702835958414210000e+000) (11, -1.20007626848752790000e+000) (12, 8.32485418843745610000e-001) (13, 1.23242499828838100000e-001) (14, -2.76591043163737460000e+000) (15, 2.94909071534990240000e-001) (0, 2.35862267968731710000e+000) (1, 1.73274609052544240000e+000) (2, 3.26404861850261560000e+000) (3, 9.59274462805487570000e-003) (4, 5.04235380433542320000e-001) (5, -3.49944379226937830000e-001) (6, -2.96998084480622870000e-001) (7, -1.83879012313663830000e-001) (8, -1.23030025069629460000e+000) (9, 5.50807349079246580000e-002) (10, 5.54475130455375550000e-001) (11, -4.01059463836516750000e-001) (12, 1.88085873629426580000e-001) (13, -2.92195625595182700000e-001) (14, 7.15037586083731580000e-002) (15, 1.59190631885689160000e-001) (0, -1.04202418265774120000e+000) (1, -2.36655939935213460000e+000) (2, -5.90523098298808890000e-001) (3, 2.52790098826550390000e+000) (4, 1.64026487631829650000e+000) (5, 4.89207524853193850000e-001) (6, 1.43389658159611290000e+000) (7, 2.21797389558812160000e+000) (8, 2.91018235151173420000e-001) (9, -5.51058422713258250000e-002) (10, 4.23605459101172370000e-001) (11, 2.58160700666202890000e-002) (12, -1.81232433248786270000e-001) (13, 2.44022653354181080000e-001) (14, 6.63214855923698670000e-001) (15, -4.00809185508065380000e-001) (0, -5.12042485075228980000e+000) (1, 2.06128129588335000000e+000) (2, -2.53977842249188600000e+000) (3, 1.30450129287775570000e+000) (4, -1.89413371342366640000e+000) (5, 2.44299472977671120000e+000) (6, 4.63856912479477760000e+000) (7, 1.19917399243592440000e+000) (8, 2.63874786356040140000e+000) (9, -2.73461850106459010000e-001) (10, -2.74413132004183330000e-002) (11, 2.41444652590134150000e-001) (12, -7.29551027870196320000e-001) (13, -6.04479644360920580000e-002) (14, -6.82188451769259880000e-002) (15, 5.04088211206266570000e-001) (0, 4.95702394384734350000e-001) (1, 3.90196410605015400000e+000) (2, -4.55787559085371900000e+000) (3, -8.72122540734340480000e-001) (4, 2.40478509145527440000e+000) (5, -3.37665083822710170000e+000) (6, 1.26978234827950480000e+000) (7, 2.28165910294624210000e-001) (8, 5.90049171908223810000e-001) (9, 9.39752165606701500000e-001) (10, 4.34049270823298890000e-002) (11, 1.10359933702408250000e-001) (12, 3.20207057392874270000e+000) (13, 5.64734999829949900000e-001) (14, 2.55477746519655070000e+000) (15, -2.36546825236553790000e-001) (0, -5.05006380472454010000e+000) (1, -1.41226486835490430000e+001) (2, 1.27452000991771950000e+001) (3, -4.89254915869152110000e+000) (4, -9.51749820433581810000e-001) (5, -1.76358094516749810000e-002) (6, -7.00432250922811830000e-002) (7, 6.96100974565543140000e+000) (8, -1.70808136899645520000e-001) (9, 1.31267622320386490000e+000) (10, 1.68101389518680970000e+000) (11, -1.05251439874018040000e+000) (12, 3.59291545821032930000e+000) (13, 5.62002965059977490000e-001) (14, 2.18333479093088840000e-001) (15, -5.36849115155656480000e-001) (0, -1.46638776242779030000e+001) (1, 4.05910880315498620000e+000) (2, 6.60488408652462860000e+000) (3, 1.94670272294115220000e+000) (4, -7.69898754434840680000e-001) (5, 2.08198931145208150000e+000) (6, 3.00863064879186570000e+000) (7, -5.24704372748995240000e+000) (8, -5.99905526388008090000e-001) (9, 1.52484650257786930000e-001) (10, 5.45022093138508910000e-001) (11, -5.79036223899914490000e-001) (12, 7.46414609525324900000e-001) (13, 3.82919770599247710000e-002) (14, -3.44201250087277500000e-002) (15, 7.34241286524872970000e-001) (0, 4.49868973978437130000e+000) (1, 6.91308904630591310000e+000) (2, 8.08058078758394080000e-001) (3, -1.65025997196396630000e-001) (4, 3.29932953164493110000e-001) (5, 9.92445710041858660000e-001) (6, -1.84310970261146560000e+000) (7, -1.12693222206562790000e+000) (8, 4.21172712111626380000e-001) (9, -1.85306813237617020000e-001) (10, 5.35733662770429220000e-001) (11, -7.13534714583402450000e-001) (12, 1.65462075263030110000e-001) (13, -8.78221437793484110000e-002) (14, 6.60808254776137360000e-002) (15, 8.04427994486398010000e-001) (0, -3.15958434925326470000e+000) (1, 6.75908362364605960000e+000) (2, -6.04217430293665280000e+000) (3, -2.55298994503612320000e-001) (4, -1.16178098454203900000e-001) (5, -9.29968770492980990000e-001) (6, 1.20331548804355500000e+000) (7, 2.74490810706464690000e-001) (8, 7.64888888204476760000e-001) (9, -2.35948477093700400000e-001) (10, 1.53066652542277190000e-001) (11, -7.33623136333673080000e-003) (12, -1.27344235420135070000e-001) (13, 3.23590728780720430000e-001) (14, -1.81416248404813300000e-001) (15, 7.17537147078061430000e-002) (0, 1.99032416275795110000e+001) (1, 6.32403109405306460000e+000) (2, 1.02473697781151210000e+000) (3, 8.22037888178262400000e-001) (4, -8.41930925529898460000e-001) (5, 1.05360631417073770000e-001) (6, -1.99591037870643300000e+000) (7, -1.14047054639644510000e+000) (8, -3.59120574045863780000e-001) (9, 1.98549759335894800000e+000) (10, -8.45258733180438200000e-001) (11, 4.57447366608757120000e-001) (12, 1.08369555755428680000e-001) (13, -1.10830347948846580000e-001) (14, 5.77963150823515020000e-002) (15, 3.45149264764187950000e-001) (0, 4.48170446682278280000e+000) (1, 2.17035082405614780000e+000) (2, -2.92769926412264600000e+000) (3, -2.29277470650850330000e+000) (4, 3.45088132504937440000e+000) (5, -8.15405599753176390000e-001) (6, 1.08283931251840420000e+000) (7, -5.07481543985424670000e-001) (8, 2.60527789615561330000e+000) (9, 4.33485192527012010000e-001) (10, 2.64073503717679740000e-001) (11, 3.31154911623909920000e-001) (12, 2.00518498870102920000e-001) (13, 2.34995211252416010000e-001) (14, 2.33330658101445430000e-001) (15, 8.61835066240208280000e-002) (0, -5.41026441505044350000e+000) (1, -2.48733813686742120000e+000) (2, -5.07835364503628380000e+000) (3, -7.82416614001903650000e-001) (4, 2.06426086670193410000e-001) (5, 8.09374626480489860000e-001) (6, -8.81968974066621340000e-001) (7, 1.51637537354723300000e+000) (8, -3.28977752333029240000e+000) (9, -2.09222815614360290000e-001) (10, -5.06907340219363010000e-002) (11, 2.01002539530625230000e-002) (12, -2.02836013599594270000e-001) (13, 2.39792428990252160000e-001) (14, -1.49038288826969710000e-001) (15, -5.10914820383075960000e-003) (0, -5.98760207677736740000e-001) (1, 2.92253105185645130000e+000) (2, 1.20786125533802040000e+000) (3, 1.47571782547620100000e-001) (4, -2.45962335688404420000e+000) (5, -6.19227147103032950000e-001) (6, 1.42601812386049650000e+000) (7, 5.91026531286102830000e-001) (8, -7.66638768444881320000e-001) (9, 9.51946656260266750000e-001) (10, 6.45499955378623260000e-001) (11, -2.30891245333563010000e-001) (12, 8.92887800824664900000e-002) (13, 2.58021898298229750000e-001) (14, 1.03850927470425080000e-001) (15, -3.01616808939258740000e-001) (0, 6.98670747869626660000e+000) (1, 5.72155803398768990000e+000) (2, 8.34329024066717720000e-001) (3, 5.02119891698655010000e-001) (4, -2.58126641956854860000e+000) (5, 9.04238237854822600000e-001) (6, 1.01768980204491420000e-001) (7, -3.76045799330885620000e+000) (8, -1.45364347408716780000e+000) (9, 1.17442671090743490000e+000) (10, 2.83568157283050680000e-001) (11, 2.86319454614863580000e-001) (12, 9.43390966161130050000e-001) (13, -2.04545390251140740000e-001) (14, 3.51940443741344260000e-001) (15, 1.53016659441683970000e-001) (0, 1.04672101524209180000e+002) (1, 2.27580575219636220000e+001) (2, 1.13055729711126480000e+001) (3, -1.44859827146894830000e+000) (4, -8.52003350696300290000e-001) (5, -7.45799236339283470000e-001) (6, -2.25778077325215310000e+001) (7, -3.29588834372431980000e+000) (8, -2.46900962934045200000e+000) (9, -2.93876182671210520000e-001) (10, -4.76776845481332370000e-001) (11, 4.70266484732092700000e-001) (12, 4.59984172716766670000e-002) (13, -5.25976689291373310000e-001) (14, -8.29435807104473150000e-002) (15, -2.68219832943829620000e-001) (0, -2.38488829795226740000e+000) (1, -1.47189483797953250000e+001) (2, 1.40607147554434890000e+000) (3, -2.77995415527337360000e-001) (4, 6.89054839707781360000e-001) (5, 3.49900905808855410000e-001) (6, -5.47997401882301820000e+000) (7, 1.62523577668295730000e-001) (8, 5.68245486512092390000e-001) (9, -1.42388719227295070000e-001) (10, -8.42369256810544860000e-001) (11, 7.83168935541028290000e-001) (12, -1.65091765082798250000e-002) (13, 2.10537798761894380000e-001) (14, -1.82831873499886640000e-001) (15, 2.35728236789840980000e-001) (0, 1.67433831498826490000e+000) (1, -1.06888409339131860000e+001) (2, -7.46892860407662670000e-001) (3, 1.04488064904629500000e+000) (4, -7.66955422846406500000e-001) (5, 1.08627401867306370000e+000) (6, 5.41121837881537670000e-001) (7, 4.09262173833116450000e+000) (8, -6.45391250724038110000e+000) (9, 1.01320505348157400000e+000) (10, -2.59824081574043280000e-002) (11, -2.03884499784671520000e-001) (12, 3.14336970775235040000e+000) (13, -3.59553202136950860000e-001) (14, -3.73137276748916890000e-001) (15, -1.81565883920548020000e+000) (0, -1.08557639328720090000e+001) (1, 2.76067020228508040000e+001) (2, 7.78216931026723200000e+000) (3, -7.33978266915928270000e-001) (4, -5.29034129772115100000e-002) (5, -9.51694433392197280000e-001) (6, 2.16873526426232300000e+000) (7, -7.48974838840319720000e+000) (8, -4.43763652713779240000e+000) (9, 3.34871892095950920000e-001) (10, 1.76252984671747370000e+000) (11, -1.15248167551260220000e+000) (12, 3.44446378949740560000e-001) (13, -2.30308374534076570000e-001) (14, -3.82738501628491630000e-002) (15, -7.09278465794897510000e-001) (0, 3.43748255638216040000e-001) (1, 2.08688279061297330000e-001) (2, -1.27766062859713380000e+001) (3, -7.28728555921244860000e-001) (4, -5.48502452727239300000e-001) (5, 3.31009104616692750000e-001) (6, 2.79521211957354240000e-001) (7, -7.01039612389428690000e-001) (8, 1.34790110358218140000e-001) (9, 2.27192527586864060000e-001) (10, 5.16999870722982810000e-001) (11, -2.01494401573859980000e-001) (12, 8.20168339582723750000e-002) (13, 1.14469164793006200000e-001) (14, 1.00118612132887640000e-001) (15, 1.58355548266164100000e-001) (0, -9.45584657420610420000e+000) (1, -3.24057176225191480000e+001) (2, 1.25936014666751310000e+000) (3, 2.17919466705613200000e+000) (4, -6.53728654306479750000e-001) (5, 4.71339711176506880000e-003) (6, 2.95196945490979520000e+000) (7, 8.53069181483948390000e+000) (8, 6.63480600493409180000e-001) (9, 2.81465968567440370000e+000) (10, -1.45942458189055850000e+000) (11, 7.95181767953932030000e-001) (12, -5.54035084743176980000e-001) (13, -3.05053113940037530000e-001) (14, 2.12760528920469010000e-001) (15, -1.21314757599176890000e+000) (0, -7.87356916900503290000e+000) (1, -1.65004158507838650000e+000) (2, 1.25023413234375180000e+001) (3, 4.58726349885814790000e-001) (4, -3.44267674266241610000e-001) (5, -7.72168677079414060000e-001) (6, 1.02569665242833930000e+000) (7, 8.48804967237186900000e-001) (8, -7.53520965188744010000e+000) (9, 1.55189389701362560000e-001) (10, -3.87223584794949280000e-001) (11, 3.71974903471367570000e-002) (12, 7.51283941401617720000e-002) (13, -5.37454036022150690000e-001) (14, 5.54633127325078300000e-001) (15, 2.44602387864288870000e-001) (0, -1.22844178067302610000e+000) (1, 2.50978536665890570000e+001) (2, -8.64326099750066310000e+000) (3, 7.66923178913274110000e-002) (4, -1.46986149961721270000e-001) (5, 2.68365588225439210000e-001) (6, 6.28793895272960040000e-001) (7, -6.91402789299721830000e+000) (8, 4.41650562049908490000e+000) (9, 4.63795140500300350000e-001) (10, -1.08476048901374590000e+000) (11, 4.74620207691619720000e-001) (12, 1.63242022739271600000e-001) (13, 5.97378278522445070000e-001) (14, 1.51068459779090340000e-001) (15, 4.99172694970161370000e-001) (0, 5.68748083285303910000e-001) (1, 1.38977604725071440000e+000) (2, -7.12367315767874660000e+000) (3, -6.91339023580072710000e-001) (4, -7.07080879497014870000e-002) (5, -7.92300545364194170000e-002) (6, 3.14451787326160040000e+000) (7, 1.61172445578716640000e+000) (8, -2.12109888210952890000e-001) (9, 1.56429545337067930000e-001) (10, 6.42449658151271860000e-001) (11, -7.73480334314425200000e-001) (12, -1.66076989459318550000e+000) (13, -3.09104376605212230000e-001) (14, 8.38571562899537710000e-002) (15, 1.51267062924231000000e-001) (0, -1.73550565939880940000e+000) (1, 6.76356454933761150000e+000) (2, 8.66283122234943010000e+000) (3, 5.06378045451273960000e-001) (4, 1.70782078453569820000e-001) (5, -8.94003029049661340000e-001) (6, 3.94232644848729090000e+000) (7, -1.29216988626730700000e+000) (8, -1.66100613973830820000e+000) (9, -7.70700772210288540000e-001) (10, 4.17760629852846010000e-001) (11, -5.84461084213162560000e-001) (12, 2.07304004773950810000e-001) (13, -7.88734277104001570000e-001) (14, 7.09544995762118190000e-002) (15, 2.17531299673813020000e-001) (0, 8.29955921296834380000e-001) (1, 6.86576135694997890000e+000) (2, 5.19196655115202170000e+000) (3, -5.16784146265079290000e-001) (4, -5.12866567740688620000e-001) (5, -1.52603053506181000000e-001) (6, 3.64757194779445770000e+000) (7, -1.48178469537722820000e-001) (8, -7.71703827316530950000e+000) (9, -2.16189945039253040000e-001) (10, -3.13460833307975080000e-001) (11, -2.46120763812772590000e-001) (12, 2.28385586527349940000e-001) (13, 3.39696618080088720000e-001) (14, -7.13321112127679870000e-002) (15, -1.71791739047885720000e-001) (0, 7.86457466644844060000e+000) (1, -6.95055351219572430000e+000) (2, -1.48309940116837110000e+000) (3, -2.05149492026412880000e+000) (4, 4.63655660799514990000e+000) (5, -1.56705606187837660000e+000) (6, -1.90709303606079490000e+000) (7, 3.76451208607309470000e+000) (8, -1.98806607001285050000e+000) (9, -2.44259557741732030000e-001) (10, -8.05382393626632000000e-001) (11, 1.29698342827516220000e+000) (12, -4.82932957224308460000e-001) (13, 1.05648513436976570000e+000) (14, -5.63349177497291080000e-001) (15, 2.36894626979888110000e-001) (0, 1.65236365713277100000e+001) (1, 4.09375103478804460000e+000) (2, 3.44126020433867910000e+000) (3, -2.17345124871307550000e+000) (4, -2.21372068401836740000e-001) (5, 1.32298775365942880000e+000) (6, -1.61251190028187330000e+000) (7, 1.40972030163978230000e+000) (8, 1.26544168939520580000e+000) (9, 1.92058798980548810000e-001) (10, 6.39659480133765610000e-001) (11, 6.66096847875684910000e-001) (12, 2.33117180522878030000e-001) (13, 3.75326415305983870000e-001) (14, -2.33083120903811420000e-001) (15, 4.56620610771315720000e-001) (0, 3.38692320466311520000e+000) (1, -9.80407319178490510000e+000) (2, 1.05636494855454050000e+001) (3, -4.79757984431746150000e-002) (4, 1.01915296890182840000e+000) (5, 5.48066062558505780000e-002) (6, -1.47797324401243580000e+000) (7, 7.85601043967157350000e-001) (8, 1.42203684084045670000e+000) (9, 1.13460091690546490000e+000) (10, 6.70798083780440810000e-001) (11, -7.11401038281273100000e-001) (12, -3.15458163701438480000e-001) (13, 6.03047216078560490000e-001) (14, 1.87265089643313950000e-001) (15, 3.90356412643814320000e-001) (0, -3.48399782973363910000e+000) (1, 4.43008432502773750000e-002) (2, -5.23932318296169000000e+000) (3, -1.12413605871573210000e+000) (4, 1.23924880282660290000e+000) (5, 5.73140471371243810000e-002) (6, 8.20703026645410170000e-001) (7, -3.32004192188590670000e-001) (8, -4.83078865020860450000e-001) (9, 4.07600677741003110000e-001) (10, -3.26066005931285540000e-001) (11, -7.01447672950949040000e-002) (12, 3.51257947264616570000e-001) (13, -3.29808268766292660000e-001) (14, -4.91618115866026770000e-001) (15, 5.35141967908776310000e-003) (0, 7.71034751111119480000e+000) (1, -5.52223792834210240000e+000) (2, 6.44475482258469510000e+000) (3, -2.51206027752038890000e+000) (4, -8.47503040536327970000e-001) (5, 4.15049322124844440000e+000) (6, -1.60046039618235070000e+000) (7, 3.71704937098082500000e+000) (8, -2.71363828729177300000e+000) (9, 3.41787003780416730000e-003) (10, -1.88133361933490420000e-002) (11, -3.35452003165565000000e-002) (12, -7.39561745401766560000e-001) (13, -1.19101494321173120000e+000) (14, 1.27934586763172240000e+000) (15, -2.29320050758193950000e-001) (0, -1.02606372614739150000e+001) (1, -1.07834634224120960000e+001) (2, 5.82759802762610320000e+000) (3, 4.73620142972467130000e-001) (4, 4.79610312869510000000e-001) (5, -1.49458099182315260000e-002) (6, 2.15326930331975190000e+000) (7, -3.14656677862115640000e+000) (8, 5.59100069475662660000e+000) (9, 3.03372790648144040000e-001) (10, 6.61102365163754310000e-002) (11, -1.39673723171995580000e+000) (12, -6.76996261622402340000e-001) (13, -1.15041479343658830000e+000) (14, -1.82570646976401710000e-001) (15, 9.21366026079304620000e-001) (0, -6.65198451507056540000e+000) (1, 9.73804038437654640000e+000) (2, 3.09496754152397280000e+000) (3, 2.14350429902248370000e+000) (4, 1.57958174044448980000e+000) (5, 8.41239316145596440000e-001) (6, 2.93155893600729130000e-001) (7, -1.54236329051990360000e+000) (8, -3.15333610967076620000e+000) (9, 1.31412032567844840000e+000) (10, 1.33659874206913680000e+000) (11, -3.50532900421540510000e-001) (12, 9.45639519644993710000e-001) (13, 9.35672730378451780000e-001) (14, 5.16684253188718910000e-001) (15, 4.75715237856557500000e-001) (0, -1.33901665014353290000e+001) (1, -3.86358510849946200000e+001) (2, -1.82158076980936180000e+000) (3, -1.89607709981791520000e-001) (4, -4.65601263459596240000e-001) (5, -1.97543157951011320000e-001) (6, 3.15803956438128800000e+000) (7, 7.77946739631463750000e+000) (8, 1.20787340351119930000e+000) (9, -1.15612258179360540000e+000) (10, 1.55697967679708230000e+000) (11, -6.39947434138823490000e-001) (12, -3.13907850052291270000e-002) (13, 4.01162785698803200000e-001) (14, -9.79709253916198790000e-003) (15, 7.69067176793681080000e-001) (0, -7.41743358924681750000e+000) (1, -4.14151943254943780000e+000) (2, -1.46210448109060490000e+001) (3, -8.31128523214446190000e-001) (4, 3.97867681323371140000e-001) (5, -1.57329093615191400000e-001) (6, -1.32783084592238550000e+000) (7, 9.87417848281874950000e-001) (8, 1.67018920760305870000e+000) (9, -4.72681962205078530000e-002) (10, 1.64213057417715270000e-001) (11, -3.18716033913494730000e-001) (12, -1.03820539047537050000e-001) (13, 3.79517956975321260000e-002) (14, -6.48009932411622720000e-002) (15, 1.35787362386774520000e-001) (0, -9.68932734667192900000e+000) (1, 2.22675449623340520000e+000) (2, 1.53995165429831860000e+001) (3, 7.98882416609876130000e-001) (4, 1.29263464890162330000e-001) (5, 4.89262132705043480000e-001) (6, 9.81179360505546860000e+000) (7, -1.21735534182122310000e+000) (8, -5.91394017118209630000e+000) (9, 5.39980270095798410000e-001) (10, 1.55445756511479900000e-001) (11, 7.73881227260051490000e-002) (12, -3.55901058931159660000e+000) (13, 7.13894076782818350000e-001) (14, -1.70022243246163690000e-001) (15, 5.91099711864571110000e-001) (0, 3.82064496584256760000e+001) (1, -1.28302488825561890000e+001) (2, -3.75742948979462320000e+000) (3, 5.75230951074428790000e-001) (4, -7.13628604295561190000e-001) (5, -4.05153418776678490000e-001) (6, -6.04325448023501010000e+000) (7, 2.82159917878988730000e+000) (8, 9.35530587163361130000e-001) (9, 1.61928295527552370000e+000) (10, 1.18383856756299140000e+000) (11, -3.42702502905147980000e-001) (12, 1.99135981846976060000e-001) (13, -2.59860592667230830000e-002) (14, -1.68408816247769020000e-001) (15, -4.21387932129644630000e-003) (0, 8.49246891524351000000e+000) (1, -2.84499843306546380000e+000) (2, 7.92152835051801850000e+000) (3, -5.65522267131293390000e-001) (4, -4.24376036386607760000e-001) (5, 1.07341358712503410000e+000) (6, -6.67609573609449040000e+000) (7, 6.71185768887466680000e+000) (8, -5.63972292936256280000e+000) (9, 6.83931245032590060000e-001) (10, 2.72766837170544560000e-001) (11, 4.81848304730356500000e-001) (12, 3.99369493128102270000e-001) (13, 4.59821443305351570000e-001) (14, 6.60680601136351690000e-002) (15, 3.29054266364443520000e-001) (0, 5.21761664155684280000e+000) (1, 6.35481943333376530000e+000) (2, 7.13340952140859930000e+000) (3, 3.10462815191957440000e-002) (4, -1.28831391583252940000e-001) (5, -2.20223134190217250000e-001) (6, 3.23233746276605280000e-001) (7, -7.18291434293977730000e+000) (8, -4.76140818516142160000e+000) (9, 1.44210553264676990000e-002) (10, 2.41633306560021940000e-001) (11, -1.09309143023239320000e-001) (12, -1.60010717295063000000e-001) (13, -1.43069692479957380000e-001) (14, 2.59691373707059030000e-001) (15, 1.05638137774581200000e-001) (0, -5.66687795869723730000e-001) (1, -1.75475176480616390000e+001) (2, -2.70028836447039520000e+000) (3, -8.80303782064962850000e-001) (4, 4.72104802577228260000e-001) (5, -3.29935233001984570000e-001) (6, -1.36663609759421020000e-002) (7, 4.39947697600670470000e+000) (8, 1.14424308323536670000e+000) (9, 2.32602188402520370000e-001) (10, 1.16258284725938590000e-001) (11, -7.40708171308641860000e-001) (12, 1.04060951580944500000e-001) (13, -8.86600198649052930000e-002) (14, 1.22431053256270130000e-001) (15, 6.96749452542235750000e-002) (0, -1.02497443666763170000e+001) (1, -6.92558559418528510000e-002) (2, -9.22333924309249480000e+000) (3, 5.98854571651225910000e-001) (4, -1.06669075957174080000e+000) (5, 2.09548601741350020000e+000) (6, 5.25072871674592180000e+000) (7, -2.04594135209868490000e+000) (8, 2.86552225855616960000e-001) (9, 1.42351221393904330000e-001) (10, -1.18740962092029640000e+000) (11, 1.09774642057910630000e+000) (12, 4.11606215978603460000e-002) (13, 2.13991111099220310000e+000) (14, -4.83379265409541740000e-001) (15, -1.42624230338736780000e-002) (0, 3.78176209677707980000e+000) (1, -1.65417189211178230000e+000) (2, 1.99852706691618560000e+001) (3, 1.58111660060031010000e+000) (4, 2.50023345939482560000e-001) (5, 2.61705308933211310000e+000) (6, -8.45779503811988630000e-001) (7, -1.33010361166006060000e+000) (8, -9.80910077369718710000e+000) (9, 1.98080908062010170000e-001) (10, -1.08253168726910710000e+000) (11, 6.92495381509629080000e-001) (12, -3.55244981187466460000e+000) (13, 1.05577489381726660000e+000) (14, -1.95029315165122980000e-001) (15, -2.15899113218296270000e-001) (0, -5.27945743604454170000e+000) (1, -9.98681781666876930000e-001) (2, -2.00302468746295940000e+000) (3, 7.65775584737336420000e-001) (4, 2.58490899421236800000e+000) (5, 9.56327145956918590000e-001) (6, 1.00646292192436950000e+000) (7, 2.24760099078034630000e-001) (8, 1.65249770516237360000e+001) (9, 3.08601261819163810000e-001) (10, -6.74513992640105730000e-002) (11, 1.02068876373113590000e+000) (12, 7.75876862340519310000e+000) (13, 4.24538331777687350000e-001) (14, 8.50101742656154780000e-003) (15, 2.71789303585636580000e-001) (16, 1.90768264349933240000e+000) (17, 4.67565655651294860000e+000) (18, -7.21627871471950180000e-001) (19, -1.58595305176106830000e+000) (20, -4.98356604889641400000e-001) (21, 1.00027191286744290000e+000) (22, -4.81108543633966270000e-001) (23, -4.20056731480777270000e-001) (24, -2.38303944110979080000e-001) (25, -4.10253558630905730000e-001) (26, -3.33969949652945520000e-001) (27, 1.18813894291415780000e+000) (28, -1.79598290337399050000e-001) (29, -1.51315712457379380000e-001) (30, 8.56607605123352100000e-001) (31, -5.37922180703880650000e-001) (32, 9.11292116178987980000e-001) (33, 1.44233297867861280000e+000) (34, 8.26135059573884330000e-001) (35, -2.85708119798247510000e-001) (36, 4.76530743438917970000e+000) (37, 1.92746208938362760000e+000) (38, -7.02289032994611330000e-003) (39, -3.22345806052632970000e-001) (40, 6.08141966659405120000e-001) (41, 1.36283268402200310000e+000) (42, 7.35798054098378730000e-001) (43, 1.63959856575889850000e-001) (44, -5.44501220787138250000e-001) (45, -4.70783098035454870000e-001) (46, -4.22626222230110650000e-001) (47, 2.50997687611423540000e+000) (48, 1.77238534160199700000e+000) (49, 1.11846979353594910000e+000) (50, -4.69459721919698430000e-001) (51, 4.24690445170896050000e-001) (52, -3.64219176837715150000e-001) (53, -2.43933592309475420000e-001) (54, -4.10496548930822770000e-001) (55, 7.77050052079912980000e-002) (56, 8.31995828805609240000e-002) (57, -6.09193514341063170000e-001) (58, -4.22262190196026570000e-001) (59, 1.39634568580293110000e+000) (60, -2.49380034004074250000e+000) (61, -1.09817644972705010000e+000) (62, 2.05647944721396080000e-001) (63, 8.57682524006600280000e-001) (64, -3.93633215296905870000e-001) (65, 2.12528258830017050000e-001) (0, 4.98795710409124200000e+000) (1, 1.85694310728834400000e+001) (2, 3.36651975042287050000e-001) (3, -1.83514921358957460000e+000) (4, 6.06157345886510490000e-001) (5, 1.49073312301857100000e+000) (6, 7.39946880512799240000e+000) (7, 5.05408645271975840000e+000) (8, 4.91277417770727000000e+000) (9, -9.38327064147911750000e-002) (10, -4.72523811882203990000e-001) (11, 8.99162448390348420000e-001) (12, 1.68514339660388000000e+000) (13, 1.62864372862270110000e+000) (14, 3.67442208757816910000e-001) (15, -8.08641860875666810000e-001) (16, 4.72539091935650630000e-001) (17, -2.21304261274000870000e+000) (18, 1.65973182315044390000e+000) (19, -1.27548188533669430000e+000) (20, -1.64581687861255310000e+000) (21, 2.92899285103038800000e+000) (22, 4.25069106314687140000e-001) (23, -2.44600848804285010000e+000) (24, 7.66669991934869950000e-001) (25, -6.95754010141553030000e-001) (26, 4.36521782630461370000e-001) (27, 2.37693190477963910000e+000) (28, -8.20872490443914190000e-001) (29, -5.48298826008096210000e-001) (30, -1.40192188458434060000e+000) (31, 1.49138868514611820000e-002) (32, -1.81065937115198970000e-001) (33, -3.02911361214934890000e-001) (34, 2.13619789151265720000e-002) (35, 4.58833641077092460000e-001) (36, 8.05534586065957260000e-002) (37, 1.01517103104029970000e+000) (38, 8.29496143972349830000e-001) (39, -6.78039754629677360000e-001) (40, 8.45149923578108030000e-001) (41, 1.30724243696535680000e+000) (42, 1.27707793127516660000e+000) (43, 3.72725760489248710000e-001) (44, -3.96082317708034430000e-001) (45, 1.54740113337874010000e+000) (46, -1.86658157298710580000e+000) (47, -1.04713163142721680000e+000) (48, -7.88951748389387310000e-001) (49, 5.68078487481841780000e+000) (50, -1.09203575685100240000e+000) (51, 1.10288147270240790000e+000) (52, 1.33546849820963190000e+000) (53, 1.35240503945084560000e+000) (54, -1.42315972037975570000e+000) (55, 2.08147721392968730000e+000) (56, -1.12570391182074310000e-001) (57, 1.49705049358567430000e+000) (58, 3.87524065967469020000e-001) (59, -4.65482548400086630000e-001) (60, 1.74118294839438000000e-001) (61, -1.28543816782594300000e+000) (62, -2.20862698587247450000e+000) (63, -1.13471242005657650000e-001) (64, 1.30953274050060230000e+000) (65, -7.61342704352720450000e-001) (0, 3.47124048681456140000e+000) (1, -2.47212917385384900000e+001) (2, -1.35104530804097430000e+000) (3, 1.27558252832525110000e+000) (4, -9.15174851499229840000e-001) (5, -1.07234935662449840000e+000) (6, -1.74961014688968610000e+000) (7, 1.83168802045682170000e-001) (8, 1.45606607933550200000e+000) (9, 1.08427415681668100000e-002) (10, 1.53776565137036840000e+000) (11, -7.89723070416368020000e-001) (12, 4.05739026862964260000e-001) (13, -8.24009355239893740000e-002) (14, -4.44693311522211750000e-001) (15, -8.28109287967842220000e-001) (16, -1.27137182295513650000e+000) (17, -2.71175508789063990000e-001) (18, 2.08570393701763560000e-001) (19, -1.10633419654828270000e-001) (20, 1.92905867758945860000e-001) (21, 1.66023136910592010000e-001) (22, -1.31783408705087050000e+000) (23, 2.93189229977683320000e-001) (24, 1.10062876096370720000e-001) (25, 2.63920940327041220000e-001) (26, -4.82220579612999190000e-001) (27, 1.04341189707928540000e+000) (28, 6.93358983536908830000e-001) (29, 3.58542260318426900000e-001) (30, -7.06717092249866120000e-001) (31, -2.14554227465400120000e-001) (32, 5.64584523552752350000e-001) (33, -4.25557403084148910000e-001) (34, 2.15059064185979640000e-001) (35, -2.93387185748874460000e-001) (36, 7.59347153951471010000e-001) (37, 2.42478064149588550000e+000) (38, 9.28359844389784890000e-002) (39, -1.67266373420381930000e+000) (40, -9.98235230033852060000e-001) (41, 9.74323052395808740000e-001) (42, -5.64081634391255800000e-001) (43, -1.04395381031757520000e-001) (44, -3.06773926375671470000e-001) (45, -1.44719992137206460000e-001) (46, 8.12110010728349100000e-002) (47, -3.24032796939747460000e-001) (48, 5.39242365469506100000e-001) (49, 5.95146656117886640000e-001) (50, 1.61326464618417350000e+000) (51, 6.56991344118466600000e-001) (52, 1.36356999832615130000e+000) (53, 7.76561605112918160000e-001) (54, 4.18901545881862740000e-001) (55, 4.56849334207741320000e-001) (56, 4.71885927628495790000e-001) (57, -1.78356373010407690000e-001) (58, -1.87652334909747640000e-001) (59, -3.27956119765237140000e-001) (60, 2.60800316712553380000e-001) (61, 9.02172602079029270000e-001) (62, 5.13524278499712610000e-001) (63, 4.41231775770135660000e+000) (64, -6.28484844028085470000e-002) (65, 2.44307501954906160000e-001) (0, 8.12451391647428970000e-001) (1, 1.95342502668924850000e+001) (2, 5.27984490030017910000e+000) (3, 2.17225556962328530000e+000) (4, -4.81170904937653690000e-001) (5, 2.10617188523004510000e+000) (6, 5.37558260818017160000e+000) (7, -1.55725389897252060000e+000) (8, 4.29854544500482660000e+000) (9, 1.15548056783910690000e+000) (10, 9.15446404605425150000e-001) (11, -7.02973010033809740000e-001) (12, 5.24005751770526200000e-002) (13, 1.33680953202630260000e-001) (14, -2.91643153677147660000e-001) (15, 1.25316634577437220000e+000) (16, -1.74158249682635210000e-001) (17, -6.23409751827312180000e-001) (18, 4.94382440726725210000e-001) (19, 6.05224534398735690000e-001) (20, 1.29038782089941040000e+000) (21, 3.80513260115483030000e-001) (22, 2.23841821328506970000e-001) (23, 7.34694373382527990000e-002) (24, 4.80726688764388010000e-001) (25, 1.80981383393870650000e-001) (26, 1.59227090594666950000e+000) (27, -9.47014479776991160000e-001) (28, -3.30871791178004300000e-001) (29, 3.79762294068422430000e-001) (30, 6.09365242631657590000e-001) (31, -5.24349733955892900000e-001) (32, 4.96568594517988400000e-001) (33, 3.37994647376689410000e+000) (34, 1.26879909234782380000e+000) (35, 4.28759749702416410000e-002) (36, -1.97727501639095940000e-001) (37, 2.22010944775722120000e-002) (38, 3.03024566576525100000e-001) (39, -5.42704681187862300000e-001) (40, 6.16235992231151110000e-002) (41, 1.55747363815725980000e+000) (42, 1.16767946118514490000e+000) (43, 2.37292224938159710000e+000) (44, 9.78664853325611820000e-001) (45, 2.03628573398752350000e+000) (46, -7.85250114132060310000e-002) (47, 2.00502825757504020000e+000) (48, 2.25461009013379730000e+000) (49, 2.53428198455466070000e-002) (50, 4.41622822495949320000e-003) (51, 1.20902293809906510000e+000) (52, 2.93607207678677540000e-001) (53, -7.31077290666457210000e-001) (54, -1.76920473009425590000e-001) (55, 1.78662935737027410000e+000) (56, 7.73528833364548140000e-001) (57, 1.14575717556773160000e+000) (58, 6.64185249088838690000e-001) (59, -1.14042675178374310000e-001) (60, -1.38556123330594190000e+000) (61, 4.96187680188139140000e-001) (62, 1.80173647112226210000e+000) (63, 3.49901216392372150000e-001) (64, 8.84289146323366190000e-001) (65, 7.35217064053020560000e-001) (0, 2.28811367884589330000e+000) (1, -3.68091463375239910000e+001) (2, -7.06799082068903940000e+000) (3, 6.30447343551135520000e-001) (4, -5.51627846554317180000e-001) (5, 1.27735106705164860000e+000) (6, -5.20975835679126040000e+000) (7, 1.46740751322276800000e+000) (8, -3.53580037689775920000e-001) (9, 2.76060246481738270000e-001) (10, 6.63484265117900600000e-001) (11, 1.18155882342981840000e-001) (12, -5.90347104714562310000e-001) (13, 3.28147882920530040000e-001) (14, 2.31156389145537180000e-001) (15, 1.18081959636847960000e+000) (16, 1.71796882773701640000e-001) (17, 4.15882709733695010000e-001) (18, 6.34278356288697440000e-001) (19, -5.02014024262341930000e-002) (20, 5.34199646152160310000e-001) (21, 6.05244758435833140000e-001) (22, 8.36963906631285840000e-001) (23, 1.05882222937632010000e+000) (24, -4.22330033113875400000e-001) (25, -2.26693495339826470000e-001) (26, 1.64816180139564260000e-001) (27, 6.17814753771379620000e-001) (28, 8.51461430084534400000e-002) (29, -2.20111461503843860000e-001) (30, 4.35726933626331300000e-001) (31, 9.58962196184581920000e-002) (32, 6.61836536064266960000e-002) (33, 7.00903171367656340000e-001) (34, 1.79280921895489390000e+000) (35, 1.58107042377387820000e-001) (36, 9.44952039781012940000e-001) (37, -2.13258062370134470000e+000) (38, 2.91384453372329710000e-001) (39, 2.24466347814913900000e+000) (40, 4.92540548811632390000e-001) (41, 5.25801416633249310000e-001) (42, 6.48711227891393570000e-001) (43, 1.26435006183374780000e+000) (44, 2.00945005606444730000e-002) (45, 3.38643538371007520000e-001) (46, 2.01471990778232790000e+000) (47, 2.01034402303142470000e+000) (48, 1.71860970865457460000e+000) (49, -5.37695749418346520000e-001) (50, -1.39248687708108470000e-001) (51, -3.88732870853121470000e-001) (52, -1.44549286570440190000e-001) (53, 7.97940912365640910000e-001) (54, -6.46772282745683770000e-001) (55, 4.06961566536706010000e-002) (56, -8.84821509554157700000e-002) (57, 3.27747326824883560000e-001) (58, 1.35559983304223610000e+000) (59, 9.44663855765413340000e-001) (60, 1.65386552486143470000e+000) (61, -5.70190357222614240000e-001) (62, -9.37022998365480640000e-001) (63, 4.09058397381845960000e-001) (64, -2.46749295694597440000e-001) (65, -3.33941785405789390000e-001) (0, -1.53357655214766290000e+001) (1, -2.35845381391560490000e+001) (2, 9.42307889910162010000e+000) (3, -1.30353105004525040000e+000) (4, -1.64377338093274730000e+000) (5, 2.01074773571329280000e+000) (6, -2.63868172975406270000e-001) (7, 2.31497983719645670000e+000) (8, 5.16444236005945620000e+000) (9, 2.41369777349679400000e-001) (10, 8.81033904613841790000e-001) (11, 1.49655635504223980000e-001) (12, 1.12487232977862100000e-001) (13, 5.63459269605652620000e-001) (14, -2.64780663922778050000e-001) (15, 4.05407470906313310000e-002) (16, -6.71463267212841000000e-001) (17, 2.23289978412877280000e+000) (18, -4.64749796082103540000e-001) (19, -4.71243916178111790000e-001) (20, -2.10541880153156340000e-001) (21, 2.47845327060093410000e-001) (22, -3.46902850241557540000e-001) (23, 3.85417323309990680000e-001) (24, -6.76636894059731260000e-001) (25, 2.35235188835412220000e-001) (26, 7.25692244817660260000e-001) (27, 1.60245043865377700000e+000) (28, -6.30706608237845630000e-001) (29, 3.57369552385164270000e-001) (30, -2.93484056520099350000e-001) (31, 1.74552172424803000000e-001) (32, -1.14534920627243750000e+000) (33, 1.25899997443057290000e+000) (34, 1.21089754598376760000e+000) (35, -2.65832059527961520000e-001) (36, 1.53219634454035140000e-001) (37, 4.90235871474013210000e-001) (38, 3.16858844961659040000e-002) (39, -5.54413487632882450000e-001) (40, -1.28153428159243200000e+000) (41, 3.41368349715919340000e-001) (42, 1.44579999234809290000e+000) (43, 4.46072254665041580000e-001) (44, 1.25623683070475390000e-001) (45, 8.66063323480182000000e-001) (46, -1.70514154551502320000e+000) (47, -5.61344522824002380000e-001) (48, 5.27504010256446660000e-001) (49, 4.28343437523116450000e-004) (50, 5.01255239744550440000e-001) (51, 1.06878179417403320000e-001) (52, 3.14651827722311480000e-002) (53, 3.36347584854929270000e-001) (54, 5.44096140975402710000e-001) (55, 2.61769923783776340000e-001) (56, 4.09140274621697460000e-003) (57, -7.79803817164176240000e-001) (58, 4.26069472212129490000e-001) (59, 1.38652186253318930000e-001) (60, -3.43719372206845730000e-001) (61, -7.45084433549449980000e-001) (62, -8.04898304387101970000e-001) (63, 1.38586134030451440000e+000) (64, 2.67022620232478470000e-001) (65, -3.25488922117912680000e-002) (0, 2.21035576600737010000e+001) (1, 3.47139157476542000000e-001) (2, 2.13144635016871090000e+000) (3, 5.46653093796471090000e+000) (4, -9.78581673299677930000e-001) (5, 7.96875334298072690000e+000) (6, -4.52100202496268010000e+000) (7, 1.31096079707802190000e+000) (8, 1.24890362206675500000e+001) (9, -2.26904904194841530000e-002) (10, -1.26089738749470780000e+000) (11, 2.00040232091310610000e+000) (12, 4.06822870451384320000e+000) (13, 4.11749397380209660000e-001) (14, 1.83414862524338100000e+000) (15, 5.35271234562724960000e-001) (16, 1.37592488652946990000e-001) (17, -1.36554988948811350000e+000) (18, 1.91423499660235570000e+000) (19, 2.42121446798585230000e+000) (20, 5.16991204829837180000e-001) (21, -2.51501792721663560000e-001) (22, -1.07579700765145780000e+000) (23, -1.62763459725781990000e-001) (24, 2.81475855890425730000e-001) (25, -2.45581797664310650000e+000) (26, 8.07268138214217170000e-001) (27, 7.56467491428140650000e-002) (28, -1.39327724511240340000e+000) (29, -1.03603847963610280000e+000) (30, 2.57850639829040820000e+000) (31, -1.63011627790575630000e-001) (32, 5.27884659021264470000e-001) (33, 9.15698135959030820000e-001) (34, 1.13525707734252860000e+000) (35, -7.53835113377932520000e-001) (36, -2.01824467871228650000e-001) (37, -2.59196540099451530000e-001) (38, 3.35398477678617750000e-001) (39, -3.02448453644216960000e-001) (40, 1.38187732347315980000e+000) (41, 1.61227369255350590000e+000) (42, 6.71891888745845050000e-001) (43, 5.38849304183558030000e-001) (44, -5.63017438609150210000e-001) (45, 2.16957071548416280000e+000) (46, 1.32096187048717790000e+000) (47, 1.74548725364716640000e+000) (48, -7.87070915783621210000e-001) (49, 7.66385323621307290000e-001) (50, -4.66768432929598410000e-001) (51, 2.74743702036823630000e-001) (52, 2.81518668112357320000e-001) (53, -7.40390166700278380000e-002) (54, 4.70565224464510600000e-001) (55, 1.81137636218299090000e-001) (56, 3.15626983074303980000e-001) (57, 7.73311681864431890000e-001) (58, 6.37483447296197100000e-001) (59, 1.16050673390360950000e+000) (60, 3.98907005546899230000e-001) (61, -1.10783993049021520000e-001) (62, 1.10555965029727130000e+000) (63, 4.03329224216282980000e-001) (64, 1.48440640733855160000e-001) (65, 1.06896414343475920000e-001) (0, 3.24162481549879050000e+001) (1, -3.71890200688809930000e+001) (2, -7.10050921441712290000e+000) (3, 2.87184026214354080000e+000) (4, -2.24382259441156110000e+000) (5, 2.39089783295233140000e+000) (6, 7.42644944605519090000e+000) (7, -5.36131474415173590000e+000) (8, 1.06496886066097080000e+001) (9, -3.88208980940851660000e-001) (10, 6.16220696509012900000e-001) (11, 6.52249449019393630000e-001) (12, -1.84270103315547140000e-003) (13, 2.19927134420299760000e-001) (14, 7.60794553270759950000e-001) (15, 2.39087264769989700000e-001) (16, 4.55849080875364080000e-001) (17, -5.30502987485137470000e-001) (18, 3.62684740590489650000e+000) (19, 1.50307402268640520000e+000) (20, 7.67526226279874440000e-001) (21, -8.85271257568633120000e-001) (22, 1.48345475014522620000e+000) (23, 1.70822215073656290000e+000) (24, 1.19773602221480100000e+000) (25, 1.86475093185325710000e-001) (26, 3.58340313018764510000e-001) (27, -3.27346732276543270000e+000) (28, 2.31277862641102010000e-001) (29, -1.14646897030831580000e-001) (30, -1.49838203712844650000e-001) (31, 8.54306126309834820000e-001) (32, 1.67895387938651300000e-001) (33, 3.56445431488473300000e-001) (34, -1.24014843344117900000e-001) (35, 9.02772164779326870000e-001) (36, 3.85132239118689930000e-001) (37, -1.64652645048547100000e-001) (38, -1.26391483886108970000e+000) (39, 2.95239676149437970000e-001) (40, 1.35059864468629630000e+000) (41, -4.05076864691028160000e-001) (42, 7.03449801805753010000e-001) (43, -3.21455222321018140000e-001) (44, -6.00887773529035110000e-001) (45, 5.32230241581955000000e+000) (46, 9.85937457458336940000e-001) (47, -9.87658641988417800000e-001) (48, 4.91590582471726770000e-001) (49, -2.22075401925381620000e+000) (50, 1.19288854103507510000e-001) (51, 9.18776786981405220000e-002) (52, -2.04248908284931250000e+000) (53, 9.00194005978024570000e-001) (54, -4.76788674881207410000e-001) (55, 3.97048385491357130000e-001) (56, -3.38550025534615220000e-001) (57, -4.88667828975243750000e-001) (58, 4.30030404705056270000e-001) (59, -1.25738988448004170000e+000) (60, -2.29427513607569190000e-001) (61, 9.98082013703736500000e-001) (62, 3.16357685467832320000e+000) (63, 5.50237380803870630000e-001) (64, 5.43795925609916520000e-001) (65, -2.27364776674751520000e-001) (0, -1.39600694032748010000e+001) (1, 3.45100036475283500000e+001) (2, -1.14287236539073040000e+000) (3, -1.93155002197856240000e+000) (4, -6.00366306001946090000e+000) (5, 7.90637435131894000000e-001) (6, -2.43547505002158830000e-001) (7, -8.53236940774583010000e-001) (8, 5.05530690786572760000e-001) (9, 5.15097623064897150000e-001) (10, -1.32640992685415800000e+000) (11, 2.89679431530395990000e-001) (12, 8.70216103356585280000e-001) (13, -4.87584612514112700000e-002) (14, -7.53928484120996560000e-001) (15, -2.21642706707383010000e-001) (16, -1.55195387425169380000e+000) (17, 4.17532618788513000000e-001) (18, 1.69109467666621240000e-001) (19, -7.14391531703469080000e-003) (20, -1.57458687774274520000e+000) (21, -5.21061752287876550000e-001) (22, -8.82996365757741870000e-001) (23, -5.60584539163262340000e-001) (24, 2.00134815206557450000e+000) (25, -3.61433159713705210000e-001) (26, 2.21833212906775180000e-001) (27, 2.95938667582195290000e+000) (28, -1.97790558375534750000e-001) (29, 6.57258796037318290000e-002) (30, 9.92162716094096230000e-001) (31, 6.10136223879439780000e-001) (32, 3.13749546456853660000e-001) (33, -1.34237928314023010000e+000) (34, -1.26010452892210380000e+000) (35, 5.81288495531936180000e-001) (36, 5.52364329705834160000e-001) (37, 7.31324839512599860000e-002) (38, 4.92955446255617660000e-001) (39, -7.73387036780960050000e-002) (40, -9.90374479949054810000e-001) (41, 1.09901501239171290000e-001) (42, 1.56785899598787110000e-001) (43, -2.29681576802241110000e+000) (44, 3.91938091787867480000e-001) (45, 1.19884887365485970000e+000) (46, 1.81782250915582390000e-001) (47, -6.49752065605609390000e-001) (48, -5.88279511833009190000e-001) (49, 6.84236710568999260000e-001) (50, 1.79269235138400620000e-001) (51, -6.40421947384207550000e-001) (52, -1.69169481974598250000e-001) (53, 9.71282178650162750000e-001) (54, 1.16931607201218520000e-001) (55, 3.02208970875554370000e-001) (56, -1.48416319157401670000e-001) (57, 3.63230306188179200000e-001) (58, 8.18701658739497070000e-001) (59, 3.35840938446979250000e-002) (60, 3.79098782225169910000e-001) (61, -1.16484826514173710000e+000) (62, -1.79560076183542330000e+000) (63, -2.21821666632234850000e-001) (64, -2.79329880951652900000e-001) (65, -4.79135641855746530000e-001) (0, -1.18388084120930510000e+001) (1, 4.39820384521293310000e+000) (2, 1.74415879029527190000e+001) (3, -1.13859272088154760000e+000) (4, 1.48988674837900930000e+000) (5, 7.76746008496772000000e-001) (6, -2.92170286246745680000e-001) (7, -3.73128063524805850000e+000) (8, 2.49306729264278860000e+000) (9, 2.09441567337836750000e-001) (10, 9.98405498856302640000e-002) (11, -1.55140656225866260000e+000) (12, 1.77666429318211670000e-001) (13, 2.50939145483473850000e-001) (14, -1.60475170549907150000e-001) (15, 4.26783683566628600000e-001) (16, -3.04192317993556390000e+000) (17, 8.73993301104109750000e+000) (18, -2.00454494156368290000e-001) (19, 2.48792171531093950000e-001) (20, 1.19162392288006200000e+000) (21, -2.75545737269918710000e-001) (22, 3.19010983183452000000e-001) (23, -1.24946631883465800000e+000) (24, -2.04391846621997660000e-001) (25, -4.11771742028039730000e-001) (26, 1.57919711499692910000e+001) (27, 7.21824447547246840000e-001) (28, 7.72452378785524310000e-001) (29, -4.51728699730104680000e-002) (30, 8.58647371100120650000e-002) (31, 5.15694151453916280000e-001) (32, -9.05834817150602960000e-002) (33, -1.53611150023122120000e-001) (34, 5.94962771984896970000e-002) (35, -1.73798271484518680000e-001) (36, 3.57553231790233570000e-002) (37, 2.95369728068802880000e+000) (38, -1.19837854383413570000e-003) (39, -6.06475764994917070000e-001) (40, -4.02497542948341560000e-002) (41, 2.54882268808533040000e-001) (42, -4.89389188568558290000e-001) (43, 8.00090266892327100000e-001) (44, 1.66527063454775950000e+000) (45, -3.60284930100304550000e-001) (46, -2.63355882388767560000e-001) (47, 4.80489516310790120000e-001) (48, 7.19622690717734580000e-002) (49, 6.30110452930408240000e-001) (50, -9.51773480370924910000e-002) (51, 1.58865709757160830000e+000) (52, -2.55174035314517410000e+000) (53, 8.84393629974904450000e-001) (54, 2.33430302181256930000e-001) (55, 4.49058094735722500000e-001) (56, -1.24745458347693950000e-001) (57, 8.72062372611351110000e-001) (58, 5.62338681470609610000e-001) (59, 8.65035525507823750000e-002) (60, -1.35894778979901920000e+000) (61, 3.17055686246079220000e-001) (62, -4.71462326002953310000e-002) (63, 4.26856648730464310000e-001) (64, 4.82197820670106690000e-001) (65, -5.43921565312558200000e-001) (0, -2.29064829025883580000e+001) (1, 9.10191404436501910000e+000) (2, -2.21267956494421120000e+001) (3, 1.07097015601314950000e+000) (4, 3.62913769769798330000e-001) (5, -6.66019640537390160000e-001) (6, 4.15084559974780110000e+000) (7, 6.20884264547864450000e+000) (8, 7.51743977075223220000e-001) (9, 6.10565287514134970000e-001) (10, -1.46405232463175120000e+000) (11, 6.72014399751900800000e-001) (12, 4.22736574213115450000e-001) (13, 1.12494682996457430000e-001) (14, -2.07321844517175470000e-001) (15, 1.04180911531156390000e-002) (16, -6.49045193841744080000e-001) (17, -4.68898182631812320000e-001) (18, 5.18971879050785580000e-002) (19, 2.74848473862842670000e-001) (20, 4.54220134048919480000e-001) (21, -1.53897196863050420000e-001) (22, -4.52765398895612240000e-001) (23, -9.49475610073526650000e-001) (24, 1.14366182941459640000e+000) (25, -6.23676902961847610000e-002) (26, -4.53076795127029090000e-001) (27, -2.35916723658068570000e-001) (28, 6.35719978344736150000e-001) (29, 2.03181377834224660000e-001) (30, 1.67880151353954730000e-001) (31, -3.76111098288301580000e-001) (32, 1.67022050293988040000e-002) (33, 1.03047126140966490000e-001) (34, 4.03435942975570390000e-001) (35, 2.10497663304650940000e-001) (36, 1.30755359878747060000e-001) (37, 2.41827648756105350000e-001) (38, 7.70940605229169300000e-001) (39, -3.89503190700281330000e-001) (40, 1.37515309002106900000e-001) (41, -1.54261456006808960000e-001) (42, 1.65424880220724440000e-001) (43, -1.95335077658973590000e-001) (44, 3.88787074287895880000e-001) (45, 9.31593860150640830000e-001) (46, 2.34761812723959520000e-001) (47, -9.69551273670945290000e-001) (48, -6.36173402359300310000e-001) (49, -8.74895420211596160000e-001) (50, -2.99391678977164070000e-001) (51, 1.66519167215299810000e-002) (52, 1.22950995240792490000e+000) (53, 3.09500282794780500000e+000) (54, 5.04627962736823750000e-001) (55, 1.02635851606425600000e-001) (56, -2.17690664891261240000e-001) (57, 1.45174050905943860000e+000) (58, -5.10366090766666390000e-001) (59, 7.64634192674735540000e-001) (60, 8.90636757502145660000e-001) (61, -8.32162637764921390000e-001) (62, 9.47205012864647530000e-002) (63, -7.65419168614006050000e-001) (64, 2.75208687839135210000e-001) (65, -3.34426676969895200000e-001) (0, 7.70275022963992130000e+000) (1, 1.12800638441247540000e+001) (2, -1.62801642245482790000e+000) (3, 1.62482879886201490000e+000) (4, -1.89981902718690670000e+000) (5, 2.19416566720715790000e-002) (6, -4.56824260756257330000e+000) (7, -7.25434631016034270000e+000) (8, 3.37428086624064650000e+000) (9, 6.81843976074887610000e-002) (10, -1.30484178808668940000e-001) (11, 7.45607421553594610000e-001) (12, 3.02044845857994900000e-001) (13, 8.91716508976706100000e-002) (14, -3.92969506249836060000e-001) (15, 3.96440696393092870000e-001) (16, -5.24661814348537580000e-002) (17, 6.93465393873700650000e-001) (18, 1.98749046352633530000e+000) (19, 1.86216932427450080000e+000) (20, 1.87737364880921160000e-001) (21, -8.41628139344167470000e-001) (22, 2.59997195229454750000e-001) (23, 1.35701090953920270000e-001) (24, -4.35915126958476340000e-001) (25, -4.80270115265097270000e-001) (26, 1.60202181436730320000e-001) (27, 2.30189801041315530000e-001) (28, 3.55096312966168560000e-001) (29, -1.07953403331385860000e+000) (30, 8.88169445650554280000e-002) (31, 1.83262021676341120000e-001) (32, -5.64811877282515250000e-001) (33, 2.06145830084846330000e-001) (34, 7.39467268540334400000e-001) (35, 3.09464836630629540000e+000) (36, 1.05192502402480990000e+000) (37, 6.19772868129551240000e-001) (38, -3.11643472875219930000e-001) (39, 2.85604775073689200000e-001) (40, -6.46639771728818480000e-001) (41, 3.14739411667967980000e-001) (42, -1.32324594218243390000e-001) (43, 2.70118729091757770000e-001) (44, -5.25024321443927700000e-002) (45, 1.38078574196307870000e+000) (46, 8.23819081746726470000e-001) (47, -1.21690378166047160000e-001) (48, 6.45653833593197060000e-001) (49, -3.05912880890120590000e-001) (50, 8.66470912640607050000e-001) (51, -1.24869397802098440000e-002) (52, 1.61686895254751550000e+000) (53, 1.70830728901424700000e-001) (54, -4.39808580443535660000e-001) (55, 6.99076627544273910000e-001) (56, 3.53993295052713320000e-002) (57, 1.32923474090848810000e+000) (58, 3.31151712645174730000e-001) (59, -3.04108762016778480000e+000) (60, 5.79578089022277920000e-001) (61, 5.17254710211532020000e-001) (62, 1.39569069910771400000e+000) (63, 3.00943004222843770000e+000) (64, -2.52225011647342400000e-001) (65, 1.51353430924049830000e+000) (0, 1.47468061563072850000e+001) (1, -3.30546626489895420000e+001) (2, 3.75519438455361550000e+000) (3, -3.76556744841229580000e-001) (4, -3.80934661146499210000e+000) (5, 1.68520635820680800000e+000) (6, 3.14699927456448860000e+000) (7, -5.46717620895102560000e+000) (8, 8.61057022068050590000e+000) (9, 5.23472260647315560000e-001) (10, 5.07125134539997190000e-001) (11, 4.96271808453911000000e-001) (12, 1.50995965727997070000e+000) (13, 8.31339169606672310000e-001) (14, 2.90608213800764130000e-001) (15, -3.70263413391060950000e-001) (16, -1.59132709216084110000e-001) (17, 1.26945077643486680000e+000) (18, 1.46083006377650370000e-001) (19, 7.46313267464088440000e-001) (20, 8.57378047809756020000e-001) (21, 2.65247692372810700000e+000) (22, 9.48194605158369400000e-001) (23, -3.03477836281619010000e-001) (24, 1.24873008415857530000e+000) (25, 4.04078098923394480000e-002) (26, 2.83173915719671380000e-001) (27, 3.39679467940081690000e-001) (28, 2.35776758742144100000e-001) (29, 1.10666235647196850000e-001) (30, -1.41262157678015130000e+000) (31, 1.98282101129564460000e-001) (32, -2.46683536925772270000e+000) (33, 1.08559260286306000000e+000) (34, -7.06848391978324050000e-001) (35, 7.70259148304161200000e-001) (36, 2.29843154701503980000e+000) (37, 5.50298803778089480000e-001) (38, -9.52922640055669230000e-002) (39, 7.27878707346828360000e-001) (40, -2.67619992378450130000e-001) (41, -3.39101021178875860000e-001) (42, 5.73781383756968630000e-001) (43, 7.24762084292748350000e-001) (44, 1.25291711255586770000e-001) (45, -9.68285741750915090000e-001) (46, -3.14436053101766750000e-001) (47, -6.81551236420910730000e-002) (48, -5.65618903717491790000e-001) (49, 1.85888900698313810000e+000) (50, 7.71528781699822420000e-001) (51, -4.73564847782425410000e-001) (52, 1.11104708428457810000e+000) (53, 2.77006921321950800000e-002) (54, -2.21802206379142050000e-001) (55, 6.39917303384558570000e-002) (56, 1.14033345591474290000e-001) (57, -1.56430496214199930000e+000) (58, 7.86536938566984030000e-002) (59, 1.01855577396610930000e+000) (60, -1.81049815560646990000e+000) (61, -1.00377347163110500000e-002) (62, -2.50284458116672160000e-001) (63, -1.64188110504975440000e+000) (64, -1.72930559804389010000e+000) (65, -5.22511298513714140000e-001) (0, -2.23319234065811900000e+001) (1, -5.32185167962520020000e+000) (2, -1.36831468540836540000e+001) (3, -3.34616814838501670000e+000) (4, 7.91826922281452730000e+000) (5, 6.92648457233253460000e+000) (6, 2.08377113807990980000e+000) (7, -3.25749498568622950000e-001) (8, 1.10627943754510090000e+001) (9, 5.22803052789860940000e-001) (10, 2.08746490117430910000e-001) (11, 3.93907096597568340000e-001) (12, -9.39520807261386010000e-002) (13, -1.31241958015455420000e+000) (14, 4.84318194502421580000e-001) (15, -1.26939469821790550000e-001) (16, -5.39734155430749640000e-002) (17, 6.97825486695326890000e+000) (18, -5.68345390634366070000e-001) (19, 4.35317544003845200000e-001) (20, -1.26854184533723960000e-001) (21, -5.45281690787065010000e-001) (22, 2.75591225466857010000e+000) (23, -2.21191931728166420000e-001) (24, 2.23514519067507160000e-001) (25, 1.09138973359295540000e+000) (26, 1.10435972900796820000e-001) (27, 5.25097990872083980000e-001) (28, 2.57621140360162590000e-001) (29, 1.41266357019939330000e+000) (30, 2.81566924902635570000e-001) (31, 2.75892632886388770000e-001) (32, -1.41530543089059570000e-001) (33, -2.14244869614607230000e-001) (34, -5.54173736078625970000e-001) (35, 1.28540167387795330000e-001) (36, 2.53853989915681090000e-001) (37, -5.08245767213724650000e-002) (38, 7.56512052283052850000e-001) (39, 2.64641340313236000000e-001) (40, -7.73157303438502200000e-001) (41, 4.38149419417310280000e-001) (42, 1.45732522307621100000e+000) (43, -1.04388724007572220000e+000) (44, 1.71907974521861260000e+000) (45, -1.18405092880278010000e+000) (46, 3.53721256980369110000e+000) (47, 7.10652913774490360000e-001) (48, -1.10360141302789860000e-001) (49, 8.60810580147358120000e-002) (50, 5.17236228303526520000e-002) (51, -9.44297405193311290000e-001) (52, -2.85278773411603930000e+000) (53, -1.17863862988817970000e+000) (54, 1.11993849505985650000e-001) (55, -2.21498844303344460000e+000) (56, -2.08976911870405860000e+000) (57, 6.36195925854183280000e-001) (58, 9.99197245145092560000e-001) (59, -6.68147997347464440000e-001) (60, 7.13569433194371830000e-001) (61, -1.50521156560892440000e+000) (62, 5.61213452887467820000e-001) (63, -1.54348303053841950000e-001) (64, -1.83211747766760680000e+000) (65, 2.96794982071315160000e-001) (0, -4.36835314507689530000e+001) (1, -4.61284855411882690000e+000) (2, 9.18287105235048170000e+000) (3, 3.50133232291697240000e+000) (4, -3.21219432941831420000e+000) (5, 6.99928345877375340000e+000) (6, -4.14724716888458190000e-001) (7, 4.30971746229126040000e+000) (8, 5.12166085818068150000e+000) (9, 8.06164929628515940000e-001) (10, 2.89379253625768940000e-001) (11, 7.88147368793413880000e-002) (12, 6.85832637146984500000e-001) (13, 1.77647865507386290000e-001) (14, -2.17989339376067740000e-001) (15, 9.05195395729396330000e-001) (16, 5.00317445122138600000e-001) (17, -1.37785973152113610000e-001) (18, 2.18365914594180740000e-003) (19, -3.64830572946716890000e-001) (20, 2.24368806170857470000e-001) (21, -3.35841626484570610000e-001) (22, 1.21110547955388910000e+000) (23, 2.07745866876914630000e+000) (24, 2.39109409458643370000e-001) (25, 1.85685103937502820000e-001) (26, 7.87423814188847990000e-001) (27, -2.27541529320431900000e-001) (28, -1.52666980428515200000e-002) (29, 9.49443832822851390000e-001) (30, 1.69996319488286560000e-001) (31, -2.69694892752263820000e+000) (32, 2.18565462845342440000e+000) (33, 5.14360357545134540000e-001) (34, -3.11863627540352740000e-001) (35, 6.42628000967429000000e-001) (36, 7.05349328941865190000e-001) (37, 1.07227146247967200000e-003) (38, 1.89978407328242500000e-001) (39, 4.10088127501524240000e-001) (40, -7.52635405704897840000e-002) (41, -9.23304565026752820000e-002) (42, 4.40886547513436730000e-002) (43, 1.47638212736088590000e+000) (44, -1.99516819863478080000e-001) (45, 2.72439459624791750000e+000) (46, -4.06037488822068640000e-001) (47, -2.12358034987398580000e+000) (48, 8.77394868826488430000e-001) (49, 4.89271025374051540000e-001) (50, 1.71451677446907840000e-001) (51, 8.81239937058557740000e-001) (52, 4.12448672816595310000e-001) (53, 2.20523812658885290000e-001) (54, -1.65307580331775390000e+000) (55, 1.70028030525454280000e+000) (56, -4.24964164096250930000e-002) (57, 9.34613830349014680000e-001) (58, 1.85338487942976490000e+000) (59, -2.05413950204786450000e-001) (60, 8.36326342719854730000e-001) (61, -7.60485545783225140000e-001) (62, 2.34608120299095720000e+000) (63, 6.11145913695502530000e-001) (64, 1.11054373288522830000e-001) (65, 1.01993380593585380000e+000) (0, 2.40900342122320160000e+001) (1, 1.26941541058281260000e+001) (2, 8.02558409938435700000e+000) (3, 8.64944753714895540000e-001) (4, -3.38220402436609500000e-001) (5, 4.63244680132054720000e-001) (6, -3.25826824696790360000e+000) (7, 1.19443018380342460000e-001) (8, 1.86918549659774780000e-001) (9, 6.52694218355647370000e-002) (10, 2.40428713460536130000e-001) (11, -4.78169620703964680000e-001) (12, 6.64869145914235740000e-001) (13, -1.76162333466464840000e-001) (14, 3.68604188440770310000e-001) (15, -2.42993024759520370000e-002) (16, -1.38011064897404720000e-001) (17, 1.64108298227893570000e+000) (18, -1.04506774071027570000e+000) (19, -1.40131855026741030000e-001) (20, 1.02622453684705570000e+000) (21, -1.58574782247322050000e-001) (22, -5.35004864278943590000e-002) (23, 4.28756658912739900000e-001) (24, 3.09535077126634080000e-001) (25, -4.26629687912809470000e-001) (26, 2.46046798938639450000e+000) (27, -5.80007851302173030000e-001) (28, 1.37567775993074490000e-001) (29, 7.20567861094931900000e-002) (30, 2.89537193201178770000e-001) (31, 6.56439304740590420000e-001) (32, 2.32202798857612350000e+000) (33, 1.86416794895412610000e+000) (34, -1.06344167608362230000e-001) (35, -2.59045243131737820000e-001) (36, 8.19980879028551660000e-001) (37, 2.69009802561189610000e-001) (38, -6.40311368245460750000e-001) (39, 8.76264098101540490000e-001) (40, 1.26451573257297370000e+000) (41, -1.02167065465196290000e-001) (42, -1.03146704553739130000e+000) (43, -1.50089639971634240000e-001) (44, -5.56846678237434280000e-001) (45, -8.76490909637594460000e-001) (46, -2.07680116140422830000e+000) (47, 2.64827211177464490000e-001) (48, 3.14755812341937060000e-001) (49, 2.83984738254637100000e-001) (50, 3.74725245336980540000e-001) (51, 4.29273466026330490000e-001) (52, 8.79306186742501940000e-001) (53, -2.57406123709113590000e-001) (54, -2.29949859276765170000e-001) (55, 5.83608478564058510000e-001) (56, 2.65579098724000260000e-001) (57, -2.41619203870967320000e-003) (58, 7.79932459337693980000e-002) (59, 1.11119281777031560000e-001) (60, -3.37236503707702030000e-001) (61, -1.06384197155157430000e-001) (62, 1.60187678695738380000e+000) (63, 9.03896187774028410000e-002) (64, -1.28375807208553270000e-001) (65, -1.83279334743258030000e-001) (0, 4.64120041174800500000e+000) (1, -3.95850672395424970000e+001) (2, 1.12578154386643110000e+001) (3, 4.36475423505242330000e+000) (4, 5.68141532934094600000e+000) (5, -1.66750157963416720000e+001) (6, -1.22755821054051730000e+001) (7, -5.67370354767382400000e-001) (8, 8.79110496264359040000e+000) (9, 1.47078866467748120000e-002) (10, 4.73935657834584470000e-001) (11, 1.36514056156326250000e-001) (12, 1.68954674969713170000e-001) (13, 3.64009367433849100000e-001) (14, -7.25886206399993680000e-001) (15, 7.28625903584253050000e-001) (16, 2.02760327484458180000e+000) (17, 1.08382482072750390000e+000) (18, -2.32557364475039080000e-002) (19, 2.05905441676847280000e+000) (20, 9.91545603091938840000e-001) (21, 1.18157611889930670000e-001) (22, 2.01440958999696210000e+000) (23, 4.84947163322384970000e-001) (24, 3.08153680646905240000e-001) (25, -1.31768795567345240000e+000) (26, 2.40851700096161010000e+000) (27, 6.67467168618272490000e-001) (28, 1.53295067040319790000e+000) (29, 1.45936271107080160000e+000) (30, 8.91006092537661940000e-001) (31, 2.10179464856496720000e-001) (32, 2.35079015052925080000e+000) (33, 7.31015026696330490000e+000) (34, -4.39531899102696020000e-001) (35, -2.19011883463740430000e-001) (36, -8.42482165411363450000e-002) (37, 5.64574919120410020000e-001) (38, 1.99508452853977470000e+000) (39, 2.37633769466842810000e-001) (40, 3.71819556781850140000e-001) (41, -7.38288209768513060000e-001) (42, 8.92511523435325920000e-001) (43, 4.10552177749427920000e+000) (44, -3.48573904388763960000e-002) (45, -1.19787236994561090000e+000) (46, -1.56837473904802740000e-001) (47, -1.35872837152390910000e+000) (48, 1.62240310845378220000e+000) (49, 1.35279346037005800000e+000) (50, -8.89607008265433370000e-001) (51, 1.58234408018464310000e+000) (52, -1.10752816207558970000e-001) (53, 5.59819603590262990000e-002) (54, 4.96699309245562670000e+000) (55, 9.98609078605568020000e-001) (56, -3.01033502106783720000e+000) (57, 5.00799869023970460000e-002) (58, -3.74215743207791500000e-001) (59, 6.06544835899348710000e-001) (60, -2.97573881642844110000e+000) (61, 1.63349402132908340000e+000) (62, 2.98384245060865030000e-001) (63, 2.52187060435552630000e+000) (64, 7.97722886826880080000e-001) (65, 2.01676333508320880000e+000) (0, -1.27947561981190040000e+000) (1, 1.11050413012847760000e+002) (2, 2.91228744028728980000e+000) (3, 3.41240851770258200000e-001) (4, 5.24244215145163390000e-001) (5, 5.32265713181348770000e+000) (6, -9.20975971841706810000e+000) (7, -1.57836911272572710000e+001) (8, 2.60461966955086680000e+000) (9, -1.10058650856279150000e-001) (10, 6.95935623053587030000e-001) (11, -7.55242350534321760000e-001) (12, -1.76853717645794140000e+000) (13, 5.98013491740065130000e-001) (14, -5.75125887738597960000e-001) (15, 2.36947695312955040000e-001) (16, 2.01594418031746300000e-001) (17, 1.48528702241275680000e+000) (18, 6.01941384698724820000e-001) (19, 1.09890026974623930000e+000) (20, -4.58475578369033850000e-001) (21, -7.12348883621720440000e-001) (22, -1.05523385381887240000e+000) (23, 3.44470395194709400000e-001) (24, 2.48319551017508330000e+000) (25, 4.55084664176418570000e-001) (26, 6.24316629770406810000e-001) (27, 1.85094150298225400000e+000) (28, -2.38584973965580360000e+000) (29, 6.73249220758970980000e-001) (30, 2.78501885319952960000e-001) (31, -6.25634330246344740000e-001) (32, -1.98842253094839430000e+000) (33, 3.35520697665225580000e-001) (34, -2.79479065444947660000e-001) (35, 8.08771120021825270000e-001) (36, 8.19880313621606930000e-002) (37, 3.71009334030272030000e+000) (38, 1.05234686562871000000e+000) (39, -2.08031959077404520000e-001) (40, 1.32279842715961890000e+000) (41, 8.22781861853801640000e-001) (42, 3.82199847881838690000e+000) (43, 7.28124245888138510000e-001) (44, 6.43835209764003990000e-001) (45, -3.21202411799788750000e+000) (46, 3.38774780576696080000e-001) (47, 8.93888128558450010000e-001) (48, 9.78186972977828310000e-001) (49, -4.85074291125236030000e-001) (50, -3.08204848406609110000e-001) (51, -6.58288703501620050000e-001) (52, -3.58995482378886430000e-002) (53, -8.19343908157481150000e-001) (54, 6.71613925561970860000e-001) (55, 4.81914123424962650000e-001) (56, 3.58518479362952110000e-001) (57, -2.27877410331299910000e-001) (58, -2.89666132645739370000e-001) (59, -9.26238090492705000000e-001) (60, 1.52342233879975700000e+000) (61, -6.89671371217205120000e-001) (62, 7.69326466138740420000e-002) (63, 1.41004033341003180000e+000) (64, 4.72561761037272270000e-001) (65, 6.93509108171950490000e-002) (0, -9.70448914005577560000e+000) (1, 5.56294052735271280000e+000) (2, -7.90651955963651570000e+001) (3, -6.61173316606081810000e-001) (4, -3.24760802960921020000e+000) (5, -1.82938902606663430000e+000) (6, 2.80455226031470420000e+000) (7, -1.74597956730011550000e+000) (8, 1.69511074000695250000e+000) (9, -1.64209371543773770000e-001) (10, -2.74968968488449430000e-001) (11, 3.61727174394686600000e-001) (12, -2.08194937355233450000e-001) (13, 1.18557993347286990000e-001) (14, 1.12102756191359100000e+000) (15, 7.98352489367803900000e-001) (16, -2.78576327773508440000e-001) (17, 3.67325158437026620000e-001) (18, 4.88207250257425170000e-001) (19, 6.18820881399413730000e-002) (20, 1.10627430318365930000e-001) (21, 3.76030254994503650000e-001) (22, -4.31566837903245130000e-001) (23, -1.10690089066024710000e+000) (24, 1.37341288481470950000e-001) (25, 2.71392634792737180000e-001) (26, -3.91606106121210830000e-001) (27, 3.09759789356554630000e-001) (28, 2.63930201100648440000e+000) (29, -1.28177346830772400000e-002) (30, -1.86893683242897430000e-001) (31, 5.66393429855230110000e-001) (32, -1.17266507877226120000e-001) (33, 1.58477382992184010000e+000) (34, -6.92554915428838240000e-002) (35, 5.48644391755418790000e-001) (36, -8.04726904749878620000e-001) (37, -2.46053764236797430000e+000) (38, -1.03942793509581470000e-001) (39, -1.06468160308046830000e-001) (40, 1.57975939619915540000e+000) (41, 3.57037161377427300000e-002) (42, -5.55305157927569850000e-001) (43, -2.92264708459210150000e-001) (44, 5.35329720471411700000e-001) (45, 4.61684232620627020000e-001) (46, 6.56132678903749160000e-001) (47, -1.34318698291834880000e-001) (48, 1.26718243196121570000e-001) (49, -5.14306723699883080000e-002) (50, 1.08569498737604080000e-001) (51, -4.08789191480516400000e-001) (52, 8.76649193314681500000e-001) (53, 3.01234982887501120000e+000) (54, 1.37109888513054470000e-002) (55, 6.47363234771485970000e-002) (56, -1.57539925552983850000e-002) (57, 1.07627826787543320000e-001) (58, -4.33230182106611040000e-002) (59, -2.56722446842387100000e-001) (60, 9.44944313741440610000e-001) (61, 3.14958519951808570000e-001) (62, -9.44230117585897480000e-001) (63, 1.19336682924055400000e-001) (64, 3.38816331145934790000e-001) (65, -9.23467509452948530000e-001) (0, 1.35314873098178020000e+001) (1, 1.91766252632469230000e+001) (2, -1.92567908412806200000e+000) (3, 4.53010656798335450000e+000) (4, -1.28135778416530830000e+000) (5, 2.26484772378512740000e+000) (6, 9.39058633599696260000e+000) (7, -9.95508522954759730000e+000) (8, 2.44756139387721780000e+000) (9, -2.85908211321028450000e-001) (10, -3.49269814612015230000e-001) (11, 6.49936719786050610000e-001) (12, 9.90386676322861930000e-001) (13, 5.81987178776234740000e-001) (14, 1.21119276414933780000e-001) (15, -7.90633211122989010000e-001) (16, -7.45921085561585070000e+000) (17, -9.40182206983817940000e-001) (18, 5.50805123398633520000e-001) (19, -7.50661742196975350000e-001) (20, 1.20597716543428480000e+000) (21, -1.13444945750326730000e+000) (22, 6.40019893039390220000e-001) (23, -1.63658267124950270000e-001) (24, -5.43210321712463530000e-001) (25, 2.64415196466219140000e-001) (26, -1.11684113155826310000e-001) (27, 1.05752359122134610000e+000) (28, 3.58505743327632800000e-001) (29, 9.15870451804539350000e-002) (30, -8.73658431005641940000e-002) (31, -2.30473790788631170000e-001) (32, -1.78433478687741840000e+000) (33, 8.64795964704846540000e-001) (34, -1.20125603210718010000e+000) (35, 3.90143405737719660000e-001) (36, 5.73155652513368640000e-001) (37, 4.21699910507193520000e-001) (38, 7.43560282534672660000e-001) (39, 5.12133825002333290000e-001) (40, 1.22389720489156500000e-001) (41, -1.11830986670079120000e-001) (42, 8.97245170198580410000e-001) (43, -1.96204751490594860000e+000) (44, -2.41615296088300320000e-001) (45, 1.69244308310030170000e+000) (46, -1.79007961459830970000e-001) (47, 7.92349860859024370000e-001) (48, 3.25114989877387630000e-001) (49, 1.30514570062645750000e+000) (50, -1.42251748283959670000e-001) (51, -4.38436058713038090000e-001) (52, -1.32305753904120170000e-001) (53, 7.25242811426948910000e-001) (54, 6.19518384218103010000e-001) (55, -1.97789190097373190000e+000) (56, -1.92682491212205640000e+000) (57, -2.15278590298213720000e+000) (58, 1.17012963493831810000e+000) (59, 8.91625094326942150000e-001) (60, -8.29001585796556140000e-001) (61, 4.33456164005592560000e-001) (62, 3.29491682776143490000e-001) (63, 4.02693628278193490000e-001) (64, 6.86015015184963990000e-001) (65, -3.53821527782748720000e-001) (0, -9.45085314082621510000e+000) (1, 1.70738742529660930000e+001) (2, -5.84730081912506710000e+000) (3, -1.35495931072548980000e+001) (4, -4.44089878469715330000e+000) (5, -8.48000767082486640000e+000) (6, 2.35244579446460520000e-001) (7, -1.46182313820839860000e+000) (8, 1.38293157904007200000e+001) (9, 2.81585716660813890000e-001) (10, 1.32538464588386110000e-001) (11, 3.57134366024578150000e-001) (12, 1.05226179660206460000e+000) (13, -3.94936641295147110000e-001) (14, 3.45046087291069540000e+000) (15, 2.32612200597373810000e-001) (16, 7.84030667815221240000e-001) (17, 7.83071554350825430000e-001) (18, 4.02806589261742120000e-001) (19, 4.93396318929282170000e+000) (20, 3.35402173821033820000e-001) (21, 6.62360218317697630000e-003) (22, 2.42502896422516930000e-001) (23, 6.80225506734826620000e-001) (24, 9.31611029128624590000e-001) (25, 4.11970691696642270000e+000) (26, 1.45758050980433510000e-001) (27, 2.55314636222426170000e-001) (28, 4.82332025247419680000e-002) (29, -1.21349751363339390000e-001) (30, 1.62837832653495630000e-001) (31, 2.53593524387334050000e+000) (32, 8.94773494864482650000e-001) (33, -4.64459213626484680000e-001) (34, 6.61032020452547390000e-001) (35, -4.44361118340789480000e+000) (36, -2.91910926076210160000e-001) (37, 5.33641850523347780000e-001) (38, 3.15200279986822850000e+000) (39, -2.23401810348101690000e-001) (40, -3.63229865871912690000e-001) (41, -1.06797859857480790000e-001) (42, -7.56814680349338630000e-001) (43, -1.76765696340498570000e+000) (44, 1.68247706943590790000e-001) (45, 8.54713940063840270000e-001) (46, 5.93055057603067200000e-001) (47, -9.86355401575289340000e-001) (48, -3.83166227671774990000e-001) (49, 1.23554553553952110000e+000) (50, 5.41091255812784230000e+000) (51, 5.88326343279532700000e-001) (52, 2.06990386478878850000e-001) (53, 1.02588003657047410000e+000) (54, 2.64062838228531990000e-001) (55, 1.08910038618725390000e+000) (56, 3.93444743844867110000e-002) (57, 1.85132393909797160000e-001) (58, -8.57677647712317410000e-002) (59, -2.84358966960955690000e-001) (60, -1.30652977726292650000e+000) (61, 1.06783876046590120000e+000) (62, 2.83132474687664140000e+000) (63, 9.81642940405893780000e-002) (64, -1.30801862091186780000e+000) (65, -2.69840157866246880000e-001) (0, -2.51103466600336560000e+001) (1, 2.68891311764446320000e+001) (2, 5.74848903148630350000e+000) (3, -8.84420705456255800000e+000) (4, 6.73494626594729070000e+000) (5, 5.53582375081220680000e+000) (6, 5.75788314321576070000e+000) (7, -1.07688946581977160000e+001) (8, -2.92748713140387370000e+000) (9, 4.37075661177095120000e-001) (10, 1.25835079190573910000e+000) (11, 8.45696332374101910000e-001) (12, -1.45307942452737590000e-001) (13, 7.07429342118427120000e-001) (14, -1.28862187717748770000e-001) (15, 2.53048245327350490000e-001) (16, -1.53024900188557520000e-002) (17, 1.15824475301223260000e+000) (18, 6.16920322565201670000e-002) (19, -5.36432854952427870000e-001) (20, 7.62275079578462330000e-003) (21, 4.92989864732935320000e-001) (22, 2.11735403765401790000e+000) (23, -7.15888536986439620000e-001) (24, 3.33884228490468120000e-001) (25, -1.80548408670415880000e+000) (26, 1.95512163945204130000e-001) (27, 1.47081938168580220000e+000) (28, 5.58669031786291790000e-001) (29, 9.72130110060833160000e-001) (30, 1.87448098280374480000e-001) (31, -2.53090367933988760000e-001) (32, -1.85198247219408580000e+000) (33, 2.77818222435519770000e+000) (34, 4.27651520915576460000e+000) (35, 7.03021650380367460000e-001) (36, 1.59534885493100090000e+000) (37, -1.21918854322576880000e-001) (38, 5.22620798492556600000e-001) (39, 1.99021131837855190000e-001) (40, -1.13610914447906540000e+000) (41, -4.24650927103049640000e-001) (42, 2.91662704496821800000e-001) (43, 2.07997236588633870000e-001) (44, -1.97422997766569200000e+000) (45, -2.87564329461959560000e+000) (46, 1.20055331928683830000e+000) (47, 4.55877642075732490000e+000) (48, -1.63637641262291550000e-002) (49, -6.94044742302174060000e-001) (50, -4.52052683958385830000e-001) (51, -1.55044711916989720000e+000) (52, 6.30024716547687900000e+000) (53, 4.34949863503534330000e-002) (54, 5.08265964131904830000e-001) (55, -2.23684694560651880000e+000) (56, -1.02291599041141480000e-001) (57, 1.37764039277840620000e+000) (58, -2.94798316688895060000e-001) (59, -9.80510925959782400000e-001) (60, -1.57022634345769750000e+000) (61, 8.51716107436072070000e-001) (62, 6.01266375428502590000e-001) (63, 1.16694549666128730000e+000) (64, -1.62392495946319590000e+000) (65, 1.37853612935987440000e+000) (0, 3.51541447364783930000e+001) (1, 6.04773697743885560000e+000) (2, 5.83270496572175470000e+000) (3, 7.87007733028035530000e+000) (4, 3.41426043701191470000e+000) (5, 8.86402302446180810000e+000) (6, -1.42356632551513350000e+001) (7, 7.46308626489381680000e+000) (8, 5.31895697283273530000e+000) (9, 9.71836275413109910000e-002) (10, -7.26270243719439160000e-001) (11, 6.27386308347604340000e-001) (12, 9.53180026705948920000e-001) (13, 8.91567839870426200000e-001) (14, 3.17775577282553370000e+000) (15, 1.36750753635829310000e-001) (16, 1.20494111023821240000e+000) (17, -5.92459930452154500000e-001) (18, 8.05024776500083310000e-001) (19, 7.91440995900054010000e-001) (20, -1.18465635111578730000e+000) (21, 1.69770504863632700000e+000) (22, 1.81650571467097040000e+000) (23, 2.79741628921186090000e-001) (24, -4.04894472931356280000e-001) (25, 3.73722292438948780000e-001) (26, 4.22695860556767780000e-001) (27, -9.91376302714859330000e-001) (28, 2.54110037672714230000e-001) (29, 1.67027324018602790000e-001) (30, -1.95359636647909040000e-001) (31, -2.53215864987545560000e-001) (32, 1.85889980586301150000e+000) (33, -1.08308491133089420000e+000) (34, 9.39765138677900460000e-002) (35, 4.77667242326916950000e+000) (36, 5.22546912253182170000e-001) (37, 1.52296755927737700000e+000) (38, -2.97117515442685480000e-002) (39, -1.75256097851916540000e-001) (40, 1.10179322610656240000e+000) (41, 1.19213377068003060000e+000) (42, 1.03329862001582700000e+000) (43, 1.40638332544633690000e+000) (44, 1.18825320714342040000e-002) (45, 1.47136115109078070000e+000) (46, -1.36341532024564310000e-001) (47, -2.03838962506321670000e+000) (48, 4.54076598862707960000e-001) (49, 1.28546973202269490000e+000) (50, -1.16137464264181170000e+000) (51, -8.44163472386730170000e-001) (52, -3.25916544030496800000e-001) (53, -1.97361950617500170000e+000) (54, 7.59091119316063770000e-001) (55, -6.59846751814572720000e-002) (56, -2.65429310510553580000e+000) (57, 1.74428803712645370000e+000) (58, 1.87412681557420660000e-001) (59, 8.94493054057051150000e-001) (60, -1.22322975455409690000e+000) (61, -6.10228678071566000000e-001) (62, 1.28765552814929500000e+000) (63, 1.82048756059714670000e+000) (64, 1.15812770725746180000e+000) (65, -6.23419274443142710000e-002) (0, 8.00993493586159960000e+001) (1, 7.44142057969087180000e+001) (2, 7.69627732322592630000e+000) (3, 3.18526750769549370000e+000) (4, 1.14759878377575350000e+000) (5, 2.71634241486649410000e+000) (6, -2.59386559707308280000e+001) (7, -9.88011663872013020000e+000) (8, 6.13859670408835270000e+000) (9, -7.40718985303713830000e-002) (10, -4.89385992342277480000e-001) (11, 3.74793649289390520000e-001) (12, 2.14706482922316920000e-001) (13, 1.76739811990493200000e-002) (14, -4.46605585768333260000e-001) (15, 1.37087073853183390000e-001) (16, -2.12372121168448440000e+000) (17, 9.82856139500760670000e-002) (18, -6.23398599421902820000e-002) (19, -3.44520853302770440000e-001) (20, -3.54589365309692490000e+000) (21, 2.20389110112665900000e-001) (22, 8.94230978057237840000e-001) (23, -8.90857860619816530000e-001) (24, -6.60474082340834770000e-002) (25, -3.81214352345965870000e-002) (26, 1.61894026062435800000e-001) (27, 1.02601874357304370000e+000) (28, 3.91800584116733410000e-001) (29, -7.71141311330416910000e-002) (30, 8.67489925096283750000e-001) (31, -3.69192976538625320000e-001) (32, -5.18597364476828380000e+000) (33, 1.40527317347376200000e+000) (34, -9.55421396709313810000e-001) (35, 7.24139710098794960000e-001) (36, 1.50916671649062390000e-001) (37, 1.56909842385668770000e-001) (38, 7.92480245457406810000e-001) (39, -3.10100190224869540000e+000) (40, 2.49408286797680150000e-001) (41, 2.51424160038303880000e-002) (42, 1.11360045782340560000e+000) (43, -2.25768706864472480000e+000) (44, 2.81332864049744170000e-001) (45, -2.33551563820256770000e-002) (46, 1.18798407675871530000e+000) (47, 2.86249349475581390000e-001) (48, -1.38668229010275840000e-001) (49, 1.62675263794102530000e+000) (50, -3.29106246763955830000e-001) (51, 7.35861433290634800000e-001) (52, -3.46441482047287020000e+000) (53, 6.17580631967810880000e-001) (54, 5.91734125609548080000e-001) (55, 4.10334491441449900000e-001) (56, 2.18421152478456100000e-003) (57, 2.91163541509514670000e+000) (58, -6.46944025821636760000e-002) (59, -4.32905630278073490000e-001) (60, -3.88732598598033390000e-001) (61, -6.63801990021773420000e-001) (62, 6.19079672039276830000e-001) (63, -1.10564711132349380000e+000) (64, 1.35726466768057490000e+000) (65, -1.24149270526100040000e-001) (0, -5.13963167996031340000e+000) (1, -3.00344202710594740000e+000) (2, 1.27562791914275550000e+000) (3, 1.05070284838615980000e+001) (4, -3.22716381724707760000e+000) (5, -3.84613975558169230000e-001) (6, -6.66060059990270940000e+000) (7, -1.19076475893174210000e+000) (8, 3.61836511262205670000e-001) (9, 4.22946234729847550000e-001) (10, -1.38380552975779710000e+000) (11, 3.99737785930333040000e-001) (12, 9.50680598561141340000e-002) (13, 2.12516627427091710000e-001) (14, 4.75932160549511620000e+000) (15, 3.25658248877832070000e-001) (16, -8.50094373860282580000e-002) (17, 8.04129229235346770000e-002) (18, -2.08336841212500230000e-001) (19, -3.15409720025158490000e-001) (20, -3.21812194349826930000e+000) (21, -1.30503612630268250000e-001) (22, -2.46605497061028430000e+000) (23, -1.62529670070568730000e+000) (24, 5.07926294857368290000e-001) (25, 5.70341186770450540000e-001) (26, 2.49034763998307320000e-001) (27, 1.37710357092244750000e+000) (28, 2.79938717684931560000e-001) (29, 2.55780380096058120000e+000) (30, 3.00103838167958830000e+000) (31, -2.32211648281459750000e+000) (32, 2.37634248622328600000e-001) (33, 1.60974503872875060000e+000) (34, -2.43075972705957160000e-002) (35, -1.21197366716047560000e-001) (36, 1.13180633660497920000e-001) (37, 3.69364911643070840000e-001) (38, 6.64363590739714290000e-001) (39, -1.86389917099583020000e-001) (40, -6.97009609574854690000e-001) (41, 2.44755736541440950000e-001) (42, 4.82713348454337360000e-002) (43, -1.79850405110323350000e+000) (44, -1.80908396976946760000e+000) (45, -1.76500959709343570000e-001) (46, 1.59266142893378930000e+000) (47, 2.13398617284065480000e+000) (48, -1.30409853514224430000e+000) (49, 1.55562977131352740000e+000) (50, -1.87849361813082950000e-001) (51, -2.21043037531176050000e-002) (52, -1.36966795450513960000e-001) (53, 7.15664529211154090000e-002) (54, -1.33999783869855180000e+000) (55, 7.75122729942490210000e-001) (56, -2.26688300902106250000e+000) (57, 4.22057131795506520000e-001) (58, 5.55592565353424380000e-001) (59, -2.98420344731943400000e-001) (60, -2.94800117290370870000e-001) (61, -3.00350207705719800000e-001) (62, -7.09219455747472800000e-001) (63, 3.91156749607578620000e-001) (64, -2.35092250838859230000e-001) (65, 7.97240023879172280000e-002) (0, -1.35269397638884090000e+001) (1, -2.98136431426105200000e+001) (2, -1.64425763464932150000e+001) (3, -2.75096187205634070000e+000) (4, 3.41711533100705100000e+000) (5, -5.99667085620764780000e+000) (6, -2.46592769389172690000e+000) (7, -5.50452399963680960000e+000) (8, 3.74223335858921760000e+001) (9, 5.00210717961504850000e-001) (10, -3.85802407624780130000e-001) (11, 3.26863746841464020000e-001) (12, 8.35765514330716820000e+000) (13, -1.45117286693798460000e+000) (14, 1.71172156822426410000e+000) (15, 4.62073675263231790000e-001) (16, 9.46764052557500070000e-001) (17, -2.91257760703956810000e+000) (18, 9.95961636920531380000e-002) (19, 1.07930646807634850000e-001) (20, -3.52273549017106890000e-001) (21, 1.52984755209600510000e+000) (22, 7.82265456676627110000e-002) (23, 1.02489148362303340000e+000) (24, 1.14693061870814630000e+000) (25, 2.68954167524309360000e+000) (26, -7.82101834737116030000e-001) (27, 8.32272152730981650000e-001) (28, -3.84434417616432880000e-001) (29, 8.61507764505861530000e-001) (30, 9.58022822006823870000e-001) (31, 9.67060559377918240000e-001) (32, 9.49284351225598730000e-001) (33, 4.42936018186528720000e+000) (34, -1.03295782053659810000e+000) (35, -4.80249522872404910000e-001) (36, -5.95794661184197440000e-001) (37, 1.15182761399532210000e+000) (38, 1.09435517405957340000e+000) (39, 9.33849282329288900000e-002) (40, -4.67078711243648800000e-001) (41, 4.81629093558886390000e-001) (42, 6.33554067437530070000e-001) (43, 3.73936989712210630000e+000) (44, 1.30584226060275870000e+000) (45, 1.51895094086735380000e+000) (46, 9.77378338070961530000e-001) (47, 3.03128460744571840000e-001) (48, 2.49044491914826650000e+000) (49, 7.76136691706260100000e-001) (50, 1.03544613602768450000e+000) (51, -2.48297928308101490000e-001) (52, -3.40169062225758840000e+000) (53, 1.21605078648193120000e+000) (54, 2.53329702631058410000e+000) (55, 1.58356615592757380000e+000) (56, -6.09344615589231250000e-001) (57, 7.86375189913723680000e-001) (58, -3.43454308248518360000e-001) (59, 5.52077864243640360000e-001) (60, 9.33631994245945340000e-001) (61, -9.48112488102699100000e-001) (62, 4.89749349979818000000e-001) (63, -9.31764859707072010000e-001) (64, -2.06655964113337030000e-001) (65, 3.37205389836758140000e+000) (0, 1.35271577642262300000e+001) (1, -1.14455568047715160000e-001) (2, 5.80697226800149120000e+000) (3, 1.45672504605345840000e+000) (4, -4.19704394453587870000e+000) (5, -2.85491784025584440000e+000) (6, -3.85617006973962260000e+000) (7, 1.12023046045582330000e+001) (8, -1.96475122397902100000e-001) (9, 2.69910332598493230000e-001) (10, -4.23123860135373120000e-001) (11, 5.61919620943120650000e-001) (12, 1.23642376326145010000e-001) (13, 2.61386605053273100000e-001) (14, 1.47896314334759800000e-002) (15, 5.32843315007563320000e-001) (16, -2.68464676893343080000e-001) (17, 6.93747192407530470000e-001) (18, 5.71937416012733400000e-001) (19, 2.27586822295527370000e-001) (20, 2.39519271882286580000e-001) (21, 1.07726016592297610000e+000) (22, -1.17962955707180180000e+000) (23, -2.84124197817148540000e-001) (24, -1.87116823521869010000e-001) (25, 3.55690223564940410000e-002) (26, 9.64905948576353640000e-002) (27, 6.86257288260169070000e-001) (28, 5.17968187434954470000e-002) (29, 1.91734483758118770000e-001) (30, -7.26301505256763960000e-001) (31, 3.97134744370506940000e-001) (32, 2.93575465991373130000e-001) (33, 1.02223482217453720000e+000) (34, 6.33544316044195700000e-001) (35, -1.01025682330123480000e-001) (36, 1.69794633146339020000e+000) (37, -2.75015189039686270000e+000) (38, 1.00581140641249570000e+000) (39, 3.69003733956696570000e-002) (40, 2.33507557830337650000e+000) (41, 1.99159702157620080000e-001) (42, 2.32678447335355230000e-001) (43, -4.35605567782545170000e-002) (44, 4.62939863880083120000e-001) (45, 1.03943219611393990000e+000) (46, -1.85642718585606590000e+000) (47, 8.66388814402697660000e-001) (48, -4.29366048777749310000e-001) (49, 9.58278215019492620000e-001) (50, 7.66503068580152820000e-001) (51, 4.35461621197447190000e-001) (52, 2.11572053116081320000e+000) (53, 7.03799657143684310000e-001) (54, 6.65008169076425680000e-001) (55, 1.09075095561244260000e+000) (56, -5.51346560091956690000e-002) (57, -6.13528266644823960000e-001) (58, 9.60632001815040940000e-001) (59, -1.42239907809537190000e+000) (60, 1.85195808358406350000e-001) (61, -6.04729343391547380000e-001) (62, 5.50057778981515530000e-001) (63, -1.54969306385093940000e+000) (64, 1.40749251799706430000e+000) (65, -1.03575331970278840000e+000) (0, 3.05577669340259060000e+001) (1, -2.63154865547855280000e+000) (2, -6.81509621669553840000e+000) (3, -2.35412803937684640000e+000) (4, 4.26758645181143770000e+000) (5, -2.69522625796519530000e+000) (6, 2.14186227469770340000e+000) (7, -3.54027752959230920000e+000) (8, 1.26180701761331930000e+001) (9, -1.58540755331821930000e+000) (10, -8.28390610548252050000e-002) (11, -2.81081028438035230000e-001) (12, -1.73311413992933900000e-001) (13, -2.53323935465640750000e-001) (14, 7.92338885737011830000e-001) (15, -1.18818200151703960000e-002) (16, -3.63138245448776260000e-001) (17, 5.40074644075729690000e-001) (18, -5.23029548533254120000e-001) (19, -6.35586947028100810000e+000) (20, -3.33559157447570090000e-001) (21, 2.21037901651381740000e-001) (22, -4.00512158079898370000e-001) (23, -1.71113145816354000000e+000) (24, -9.85497672734852890000e-001) (25, 1.01577644348743490000e-001) (26, 3.87291158764293400000e-002) (27, 4.55284940635599380000e-001) (28, 7.05033624572585670000e-001) (29, 2.76424437315425100000e-001) (30, -3.66754624387149060000e-001) (31, 7.33008944932229340000e-001) (32, -8.82287172624040970000e-002) (33, 1.12064453489980010000e+001) (34, -7.89021841246176140000e-001) (35, -1.73094823107197460000e+000) (36, 1.03445756769618380000e+000) (37, -1.11045172166620220000e-001) (38, 4.69405795614982310000e-003) (39, -1.44242975611755250000e+000) (40, -2.96347439647953680000e-001) (41, 7.22474650214611320000e-001) (42, 1.44523416870490040000e+000) (43, 1.75526580886246260000e-001) (44, -1.67597723858836950000e-001) (45, 8.30304341814116940000e-001) (46, -2.39243615526771790000e-001) (47, 1.73667249655374810000e-001) (48, -9.27760731176964500000e-002) (49, 7.63886085762123250000e-001) (50, -6.14120581491362620000e-001) (51, 1.61917285821419590000e-001) (52, 2.25429183819080890000e-001) (53, 3.85170398721126910000e-001) (54, 6.93738412786800370000e-001) (55, -7.42607558538742500000e-001) (56, 1.16926373174337670000e+000) (57, -7.88647725244668450000e-002) (58, 8.91809838933148020000e-001) (59, -6.38696800842958550000e-001) (60, -6.66635794158976640000e-002) (61, -1.18379628570204550000e-002) (62, -4.16646743956597330000e-002) (63, -5.93677425464273770000e-002) (64, -2.58566141009933190000e-001) (65, -2.91412524077186820000e-001) (0, -3.04064211557075160000e+001) (1, -9.99498621257665400000e+000) (2, -6.67411347922896430000e+000) (3, 1.01275585617676380000e+000) (4, 2.14346452958744620000e+000) (5, 4.78487456966656220000e+000) (6, 5.98833888534470840000e+000) (7, -5.29862070688498780000e-001) (8, -5.34035158514972340000e+000) (9, -3.44866956051692930000e-001) (10, 4.60505874312895300000e-001) (11, 2.79535159481449530000e-002) (12, 3.83621967989552840000e-001) (13, 5.51287261801667210000e-001) (14, 1.30888133949582590000e+000) (15, 5.10594199462483860000e-001) (16, -3.86274885189898720000e-001) (17, 3.72611117505514340000e-001) (18, -1.24219931826988730000e-001) (19, 2.30931714716117980000e+000) (20, 3.92645250897422570000e+000) (21, 6.79804946798140960000e-001) (22, 2.00139650141919730000e-001) (23, -1.77142614215253900000e-001) (24, -2.18863544376606570000e-001) (25, -8.86017393444540560000e-001) (26, 2.45510741595272970000e-001) (27, -1.86332667251437600000e+000) (28, 2.35966086700615300000e+000) (29, -2.60428062260388890000e-001) (30, -1.41768162256698220000e-003) (31, -3.03455878708540290000e-001) (32, 2.03374309319110620000e+000) (33, 3.80697639007202190000e+000) (34, 5.61946495594365380000e-001) (35, 4.07817105710448270000e-001) (36, 4.04772486366062890000e-001) (37, 5.08895225288441220000e-001) (38, 2.22088785797457460000e-002) (39, 1.11460352374702930000e+000) (40, 5.32855207424159260000e-001) (41, 2.61528804556455110000e-001) (42, 1.68514770507073030000e-001) (43, 1.00696811360109710000e+000) (44, -6.23562161195111010000e-002) (45, -7.76408982947222740000e-002) (46, 4.91971019397705040000e-001) (47, 6.41108032905910100000e+000) (48, 2.86175290577855310000e+000) (49, 1.05823946251603810000e-001) (50, -5.23704049407307190000e-001) (51, -1.27361670221459930000e-002) (52, 4.42660714143349620000e-001) (53, 1.13913948336670550000e+000) (54, -2.39932048728930840000e+000) (55, 2.49442110576548210000e+000) (56, 8.85038413091428170000e-001) (57, 1.58991588656040620000e+000) (58, 6.94632860231650890000e+000) (59, -1.46404489903248920000e+000) (60, 4.50503168004175840000e-001) (61, -2.37069246506541460000e-001) (62, -1.67589037508127240000e+000) (63, -1.24243390282192420000e+000) (64, 2.37791846211261840000e-001) (65, 1.71313324711672820000e-001) (0, 7.93145689555584290000e-001) (1, -2.83539601608056490000e+001) (2, -8.60091449665621610000e+000) (3, 8.17814602458506990000e+000) (4, 7.50293974660132810000e-002) (5, -9.26169565019711350000e+000) (6, -4.27110444895742170000e+000) (7, 5.02664359531709690000e+000) (8, -9.70849988759348580000e-001) (9, 6.30680561847658970000e-001) (10, -5.51309050557261200000e-001) (11, 5.26936570477142710000e-001) (12, 7.39684983234547010000e-001) (13, 1.47528771148996710000e-001) (14, 2.45994745180336640000e+000) (15, 2.12877661857040520000e-001) (16, 9.48292243181222540000e-002) (17, 2.65140744911716910000e+000) (18, 1.19212190757871620000e-001) (19, 1.34206475980538650000e+000) (20, 1.53710007238155840000e+000) (21, 3.93798997479302250000e-001) (22, 2.26423174294508170000e-001) (23, -7.22484064278545060000e-001) (24, -6.79830884317496160000e-001) (25, 1.30780654663572050000e+000) (26, -3.85118853166832920000e-001) (27, 2.31760116665043510000e-001) (28, 3.89696322625490630000e-002) (29, 4.42972288469521660000e+000) (30, -1.46834276737575400000e-001) (31, 3.70515687793269490000e-001) (32, 4.65174947056182790000e-001) (33, 4.43797799790554850000e+000) (34, 1.50886732835917270000e+000) (35, 1.38799945609301640000e+000) (36, 9.05001747331495850000e-001) (37, -6.79769764558042320000e+000) (38, -2.75889381681357180000e-001) (39, -3.41956547513184940000e-001) (40, 3.28772075797459100000e-001) (41, 2.03985801685004190000e-001) (42, -1.02089711697506580000e+000) (43, -6.31038105141543240000e-001) (44, -3.14659603426397480000e-001) (45, 1.27429310750348050000e+000) (46, -3.34349023101265910000e-001) (47, -6.11838445873860600000e-001) (48, 