FANN_FLO_2.1
num_layers=10
learning_rate=0.700000
connection_rate=1.000000
network_type=1
learning_momentum=0.000000
training_algorithm=2
train_error_function=1
train_stop_function=1
cascade_output_change_fraction=0.010000
quickprop_decay=-0.000100
quickprop_mu=1.750000
rprop_increase_factor=1.200000
rprop_decrease_factor=0.500000
rprop_delta_min=0.000000
rprop_delta_max=50.000000
rprop_delta_zero=0.100000
cascade_output_stagnation_epochs=12
cascade_candidate_change_fraction=0.010000
cascade_candidate_stagnation_epochs=12
cascade_max_out_epochs=150
cascade_min_out_epochs=50
cascade_max_cand_epochs=150
cascade_min_cand_epochs=50
cascade_num_candidate_groups=2
bit_fail_limit=1.00000001490116120000e-001
cascade_candidate_limit=1.00000000000000000000e+003
cascade_weight_multiplier=4.00000000000000020000e-001
cascade_activation_functions_count=10
cascade_activation_functions=3 5 7 8 10 11 14 15 16 17 
cascade_activation_steepnesses_count=4
cascade_activation_steepnesses=2.50000000000000000000e-001 5.00000000000000000000e-001 7.50000000000000000000e-001 1.00000000000000000000e+000 
layer_sizes=16 20 20 20 20 20 20 20 20 6 
scale_included=0
neurons (num_inputs, activation_function, activation_steepness)=(0, 0, 0.00000000000000000000e+000) (0, 0, 0.00000000000000000000e+000) (0, 0, 0.00000000000000000000e+000) (0, 0, 0.00000000000000000000e+000) (0, 0, 0.00000000000000000000e+000) (0, 0, 0.00000000000000000000e+000) (0, 0, 0.00000000000000000000e+000) (0, 0, 0.00000000000000000000e+000) (0, 0, 0.00000000000000000000e+000) (0, 0, 0.00000000000000000000e+000) (0, 0, 0.00000000000000000000e+000) (0, 0, 0.00000000000000000000e+000) (0, 0, 0.00000000000000000000e+000) (0, 0, 0.00000000000000000000e+000) (0, 0, 0.00000000000000000000e+000) (0, 0, 0.00000000000000000000e+000) (16, 5, 1.00000000000000010000e-001) (16, 5, 1.00000000000000010000e-001) (16, 5, 1.00000000000000010000e-001) (16, 5, 1.00000000000000010000e-001) (16, 5, 1.00000000000000010000e-001) (16, 5, 1.00000000000000010000e-001) (16, 5, 1.00000000000000010000e-001) (16, 5, 1.00000000000000010000e-001) (16, 5, 1.00000000000000010000e-001) (16, 5, 1.00000000000000010000e-001) (16, 5, 1.00000000000000010000e-001) (16, 5, 1.00000000000000010000e-001) (16, 5, 1.00000000000000010000e-001) (16, 5, 1.00000000000000010000e-001) (16, 5, 1.00000000000000010000e-001) (16, 5, 1.00000000000000010000e-001) (16, 5, 1.00000000000000010000e-001) (16, 5, 1.00000000000000010000e-001) (16, 5, 1.00000000000000010000e-001) (16, 5, 1.00000000000000010000e-001) (36, 5, 1.00000000000000010000e-001) (36, 5, 1.00000000000000010000e-001) (36, 5, 1.00000000000000010000e-001) (36, 5, 1.00000000000000010000e-001) (36, 5, 1.00000000000000010000e-001) (36, 5, 1.00000000000000010000e-001) (36, 5, 1.00000000000000010000e-001) (36, 5, 1.00000000000000010000e-001) (36, 5, 1.00000000000000010000e-001) (36, 5, 1.00000000000000010000e-001) (36, 5, 1.00000000000000010000e-001) (36, 5, 1.00000000000000010000e-001) (36, 5, 1.00000000000000010000e-001) (36, 5, 1.00000000000000010000e-001) (36, 5, 1.00000000000000010000e-001) (36, 5, 1.00000000000000010000e-001) (36, 5, 1.00000000000000010000e-001) (36, 5, 1.00000000000000010000e-001) (36, 5, 1.00000000000000010000e-001) (36, 5, 1.00000000000000010000e-001) (56, 5, 1.00000000000000010000e-001) (56, 5, 1.00000000000000010000e-001) (56, 5, 1.00000000000000010000e-001) (56, 5, 1.00000000000000010000e-001) (56, 5, 1.00000000000000010000e-001) (56, 5, 1.00000000000000010000e-001) (56, 5, 1.00000000000000010000e-001) (56, 5, 1.00000000000000010000e-001) (56, 5, 1.00000000000000010000e-001) (56, 5, 1.00000000000000010000e-001) (56, 5, 1.00000000000000010000e-001) (56, 5, 1.00000000000000010000e-001) (56, 5, 1.00000000000000010000e-001) (56, 5, 1.00000000000000010000e-001) (56, 5, 1.00000000000000010000e-001) (56, 5, 1.00000000000000010000e-001) (56, 5, 1.00000000000000010000e-001) (56, 5, 1.00000000000000010000e-001) (56, 5, 1.00000000000000010000e-001) (56, 5, 1.00000000000000010000e-001) (76, 5, 1.00000000000000010000e-001) (76, 5, 1.00000000000000010000e-001) (76, 5, 1.00000000000000010000e-001) (76, 5, 1.00000000000000010000e-001) (76, 5, 1.00000000000000010000e-001) (76, 5, 1.00000000000000010000e-001) (76, 5, 1.00000000000000010000e-001) (76, 5, 1.00000000000000010000e-001) (76, 5, 1.00000000000000010000e-001) (76, 5, 1.00000000000000010000e-001) (76, 5, 1.00000000000000010000e-001) (76, 5, 1.00000000000000010000e-001) (76, 5, 1.00000000000000010000e-001) (76, 5, 1.00000000000000010000e-001) (76, 5, 1.00000000000000010000e-001) (76, 5, 1.00000000000000010000e-001) (76, 5, 1.00000000000000010000e-001) (76, 5, 1.00000000000000010000e-001) (76, 5, 1.00000000000000010000e-001) (76, 5, 1.00000000000000010000e-001) (96, 5, 1.00000000000000010000e-001) (96, 5, 1.00000000000000010000e-001) (96, 5, 1.00000000000000010000e-001) (96, 5, 1.00000000000000010000e-001) (96, 5, 1.00000000000000010000e-001) (96, 5, 1.00000000000000010000e-001) (96, 5, 1.00000000000000010000e-001) (96, 5, 1.00000000000000010000e-001) (96, 5, 1.00000000000000010000e-001) (96, 5, 1.00000000000000010000e-001) (96, 5, 1.00000000000000010000e-001) (96, 5, 1.00000000000000010000e-001) (96, 5, 1.00000000000000010000e-001) (96, 5, 1.00000000000000010000e-001) (96, 5, 1.00000000000000010000e-001) (96, 5, 1.00000000000000010000e-001) (96, 5, 1.00000000000000010000e-001) (96, 5, 1.00000000000000010000e-001) (96, 5, 1.00000000000000010000e-001) (96, 5, 1.00000000000000010000e-001) (116, 5, 1.00000000000000010000e-001) (116, 5, 1.00000000000000010000e-001) (116, 5, 1.00000000000000010000e-001) (116, 5, 1.00000000000000010000e-001) (116, 5, 1.00000000000000010000e-001) (116, 5, 1.00000000000000010000e-001) (116, 5, 1.00000000000000010000e-001) (116, 5, 1.00000000000000010000e-001) (116, 5, 1.00000000000000010000e-001) (116, 5, 1.00000000000000010000e-001) (116, 5, 1.00000000000000010000e-001) (116, 5, 1.00000000000000010000e-001) (116, 5, 1.00000000000000010000e-001) (116, 5, 1.00000000000000010000e-001) (116, 5, 1.00000000000000010000e-001) (116, 5, 1.00000000000000010000e-001) (116, 5, 1.00000000000000010000e-001) (116, 5, 1.00000000000000010000e-001) (116, 5, 1.00000000000000010000e-001) (116, 5, 1.00000000000000010000e-001) (136, 5, 1.00000000000000010000e-001) (136, 5, 1.00000000000000010000e-001) (136, 5, 1.00000000000000010000e-001) (136, 5, 1.00000000000000010000e-001) (136, 5, 1.00000000000000010000e-001) (136, 5, 1.00000000000000010000e-001) (136, 5, 1.00000000000000010000e-001) (136, 5, 1.00000000000000010000e-001) (136, 5, 1.00000000000000010000e-001) (136, 5, 1.00000000000000010000e-001) (136, 5, 1.00000000000000010000e-001) (136, 5, 1.00000000000000010000e-001) (136, 5, 1.00000000000000010000e-001) (136, 5, 1.00000000000000010000e-001) (136, 5, 1.00000000000000010000e-001) (136, 5, 1.00000000000000010000e-001) (136, 5, 1.00000000000000010000e-001) (136, 5, 1.00000000000000010000e-001) (136, 5, 1.00000000000000010000e-001) (136, 5, 1.00000000000000010000e-001) (156, 5, 1.00000000000000010000e-001) (156, 5, 1.00000000000000010000e-001) (156, 5, 1.00000000000000010000e-001) (156, 5, 1.00000000000000010000e-001) (156, 5, 1.00000000000000010000e-001) (156, 5, 1.00000000000000010000e-001) (156, 5, 1.00000000000000010000e-001) (156, 5, 1.00000000000000010000e-001) (156, 5, 1.00000000000000010000e-001) (156, 5, 1.00000000000000010000e-001) (156, 5, 1.00000000000000010000e-001) (156, 5, 1.00000000000000010000e-001) (156, 5, 1.00000000000000010000e-001) (156, 5, 1.00000000000000010000e-001) (156, 5, 1.00000000000000010000e-001) (156, 5, 1.00000000000000010000e-001) (156, 5, 1.00000000000000010000e-001) (156, 5, 1.00000000000000010000e-001) (156, 5, 1.00000000000000010000e-001) (156, 5, 1.00000000000000010000e-001) (176, 5, 1.00000000000000010000e-001) (176, 5, 1.00000000000000010000e-001) (176, 5, 1.00000000000000010000e-001) (176, 5, 1.00000000000000010000e-001) (176, 5, 1.00000000000000010000e-001) (176, 5, 1.00000000000000010000e-001) 
connections (connected_to_neuron, weight)=(0, 1.98366228674370550000e+000) (1, -2.13103483733709800000e+000) (2, -7.89611432423904970000e-001) (3, 6.64649045620713670000e-002) (4, -4.25868497164657300000e-002) (5, -6.23251726522636020000e-002) (6, 2.31156126414103320000e-001) (7, -2.95360174110574190000e-001) (8, 2.20272030659597270000e-001) (9, 4.63027982606663500000e-001) (10, 1.82518956802636360000e-001) (11, -2.30024351352923730000e-001) (12, -5.04685424726520000000e-001) (13, 1.96946049247130240000e-001) (14, -4.82816132181559250000e-002) (15, 3.40494617474254510000e-002) (0, -2.19696448516946640000e-001) (1, 7.52629276000447160000e-001) (2, 7.61885815122778310000e-001) (3, -4.75676392165890860000e-001) (4, -7.54656983947679990000e-001) (5, 2.13580148855078890000e-001) (6, 4.56030690284047910000e-001) (7, 5.00989484510436900000e-001) (8, 1.83981160963099110000e-001) (9, 4.11583546425725530000e-001) (10, -2.91539177207584150000e-001) (11, 1.17743129437423820000e+000) (12, -3.31101672629951660000e-001) (13, -5.35396766524631530000e-001) (14, -8.09476778909200560000e-001) (15, 6.40666958217583460000e-001) (0, -4.15006119724801700000e+000) (1, -8.28703908368586760000e-001) (2, -4.32476423962084850000e-002) (3, -8.01886570935167190000e-002) (4, -7.03460027510475870000e-001) (5, -1.98043540414735320000e-001) (6, -2.54827013306032990000e+000) (7, 3.66769373260993740000e-001) (8, 1.33119429403874930000e+000) (9, 4.08097359835717880000e-001) (10, -5.28589485849292660000e-001) (11, 2.51848949360825080000e-001) (12, -3.45205238012971090000e-001) (13, 3.03568284792978430000e-001) (14, -2.62798684845625070000e-001) (15, 8.20856746128380780000e-001) (0, -2.39221827217769020000e-001) (1, 9.56249191763749670000e-001) (2, 5.05843591370482510000e-001) (3, 4.60058450489044880000e-002) (4, -2.56916955494305880000e-001) (5, 1.11599817783990860000e-002) (6, 1.18981257151577480000e+000) (7, -5.32483083402008780000e-001) (8, 8.88764999179480040000e-001) (9, -3.44599237229014920000e-001) (10, -9.96981463138595920000e-002) (11, 4.78737661118494920000e-001) (12, 1.09369229527439350000e+000) (13, 2.64624748309733090000e-001) (14, 2.56213195737640230000e-001) (15, -5.76309506050894150000e-001) (0, 2.98330061919712340000e-001) (1, 3.09634433797241540000e-001) (2, -6.15567585003351290000e-001) (3, 5.54765009118864950000e-001) (4, 5.67695015323712250000e-001) (5, -2.80882926551629700000e-002) (6, -7.61121814650236320000e-001) (7, 1.06301707837855460000e+000) (8, 3.55735443174124590000e-001) (9, -5.00558131155852570000e-001) (10, -9.38459519160589200000e-002) (11, -1.94128684355743460000e-003) (12, -1.17429861732138230000e+000) (13, 5.25721796221504500000e-001) (14, -2.49439022165004690000e-001) (15, -6.32235376562423680000e-001) (0, -2.45316387133434190000e-003) (1, -2.05634687341771760000e-001) (2, 2.80553966100193560000e-001) (3, -1.32480199047365410000e-001) (4, 1.12138176643398420000e-001) (5, -1.22665845969751800000e-001) (6, 7.14519901301677720000e-002) (7, 5.45783106548246230000e-002) (8, 3.69722428937813220000e-002) (9, 4.49937453121339870000e-001) (10, -3.80161013553340810000e-001) (11, -1.09110725835998940000e-001) (12, -5.54327328496182800000e-003) (13, 3.48078719823049330000e-001) (14, -1.28453693390194520000e+000) (15, -6.64864647860485380000e-001) (0, -8.74118556296680090000e-002) (1, 3.68271543277347400000e-001) (2, 9.77873434658826040000e-001) (3, 1.50855631503074740000e-001) (4, 7.91101837551738020000e-001) (5, 7.19841565474878990000e-001) (6, 3.35796102321404280000e-001) (7, 1.16024245181412420000e-001) (8, 1.96669721953256970000e-001) (9, 6.47020438167552500000e-001) (10, 8.24606204183825690000e-001) (11, 7.99348186369486680000e-001) (12, -1.18742600111969530000e-001) (13, 5.73014888378055590000e-001) (14, 2.52096379458669360000e-001) (15, 5.42538117085969660000e-001) (0, -2.59247842433734910000e-002) (1, 9.54754321279662420000e-001) (2, 3.82231682645747030000e-001) (3, 3.43862911938901980000e-003) (4, -3.35355358011137640000e-001) (5, 7.07951236945533190000e-002) (6, 8.11300164524135230000e-001) (7, 1.11245246201582800000e+000) (8, 1.37682542575218190000e+000) (9, 6.04897522325231860000e-001) (10, 1.64064159018401550000e+000) (11, -9.56748795537319120000e-002) (12, 6.58228944904764580000e-002) (13, 7.87447411316244960000e-001) (14, 8.60462203663682530000e-001) (15, 8.27214598630819590000e-001) (0, -6.16860537197082110000e-001) (1, 2.60389599835461280000e-001) (2, -2.84876329692764660000e-001) (3, 2.21187953127684770000e-001) (4, -1.40951023195344500000e-001) (5, 2.34469654253208370000e-001) (6, 5.87677053229418100000e-001) (7, 4.93797436257595450000e-002) (8, 3.27210754612456300000e-001) (9, -3.29443696134722020000e-001) (10, 3.20201376851958690000e-002) (11, -1.51295542308871160000e-001) (12, -3.35767895008184490000e-001) (13, -1.59111108949797440000e-001) (14, 5.80508811749801620000e-001) (15, 4.28999231125131940000e-001) (0, 8.99995898395104850000e-001) (1, 6.92093013515248320000e-001) (2, 3.19762653070560180000e-001) (3, -3.43167223628795260000e-002) (4, 3.25599855141759650000e-001) (5, -4.32621872903007690000e-001) (6, 1.88653869708624820000e-002) (7, 3.07292257677188710000e-001) (8, 5.65472032957480500000e-001) (9, 2.82507304642706790000e-001) (10, 7.33856489585208770000e-001) (11, 1.50307048770804810000e-001) (12, 4.88828482235022010000e-001) (13, 3.64507285129076540000e-001) (14, -1.15413661322588920000e+000) (15, 8.43557460765479110000e-001) (0, -2.49640230567583690000e-001) (1, -3.66535999195313540000e-001) (2, 7.75117810449259950000e-002) (3, -2.74693567477264590000e-001) (4, -3.51967187076732800000e-001) (5, 1.29796752414851700000e-002) (6, 3.08144904380690250000e-001) (7, -6.33015608885895360000e-001) (8, -7.02038646162658490000e-002) (9, 4.46289243520543550000e-001) (10, 3.29025823301390350000e-001) (11, 7.75684269803676220000e-001) (12, -4.58366222261642530000e-001) (13, -3.13217956056686560000e-001) (14, -5.46870171391985240000e-001) (15, -7.54127061092509930000e-001) (0, 6.64212655299810330000e-001) (1, 1.94761618225046030000e-001) (2, 6.69878694631729220000e-001) (3, -7.54852286863934570000e-001) (4, 6.30460306296690320000e-003) (5, -3.63074667541103620000e-001) (6, -3.34109090914966770000e-001) (7, -3.33412624424878620000e-001) (8, 5.09294114174732690000e-001) (9, 8.16516252065155320000e-002) (10, -4.30300252700605850000e-001) (11, 2.77170247212057070000e-001) (12, 9.12460944074042550000e-001) (13, -1.55078212005815890000e+000) (14, 3.54767687573430970000e-001) (15, 5.20488999714765920000e-001) (0, 3.51301821854388570000e-001) (1, 4.97676574326736070000e-001) (2, -7.08988828282330790000e-001) (3, 1.56025968634473020000e-001) (4, 1.22136028365633460000e-001) (5, 8.67140451924737770000e-002) (6, -2.82291220516482140000e-001) (7, 2.24230002705783190000e-002) (8, 4.51324976081756090000e-001) (9, 4.15602480654528710000e-001) (10, 8.07884984180678220000e-001) (11, -5.01041339761933990000e-001) (12, 6.19640646778644280000e-001) (13, 4.05417045994617000000e-002) (14, -2.52334416743902000000e-001) (15, 7.89680388351805980000e-001) (0, -2.46361254862095450000e-001) (1, -1.80356176496921370000e+000) (2, -2.04051233830402860000e-001) (3, -2.77999593013066700000e-001) (4, 3.25085127231433350000e-001) (5, -2.13186764926219380000e-001) (6, 9.37037201293137170000e-002) (7, 1.06573435906249260000e+000) (8, -3.29233834177019460000e-001) (9, -6.21767372793639580000e-002) (10, -4.76607317363597830000e-002) (11, -3.67932375579750670000e-001) (12, -2.78228209181613780000e-001) (13, 3.04091618447303480000e-001) (14, -2.79519341094319640000e-001) (15, -2.78350639123605970000e-001) (0, 1.71147586509950540000e-002) (1, 1.74588452612657320000e+000) (2, 1.09727194759399030000e+000) (3, 3.03457729914557880000e-001) (4, 1.74903221728941350000e-001) (5, 1.63748769380966270000e-001) (6, -1.99911130068605860000e+000) (7, -6.07642512361285530000e-001) (8, 3.99629215749042310000e-001) (9, 5.93318692934569760000e-002) (10, 9.54422394353857890000e-001) (11, 1.14333650980895050000e-001) (12, 1.50781775014408170000e+000) (13, 7.86660157400068780000e-001) (14, -8.90726806389333770000e-001) (15, 8.34671164536366810000e-001) (0, 1.51784752097869460000e+000) (1, -3.14807692052431140000e+001) (2, 8.44653958331143430000e-001) (3, 7.36325205775615890000e-002) (4, 7.66223194066707330000e-002) (5, -4.06730824038478230000e-002) (6, -1.54489662899275150000e+000) (7, 3.47484094062793240000e+000) (8, 3.30153152127381080000e-002) (9, 3.12604853805724000000e-003) (10, 1.42210596299151590000e-001) (11, 9.48099824964955370000e-003) (12, 4.26282084864637150000e-001) (13, 8.60361062056687050000e-002) (14, -2.11357861610851800000e-002) (15, 1.44273240204817440000e-001) (0, 7.75027101300217900000e-001) (1, -1.05285498312213370000e+000) (2, -1.86696588282779130000e-001) (3, 6.53217799633818430000e-002) (4, 2.42303720560227000000e-001) (5, 4.25780306256500930000e-001) (6, -3.64325055626104230000e-001) (7, -1.54902130426191110000e-002) (8, 2.24049792520103290000e-001) (9, 3.91077123302540020000e-001) (10, -3.56046849223462860000e-001) (11, -1.78053308430535690000e-002) (12, 4.25503867536526860000e-001) (13, -4.04988508786842780000e-001) (14, 2.50365895840387420000e-002) (15, -1.68754893203890870000e-001) (0, -1.33354076624260730000e+000) (1, -1.45415716082635100000e+000) (2, -6.44455537383754380000e-001) (3, 8.81935527260586940000e-002) (4, -6.51956225758300730000e-002) (5, -1.92673373123385260000e-001) (6, 5.19049858253846530000e-001) (7, 5.61220910640097710000e-001) (8, 2.59916036647557350000e-002) (9, -3.87899154386171730000e-001) (10, -9.22503360256467180000e-001) (11, -2.92072130378526310000e-001) (12, -2.02706590419477580000e-001) (13, -7.47542344078908410000e-001) (14, -2.04774311257252040000e-001) (15, 2.29065318079505300000e-002) (0, -2.45949632233228830000e-001) (1, 8.33145592011682590000e-001) (2, 1.77973275490924810000e+000) (3, 4.66451550004825130000e-001) (4, 7.65729653442842050000e-001) (5, -5.89515391522843930000e-001) (6, 1.00313480800748760000e+000) (7, 5.48833084456741700000e-002) (8, -2.62999564391629190000e-001) (9, 1.86596122489241900000e-001) (10, -3.72761097172961580000e-001) (11, 1.34656136133509310000e+000) (12, 9.54882375824955830000e-001) (13, -1.69965444113645810000e-001) (14, -6.27357354273454400000e-001) (15, -3.82237777270992170000e-001) (0, 6.17302891250030130000e-001) (1, -1.15198878908920310000e+000) (2, -6.47359364976881620000e-001) (3, -1.47984591681114950000e-004) (4, -3.17894828039389010000e-001) (5, 5.77970841478595570000e-001) (6, -6.87742535198303110000e-002) (7, 6.07649341814098800000e-001) (8, -1.70891128464884500000e-001) (9, 5.38082914893942000000e-001) (10, 1.38222845315835950000e-001) (11, -1.06375879793311960000e-001) (12, 4.23488861611596430000e-001) (13, 7.31866175767505680000e-001) (14, 3.08639280262298140000e-001) (15, -6.73010193399045890000e-001) (0, -2.07747869664651000000e+000) (1, -4.27026711820647780000e-001) (2, 3.41825763681096180000e-001) (3, 3.97252773493299900000e-001) (4, 8.31129880343688680000e-002) (5, 2.51759876261683610000e-001) (6, 1.04455626337947430000e-001) (7, -5.01684078940180040000e-002) (8, -1.53224924394776890000e-001) (9, -8.83773309098126790000e-001) (10, -1.41458385506859910000e-001) (11, -3.22734110131830790000e-001) (12, 7.98529279215104970000e-002) (13, 7.80755187275423700000e-001) (14, -7.95275607742369050000e-001) (15, -3.91793261468135480000e-001) (16, 2.52956006534550530000e-001) (17, 2.93919832358622460000e-002) (18, -3.50000488195569670000e-001) (19, 1.87372057781912990000e+000) (20, 5.13329867338923050000e-001) (21, 1.10882218300514350000e+000) (22, -8.41676942135959670000e-001) (23, 1.52782812218792340000e-001) (24, -4.47622082142354600000e-001) (25, 5.13864408416728690000e-002) (26, 1.40133710635706970000e+000) (27, 2.31721161467653060000e-001) (28, -7.27016782619224530000e-001) (29, 4.40851083674947520000e-001) (30, 9.40565205630868100000e-001) (31, 4.39478775641576890000e-001) (32, 9.70970465021331190000e-002) (33, 2.92403269790057510000e+000) (34, 7.30855539825901680000e-001) (35, 2.78121275009696970000e-001) (0, 1.40962582463866020000e+000) (1, 9.46218108739694250000e-002) (2, 1.37484316296514850000e+000) (3, -3.12424632216630920000e-001) (4, 7.67179435717493590000e-001) (5, -7.00775452718722880000e-001) (6, 3.61655853992430280000e-001) (7, 1.38708347298551480000e+000) (8, 2.01393270352734690000e-001) (9, -6.75966091875372150000e-001) (10, -2.37470426750521440000e-001) (11, 6.03452183060742000000e-001) (12, 9.14825127525918380000e-002) (13, -3.73638276844832710000e-002) (14, -5.40734972522245450000e-001) (15, -8.77714817949007270000e-002) (16, 5.10028434761796500000e-002) (17, 1.34142197627138700000e+000) (18, 4.45171472433578850000e-001) (19, -9.50591418425588700000e-001) (20, -4.60287365383755480000e-001) (21, 5.83762391666739040000e-001) (22, 2.43332025076813900000e-001) (23, 6.04621488060915870000e-001) (24, 9.99124812385893570000e-001) (25, 2.45065445456515400000e-001) (26, -9.20075389018400750000e-002) (27, -6.73760354700190940000e-002) (28, -5.66519904590677970000e-002) (29, 6.57161839565437390000e-001) (30, 8.58755451879451850000e-002) (31, 1.24298598643662640000e+000) (32, 5.01384435326339580000e-001) (33, 9.28497334910300620000e-001) (34, 2.74536150790321840000e-001) (35, 1.19433730955510620000e-001) (0, 1.60485602335296700000e+000) (1, 1.16166780953193240000e+000) (2, 2.05818578462849820000e-001) (3, 9.25275614124219800000e-002) (4, 7.15915610065439800000e-001) (5, 6.98418101786233980000e-002) (6, 1.20685940830139490000e-001) (7, 4.16878150357633700000e-001) (8, 3.58870545657932140000e-001) (9, 1.22326607769256810000e+000) (10, 4.68498332858017440000e-002) (11, 5.22977648803762410000e-001) (12, 4.58292273654040460000e-001) (13, 1.45537666056912270000e+000) (14, 1.63162555570666810000e-001) (15, -4.79926612826302670000e-001) (16, 4.00320079805051080000e-001) (17, 1.76993282326911440000e-001) (18, 5.47809812340928070000e-001) (19, 3.71784403645975760000e-001) (20, 8.52072930846234810000e-001) (21, 8.41459978016337540000e-001) (22, -6.66661546189330560000e-003) (23, 9.51673949136577550000e-001) (24, -1.70166247600184140000e-002) (25, -8.32760442325106710000e-002) (26, 5.69456839024001460000e-001) (27, -1.04141657670084330000e-001) (28, -1.70538935217315130000e-002) (29, 8.51593709857134230000e-001) (30, 6.13311576936343750000e-001) (31, -1.31828623120933820000e+000) (32, 3.58443276929995890000e-001) (33, -1.05451379873893280000e-001) (34, 1.08883324234915310000e+000) (35, 3.82561503836074730000e-001) (0, 9.91067355049603970000e-001) (1, -9.52430303864517210000e-001) (2, -1.05031002992308280000e-001) (3, 6.79741128469078860000e-001) (4, -8.04631326513588040000e-001) (5, -1.10099562992844850000e+000) (6, -5.85869917303447060000e-003) (7, 7.41967782886336020000e-001) (8, -2.76565272372598260000e-001) (9, 2.90900378349940150000e-001) (10, -6.18037952434283620000e-003) (11, 4.16456550894450270000e-001) (12, 9.30047743484153780000e-002) (13, 3.19264588077858120000e-001) (14, 1.18970888164252960000e+000) (15, 5.16877804826662570000e-001) (16, 1.05753882851152700000e+000) (17, -5.54378483932657430000e-001) (18, 8.23333562588343780000e-001) (19, -1.36699580200205260000e-001) (20, 7.99786568537044000000e-001) (21, 8.93170354163949300000e-001) (22, -1.16369015371724170000e+000) (23, -8.68937497783722200000e-002) (24, 6.73509857003110170000e-001) (25, 5.58689219402057290000e-001) (26, 1.62865223374007800000e-001) (27, 7.41192290741857770000e-001) (28, 1.13407590071770250000e-001) (29, 1.56660460553078070000e+000) (30, 4.10529301108238170000e-002) (31, 1.96083733483899340000e+000) (32, 1.20794245252686780000e+000) (33, 1.06871538489444840000e+000) (34, 1.97904926116788770000e-002) (35, 1.01559671917368410000e+000) (0, -1.41175663970054340000e+000) (1, 3.81325979108472380000e-001) (2, 5.52014982997628860000e+000) (3, 1.40442890165586490000e+000) (4, 6.54132800232501870000e-001) (5, 9.87369985041928050000e-002) (6, -1.04623904175622480000e-001) (7, -3.36748327146093480000e-001) (8, -1.83586673097873820000e+000) (9, -1.01378336084636530000e+000) (10, 8.72140956244360920000e-002) (11, 7.23422297758354760000e-001) (12, 4.46268615868439470000e-001) (13, 5.37163236804201970000e-001) (14, 8.19478352692481820000e-001) (15, 1.56319519818226070000e+000) (16, 2.83293523611953060000e+000) (17, 4.87393443631725170000e-002) (18, 2.64221593397015430000e+000) (19, -7.20276350163773230000e+000) (20, -5.02166594904648770000e-001) (21, -2.19165409943646950000e+000) (22, 4.50099558681006760000e-001) (23, -2.48722338156285900000e-002) (24, 1.96452315308889000000e+000) (25, 3.94718832714565700000e-001) (26, 2.32108654970493990000e-001) (27, 1.10817318529286470000e+000) (28, 5.46136489693141990000e-001) (29, -1.05118980343808550000e-001) (30, 3.23144589857107170000e+000) (31, 1.76863002840220500000e+000) (32, 3.45962711345269900000e+000) (33, -7.94546351362675110000e+000) (34, 8.71099187044271920000e-001) (35, 3.43572245042447040000e-001) (0, 1.71211225815126180000e+000) (1, 7.47870168854019690000e-001) (2, 8.70083977057158790000e-001) (3, -4.57785979750814090000e-001) (4, 6.67843945919475490000e-001) (5, 1.04227776785133800000e+000) (6, 1.06684186688051500000e-001) (7, 6.41285345469348570000e-001) (8, 1.36946900472221820000e+000) (9, 9.68961150061127820000e-001) (10, -1.98814327219677210000e-001) (11, 5.34269258215487540000e-001) (12, 9.69687637908978160000e-001) (13, 6.18835577678966350000e-001) (14, -8.85387670626136130000e-002) (15, 6.43979080619603850000e-001) (16, 3.57277032124970470000e-001) (17, 3.26854685988536560000e-001) (18, 4.19916015664990700000e-001) (19, 4.51737564398965560000e-001) (20, 6.81413191780580910000e-001) (21, 2.10123737553383230000e-001) (22, 5.71859604547301000000e-001) (23, 7.42241211286631790000e-001) (24, 2.38800169763186330000e-001) (25, 1.16225741010225250000e+000) (26, 5.29371435623742820000e-003) (27, 1.13682595377688720000e+000) (28, 3.48892111063027480000e-001) (29, 2.35529331724459580000e-001) (30, 5.98497944856418940000e-001) (31, 2.94374778822189300000e-002) (32, -1.67981028260036220000e+000) (33, 1.73605722704607660000e-002) (34, 6.27890758165127850000e-001) (35, 2.40081715504790350000e-001) (0, 1.07416791225385480000e+000) (1, 1.92157945628220660000e+000) (2, 2.17049819837631080000e+000) (3, 2.72696405333862080000e-001) (4, -1.25940358406224220000e-001) (5, 4.10164618950613790000e-001) (6, -3.95646977944715370000e+000) (7, 9.68126642212552960000e-001) (8, 9.54001600594600940000e-003) (9, 4.64414786844789260000e-001) (10, 7.12319779010822860000e-004) (11, 8.03523585318580700000e-001) (12, 1.73592464729000470000e-001) (13, -7.99984228337522700000e-001) (14, 4.75431192604469700000e-001) (15, 5.53743378749803410000e-002) (16, 8.87596538598498410000e-001) (17, 1.51394896135131160000e-001) (18, 3.76340456120412670000e-001) (19, -8.69294465604932070000e-001) (20, 9.94127552671561430000e+000) (21, 6.54199436302669410000e-001) (22, 6.50228440208087900000e-001) (23, 2.33616414059887090000e-001) (24, 1.74397256306060150000e-001) (25, 1.98005276265124350000e-001) (26, -6.82808779036932490000e-001) (27, 1.18942596498342420000e+000) (28, 1.01550919223347080000e-001) (29, 3.08858659575790450000e-001) (30, 3.25188021798612610000e-003) (31, 1.26819593923539500000e+000) (32, 8.79985267159168250000e-001) (33, -5.57370977246254840000e-001) (34, -7.14278712051359180000e-001) (35, 2.19178296869304260000e+000) (0, -5.80577403711519110000e-001) (1, -6.03371788696695610000e-001) (2, -2.76637969898601570000e-001) (3, -3.63484085833214290000e-001) (4, 3.35318975277212990000e-001) (5, -2.51988058918576780000e-001) (6, 3.10523429760165560000e-001) (7, -1.05987565359855760000e+000) (8, -3.52166820041527880000e-001) (9, -1.24948127112869070000e-001) (10, -1.69649449100320760000e-001) (11, -4.78288664457221510000e-001) (12, -4.13039909004502830000e-001) (13, -2.61648169247447770000e-001) (14, 5.21506299868991570000e-002) (15, 1.58702565184893260000e-001) (16, 8.10900984957334310000e-001) (17, 5.62955094702168650000e-001) (18, 1.14740743824689200000e-001) (19, -5.11185945184760680000e-001) (20, 1.11444694721243340000e+000) (21, 6.10054203969882520000e-001) (22, -6.99589598395493730000e-001) (23, 1.39308280566523920000e-001) (24, 4.65401678485729610000e-001) (25, -3.44886986753890400000e-001) (26, 8.69387762236140560000e-001) (27, -9.14111757231275130000e-002) (28, -2.25861507965273820000e-001) (29, 6.45785347588634370000e-001) (30, -1.52516454787003960000e-001) (31, 5.45824336372669920000e-001) (32, 6.74920579319914780000e-001) (33, 1.51977247952812730000e+000) (34, -3.29216259304756180000e-001) (35, 3.12511831723847780000e-001) (0, 1.44073331704604870000e-001) (1, 9.50040773674663550000e-001) (2, 2.14652244447200190000e+000) (3, 4.20556971868609800000e-001) (4, 6.26791922056866730000e-001) (5, 1.92916028729625820000e-001) (6, 7.19053689229224640000e-001) (7, 1.81430996725340280000e-002) (8, -6.26022694475633630000e-002) (9, -5.77297375694036180000e-002) (10, 1.68749183988877950000e-001) (11, 1.15881161141031440000e+000) (12, 1.79917958461432880000e-001) (13, 5.85186340359644340000e-001) (14, 4.13392593074990660000e-001) (15, -2.10459863360383720000e-001) (16, 4.17237224454714010000e-001) (17, 2.49794244172625080000e-001) (18, 2.72734806197692080000e-001) (19, 2.52562527136055260000e-001) (20, 4.99686968142191880000e-001) (21, 1.10352850113653410000e+000) (22, 3.03990018183116610000e-001) (23, 7.69714208684010410000e-001) (24, 3.18172929782666980000e-001) (25, 6.90027331611855810000e-001) (26, 5.56168213765189100000e-001) (27, 1.82195281936433560000e-001) (28, -1.12348712109459920000e-001) (29, -2.24176738483558400000e-001) (30, 5.75850019405845020000e-001) (31, 3.18929867631943950000e+000) (32, -1.27991925539029240000e-001) (33, 2.31785729520464920000e-002) (34, 6.51198190224116290000e-001) (35, 2.27905190085740640000e-001) (0, -3.21431891169258470000e-001) (1, -1.12041872804538030000e+000) (2, -8.08124409464481940000e-001) (3, 5.56349875688176840000e-001) (4, 6.76795883452442130000e-001) (5, -1.90744834518645490000e-001) (6, 4.64575468394002530000e-002) (7, 4.55643086162433990000e-001) (8, 6.87120804620024010000e-001) (9, -7.10107793942695850000e-001) (10, 1.37653916678115460000e+000) (11, 6.15344006244447410000e-001) (12, 8.79491557145335450000e-002) (13, 8.14796906473520770000e-001) (14, 6.40325639259596850000e-001) (15, -3.69751576241493930000e-002) (16, 1.93887039010791430000e+000) (17, 5.48585976738441010000e-001) (18, 1.58121385797931220000e-001) (19, 6.82332656060476770000e-001) (20, 2.04297090426182990000e-001) (21, 1.25261549465998880000e+000) (22, 5.76189280162189180000e-001) (23, 3.12734178786648720000e-001) (24, -1.94382217869951690000e+000) (25, -1.07198043326735780000e-001) (26, 4.78334801349411420000e-001) (27, 8.91501941723361390000e-001) (28, 9.26248019749701110000e-002) (29, 8.28470394854198310000e+000) (30, -6.61094497676047330000e-001) (31, 1.69400356165250890000e+000) (32, 1.46734650039621490000e+000) (33, 6.19592142521331010000e+000) (34, -5.41546958324638950000e-001) (35, 2.19374314452106730000e-001) (0, 3.41759553233206680000e+000) (1, 1.22765229250775690000e+000) (2, 4.61879681355597600000e+000) (3, -2.89385679008241640000e-001) (4, 1.08115646257962990000e+000) (5, 1.13177599751804170000e+000) (6, -6.65611939214668210000e-001) (7, 5.20305840867247290000e-001) (8, 8.56263620728542230000e-001) (9, -1.33045036356488610000e+000) (10, -8.05666370068469420000e-001) (11, 5.43995731786166890000e-001) (12, 2.48146789766106180000e-001) (13, 7.34306537722006050000e-001) (14, 1.41865592743278950000e+000) (15, 2.16559782050473380000e-001) (16, 2.33614012676747960000e-002) (17, -2.41105759506077460000e-001) (18, -1.13631792158775220000e-001) (19, -6.95436725028711680000e+000) (20, 8.45949610169319350000e-001) (21, 4.04456037402161850000e-001) (22, 9.51551327596538710000e-001) (23, 3.68583122744391530000e-001) (24, -2.44939725466679030000e-001) (25, 4.61845723340004230000e-001) (26, 6.62225548128410170000e-001) (27, 1.12684098313614770000e+000) (28, 5.95781930379470470000e-001) (29, -3.33191665078168890000e-001) (30, 1.63309961649203880000e+000) (31, 1.63692232984356310000e+000) (32, 1.47580979932249300000e+000) (33, 5.00771478276904600000e-001) (34, 4.22638557089851710000e-001) (35, 6.62402577198187740000e-001) (0, 6.96865431190100000000e-002) (1, 4.30287831265184630000e-002) (2, -2.13664697673492390000e+000) (3, 1.36394495401712280000e-001) (4, 2.96160430462787450000e-001) (5, -2.23920084996399450000e-001) (6, 7.26395788894975470000e-001) (7, -1.07233778280160410000e+000) (8, 2.24158613586923460000e-001) (9, 5.01595482468504940000e-001) (10, 4.05472719043550480000e-001) (11, -3.75506684840161360000e-001) (12, -3.81114468382328710000e-001) (13, -4.21047169580342290000e-002) (14, 2.52342872148373140000e-001) (15, 7.40267940595017220000e-001) (16, 8.30921990925782780000e-001) (17, 5.95682769989209100000e-001) (18, 2.78105256305117620000e-001) (19, -3.53757934254173620000e-001) (20, 8.99686562503514530000e-001) (21, 1.72249810979585920000e-001) (22, 1.48194098395596460000e-002) (23, -4.72586153372757670000e-001) (24, 1.04394696786370280000e-001) (25, -2.72396147711893200000e+000) (26, 4.36280010100547240000e+000) (27, -7.92357521395841560000e-003) (28, 4.10027738107493490000e-001) (29, 5.37840734977023890000e-001) (30, 1.98253051827540910000e-001) (31, -4.72597049841613830000e-001) (32, 5.66086389139366150000e-001) (33, 2.18856881129622760000e+000) (34, -1.29284649665614550000e+000) (35, 5.97128328663362520000e-001) (0, -1.59734276335973280000e+000) (1, 4.08182672608437600000e-001) (2, 1.30516989624567410000e+000) (3, -7.84324354071233130000e-001) (4, -2.33521949691769430000e-001) (5, -4.43297657088114190000e-002) (6, 1.41618498689244140000e+000) (7, 5.80136960552202650000e-001) (8, -6.72772052884123010000e-001) (9, -2.21513024902357470000e-001) (10, 3.28432799481894950000e-003) (11, 2.72265642534019910000e-001) (12, 6.38513844786914860000e-001) (13, -1.56194809706929250000e+000) (14, -1.52145407736093810000e-001) (15, 2.76376141037824540000e-001) (16, -2.00912651740594540000e+000) (17, 2.31966789013362570000e-002) (18, -3.67487558925289840000e-001) (19, -4.56565804305427210000e+000) (20, 2.15495867514846840000e-001) (21, 4.22059721914763930000e-001) (22, 5.94569233104325080000e-001) (23, 5.45550214169368620000e-002) (24, -2.83518450809736090000e-001) (25, 3.03243323304093040000e-001) (26, 3.24560910541809470000e-001) (27, 1.94037665178563510000e+000) (28, 9.88518550530604470000e-002) (29, 7.34974438765725210000e-001) (30, 5.53264651946870910000e-001) (31, 1.90801226813382740000e+000) (32, 2.71968176013692390000e-001) (33, 5.69780796788329380000e-001) (34, -1.19337681083406430000e-002) (35, 1.08099015770207040000e-001) (0, -3.78873623613757090000e+000) (1, 1.37804523406475070000e+000) (2, 1.40625052770735960000e+000) (3, 2.31347454276273100000e-001) (4, -1.92535147979110780000e-001) (5, 6.49937926381237260000e-001) (6, 1.10671056122420250000e+000) (7, 2.38558627452896940000e-001) (8, 6.13399011917645120000e-001) (9, 2.18542697737339300000e+000) (10, 3.60014324545301410000e-001) (11, -3.85646956818500860000e-001) (12, -4.55197279444391200000e-001) (13, 5.39768174337296290000e-001) (14, 5.07826054732567030000e-001) (15, 3.82048166905149810000e-001) (16, 6.03751649968977010000e-001) (17, 7.06327727169042130000e-001) (18, 4.79891000678146660000e-001) (19, 1.52541100139816250000e+000) (20, 6.37764895445825370000e-001) (21, 5.09528370577275400000e-001) (22, 8.39689949029958530000e-001) (23, 7.31876766612559960000e-001) (24, 6.73807573532622660000e-002) (25, 4.86540009059652390000e-001) (26, 5.27109586575318700000e-001) (27, 1.81494203042802280000e-001) (28, 4.01679743160626090000e-002) (29, -1.40647669298731150000e-001) (30, -5.20000490006477300000e-001) (31, 3.18499638622200630000e+000) (32, 1.71164818527086620000e-001) (33, 5.93316495547652270000e-002) (34, -1.10228314383146440000e-001) (35, 2.22277475368007710000e-001) (0, -6.38457023312866020000e-001) (1, -5.43531723054300310000e-001) (2, 2.58693686855221320000e-001) (3, -6.17949161411960660000e-001) (4, -3.57435116754134860000e-001) (5, -3.01527733096169540000e-001) (6, 6.35296738520095050000e-001) (7, 7.25950605063473310000e-001) (8, -2.71555642985940760000e-001) (9, -6.53233877505790680000e-002) (10, 3.48249765487163800000e-001) (11, -2.01587109909039770000e-001) (12, -3.74375133422408730000e-002) (13, -1.80623197587598950000e-001) (14, 1.05550569131853630000e-002) (15, -5.20164559183963980000e-001) (16, 3.22419797988735270000e-001) (17, 6.05390479727766830000e-001) (18, 6.07611351531479050000e-001) (19, 6.86890517216006470000e-001) (20, -9.47742018333283810000e-002) (21, 1.15665133046174160000e+000) (22, -1.29825350611299320000e-001) (23, 4.81688220587846610000e-001) (24, 3.61494316479801680000e-001) (25, 1.33167993101303060000e-001) (26, 8.12640272731184110000e-001) (27, -2.45147520502463580000e-001) (28, 6.99630284115523860000e-001) (29, 2.18961316954998650000e+000) (30, -1.71640003298706070000e-001) (31, 2.64422955427873290000e+000) (32, 9.93516598235173690000e-001) (33, 7.69131574903435040000e+000) (34, -1.84577227818202880000e-001) (35, 4.91908211908884340000e-001) (0, 1.83574481418981650000e+000) (1, -1.22778108081250250000e-001) (2, -1.93725741807950440000e-001) (3, 4.67120195509116540000e-001) (4, -7.88757976929593820000e-002) (5, 4.37456775640971240000e-001) (6, -3.88878827823157800000e-001) (7, 1.31141370931940830000e+000) (8, -3.00785726426866480000e-002) (9, -1.98457833786370500000e-001) (10, 3.05459497361025150000e-002) (11, 7.38531488426395160000e-001) (12, 9.42445287879285720000e-001) (13, 3.36550774237637520000e-001) (14, 6.50572669480095840000e-001) (15, 5.27988985638454640000e-001) (16, 1.15618914833204430000e+000) (17, 4.98463976581170250000e-001) (18, 5.05505486142799550000e-001) (19, -5.88331813364297760000e+000) (20, 8.11714946648458000000e-001) (21, 1.03440433328371580000e+000) (22, 5.87993018500993610000e-001) (23, 5.75383862702476770000e-001) (24, 1.47282807766098780000e-001) (25, 2.32429414848320220000e-001) (26, 3.17084519218748640000e-001) (27, 1.10766835951414990000e+000) (28, 1.28790310621871540000e+000) (29, 4.17716882238396290000e-002) (30, 3.26795854693548050000e-001) (31, 4.87469471015911760000e-001) (32, 1.20533069757473110000e+000) (33, 6.36528893718317330000e-001) (34, 3.52232535494642900000e-001) (35, 8.69278297984512620000e-001) (0, 8.15748833843357500000e-001) (1, 1.26125312697985750000e+000) (2, -1.53045110632022530000e+000) (3, -8.11472106597181840000e-003) (4, 2.80180296292522500000e-001) (5, 1.88731297510599840000e-002) (6, -6.07743915549895820000e-001) (7, -4.64611528804230960000e-001) (8, 6.48027346828772170000e-001) (9, 1.90533995290851350000e+000) (10, 9.21352959721495890000e-002) (11, 3.02189989268176920000e-001) (12, -5.42822501789018030000e-001) (13, 6.79572718016350110000e-001) (14, -8.98199393026738730000e-002) (15, 1.33222948554157620000e+000) (16, 2.80691010688499220000e-001) (17, -1.11669159242024830000e-002) (18, 1.17226483934606880000e+000) (19, 5.76754362408183120000e-001) (20, -1.38618608974181270000e-001) (21, -3.83549744079545620000e-001) (22, 2.12396136438572720000e-001) (23, 1.73710298364954260000e+000) (24, -7.55927670106775970000e-001) (25, 1.06883717057603560000e+000) (26, 4.19813498539358950000e-001) (27, 6.78303624601047760000e-001) (28, -2.09065841545968050000e-001) (29, -6.18818002184935210000e-001) (30, 1.62998250813421360000e+000) (31, -7.26877634884858240000e-001) (32, 2.21492692665287370000e-001) (33, -9.92870485547303280000e-001) (34, 2.13406722419586580000e-001) (35, -1.81434357355531510000e-001) (0, 1.96224638205585200000e+000) (1, 5.47158475474334160000e-001) (2, -1.05006795390794270000e+000) (3, 4.03034692867500710000e-001) (4, 4.00627864140635560000e-001) (5, 8.11554910307167030000e-002) (6, 1.23037443877305600000e-001) (7, 1.85375126861272940000e-001) (8, 4.87665795335363810000e-001) (9, -6.58943267343740920000e-002) (10, 7.10379903702951680000e-001) (11, -5.00006078877101130000e-001) (12, -3.69653600661764170000e-001) (13, 1.12418069691541710000e+000) (14, 8.27315113079414850000e-001) (15, 1.47693783979246770000e+000) (16, -1.77635275921579160000e-001) (17, 5.03466199020221610000e-001) (18, 3.02400070213138360000e-001) (19, -4.03188278472504210000e-001) (20, 5.43646880705450090000e-001) (21, 1.56862890900110520000e-001) (22, 2.74567459301491900000e-001) (23, 4.60045766293802230000e-001) (24, 6.10486092278000550000e-001) (25, 8.14076332779314240000e-001) (26, -6.84289094159092580000e-003) (27, 3.32217706656631310000e-001) (28, 7.79818453322651210000e-001) (29, 4.76876111355031220000e-001) (30, 6.53046269550303090000e-001) (31, 6.72022669764780200000e-001) (32, 1.20529868206153550000e-001) (33, 2.61568380842020890000e-001) (34, -1.68625450441975940000e-001) (35, 2.90713989522607750000e-002) (0, -8.53068547592326640000e-002) (1, 9.36340228959090300000e-001) (2, -2.32886085680973630000e-001) (3, -2.98045110609003960000e-001) (4, 3.78519935947193020000e-001) (5, -5.98159682395841720000e-001) (6, 4.47233195041604300000e-001) (7, -1.09731316862312590000e+000) (8, 3.31649930510366340000e-001) (9, 2.83022485053821880000e-001) (10, -1.36149897891625370000e+000) (11, 2.17828779594266580000e-001) (12, 4.16786959346024780000e-001) (13, 6.10284665807689140000e-001) (14, -6.02097609174535030000e-001) (15, 5.10361498720252830000e-001) (16, 2.66522861629638560000e-001) (17, 7.85306450223508310000e-001) (18, 5.78204867366581940000e-001) (19, 6.14937482662298790000e-002) (20, 6.66255644915175080000e-001) (21, -1.68443687326076590000e-001) (22, -5.24877704663153750000e-001) (23, -3.29390646191565880000e-001) (24, 6.83848648087803320000e-001) (25, -1.50380526860135060000e-001) (26, 7.81446498473610470000e-001) (27, 5.42174967940205250000e-001) (28, 7.75254011657682040000e-001) (29, -2.06255658756259370000e-001) (30, 1.10995514501421000000e+000) (31, 2.35081495172441510000e-001) (32, 1.34834344509513930000e-001) (33, 1.18860957264313920000e+000) (34, -7.28505717925051480000e-002) (35, 2.03356463646663040000e-001) (0, -7.18211654675741110000e-001) (1, -1.25180933032733650000e+000) (2, 8.74208923903584400000e-001) (3, -1.82898230287513010000e-001) (4, 2.79357882357671840000e-001) (5, 3.32084419556196610000e-001) (6, 8.95912311681337230000e-001) (7, 1.08278844286065620000e+000) (8, -1.58139358752284350000e-001) (9, 3.96723056712552370000e-001) (10, -6.22096681639202650000e-003) (11, 7.33324891839486460000e-001) (12, -1.28089217704378810000e-002) (13, 9.27392659184569260000e-001) (14, 1.36235162159126230000e+000) (15, -1.79006831715770230000e-001) (16, 1.69915446974411230000e+000) (17, 1.59996297260078440000e-001) (18, 2.54567274727723950000e-001) (19, -6.50756087624726810000e-001) (20, 2.47971057884562200000e+000) (21, 1.11815519877216450000e+000) (22, 2.80876377973836580000e-001) (23, 3.40987752613722770000e-001) (24, -8.11301397629404790000e-002) (25, 3.39311769691451990000e-001) (26, 5.20448616196680580000e-002) (27, 1.15798291836353620000e+000) (28, 3.10873755479473550000e-001) (29, 2.37822101980760650000e-001) (30, -7.43195586153266200000e-001) (31, 8.39090692402450930000e-001) (32, 4.74883920850777020000e-001) (33, 3.38131910990545180000e+000) (34, -5.34316870556364450000e-003) (35, 3.19926808926227320000e-001) (0, 3.46128830208330960000e-002) (1, 6.43245094009162080000e-001) (2, 8.62148741664231940000e-001) (3, -1.77065115240913170000e-001) (4, -1.36650774900058460000e+000) (5, 1.21415510799632260000e+000) (6, -7.51707074824618380000e-002) (7, 8.42865397537121840000e-002) (8, 1.15572672710590750000e+000) (9, -1.58361918239386390000e-001) (10, 7.76345868356297380000e-001) (11, 4.62824446859089970000e-001) (12, 1.69400350654674460000e-001) (13, 9.43212184502229990000e-001) (14, 9.36221915597813650000e-001) (15, 3.75952829911163680000e+000) (16, 2.47327964303740270000e-001) (17, -2.52375378663490190000e-001) (18, 4.31286129880772250000e-001) (19, -3.41088333314491270000e+000) (20, -9.53445705854264600000e+000) (21, -4.25774974858961820000e-001) (22, 3.91124517623403560000e-001) (23, 1.73939785432231790000e+000) (24, 1.30693831390080590000e+000) (25, 8.18987075795703730000e-001) (26, -2.80422667894054570000e-001) (27, 4.93860812969664500000e-001) (28, 3.37289484426741950000e-001) (29, -8.63207519288416710000e-002) (30, 3.93577807083248390000e+000) (31, 9.85484254838837610000e-001) (32, -1.81873489725474440000e-002) (33, 4.70981945139362200000e-001) (34, 3.46121922895636200000e-001) (35, -8.58606429553872010000e-001) (36, 4.24349038119147370000e-001) (37, 1.74125517331774200000e-001) (38, -7.36549806547330290000e+000) (39, 2.48638312761437050000e-001) (40, 1.01257479496134680000e+000) (41, 1.27496654692756340000e-001) (42, -7.54231308383780270000e-001) (43, 1.01082861749501230000e+000) (44, -9.19834862922705660000e-001) (45, 5.20718702759908500000e-001) (46, 2.90836448630077790000e-001) (47, 7.65513029647908020000e-001) (48, 4.50368143615115460000e-001) (49, 2.90366504977805810000e-002) (50, 4.74281598276232670000e-001) (51, -1.38110053133068700000e+000) (52, 3.30500465881548970000e-001) (53, 5.20559782022576910000e-001) (54, 9.05000296989851270000e+000) (55, -9.33038025633506570000e-001) (0, 1.17877869336879980000e+000) (1, 5.50038399871113580000e-001) (2, 1.29234234261039750000e+000) (3, -1.12833268561936610000e-002) (4, -2.18760237506382580000e-002) (5, 3.29520911829253970000e-001) (6, 2.44996456947720450000e+000) (7, 6.44081672997347530000e-002) (8, 5.28702296554069420000e-001) (9, 2.10355152613015710000e-001) (10, 4.68183182000777990000e-002) (11, 7.86361458219146160000e-001) (12, 4.44658527814265570000e-001) (13, -6.70940817788642230000e-001) (14, 8.70237687589957790000e-001) (15, 5.74207462559140460000e-001) (16, -4.52867984245522050000e-001) (17, 8.07997599950639800000e-001) (18, 4.81238727023907960000e-001) (19, 1.12354572064526500000e+000) (20, -1.30994298036167110000e-001) (21, -4.08215908955892830000e-001) (22, 3.44394992370792800000e-001) (23, 2.99588293720598700000e-001) (24, 1.14166525001448570000e+000) (25, 4.20607414689780800000e-001) (26, 7.92535942144051760000e-001) (27, 8.17562287939729850000e-002) (28, 1.09160164505438130000e-001) (29, 2.94365123693831940000e-001) (30, 1.60935299830164300000e-001) (31, -1.42541502260072340000e-001) (32, -1.51335103373967080000e-001) (33, 2.26262805926053990000e+000) (34, 7.60932367594502450000e-001) (35, -2.91890721670545190000e-001) (36, 2.94081290787732460000e-002) (37, -7.54938879265135370000e-001) (38, -2.80800236229202190000e-001) (39, -2.66196954777558890000e+000) (40, 1.47124383431053550000e-001) (41, 1.95830282209278030000e-001) (42, 2.86603673573636420000e-001) (43, 4.67242845590456760000e-001) (44, 4.32527753659277150000e-001) (45, -1.49841235329461030000e-001) (46, 2.68888980954103850000e-001) (47, 1.38290086139630810000e+000) (48, 8.98329217509929000000e-001) (49, 8.28515280060971750000e-001) (50, 3.69567653639545630000e-001) (51, 1.92083648751694510000e-001) (52, 5.28506949912553870000e-001) (53, 1.16433385688722990000e+000) (54, 1.30922907308496720000e+000) (55, 9.40306058711850020000e-001) (0, 5.74871606084450540000e+000) (1, 6.86240568754221130000e-001) (2, 1.36044896846448080000e+001) (3, 3.07900078337253690000e-001) (4, -5.79352247700474220000e-001) (5, -6.79136853767382420000e-001) (6, 1.78389857120468020000e+000) (7, 8.48288345295340200000e-002) (8, -1.68195444374586050000e+000) (9, 4.81727545314474680000e-002) (10, -5.90135813120509780000e-001) (11, -2.66788204649769770000e-001) (12, -1.62772694404656750000e-002) (13, -1.33571494938810740000e-001) (14, 1.04879438371246840000e-001) (15, 6.14879103568984410000e-002) (16, 2.52722325319033820000e-001) (17, 1.31027915045627050000e+000) (18, -3.48362777878780780000e-001) (19, -1.75441821872223960000e-001) (20, -1.86554652247833920000e+000) (21, 4.71096293543465330000e-001) (22, 2.87890907401202270000e-001) (23, 2.73355734289968290000e-001) (24, 3.79756822426928560000e-002) (25, -3.93609668555305160000e-001) (26, 1.67252409325485410000e-001) (27, 5.22357792364177560000e-001) (28, -1.86325105058327560000e-001) (29, -2.17803822287223730000e-001) (30, 8.67927058791644670000e-001) (31, -4.21403214260211810000e+000) (32, 2.48729048347531650000e-001) (33, 1.46115593985928440000e-001) (34, 4.47685034890058340000e-001) (35, 5.17982247784055880000e-001) (36, -1.35798227888959840000e-001) (37, 2.26734028860321320000e+000) (38, 2.29734067024596330000e+000) (39, -2.95648476607144770000e+000) (40, 8.53298163871836660000e-001) (41, 4.91927550266177290000e-001) (42, 5.78979578233397740000e-001) (43, -6.83517356815405290000e-002) (44, -2.08929931683163210000e+000) (45, -1.57276177405967780000e+000) (46, 6.34875951950381050000e-001) (47, -1.43407396705045380000e-001) (48, -1.34631457203235780000e-002) (49, -2.18841051345344400000e-001) (50, -4.92725042551161230000e-001) (51, 1.32546826655006330000e-001) (52, -1.09598476925803800000e+000) (53, 2.52928372473812170000e-001) (54, -4.23708355726356520000e+000) (55, 4.71606467187737410000e-001) (0, -2.53090762887726940000e+000) (1, 1.15695324094958840000e+000) (2, 2.94957365453003770000e-001) (3, 3.02873259210798110000e-001) (4, 1.99834009406801850000e-001) (5, -1.42547025558500510000e-002) (6, -4.50193526033300820000e-001) (7, -1.42062736394474690000e+000) (8, -1.43149859898083110000e+000) (9, 2.43773011500270360000e-001) (10, 5.74256559188108920000e-001) (11, 8.88988709022764390000e-002) (12, -3.99072735969688670000e-001) (13, 3.13671716860572870000e-002) (14, -4.85303461669540750000e-001) (15, 1.04844701232281710000e+000) (16, 1.41817721832805250000e+000) (17, 4.59690408417149310000e-001) (18, -2.34534583793804240000e-001) (19, -6.83796534544418580000e-001) (20, 5.28172207108018820000e-001) (21, -2.07466011715272930000e-001) (22, 1.84171644511464780000e-001) (23, 3.94294735496350180000e-002) (24, 3.31775495212291880000e-001) (25, 5.60754496239292080000e-001) (26, 1.66703917262316100000e+000) (27, -2.24485510873326190000e-001) (28, -1.14734851109849020000e-001) (29, -2.45758853145890790000e+000) (30, 4.36593281300743980000e-001) (31, 9.65416075281762430000e-001) (32, 3.70134309620492650000e-001) (33, 6.15084414028330250000e-001) (34, -9.52109636291403770000e-001) (35, -4.21937629965871360000e-001) (36, -4.41801111077777810000e-001) (37, -1.10764217968354650000e+000) (38, -5.95057782847434780000e+000) (39, 9.31745232513114700000e-001) (40, -4.93436760026469300000e-001) (41, 5.22813312784037030000e-002) (42, 1.53213319344281810000e-001) (43, 7.38765145758847660000e-001) (44, 1.46734853009879900000e+000) (45, -2.89970092424576100000e+000) (46, 2.70256465465859460000e-001) (47, 9.85426402880395850000e-001) (48, 1.02825559158004750000e+000) (49, 6.84218438933664410000e-001) (50, 4.84756406537565690000e-001) (51, -6.47682333765764010000e-001) (52, 5.66531798924122200000e-001) (53, -4.34823529791778130000e-001) (54, 4.61072415991515430000e+000) (55, -3.66334120847066160000e+000) (0, 3.01904925256682510000e+000) (1, -6.12794987232579300000e-001) (2, 5.79579682819780010000e-001) (3, -1.97790461580060060000e-001) (4, -3.78485207914491360000e-001) (5, 4.52538721146081570000e-001) (6, -4.35205909856278110000e-001) (7, 2.16950868305335800000e-001) (8, 8.27926205764930480000e-001) (9, 1.09353238355121920000e+000) (10, -1.06233280998386500000e-001) (11, 1.65348650890171050000e-002) (12, 6.86045091305035990000e-001) (13, -2.03193143480572990000e-001) (14, -3.00139467653679280000e-002) (15, -3.26743075547196840000e-001) (16, 5.84119843001013610000e-001) (17, 1.48858094920467980000e-001) (18, 7.35806061008715040000e-001) (19, -2.44516165270592470000e-001) (20, 2.69809386363186470000e-002) (21, 9.92517365696126360000e-001) (22, 3.22687569446781120000e-001) (23, 2.60681476895491480000e-001) (24, 9.10911073441538150000e-004) (25, 6.94499962641763470000e-002) (26, 1.04588803403936630000e-001) (27, 5.42250408383766150000e-001) (28, 4.17569389028529970000e-001) (29, 6.14894858273925650000e-001) (30, 6.62363026516732260000e-002) (31, 2.43313111217725540000e+000) (32, 2.15018620011941720000e+000) (33, 3.36463088648675510000e+000) (34, 6.20475932435807020000e-002) (35, 9.96206775825638990000e-001) (36, 1.16939007961505980000e-001) (37, 1.78570931639230850000e-001) (38, -5.65866285713150340000e-001) (39, 1.01595350401359140000e+000) (40, 2.26954494462983410000e-001) (41, 1.05522730758309290000e+000) (42, 5.96674507712987090000e-002) (43, 2.13926156228682800000e-001) (44, 5.87685346467799240000e-001) (45, 6.75587210140499490000e-001) (46, 1.18294450543850590000e+000) (47, 2.00263749335176100000e-001) (48, -7.59037870359871300000e-002) (49, 3.67549506781047750000e-001) (50, 2.10477028141309750000e+000) (51, 9.87370086630270370000e-001) (52, 3.98696543308758260000e-001) (53, 2.75528578103214790000e-001) (54, -4.95631634785902370000e-002) (55, 2.87936604253621160000e-001) (0, 1.47774511551395050000e+000) (1, -8.86573330029540530000e-001) (2, -5.46267024560489260000e-001) (3, 1.88315549870631370000e-001) (4, 6.41340345303888840000e-001) (5, 2.55853984065616030000e-002) (6, -5.38700936578526580000e-001) (7, 3.70671499464350520000e-001) (8, 3.01619824959532100000e-001) (9, -1.56799380626790820000e-002) (10, -6.93423671073468000000e-002) (11, -3.79980863292741060000e-001) (12, 1.29549469797782120000e+000) (13, 3.79349021815168720000e-001) (14, 1.33986030717437030000e-001) (15, -5.76623261303778170000e-001) (16, 9.03037545915955200000e-001) (17, -6.64440840584427980000e-001) (18, 5.39154267908679930000e-001) (19, 4.99620482805462170000e-001) (20, -2.97370833681950440000e-001) (21, 1.22279685722495430000e+000) (22, -1.89169881729532920000e-001) (23, 2.93983183321109730000e-001) (24, 2.84436426634475440000e-001) (25, 4.18265074490556460000e-002) (26, 7.00579214304605790000e-001) (27, -1.46198030653773100000e-001) (28, 1.40700584804289600000e+000) (29, 4.74893300776046080000e+000) (30, 4.70366086277047080000e-002) (31, 9.16463448831796090000e-001) (32, 9.10763953183472140000e-001) (33, 2.61969739675347760000e+000) (34, -3.10860883103228070000e-001) (35, 1.05103602895308890000e+000) (36, 1.46356562370811540000e+000) (37, 5.92166907198253160000e-001) (38, -5.68393619445298550000e-003) (39, -7.40350761872026200000e-001) (40, 5.46852129931451380000e-001) (41, -2.40183617068597530000e-001) (42, -3.63915726314718360000e-001) (43, 4.01569601710203670000e-001) (44, 1.91183651864691770000e-001) (45, 5.43815369299071700000e-001) (46, 1.48755702802814360000e-002) (47, 3.21139845099448650000e-001) (48, 8.55089214385011950000e-002) (49, -5.25114293081176410000e-001) (50, 1.36817795172965040000e+000) (51, 2.31940744032632510000e-001) (52, -1.40356253540595340000e-003) (53, -7.59850337111766970000e-001) (54, 4.28260121298829400000e-001) (55, -4.58949995340958540000e-001) (0, 1.46423663000803390000e-001) (1, -1.09912380143556930000e+000) (2, -3.57340355668340330000e-001) (3, -3.74695652014814810000e-001) (4, 5.30980764458768180000e-001) (5, 1.86159198717454430000e-001) (6, 1.00911938815922350000e-001) (7, -1.11844175912575710000e-001) (8, -2.98039586432337360000e-001) (9, 6.18897164339345500000e-001) (10, -9.79637622139555410000e-001) (11, -2.81945950715835580000e-002) (12, 2.22802087187118640000e-001) (13, -4.88350626966319260000e-001) (14, -2.61200678316981130000e-001) (15, 1.79811808145943500000e-001) (16, 4.79893757104605470000e-001) (17, 3.99296788600632500000e-001) (18, -4.97388785336848260000e-002) (19, -1.92345454207501930000e-001) (20, 3.18168914448249680000e-001) (21, 7.69676366314484770000e-001) (22, 3.85652364155533830000e-001) (23, -1.80474109457380350000e-001) (24, -2.43096134096492560000e-001) (25, 4.05537197982578090000e-001) (26, 6.05570527370423610000e-001) (27, 1.35695830737388000000e-001) (28, 3.68559856190178560000e-001) (29, 3.75249875702121700000e-001) (30, 3.47143601317858820000e-001) (31, 1.07190878982421810000e+000) (32, 2.02594359691734430000e+000) (33, 7.88485006292508950000e-001) (34, 2.52989003782667610000e-002) (35, 6.38622169702447890000e-001) (36, 6.60370663710720730000e-001) (37, -3.92996199215134120000e-001) (38, -3.94643278608958150000e-001) (39, 6.20536810147445220000e-001) (40, 6.30307582919213960000e-001) (41, 9.83214058759589450000e-002) (42, 5.47162078791260890000e-001) (43, 3.76971697968215450000e-001) (44, 4.33374219987550160000e-001) (45, 4.58192875830780280000e-001) (46, 7.66869330073618900000e-001) (47, -5.05833322449924070000e-001) (48, 7.20521023028133590000e-001) (49, 1.31394330015771750000e-001) (50, 6.39418567669177820000e-001) (51, 4.19047564365134520000e-001) (52, -2.42185450726212110000e-001) (53, -3.29590874464035730000e-001) (54, -2.69303942921784060000e-001) (55, -1.13954635038170150000e-001) (0, 1.15441085349450810000e+000) (1, -4.60498825291810080000e-001) (2, -3.02712987069587310000e+000) (3, -5.71295834147832400000e-002) (4, -2.32402130413201980000e-001) (5, 3.47114389270633320000e-001) (6, 6.68318539713885080000e-002) (7, 6.39307052047971340000e-001) (8, 7.36986528556319630000e-001) (9, 3.85142171972854770000e-001) (10, 5.59777676941811350000e-001) (11, 5.54934088083929740000e-001) (12, 4.49275115110952810000e-001) (13, 1.69876638536642030000e-001) (14, 9.55244964455142060000e-001) (15, 1.60581343698620510000e-001) (16, 5.93324230793563890000e-001) (17, -2.24456881481828710000e-002) (18, 4.62437357736527720000e-001) (19, -4.82828778859473120000e-001) (20, 1.71936389690659100000e+000) (21, 3.59024117758904300000e-001) (22, -2.63676981677057710000e-002) (23, 6.13691609215967220000e-001) (24, 8.84150021289059060000e-001) (25, 3.04221875732123800000e-002) (26, 2.83008014384357850000e-001) (27, -1.32397544366241320000e-001) (28, 6.05881290267539120000e-001) (29, 7.43969922508609050000e-001) (30, 5.66402704766553470000e-002) (31, -4.76310475119130220000e-001) (32, 4.17647131669913680000e-001) (33, 1.37348210607358490000e+000) (34, -3.24339121265698860000e-001) (35, 5.17022100803375410000e-001) (36, 5.69019179870532190000e-001) (37, 5.39010163865113610000e-002) (38, -9.90014534915506170000e-001) (39, 4.49108012226538680000e-001) (40, -3.25697101663697860000e-001) (41, 3.85400429090234030000e-001) (42, -2.10258693879058600000e-001) (43, 6.37469197664444540000e-001) (44, -4.99570333103791290000e-001) (45, 1.00324206519135030000e+000) (46, 3.57048290407999620000e-001) (47, 8.43626914477525030000e-001) (48, 1.72660724436281750000e-001) (49, 3.84583983507751530000e-001) (50, 6.11653862687213670000e-001) (51, 8.72936951138553520000e-001) (52, 7.64884861675177440000e-001) (53, 6.74592961047764560000e-001) (54, -6.18166200601139140000e-001) (55, -9.79073457458383700000e-001) (0, -2.32842103954764610000e+000) (1, 1.22290161619448880000e+000) (2, -7.33693409146718430000e-001) (3, 1.01583234867898570000e-001) (4, -5.35812513510349610000e-002) (5, 2.04116037150128080000e-001) (6, -2.23219261571303760000e-001) (7, 1.09353525333168910000e+000) (8, 3.12068610936881740000e-002) (9, -4.51799022910026940000e-001) (10, 7.43770232339276640000e-001) (11, -3.01982871863730800000e-001) (12, -1.75728939973691240000e-001) (13, -3.42604165024544690000e-002) (14, 2.59474379348988260000e-001) (15, 1.54037784275533120000e+000) (16, 4.80415908346136340000e-001) (17, 6.52942713691246010000e-001) (18, -1.63746702777110910000e-002) (19, 3.43963308105785400000e-001) (20, 7.41214543997677610000e-001) (21, 2.70664116321941480000e-001) (22, 6.55215371592199670000e-001) (23, 5.92535135647439200000e-001) (24, 7.25987482366049710000e-001) (25, 1.58085543520402780000e+000) (26, 1.57814592967028470000e-002) (27, 4.30675148601911030000e-001) (28, 1.47533079775438230000e-001) (29, 1.67474578836624600000e+000) (30, 1.53097375410711670000e+000) (31, 2.04869021294642320000e-001) (32, -2.66455740688844590000e-001) (33, -8.50459744061314420000e-001) (34, 1.31074401015114780000e-001) (35, 2.98358485243178210000e-001) (36, 1.25462366773662850000e+000) (37, 2.44155601890094970000e-001) (38, -6.06514298923172990000e-001) (39, 5.30440597209628880000e-001) (40, 8.51449176691847050000e-001) (41, -5.08629152605266370000e-002) (42, -3.21081855833631470000e-001) (43, 5.15457396157757990000e-001) (44, 1.04599553977968760000e+000) (45, 6.92251679691204270000e-001) (46, 4.29143580038857000000e-001) (47, 7.05421881813727780000e-001) (48, -3.71503430242256070000e-001) (49, 4.50622513108573990000e-001) (50, 6.94615890034895430000e-001) (51, 1.99799334512473420000e-001) (52, 2.57072749853996030000e-001) (53, 1.56733428436133070000e+000) (54, -1.26077291711059550000e+000) (55, 4.35613171001567770000e-001) (0, -1.07787616157200380000e-001) (1, 9.22695764106252090000e-001) (2, 1.86409627826579350000e-002) (3, 4.29146689267166590000e-001) (4, 3.24181308360600440000e-001) (5, 8.76387879683955710000e-001) (6, 3.42227914986220350000e-001) (7, 2.95162140472188420000e-001) (8, 3.36301280792560830000e-001) (9, 4.42738829136141760000e-001) (10, 7.16799599294944410000e-001) (11, 3.20908522254220290000e-001) (12, -6.14957190227354840000e-001) (13, 1.38537160349727960000e+000) (14, -1.80838342713663220000e-001) (15, -6.86008603917011350000e-001) (16, 4.24941352352886450000e-002) (17, -7.59502320118465860000e-002) (18, 1.40563694139777430000e-001) (19, 5.71942489290742540000e-001) (20, 5.59660209077292860000e-001) (21, 7.91459870428688260000e-001) (22, -5.72974119986370490000e-001) (23, 3.32704529535257030000e-001) (24, -1.03556223437952040000e-001) (25, -9.54435420898580440000e-002) (26, 4.81784998260933350000e-001) (27, 6.85183918776959520000e-003) (28, -7.89409635193811040000e-003) (29, -4.86691929202338500000e-001) (30, 8.74555312186684470000e-001) (31, 1.14178348156495050000e-001) (32, 2.67686060275296960000e-001) (33, 7.26270128755790720000e-002) (34, 6.24799325770124430000e-001) (35, 2.04429862388167790000e-001) (36, 8.30903785840241270000e-001) (37, 9.68153093610241430000e-002) (38, 1.10366602943965080000e+000) (39, -1.07292448597079250000e+000) (40, 1.17719093469284970000e-001) (41, -1.65727593837932290000e-001) (42, -2.28475467289276480000e-001) (43, 6.25368468357277770000e-001) (44, 5.21693612553565720000e-001) (45, 5.98634873515380690000e-001) (46, -4.56320006939012960000e-002) (47, 5.77782228402612330000e-002) (48, -3.20402387825170220000e-002) (49, 1.40588078150044150000e-001) (50, 6.15354885334344790000e-001) (51, -3.56309780425709880000e-001) (52, -2.32379673975698780000e-001) (53, 2.63752786563288710000e-001) (54, 2.16081408825263250000e-001) (55, 2.58835159607441250000e-001) (0, 1.55790284825072180000e+000) (1, -7.63653267868401710000e-001) (2, -8.14201216751682890000e-001) (3, 1.08390995961393810000e+000) (4, 2.61308080564441380000e-001) (5, -1.82189769514877360000e-001) (6, -4.05920721592598900000e-002) (7, -2.14552142797108940000e-001) (8, -1.83662592521209100000e-002) (9, -3.59854450954698260000e-001) (10, 2.51242990349502280000e+000) (11, -2.41578902339945530000e-001) (12, -8.43943579831143430000e-001) (13, 5.21354353813266110000e-001) (14, 1.64034390154915140000e-001) (15, -1.19202630154763130000e+000) (16, 5.84103750287076840000e-001) (17, -1.17919075285869330000e-001) (18, -5.65342437175169540000e+000) (19, 4.18275493844101740000e+000) (20, 1.88459578262966290000e+000) (21, 6.80947868247609220000e-001) (22, -3.64010226376523250000e-001) (23, -7.35925766148700230000e-002) (24, -2.15971200456192950000e-001) (25, -3.59926735676010300000e-001) (26, 7.74136609958997470000e-001) (27, -1.33691240727737750000e-001) (28, -1.99946925805595390000e-001) (29, 3.05217398503786820000e-001) (30, -2.37888098375930480000e-002) (31, 5.72078395749288020000e-002) (32, 3.64022966966411050000e+000) (33, 1.90509467953905000000e+000) (34, -4.40560082940988780000e-002) (35, 9.52080552408849370000e-001) (36, 5.18856797720372960000e-001) (37, -3.21667782054525230000e-001) (38, -5.95452670318767250000e-001) (39, -1.02787113463605560000e-001) (40, -6.35635776002815010000e-002) (41, -2.92272038765804100000e-001) (42, -1.65719400043148250000e-001) (43, 2.54169936250300430000e-001) (44, 1.14704335192338040000e-001) (45, 3.74708415988447670000e-001) (46, 2.49644084109559180000e-001) (47, 5.15107794968576280000e-001) (48, -5.66297963935925780000e-002) (49, -2.39810866714282090000e-001) (50, 4.99885240060507660000e-001) (51, -8.20668816261579670000e-002) (52, 8.76598764097691660000e-001) (53, -1.44989915560001070000e+001) (54, 6.56564031153194510000e-001) (55, -6.45067556642608510000e-001) (0, 4.92637392063212990000e-003) (1, -2.55650208273393890000e+000) (2, 9.07855797873448390000e-001) (3, 1.68015235193586550000e-001) (4, 7.20645877719691130000e-002) (5, 1.04780728274770580000e-001) (6, 6.37300735015213450000e-001) (7, 1.50615592753629410000e+000) (8, -3.29777369872432560000e-001) (9, 1.15277079679061870000e-001) (10, 2.00088032682674170000e-001) (11, -6.18156106796708610000e-002) (12, -2.31987346375482800000e-002) (13, 2.12353460967351420000e-001) (14, 3.01626588239688850000e-001) (15, 1.00496091374370930000e-001) (16, 1.44934079973945740000e+000) (17, 1.17854931768826470000e+000) (18, -8.42784278989652360000e-001) (19, -6.15269812653907660000e-002) (20, 3.12357763727386110000e-001) (21, 1.03236673319037030000e+000) (22, 3.58851752525004950000e-001) (23, 6.43123460241120440000e-001) (24, 2.33832305163405640000e-001) (25, -4.86564129791617960000e-002) (26, 2.12926983026586080000e-001) (27, -8.67928999671380370000e-001) (28, 7.59849520057723880000e-001) (29, 2.22136466476978400000e+000) (30, -5.19982205113184300000e-002) (31, 1.71124157678465430000e+000) (32, 2.34008101462925310000e-001) (33, 3.89910997091524170000e+000) (34, 3.41565821416019780000e-002) (35, 1.18402734614204790000e+000) (36, 1.09194888510969590000e+000) (37, 5.46373924564511390000e-001) (38, -4.51070125266279650000e-001) (39, 1.08773818808533850000e+000) (40, 6.57281873891691020000e-001) (41, -9.34049139328938400000e-001) (42, 4.64071162622407000000e-002) (43, 6.84769930786668370000e-001) (44, 7.78212670772857050000e-001) (45, 5.17104154041052370000e-001) (46, 3.45442238370874450000e-001) (47, 1.70632210829880280000e-001) (48, 7.19999310464022210000e-001) (49, 4.20956470268708580000e-001) (50, 3.03168537635500130000e+000) (51, 4.79677903030290010000e-001) (52, -1.29553989359965120000e-001) (53, 6.22391075641206620000e-002) (54, -2.61292814102908670000e-001) (55, 4.93249673746490540000e-001) (0, -2.05101783399212310000e-001) (1, 3.37026117247158090000e-001) (2, -2.99761387888634530000e+000) (3, 8.23054053120769040000e-002) (4, 2.08184185804507760000e-001) (5, 2.22017723519300850000e-001) (6, 5.20029804500782510000e-001) (7, -7.10410057706569730000e-002) (8, 7.94335365969559000000e-001) (9, -9.46639112806824670000e-002) (10, 8.54321032952373540000e-003) (11, 1.26075985706105370000e-001) (12, 7.39606694079845830000e-002) (13, -1.69866272931392700000e-001) (14, 7.69711909100152750000e-001) (15, 3.29368826946756570000e-001) (16, 1.21018163984182080000e+000) (17, 5.11790809937742950000e-001) (18, 5.49384564899530030000e-001) (19, 5.31397218577199130000e-001) (20, -3.31341095639964720000e-001) (21, 1.67603648548542250000e-002) (22, 2.74010210343845260000e-001) (23, 4.93860389894220430000e-001) (24, 8.84975230568187830000e-001) (25, 5.51806301509417810000e-002) (26, 4.64254608525799920000e-001) (27, -5.17161312207357060000e-002) (28, 3.27396025148281370000e-001) (29, 1.09072127597614580000e+000) (30, 4.17951769829905780000e-001) (31, -1.83844314589951010000e+000) (32, 1.90850117975622430000e-001) (33, 3.38109510135672450000e+000) (34, 1.43680772696365850000e+000) (35, -3.44272374676759920000e-001) (36, 4.02712634055512440000e-001) (37, -9.84957953593558480000e-002) (38, 8.16992076365968820000e-001) (39, -2.01194385307694730000e-001) (40, 7.61166514296179180000e-002) (41, 1.45828123686071810000e-001) (42, -4.30370647713988250000e-001) (43, 1.07836486074212680000e+000) (44, -2.50820595507078970000e-001) (45, -4.79460567372517740000e-001) (46, 1.75393540127111810000e-001) (47, 9.15009511236339670000e-001) (48, -7.81578666846412080000e-003) (49, 3.81525055303087860000e-002) (50, 1.47721150910753630000e-001) (51, -2.86367155797867700000e-001) (52, 1.01190374945169580000e+000) (53, -5.41838177616165040000e-001) (54, 8.87445657628045610000e-001) (55, -7.50504902364775850000e-001) (0, 1.61987236267334240000e+000) (1, 2.40762350825229840000e-001) (2, 4.69337727012069440000e-001) (3, 1.84130049811954350000e-001) (4, -2.86816141225748610000e-001) (5, 1.54241161017811160000e+000) (6, 9.14970748331611960000e-001) (7, 1.27444105338305810000e+000) (8, -1.05262755887387760000e-001) (9, -1.63013506217158930000e+000) (10, 3.54650446031408380000e-001) (11, 4.32555855285171670000e-002) (12, 3.65778693348303600000e-001) (13, -7.62185261575795030000e-001) (14, 8.29938924426786570000e-002) (15, 1.39521819474844100000e+000) (16, 9.67085698285115920000e-001) (17, 3.21768592700781560000e-001) (18, 3.34780019392751650000e-001) (19, -5.45198602803386060000e-001) (20, 8.11274353461744150000e-001) (21, 8.72986642719572080000e-003) (22, 6.66000423607265970000e-001) (23, 3.39342445735429430000e-001) (24, 2.72811451287901570000e-001) (25, 1.02581500487908000000e+000) (26, 9.00383851852482740000e-002) (27, 9.89845804202854280000e-001) (28, -1.62515757544029160000e+000) (29, -1.59299305651325520000e-001) (30, 1.00510173139820220000e+000) (31, 3.01291986100474920000e-001) (32, 1.07014122104066110000e+001) (33, 1.01919448240787080000e-001) (34, -5.49355597918570890000e-002) (35, -1.67963436419317660000e-001) (36, 3.13596910639205310000e-001) (37, -3.83597330378518730000e-001) (38, -8.95798051445889530000e-001) (39, 6.21910516641155460000e+000) (40, 1.03280463227185870000e+000) (41, 2.60292658683092040000e-001) (42, -2.89920013016403240000e-002) (43, 1.14566656922639120000e+000) (44, 2.91076965442617130000e-001) (45, 2.02078356811042250000e-001) (46, 9.73840195324087170000e-001) (47, 1.76519976408868630000e+000) (48, -2.32263329471901290000e-001) (49, 5.24175252926728840000e-001) (50, 9.14095742936698600000e-001) (51, 5.23538190082630360000e-001) (52, -5.68936135597723380000e-001) (53, -1.44195090757225250000e-001) (54, 1.14953483217342830000e-001) (55, 4.66162256621899030000e-001) (0, -1.74129395611156060000e+000) (1, 6.05133554770955980000e-001) (2, 2.30791545214470920000e+000) (3, 5.38273463807920740000e-001) (4, 3.32652840894770320000e-001) (5, 5.64906911034783520000e-001) (6, 2.76331177643103780000e-001) (7, 6.57826773929845570000e-001) (8, 2.34317104616100110000e-001) (9, 2.60019894374498790000e-001) (10, -2.34598652759246960000e-001) (11, 3.00010508668794810000e-001) (12, 5.04566217225017040000e-001) (13, 4.38035752455713360000e-001) (14, 2.98972677693124190000e-001) (15, -7.54189045308058410000e-001) (16, 7.44184535400180590000e-001) (17, 8.19019998856265200000e-002) (18, 8.12900763968138600000e-001) (19, 4.99529357317679610000e-001) (20, 3.22857738610595690000e-001) (21, 1.28561287420023840000e+000) (22, 4.61000440372297090000e-001) (23, -1.33960069258858590000e-001) (24, -4.50054056205663470000e-001) (25, 1.30615081618330910000e-001) (26, 1.26442884348469550000e+000) (27, 1.37615669241532950000e-002) (28, 1.85945568479143060000e-001) (29, 1.60292242132272870000e+000) (30, -4.39174136827217220000e-002) (31, 1.44365085848257730000e+000) (32, 6.60538395175242270000e-001) (33, 3.98570455581362060000e-001) (34, 4.88210420046017950000e-001) (35, -1.42771777700439040000e-002) (36, 5.23476421492254820000e-001) (37, 4.90996487459902820000e-001) (38, 9.92485065871686500000e-001) (39, 1.73687439007947090000e-001) (40, 7.39173264184086600000e-002) (41, -2.22544359793199030000e-001) (42, 9.91984133186097910000e-002) (43, 1.06283512188550200000e-001) (44, 5.11514275727416150000e-001) (45, 4.71035115424863870000e-001) (46, 1.87013095290520070000e-001) (47, -4.14256750798235710000e-001) (48, 4.80794580863074310000e-001) (49, 6.11284482755665710000e-001) (50, 2.04706143259398800000e+000) (51, -7.63625348595942780000e-001) (52, -8.76636217050935420000e-001) (53, -5.05273523815051970000e-001) (54, -1.06120859693882130000e-001) (55, 8.72149553475039420000e-001) (0, -1.99479781466578410000e+000) (1, 1.79722265343068290000e-001) (2, -4.52988111100569690000e-001) (3, 1.82243103107648410000e-001) (4, -9.47185279950622620000e-003) (5, 2.72326585471986020000e-001) (6, 7.98939865369377330000e-001) (7, 5.18426420268502390000e-001) (8, 2.24577953871874130000e-001) (9, 3.66332276018364710000e-001) (10, 4.15611819884963760000e-001) (11, -2.81775529152765320000e-001) (12, 7.57236774440559340000e-002) (13, 1.13685637060600820000e+000) (14, 5.95954461885475630000e-001) (15, 4.27568195479223960000e-002) (16, 6.04318544467360440000e-001) (17, 9.50809465348367520000e-001) (18, 7.81208750728749760000e-002) (19, 9.14921480770068300000e-001) (20, -1.27520487494559490000e-001) (21, 4.88047466400450880000e-001) (22, 1.50235341940805870000e-001) (23, 9.35657270568111320000e-001) (24, 6.82744898659171320000e-001) (25, 1.22842646681527130000e-001) (26, 1.89398030281310720000e-001) (27, -2.70533818042159420000e-001) (28, -2.44257098120347240000e-001) (29, 5.08403436382740770000e-001) (30, -1.35230894012363790000e-001) (31, 6.64221796399798770000e+000) (32, 5.05401798411566890000e+000) (33, 1.12074702525713970000e+000) (34, -3.44245586141716300000e-001) (35, 1.72903424297197320000e-001) (36, 4.58118856134063500000e-001) (37, 5.38626988974462150000e-001) (38, -2.30298303462092180000e-001) (39, 1.61215825207221570000e+000) (40, 8.10464786939285860000e-002) (41, -2.83431725171758690000e-001) (42, 1.37037968555732330000e-001) (43, 9.59809080456068160000e-001) (44, -1.37761093685059830000e-002) (45, 1.08630110928163390000e+000) (46, 1.80169743652146910000e-001) (47, 1.03020484411095880000e+000) (48, 2.57687686619295640000e-001) (49, 2.27931015293792010000e-001) (50, 1.37721102543815510000e+000) (51, 5.77617640859060200000e-001) (52, 5.40388906246305530000e-001) (53, 2.77852528535627810000e-001) (54, 9.87780465661759700000e-001) (55, 2.95239084504329290000e-001) (0, -4.12790744162969740000e-001) (1, 1.48556186316389430000e+000) (2, -3.06204527748694390000e-001) (3, 3.15110657939967840000e-001) (4, 2.34704697537966880000e-001) (5, 6.91848177814674000000e-002) (6, 4.60265318745268100000e-001) (7, 9.99504039310688400000e-002) (8, 7.66032328028572680000e-001) (9, -5.30971773915765550000e-001) (10, 4.79861231443338810000e-001) (11, 3.30287406008238360000e-001) (12, 2.22597153352225800000e-001) (13, -2.86957340735363550000e-001) (14, 6.49483550640431060000e-001) (15, 1.78567138403892320000e-001) (16, -6.39561330530217580000e-001) (17, 2.10161477512140450000e-001) (18, 9.90069317672395250000e-001) (19, 5.88084062301361900000e-001) (20, 5.60841994240394160000e-001) (21, 9.71990584721748180000e-002) (22, 7.64619922121962390000e-001) (23, 5.81285307971381230000e-001) (24, 9.85689129858487670000e-001) (25, 3.47227122530678670000e-001) (26, -1.76315790709860750000e-001) (27, -1.94649212181258400000e-002) (28, 3.97401820325876260000e-002) (29, -5.93327251828697610000e-001) (30, 8.82780683332811460000e-001) (31, -6.89561473270334460000e-001) (32, -6.76198277984961350000e-001) (33, -2.83410684353062250000e+000) (34, 2.17501442290852470000e-001) (35, -4.57386837610547830000e-001) (36, 7.46808897810138370000e-002) (37, 6.75028287382653660000e-002) (38, -9.04246415836489420000e-003) (39, 1.65434962269079250000e-001) (40, 5.18800544104555120000e-001) (41, -7.02931800254207210000e-001) (42, -1.78589050820151810000e-002) (43, -1.96538939568180830000e-001) (44, 1.81485519591365690000e-001) (45, 4.62207592026689870000e-001) (46, 1.05211806452025020000e-001) (47, 7.55688556205750150000e-001) (48, 4.02740611765548980000e-001) (49, 4.50968132572832640000e-001) (50, 1.06314975155360640000e+000) (51, 6.67520304381946510000e-002) (52, 3.40040746839343820000e-001) (53, 5.06774206245432900000e-001) (54, 6.13118142073099890000e-001) (55, -1.52007673682030050000e-001) (0, 2.13605095257778240000e+000) (1, -1.64456820471829900000e+000) (2, 1.35994052273615470000e-001) (3, -3.55613055017772020000e-001) (4, 4.37967734559464530000e-001) (5, -1.65934875722057140000e-002) (6, 8.52088888814993780000e-001) (7, 4.03736966098390220000e-001) (8, -1.03677729501004110000e+000) (9, 1.58633200309287710000e-001) (10, 3.02699614541807660000e-001) (11, 9.95532026688078220000e-002) (12, -1.44313837231400630000e+000) (13, -2.18336408446290760000e-001) (14, 1.29642870553920680000e-001) (15, 3.05043670450133030000e-001) (16, 7.24631994402186840000e-001) (17, 4.41479202126698280000e-001) (18, -5.46179790966225960000e-002) (19, -1.48951959969605700000e-001) (20, -1.50538958311066670000e-001) (21, 5.81720574976758660000e-001) (22, 6.43063347737005820000e-002) (23, -1.31654816393577720000e+000) (24, -3.57468007267855330000e-001) (25, -9.25336289436235470000e-001) (26, 2.47828651702368010000e+000) (27, 8.70005357782541510000e-001) (28, -4.51961328923899840000e-001) (29, 5.82743687341011560000e-001) (30, 2.50942360213636810000e-001) (31, 1.13415499865233380000e+000) (32, 7.86446712556250470000e+000) (33, 1.31184929557689590000e-001) (34, -1.04156848593025030000e+000) (35, 6.33440058377072960000e-001) (36, -9.14700804508947610000e-002) (37, -2.86299892456327860000e-001) (38, -1.00433659907304570000e+000) (39, 4.31472594023624200000e-001) (40, -9.78940736096570870000e-002) (41, 5.60177445610464670000e-001) (42, -3.18190158190584380000e-002) (43, 9.32495684154072360000e-001) (44, 5.71867000996623910000e-001) (45, 1.29317115506558800000e+000) (46, 7.06635551028515360000e-002) (47, 2.70866093473921770000e-001) (48, 2.51506767707056490000e-001) (49, 1.00452823231436830000e+000) (50, -8.44716744865466610000e-002) (51, 3.00744555660904020000e-001) (52, -1.36881648551534770000e+000) (53, -1.14410303445371060000e+000) (54, 2.85401793194707540000e-001) (55, -2.35295053598153030000e-001) (0, 1.57460115442794240000e+000) (1, -2.57025187391268280000e-001) (2, -1.80455075147545370000e+000) (3, 7.14511759937255690000e-001) (4, 3.60111643759877590000e-001) (5, -2.87419134011692220000e-001) (6, 9.57839843606836270000e-001) (7, -5.35275396407941200000e-001) (8, 7.25615279794405880000e-001) (9, 4.32887437797844500000e-001) (10, -3.17772384662577900000e-001) (11, 5.92550709733030080000e-002) (12, -7.15546650629815040000e-001) (13, 1.26135107779891340000e+000) (14, 3.44953336477979990000e-001) (15, 2.21554236612480170000e-001) (16, 1.02188796926019850000e+000) (17, 4.15840146892625830000e-001) (18, 2.85904537381833910000e-001) (19, -3.23495227732838010000e-001) (20, 6.45624332939874310000e-001) (21, 7.70234453116492410000e-001) (22, -3.28114132748213660000e-001) (23, 3.95815541184254220000e-001) (24, -7.71970547085229720000e-001) (25, -4.63777430102753350000e-001) (26, 9.36004328299657960000e-001) (27, -4.70476019197967830000e-001) (28, 3.48471156009173550000e-001) (29, 1.03741253324902520000e+000) (30, 2.62491643988906680000e-001) (31, -1.12387528174228010000e+000) (32, 1.05272128113041920000e+000) (33, 4.67772807787751320000e-001) (34, -2.17646492866708060000e-001) (35, 1.16453967224754630000e+000) (36, 2.07045600621198670000e-001) (37, 4.30698138262872900000e-001) (38, -3.19416023058391450000e-001) (39, 1.84859197868794400000e-001) (40, -1.04112952063185770000e-001) (41, -1.13164068928225790000e+000) (42, -1.29750210734380030000e-001) (43, 4.18258882632584040000e-001) (44, -2.05804528101782190000e-002) (45, 4.29749232821470100000e-001) (46, -2.56021109955160420000e-001) (47, -3.53971554835176450000e-001) (48, 7.49962884185705480000e-002) (49, 4.21222549920786000000e-001) (50, 5.16399405999723560000e-001) (51, 1.29772512496046710000e-001) (52, 2.01682623302549980000e+000) (53, -2.00148032801685720000e+000) (54, 4.54081721711157070000e-001) (55, -1.00393693605906860000e-001) (0, 8.43821327899048900000e-002) (1, -6.96879447579300430000e-001) (2, -1.01919815392214020000e+000) (3, 1.84853157901962740000e-001) (4, -1.75388745816130230000e-001) (5, 8.58915281543688010000e-001) (6, -4.36397733176527030000e-001) (7, 3.41078663489334690000e-001) (8, 3.62871820863516660000e-001) (9, -4.06567514067858350000e-001) (10, -1.75496464105394320000e-001) (11, 1.68277409502586430000e-001) (12, -8.77064236622099450000e-002) (13, 4.86324462621165240000e-001) (14, 1.48968891273030060000e-001) (15, 3.13975652435004970000e-001) (16, 2.98022426318598540000e-001) (17, 5.32787639413364390000e-002) (18, 3.13309281666046990000e-001) (19, -2.75554438255671270000e-001) (20, -5.90091667900839310000e-002) (21, 6.70098322331983520000e-001) (22, -2.40853124400236500000e+000) (23, -2.24607890079337010000e-001) (24, 1.72585916064792540000e-001) (25, 5.19244187593986380000e-001) (26, 6.06879989253974240000e-001) (27, 7.33087493431583410000e-001) (28, -7.60201501542983330000e-002) (29, 6.06349556825508620000e-001) (30, -1.01367257274125450000e-001) (31, -8.37050297418172750000e-002) (32, 5.90000534025585830000e-001) (33, 1.35733194114015520000e+000) (34, 2.54827136576513960000e-001) (35, 1.98499577384937540000e-001) (36, 1.66656652173033360000e+000) (37, -2.48856731761064820000e-001) (38, -2.51844000335425420000e-001) (39, 4.68739987266612700000e-001) (40, -4.22021228261398040000e-001) (41, -8.27431254422633990000e-001) (42, -1.67136501259522010000e-001) (43, 5.14217465586874980000e-001) (44, -6.96106295347484360000e-001) (45, -5.28095575885495490000e-001) (46, -3.54239650239297490000e-001) (47, 8.30224721617654590000e-001) (48, 1.15792932737728700000e-002) (49, -5.59121430063655330000e-001) (50, 9.04862818356610140000e-002) (51, 1.09924996360409620000e-001) (52, 5.41734325757784570000e-001) (53, 7.21455355216269800000e-001) (54, 4.78028037363121990000e-001) (55, -3.19726465025598820000e-001) (0, -6.94406748367603910000e-002) (1, 2.90592303004544480000e+000) (2, 2.36300310457839920000e-001) (3, -1.03929993432677460000e+000) (4, 5.84522158796559220000e-001) (5, 3.06596941682066030000e-001) (6, -4.75789133110035460000e-001) (7, 9.45593966225715880000e-003) (8, 1.04059881570935180000e+000) (9, 3.18618417954873950000e-003) (10, 9.72165980019556450000e-002) (11, 1.39894234754799340000e+000) (12, 2.87717942132199310000e-001) (13, 9.64850644236129320000e-001) (14, -1.26487277010496070000e+000) (15, 6.31401370548236200000e-001) (16, -3.70874296844223130000e+000) (17, -4.71233964347836790000e-002) (18, 2.29806208737953050000e+000) (19, -4.07079985601085960000e+000) (20, 1.94141769896774010000e+000) (21, 2.82809506431404400000e-001) (22, -2.20275937679371870000e-001) (23, 1.84457683643367670000e-002) (24, 4.37579003773012010000e-001) (25, 3.50116382286213390000e-001) (26, 2.58339761380699750000e-001) (27, -3.50981521336199810000e-001) (28, 7.94323466035618870000e-001) (29, -1.12406220941862390000e+001) (30, 2.79689148388940230000e+000) (31, 1.61231798329473230000e+000) (32, 3.28500481231418710000e-002) (33, -7.55712382636421040000e-001) (34, 9.40463032278260670000e-001) (35, -2.73516976667027510000e-001) (36, 1.44978434371854090000e+000) (37, 6.13260288677357280000e-002) (38, -9.44592768756273670000e+000) (39, 3.80333132244109920000e-001) (40, 4.89220155040908540000e-001) (41, 5.88917725491057360000e-001) (42, 1.78340581219856880000e+000) (43, -4.60300176363400980000e-001) (44, 2.04295508670856970000e+000) (45, -9.64394068686089790000e-001) (46, 6.39269736307555680000e-001) (47, 4.08585811254459920000e-001) (48, 1.39812955506126290000e+000) (49, 4.41651569620208480000e+000) (50, -2.57038558464129260000e+000) (51, 6.12193705389122830000e+000) (52, 1.10409859926986550000e+000) (53, 1.44545172733360390000e+001) (54, 2.74834215302425380000e+000) (55, -7.75279778410808750000e-001) (56, 7.26900888943039280000e-001) (57, -2.84402778280594640000e+000) (58, 3.14732353749871350000e-001) (59, 1.34013818936751130000e+000) (60, 1.01903642182008160000e+000) (61, -4.06070200550715100000e-002) (62, 1.79245413250987720000e-001) (63, -3.39633754582615930000e+000) (64, 2.29613004871011080000e+000) (65, -1.40500333370518740000e+001) (66, 1.51020085504695890000e-001) (67, 2.04666991372221360000e+001) (68, 3.15205479689455800000e+000) (69, 1.16549480478105090000e+000) (70, 2.79366167632602140000e-001) (71, 5.53562710338158630000e-001) (72, -8.09751496363543820000e-001) (73, 2.38780382038449130000e+000) (74, 3.15321521388431060000e-001) (75, 1.60198172604032640000e+000) (0, -1.84504137176970920000e+000) (1, 5.26985180322581130000e-001) (2, -2.39396312402740840000e-001) (3, 8.96960319983590940000e-001) (4, 5.90025786932248500000e-001) (5, 3.21237199250429370000e-001) (6, 1.17770800963129070000e-001) (7, -5.55252747860957800000e-001) (8, 3.76419325031501110000e-001) (9, -2.78320249325293700000e-001) (10, 4.49455896657781960000e-001) (11, -9.20991733324955540000e-001) (12, -2.59639447268391220000e-001) (13, -8.42579771541708540000e-003) (14, 1.11053603075579010000e+000) (15, 1.00336162925153930000e-001) (16, -3.56283889076925430000e-001) (17, -1.44629530686693260000e-001) (18, 5.63634680133425770000e-001) (19, 1.14961872477282510000e+000) (20, -2.99534115706511410000e+000) (21, -1.72993031950272660000e-001) (22, 1.20652916132967090000e-001) (23, 9.31438818308359810000e-002) (24, 9.84311971085793820000e-001) (25, 1.63950731594714430000e-001) (26, 7.86839269458879800000e-002) (27, -2.61946983729855680000e-002) (28, 2.06514514439874010000e-001) (29, -1.93089511823179040000e+000) (30, 1.17060125640513850000e+000) (31, -1.60077601071297680000e-001) (32, -2.96470645963631650000e-001) (33, 7.48206344418561150000e-001) (34, -3.80076611353095450000e-001) (35, -2.98367547521581120000e-001) (36, 1.33973101025939840000e-001) (37, -6.31057691340075720000e-001) (38, -8.05337534229276560000e-001) (39, -6.42888278721471810000e-001) (40, 8.34576524002914740000e-002) (41, -3.31064538764647480000e-001) (42, -3.48125184534375960000e-001) (43, 2.44416395788819420000e+000) (44, -7.15595955972367500000e-002) (45, -1.13090140360875640000e-002) (46, -4.88693938688842810000e-001) (47, 7.84900989597336340000e-001) (48, 1.08542167837902010000e-001) (49, 3.43435629098768680000e-001) (50, 9.02107779672725460000e-002) (51, -5.96210918591515760000e-001) (52, 3.33230943299779760000e-001) (53, 4.83077281536682060000e-001) (54, 4.68994793452760920000e+000) (55, -1.15643051351903520000e-001) (56, 8.95015776715477500000e-001) (57, 1.05609050197380430000e+000) (58, 2.78754048227418620000e-001) (59, 2.07346105383303000000e+000) (60, -1.58992750108022470000e+000) (61, 1.20884136554013890000e-001) (62, -1.80901411073832260000e-001) (63, -7.70029343176736440000e+000) (64, -2.21440893782904490000e-001) (65, -2.22398685400811670000e-001) (66, -1.39932554375040620000e-001) (67, -6.64429663186736070000e-002) (68, 2.39265596228634640000e-001) (69, -4.28364552968741650000e-001) (70, -3.72213201033305300000e-001) (71, 1.62239996681686490000e+000) (72, 8.79400412060627020000e-001) (73, -2.40025866190019450000e-001) (74, 4.30473205695172780000e-001) (75, -1.54592824789089090000e-002) (0, -8.79803704715247160000e-001) (1, 2.73734134792248670000e-001) (2, 3.65059551594784540000e+000) (3, 4.41902889171923440000e-001) (4, 5.99507345200190670000e-001) (5, -3.15660861620896500000e+000) (6, 3.18067621814385360000e-001) (7, 5.45345925554521440000e-001) (8, 3.77522135300468960000e-001) (9, 2.73173633420731920000e-001) (10, -6.77293889225368260000e-002) (11, 3.58715792601944690000e-001) (12, -2.82191774982906010000e-002) (13, 1.49350186747104240000e-001) (14, -5.57572496195642090000e-001) (15, 5.56487441146807700000e-001) (16, 1.24617134940921770000e+000) (17, 8.34036540339565870000e-001) (18, -1.45286033631466470000e-001) (19, 3.89261957886916800000e+000) (20, 7.05466168193822020000e-001) (21, 5.61048804118175260000e-001) (22, 1.35099064639983810000e-001) (23, -6.42027680194100720000e-001) (24, 2.88980729381569310000e-002) (25, 6.02751369351638420000e-001) (26, 1.05559146952774020000e+000) (27, 3.35544808021106260000e-001) (28, 1.95760072582427290000e+000) (29, -1.17533176685961970000e+000) (30, 7.37720200380407420000e-001) (31, 1.11664825397345260000e+000) (32, 2.64922153237003500000e+000) (33, 6.99579564509766350000e+000) (34, 4.71259345180452320000e-001) (35, 2.17713823621428490000e-001) (36, 1.55018495790789160000e-001) (37, 2.39716721515407680000e-001) (38, -7.34128024665332650000e+000) (39, 3.15083327905977590000e-001) (40, 4.21256072051584610000e-001) (41, 1.15033182784917900000e+000) (42, 7.26968795443002520000e-001) (43, 5.04732696011899140000e+000) (44, 1.06099330134819450000e+000) (45, 1.16497480541434470000e+000) (46, 6.82491478961386290000e-001) (47, -1.49599871924280440000e+000) (48, 4.83724893127481310000e-002) (49, 2.32964017512828650000e+000) (50, 6.90423350121657280000e+000) (51, 9.09036524337388240000e-001) (52, 2.19494929723925010000e-001) (53, 1.50752905736993130000e+001) (54, 2.55648819160997960000e-001) (55, 1.40808508871110180000e+000) (56, 1.99973521753432140000e-001) (57, 2.29020591911048370000e-001) (58, 8.47339015573364110000e-001) (59, -6.75833362928795810000e-001) (60, 1.30061415351341060000e+000) (61, 3.37316132403753020000e-001) (62, 5.03591027032919250000e-001) (63, 6.92414969314940800000e+000) (64, 1.26401896856795700000e-001) (65, -8.31769035421145860000e-002) (66, 1.14721411322545120000e+000) (67, -3.31439588253965300000e-001) (68, 6.27528228936224170000e-001) (69, -1.95648211023468460000e-002) (70, -2.37841379401299710000e-001) (71, 2.43866066583936500000e+000) (72, -5.16911944504169710000e+000) (73, 1.38946974739386800000e+000) (74, 5.74234289195061480000e-001) (75, 3.82314465773656240000e-001) (0, 1.78938806361765690000e+001) (1, 5.05928281957630690000e+000) (2, 2.95192457191358090000e+000) (3, 2.18946181904732380000e+000) (4, 4.27020891565241980000e-001) (5, -2.95698294002838980000e+000) (6, 1.22150929807910020000e-001) (7, -5.00249463373772230000e+000) (8, -6.33599660034776750000e-001) (9, 8.86777361002701100000e-001) (10, 6.56924183110219940000e-001) (11, 2.19725569384013910000e-001) (12, 4.61664612518267240000e-001) (13, -8.31176628735688870000e-001) (14, 2.36027469197537860000e-001) (15, 6.51440211541197820000e+000) (16, -7.97072417029975330000e-001) (17, 1.82603029671202570000e-001) (18, 1.95267947040655070000e+000) (19, -2.53428552561643180000e+000) (20, -1.06216482990314290000e-001) (21, 2.32960017730320070000e-001) (22, -2.80537682085918890000e-001) (23, -1.75900818367537100000e-001) (24, 5.17275561467573920000e-001) (25, 3.53288663888410400000e-001) (26, -5.93767194081928730000e+000) (27, 5.43917568507626740000e-001) (28, -3.23934672178736450000e-001) (29, 1.42590736318524090000e+001) (30, 1.81250443046267500000e+000) (31, -1.21929364957986670000e+001) (32, 1.82921049495276300000e+000) (33, -7.92586370347526880000e-001) (34, 3.72142893854391590000e-001) (35, 2.90713080761206570000e+000) (36, 5.78514452172736690000e+000) (37, 1.90341894038502860000e+000) (38, -5.25280094456739380000e+000) (39, -6.43641964466145120000e+000) (40, 1.21012523601962290000e+000) (41, -2.29551362345861570000e-001) (42, 7.24190429216525460000e+000) (43, 3.28829141132672740000e+000) (44, 1.87599449089974220000e-001) (45, -6.70583195387527420000e-002) (46, 5.87702262366202490000e-001) (47, -1.77145816741281910000e-001) (48, 1.08174489908264330000e+000) (49, 3.25206982415669530000e-001) (50, -3.99803766964439190000e+001) (51, 3.52396504133489860000e+000) (52, 5.83763129962501130000e-001) (53, 2.94511946818047310000e+000) (54, -1.90406796241800080000e+000) (55, -3.06257397408687160000e+000) (56, 5.55915041410068760000e-001) (57, 1.56671004973652380000e+000) (58, -5.42600878297922360000e-001) (59, -8.08411927559418150000e-002) (60, -5.24004936055152970000e-001) (61, 2.74125971013668180000e+000) (62, -1.88563434204588740000e-001) (63, 2.13679589972724890000e+000) (64, -7.13727563634007020000e+000) (65, -3.63411144888104290000e+000) (66, -1.09564577403228030000e-001) (67, 3.02815738859039870000e+000) (68, -4.86416251796798080000e+000) (69, 2.07597641242876500000e-001) (70, 1.54994829670310420000e-002) (71, 2.71094460309115880000e-001) (72, -4.92044478225842050000e+000) (73, 1.64634428802478940000e+000) (74, 7.92092124632595010000e-002) (75, 4.16930619997851260000e+000) (0, 1.80951015141958390000e+000) (1, -7.84810480299458210000e-001) (2, -7.31396861970303740000e-001) (3, 7.08247938313049330000e-001) (4, 2.44194798209772550000e-001) (5, 4.27481128110730820000e-002) (6, -8.14417936576061430000e-001) (7, -2.86886134106114190000e-001) (8, 2.56720235521717910000e-001) (9, 3.35404859688025640000e-001) (10, 4.69862075201710140000e-001) (11, -2.83562326248954670000e-002) (12, 4.26283508566458080000e-001) (13, 6.90541826395853490000e-001) (14, 4.44730574848339830000e-001) (15, -6.39247525570878490000e-002) (16, 6.59539233138332630000e-001) (17, -5.16188343600946010000e-001) (18, 2.92581382931128510000e-001) (19, -2.23988217269476370000e-002) (20, 6.05941700379094450000e-001) (21, 7.69378476936844250000e-001) (22, -4.72157394453837140000e-001) (23, -9.29882472952458380000e-002) (24, -4.02710266793772590000e-001) (25, -5.54741473593286100000e-002) (26, 8.79240596720993530000e-001) (27, -1.04844460715337690000e-001) (28, 4.84856338390184550000e-001) (29, 1.72629988057579680000e+000) (30, -2.53984320894659890000e-001) (31, 9.08572797530008520000e-001) (32, 9.31241507261677870000e-001) (33, 8.48876487011928750000e-001) (34, -5.58323793147832430000e-002) (35, 1.07528236045744200000e+000) (36, 9.42677686565363100000e-001) (37, 1.09980403158973280000e-001) (38, -3.66969201764471500000e+000) (39, 1.06234168944404690000e+000) (40, -2.23241791924184210000e-004) (41, -5.07845976515019640000e-002) (42, 2.60741877032161280000e-001) (43, 9.54254159909342920000e-001) (44, -8.96917425374420260000e-002) (45, 9.22164292866025640000e-001) (46, 8.47031201582109230000e-002) (47, -2.73252468799635330000e-001) (48, -8.53688711302500240000e-001) (49, 4.60505379462425310000e-001) (50, 1.99213171958428140000e+000) (51, 3.43261310627444970000e-001) (52, 2.60105109228900230000e-001) (53, -4.63936221083943110000e-001) (54, 1.83486013784841220000e-001) (55, -6.55917340085271800000e-001) (56, 4.56192635613950070000e-001) (57, -4.28438387454654350000e-001) (58, -1.09547802412293590000e-001) (59, 1.83501782415833150000e+000) (60, 4.93539125316855450000e-001) (61, 4.64399179863480840000e-001) (62, 2.25332597688150480000e+000) (63, 1.50116221961000180000e+000) (64, 8.65138843649257970000e-001) (65, 6.84703575577868210000e-001) (66, 6.45204226318411900000e-001) (67, 2.53909197700483040000e+000) (68, 1.04003256547303600000e+000) (69, 3.53543261273640890000e-001) (70, 9.85034693110969920000e-002) (71, 1.93609375401481980000e+000) (72, -4.20696049217189840000e-001) (73, 1.33654538425001190000e+000) (74, 4.53502389722942930000e-001) (75, 2.39033670208284740000e+000) (0, -2.74993791519258510000e-002) (1, 5.02773909457276960000e-001) (2, 1.67412064486708060000e-001) (3, 2.36008565887943500000e-001) (4, 1.91420632763350140000e-001) (5, 4.65902083940344490000e-001) (6, 9.76108104530249430000e-001) (7, 6.38927949004609700000e-001) (8, 6.80519593113688010000e-002) (9, -1.71959720934159650000e+000) (10, 3.22622908441184350000e-001) (11, 6.80643511583261860000e-001) (12, 3.32326954936225270000e-001) (13, 4.12562045370505450000e-001) (14, 1.03281088381663740000e+000) (15, 4.57023707119284920000e-001) (16, 1.86054182961071680000e-001) (17, -1.28418424328764990000e-001) (18, 1.35625870167962990000e-001) (19, -2.85889777179860350000e+000) (20, 3.05366339721716840000e-001) (21, -9.98490664380519480000e-001) (22, 5.83627981984771620000e-001) (23, -4.54918033396853500000e-003) (24, 9.36566955252735310000e-002) (25, 1.29587426569335250000e-001) (26, -6.50260107416819060000e-002) (27, 4.66400030893317050000e-001) (28, 1.31812291641568660000e-001) (29, 3.02283763382758360000e-001) (30, 2.01777394320433760000e-001) (31, -2.01878677253374860000e-001) (32, -3.23358849583627210000e-001) (33, 5.98186590774097190000e-001) (34, -5.00809655458546830000e-001) (35, -1.12124935861458300000e-001) (36, 7.48741170577441270000e-001) (37, -4.27933037325105070000e-001) (38, -8.71897906340111940000e-002) (39, 1.99376039383842270000e-001) (40, 5.79138340184453870000e-001) (41, -1.46218381609461270000e-001) (42, -2.61890462193661850000e-001) (43, 6.58429960128019350000e-001) (44, -2.49994775919937460000e-001) (45, 1.25471071718418910000e+000) (46, 3.83303264346191720000e-001) (47, 6.13262460044485050000e-002) (48, 2.67651064650510810000e-001) (49, -1.65559607065738880000e-002) (50, 1.27892467449352070000e-001) (51, 8.19532248685826190000e-001) (52, -5.21449541964933430000e-001) (53, 7.99109885950229250000e-001) (54, 2.18184604201038000000e-001) (55, -1.04617046372950440000e-002) (56, 6.48297384290431600000e-001) (57, -8.16708008397581120000e-002) (58, 5.83255725879977610000e-002) (59, 9.38244745132543520000e-001) (60, 4.44904946953711910000e-001) (61, 5.82407703841423490000e-001) (62, -6.55638124430143470000e-001) (63, 7.87873369563001140000e-001) (64, 1.73558403942403540000e-001) (65, -2.02151239973472930000e+000) (66, -7.90223007101591570000e-002) (67, 4.04533073538746630000e+000) (68, 3.67851077046706100000e+000) (69, -3.81129588815100890000e-002) (70, 6.00420893757932990000e-002) (71, 1.19461654900177550000e+000) (72, 2.17040122303165880000e-001) (73, 2.27208885696352870000e+000) (74, -7.07474136561579760000e-001) (75, 1.54084562372123330000e+000) (0, 4.07425546344679230000e-002) (1, 4.46255773786039760000e-001) (2, -1.24994322442910200000e+000) (3, 3.32458126136568330000e-001) (4, -1.12329557450928440000e-001) (5, 6.79685197034126330000e-001) (6, -1.40758633302967610000e+000) (7, -1.10299285003590460000e-001) (8, 2.69732061184544620000e-001) (9, -1.19040893816330180000e-002) (10, 1.21091579723977850000e-001) (11, 3.95990480735216420000e-001) (12, 5.78066240790110830000e-002) (13, 8.25770283985711170000e-001) (14, 8.37651992347271950000e-002) (15, 2.67136625295675860000e+000) (16, 1.93130529124461270000e-001) (17, 4.98838354347905240000e-002) (18, 2.39026369734863960000e-001) (19, -7.23864955218840530000e-001) (20, 8.56898870188243510000e-001) (21, 1.68560030350478560000e-001) (22, 4.01129952595840720000e-001) (23, 6.87029218799602330000e-001) (24, -9.52845927380524020000e-003) (25, 6.89591004507868590000e-001) (26, 3.20764192673191780000e-001) (27, -1.75592476808072860000e-001) (28, 7.98034999644554930000e-001) (29, 1.30830867711125980000e+000) (30, 6.35105767411400350000e-001) (31, 8.16117423226473180000e-001) (32, 5.53623052310363020000e-001) (33, 5.23420248629546390000e-001) (34, 3.69539307055286040000e-001) (35, 2.79040411564080600000e-001) (36, 1.64342589176374320000e-001) (37, 2.45437960590578790000e-001) (38, -9.28852264974518670000e-001) (39, 1.42544969119268810000e-001) (40, 2.39327451720945380000e-001) (41, 3.32182734859817030000e-001) (42, 5.26559070550009940000e-001) (43, 6.49630530473990330000e-001) (44, -2.80804269048972180000e+000) (45, 1.04498667348328770000e-001) (46, 1.25880368061832640000e-001) (47, -5.40996579256130320000e-001) (48, 5.56108195970186830000e-002) (49, -3.76770770039792560000e+000) (50, 8.44156248985505680000e-001) (51, 3.93453676504522340000e-001) (52, 1.09075245329333480000e+000) (53, 1.29651561884932140000e+000) (54, 8.51810809561766690000e-001) (55, -2.61262475294867790000e+000) (56, 2.40921969277558320000e-001) (57, 7.98110431417217890000e-003) (58, -9.95804001280488770000e-002) (59, -4.07858292136260240000e-001) (60, 1.80717479293854370000e-001) (61, -2.21058414779574000000e-001) (62, 8.84079795116968880000e-001) (63, 9.54446864083088880000e-001) (64, 1.01158291187024440000e+000) (65, 1.85567180302310230000e+000) (66, -4.75077318566542010000e-001) (67, -2.36836762969849210000e+000) (68, 2.53231096627629380000e+001) (69, 1.94171367981169930000e-001) (70, -6.95862661252552520000e+000) (71, 1.43698864554638820000e-001) (72, -3.45202580687117340000e-001) (73, -9.29454542462563430000e-001) (74, -5.95643130711780460000e-005) (75, 1.11336540598731350000e+000) (0, 1.46072326142893020000e+001) (1, 1.32213270306543860000e+000) (2, 2.89212119724055940000e+000) (3, -4.01661415875520870000e+000) (4, 2.01363227057747010000e+000) (5, -1.25056858406839950000e+000) (6, 